{"learner":{"attributes":{"scikit_learn":"{\"_estimator_type\": \"classifier\"}"},"feature_names":["rating_count","days_active","rating_frequency","tag_count","unique_tags","avg_tag_length","tag_frequency","last_tag","rating_mean","rating_std","has_extended"],"feature_types":["float","float","float","float","float","float","float","float","float","float","float"],"gradient_booster":{"model":{"gbtree_model_param":{"num_parallel_tree":"1","num_trees":"846"},"iteration_indptr":[0,1,2,3,4,5,6,7,8,9,10,11,12,13,14,15,16,17,18,19,20,21,22,23,24,25,26,27,28,29,30,31,32,33,34,35,36,37,38,39,40,41,42,43,44,45,46,47,48,49,50,51,52,53,54,55,56,57,58,59,60,61,62,63,64,65,66,67,68,69,70,71,72,73,74,75,76,77,78,79,80,81,82,83,84,85,86,87,88,89,90,91,92,93,94,95,96,97,98,99,100,101,102,103,104,105,106,107,108,109,110,111,112,113,114,115,116,117,118,119,120,121,122,123,124,125,126,127,128,129,130,131,132,133,134,135,136,137,138,139,140,141,142,143,144,145,146,147,148,149,150,151,152,153,154,155,156,157,158,159,160,161,162,163,164,165,166,167,168,169,170,171,172,173,174,175,176,177,178,179,180,181,182,183,184,185,186,187,188,189,190,191,192,193,194,195,196,197,198,199,200,201,202,203,204,205,206,207,208,209,210,211,212,213,214,215,216,217,218,219,220,221,222,223,224,225,226,227,228,229,230,231,232,233,234,235,236,237,238,239,240,241,242,243,244,245,246,247,248,249,250,251,252,253,254,255,256,257,258,259,260,261,262,263,264,265,266,267,268,269,270,271,272,273,274,275,276,277,278,279,280,281,282,283,284,285,286,287,288,289,290,291,292,293,294,295,296,297,298,299,300,301,302,303,304,305,306,307,308,309,310,311,312,313,314,315,316,317,318,319,320,321,322,323,324,325,326,327,328,329,330,331,332,333,334,335,336,337,338,339,340,341,342,343,344,345,346,347,348,349,350,351,352,353,354,355,356,357,358,359,360,361,362,363,364,365,366,367,368,369,370,371,372,373,374,375,376,377,378,379,380,381,382,383,384,385,386,387,388,389,390,391,392,393,394,395,396,397,398,399,400,401,402,403,404,405,406,407,408,409,410,411,412,413,414,415,416,417,418,419,420,421,422,423,424,425,426,427,428,429,430,431,432,433,434,435,436,437,438,439,440,441,442,443,444,445,446,447,448,449,450,451,452,453,454,455,456,457,458,459,460,461,462,463,464,465,466,467,468,469,470,471,472,473,474,475,476,477,478,479,480,481,482,483,484,485,486,487,488,489,490,491,492,493,494,495,496,497,498,499,500,501,502,503,504,505,506,507,508,509,510,511,512,513,514,515,516,517,518,519,520,521,522,523,524,525,526,527,528,529,530,531,532,533,534,535,536,537,538,539,540,541,542,543,544,545,546,547,548,549,550,551,552,553,554,555,556,557,558,559,560,561,562,563,564,565,566,567,568,569,570,571,572,573,574,575,576,577,578,579,580,581,582,583,584,585,586,587,588,589,590,591,592,593,594,595,596,597,598,599,600,601,602,603,604,605,606,607,608,609,610,611,612,613,614,615,616,617,618,619,620,621,622,623,624,625,626,627,628,629,630,631,632,633,634,635,636,637,638,639,640,641,642,643,644,645,646,647,648,649,650,651,652,653,654,655,656,657,658,659,660,661,662,663,664,665,666,667,668,669,670,671,672,673,674,675,676,677,678,679,680,681,682,683,684,685,686,687,688,689,690,691,692,693,694,695,696,697,698,699,700,701,702,703,704,705,706,707,708,709,710,711,712,713,714,715,716,717,718,719,720,721,722,723,724,725,726,727,728,729,730,731,732,733,734,735,736,737,738,739,740,741,742,743,744,745,746,747,748,749,750,751,752,753,754,755,756,757,758,759,760,761,762,763,764,765,766,767,768,769,770,771,772,773,774,775,776,777,778,779,780,781,782,783,784,785,786,787,788,789,790,791,792,793,794,795,796,797,798,799,800,801,802,803,804,805,806,807,808,809,810,811,812,813,814,815,816,817,818,819,820,821,822,823,824,825,826,827,828,829,830,831,832,833,834,835,836,837,838,839,840,841,842,843,844,845,846],"tree_info":[0,0,0,0,0,0,0,0,0,0,0,0,0,0,0,0,0,0,0,0,0,0,0,0,0,0,0,0,0,0,0,0,0,0,0,0,0,0,0,0,0,0,0,0,0,0,0,0,0,0,0,0,0,0,0,0,0,0,0,0,0,0,0,0,0,0,0,0,0,0,0,0,0,0,0,0,0,0,0,0,0,0,0,0,0,0,0,0,0,0,0,0,0,0,0,0,0,0,0,0,0,0,0,0,0,0,0,0,0,0,0,0,0,0,0,0,0,0,0,0,0,0,0,0,0,0,0,0,0,0,0,0,0,0,0,0,0,0,0,0,0,0,0,0,0,0,0,0,0,0,0,0,0,0,0,0,0,0,0,0,0,0,0,0,0,0,0,0,0,0,0,0,0,0,0,0,0,0,0,0,0,0,0,0,0,0,0,0,0,0,0,0,0,0,0,0,0,0,0,0,0,0,0,0,0,0,0,0,0,0,0,0,0,0,0,0,0,0,0,0,0,0,0,0,0,0,0,0,0,0,0,0,0,0,0,0,0,0,0,0,0,0,0,0,0,0,0,0,0,0,0,0,0,0,0,0,0,0,0,0,0,0,0,0,0,0,0,0,0,0,0,0,0,0,0,0,0,0,0,0,0,0,0,0,0,0,0,0,0,0,0,0,0,0,0,0,0,0,0,0,0,0,0,0,0,0,0,0,0,0,0,0,0,0,0,0,0,0,0,0,0,0,0,0,0,0,0,0,0,0,0,0,0,0,0,0,0,0,0,0,0,0,0,0,0,0,0,0,0,0,0,0,0,0,0,0,0,0,0,0,0,0,0,0,0,0,0,0,0,0,0,0,0,0,0,0,0,0,0,0,0,0,0,0,0,0,0,0,0,0,0,0,0,0,0,0,0,0,0,0,0,0,0,0,0,0,0,0,0,0,0,0,0,0,0,0,0,0,0,0,0,0,0,0,0,0,0,0,0,0,0,0,0,0,0,0,0,0,0,0,0,0,0,0,0,0,0,0,0,0,0,0,0,0,0,0,0,0,0,0,0,0,0,0,0,0,0,0,0,0,0,0,0,0,0,0,0,0,0,0,0,0,0,0,0,0,0,0,0,0,0,0,0,0,0,0,0,0,0,0,0,0,0,0,0,0,0,0,0,0,0,0,0,0,0,0,0,0,0,0,0,0,0,0,0,0,0,0,0,0,0,0,0,0,0,0,0,0,0,0,0,0,0,0,0,0,0,0,0,0,0,0,0,0,0,0,0,0,0,0,0,0,0,0,0,0,0,0,0,0,0,0,0,0,0,0,0,0,0,0,0,0,0,0,0,0,0,0,0,0,0,0,0,0,0,0,0,0,0,0,0,0,0,0,0,0,0,0,0,0,0,0,0,0,0,0,0,0,0,0,0,0,0,0,0,0,0,0,0,0,0,0,0,0,0,0,0,0,0,0,0,0,0,0,0,0,0,0,0,0,0,0,0,0,0,0,0,0,0,0,0,0,0,0,0,0,0,0,0,0,0,0,0,0,0,0,0,0,0,0,0,0,0,0,0,0,0,0,0,0,0,0,0,0,0,0,0,0,0,0,0,0,0,0,0,0,0,0,0,0,0,0,0,0,0,0,0,0,0,0,0,0,0,0,0,0,0,0,0,0,0,0,0,0,0,0,0,0,0,0,0,0,0,0,0,0,0,0,0,0,0,0,0,0,0,0,0,0,0,0,0,0,0,0,0,0,0,0,0,0,0,0,0,0,0,0,0,0,0,0,0,0,0,0,0,0,0,0,0,0,0,0,0,0,0,0,0,0,0,0,0,0,0,0,0,0,0,0,0,0,0,0,0,0,0,0,0,0,0,0,0,0,0,0,0,0,0,0,0,0,0,0,0,0,0,0,0,0,0,0,0,0,0,0,0,0],"trees":[{"base_weights":[-3.9712182E-1,2.8746574E0,-6.4608544E-1,3.1379356E0,-5.7165045E-1,6.361802E-1,-7.92615E-1,3.9711642E0,2.525486E0,-3.0364713E-3,5.435751E-1,1.6590895E-1,8.1011724E-1,-6.047145E-1,-3.8630476E-3,1.9707864E-3,1.3997083E-2,-7.979175E-2,2.5749283E0,2.956814E-3,-0E0,2.2692606E-3,1.0033973E-1,9.023684E-1,3.432027E-1,-6.420926E-1,-2.5266212E-1,7.707881E-4,-1.2566721E-3,3.2489889E0,2.2091234E0,-2.2885546E-3,2.4688458E-1,6.7485565E-1,1.0015842E0,-1.846795E-4,4.1791937E-1,-2.1738864E-1,-2.2496611E-3,-8.600572E-2,-3.1893256E-1,1.9707864E-3,1.1552403E-2,8.562692E-3,3.8982318E-3,1.5659737E-3,3.232653E-4,2.6636466E-3,-7.6233584E-4,6.6685253E-3,3.0833394E-3,1.6775976E-3,2.2958119E-4,-1.7683103E-3,2.2958119E-4,-7.2333484E-4,7.819295E-4,-1.3253265E-3,-5.441509E-4],"categories":[],"categories_nodes":[],"categories_segments":[],"categories_sizes":[],"default_left":[0,1,0,0,0,0,1,0,0,0,0,0,0,1,0,0,0,0,0,0,0,0,0,0,0,0,0,0,0,0,0,0,0,0,0,0,0,0,0,0,0,0,0,0,0,0,0,0,0,0,0,0,0,0,0,0,0,0,0],"id":0,"left_children":[1,3,5,7,9,11,13,15,17,-1,19,21,23,25,-1,-1,-1,27,29,-1,-1,-1,31,33,35,37,39,-1,-1,41,43,-1,45,47,49,-1,51,53,-1,55,57,-1,-1,-1,-1,-1,-1,-1,-1,-1,-1,-1,-1,-1,-1,-1,-1,-1,-1],"loss_changes":[8.539837E3,6.890742E2,1.8331494E3,2.6695654E2,2.3759493E1,8.017334E1,5.100122E2,1.6873535E1,5.7663574E1,0E0,2.9543567E0,7.8699803E0,2.7960693E1,7.028845E1,0E0,0E0,0E0,2.0348456E0,4.020703E1,0E0,0E0,0E0,2.9709059E1,6.9145203E0,4.4294252E0,3.9127197E0,5.465824E0,0E0,0E0,3.3737793E0,5.3891968E1,0E0,6.229644E0,1.8339157E1,2.728125E1,0E0,1.898941E0,4.2971125E0,0E0,6.6975365E0,2.9154816E0,0E0,0E0,0E0,0E0,0E0,0E0,0E0,0E0,0E0,0E0,0E0,0E0,0E0,0E0,0E0,0E0,0E0,0E0],"parents":[2147483647,0,0,1,1,2,2,3,3,4,4,5,5,6,6,7,7,8,8,10,10,11,11,12,12,13,13,17,17,18,18,22,22,23,23,24,24,25,25,26,26,29,29,30,30,32,32,33,33,34,34,36,36,37,37,39,39,40,40],"right_children":[2,4,6,8,10,12,14,16,18,-1,20,22,24,26,-1,-1,-1,28,30,-1,-1,-1,32,34,36,38,40,-1,-1,42,44,-1,46,48,50,-1,52,54,-1,56,58,-1,-1,-1,-1,-1,-1,-1,-1,-1,-1,-1,-1,-1,-1,-1,-1,-1,-1],"split_conditions":[1.1706436E2,2E1,1.4427742E0,1E0,9E0,2.5985548E-1,2E1,1.7158669E-1,1.4030118E-1,-3.0364713E-3,3.4E1,4.9154237E-2,1.0277447E0,1.9704113E0,-3.8630476E-3,1.9707864E-3,1.3997083E-2,7.1615386E0,1.0827854E0,2.956814E-3,-0E0,2.2692606E-3,9.2878796E-2,4.3617013E-1,1.0827854E0,1.6422523E0,3.5486732E0,7.707881E-4,-1.2566721E-3,6E0,1.30625E1,-2.2885546E-3,1.5536362E-1,4.159487E-1,4.5883283E-1,-1.846795E-4,1.3621219E0,1.5415287E0,-2.2496611E-3,3.0206559E0,1.17122E1,1.9707864E-3,1.1552403E-2,8.562692E-3,3.8982318E-3,1.5659737E-3,3.232653E-4,2.6636466E-3,-7.6233584E-4,6.6685253E-3,3.0833394E-3,1.6775976E-3,2.2958119E-4,-1.7683103E-3,2.2958119E-4,-7.2333484E-4,7.819295E-4,-1.3253265E-3,-5.441509E-4],"split_indices":[6,2,2,6,4,2,2,2,2,0,2,2,2,2,0,0,0,5,2,0,0,0,2,2,2,2,2,0,0,5,5,0,2,2,2,0,2,2,0,2,2,0,0,0,0,0,0,0,0,0,0,0,0,0,0,0,0,0,0],"split_type":[0,0,0,0,0,0,0,0,0,0,0,0,0,0,0,0,0,0,0,0,0,0,0,0,0,0,0,0,0,0,0,0,0,0,0,0,0,0,0,0,0,0,0,0,0,0,0,0,0,0,0,0,0,0,0,0,0,0,0],"sum_hessian":[1.0459793E4,7.334525E2,9.72634E3,6.8226575E2,5.1186813E1,9.9420966E2,8.732131E3,2.698822E2,4.1238354E2,4.2292206E1,8.894609E0,2.7382843E2,7.203812E2,5.4830776E3,3.2490527E3,4.807495E0,2.650747E2,7.3074665E0,4.0507608E2,3.0509393E0,5.84367E0,2.275461E1,2.5107384E2,5.9395044E2,1.264308E2,4.948912E3,5.341654E2,3.0624561E0,4.2450104E0,1.195376E2,2.8553848E2,3.5400845E1,2.1567299E2,2.0165175E2,3.9229865E2,1.8848427E1,1.07582375E2,3.7122852E1,4.9117896E3,1.6042543E2,3.7374E2,4.807495E0,1.147301E2,2.2445877E2,6.107971E1,8.465835E1,1.3101463E2,1.8528026E2,1.6371489E1,3.0262701E1,3.6203595E2,8.698891E1,2.0593466E1,1.6529385E1,2.0593466E1,1.1895726E2,4.1468174E1,2.6093066E2,1.1280931E2],"tree_param":{"num_deleted":"0","num_feature":"11","num_nodes":"59","size_leaf_vector":"1"}},{"base_weights":[-4.118693E-1,2.8488135E0,-6.6040707E-1,-5.7335794E-1,3.111162E0,-8.134419E-1,1.0821838E0,-6.612895E-1,7.676274E-4,3.2483554E0,-2.927344E-1,2.3474498E-3,-9.4264454E-1,8.3730936E-1,3.3878605E0,-3.2619478E-3,-6.1146077E-2,3.904274E0,2.7310789E0,-2.6237327E-3,3.304613E-1,4.9337432E-1,-2.9443675E-1,-1.1186659E0,-8.132943E-1,5.2591497E-1,1.5229424E0,1.8424041E-3,1.2966415E-2,1.4814552E-3,-2.0802305E-3,2.3189508E-3,1.3873844E-2,5.680551E-2,2.7963326E0,2.8149593E-3,-1.3245568E-3,6.7527884E-1,-4.1501725E-1,-6.6087586E-1,-6.648171E-2,-1.132431E0,-1.229178E-1,-1.0792665E0,-6.567955E-1,3.363832E-1,5.502943E-3,-0E0,6.5147206E-3,-1.3256662E-3,1.7004967E-3,4.4616256E-3,1.0118043E-2,7.328139E-4,3.873398E-3,-2.4021505E-3,6.6397927E-4,3.8198906E-3,-2.59119E-3,1.6976674E-3,-5.1246706E-4,-4.0069916E-3,-2.76336E-3,-1.3984286E-3,1.1824989E-3,1.2381883E-4,-3.8188063E-3,-2.3500968E-3,-1.2791884E-3,-8.3617524E-5,2.8279065E-3,1.6782229E-3,-1.9599171E-3],"categories":[],"categories_nodes":[],"categories_segments":[],"categories_sizes":[],"default_left":[0,0,1,0,1,0,0,0,0,0,0,0,0,0,0,0,1,0,0,0,0,1,0,1,0,1,0,0,0,0,0,0,0,1,0,0,0,0,0,0,0,1,0,0,1,0,0,0,0,0,0,0,0,0,0,0,0,0,0,0,0,0,0,0,0,0,0,0,0,0,0,0,0],"id":1,"left_children":[1,3,5,7,9,11,13,15,-1,17,19,21,23,25,27,-1,29,31,33,-1,35,37,39,41,43,45,47,-1,-1,-1,-1,-1,-1,49,51,-1,-1,53,55,57,59,61,63,65,67,69,-1,71,-1,-1,-1,-1,-1,-1,-1,-1,-1,-1,-1,-1,-1,-1,-1,-1,-1,-1,-1,-1,-1,-1,-1,-1,-1],"loss_changes":[8.474119E3,6.8121094E2,2.5955967E3,5.634287E0,3.317871E2,9.418208E2,4.1827875E2,8.034399E0,0E0,1.3465479E2,1.199908E1,1.8026506E2,1.667749E2,1.4622519E2,4.9305054E1,0E0,9.190245E0,3.9256348E1,6.6108154E1,0E0,9.287241E0,7.953506E1,6.3377792E1,4.2375732E1,1.7929736E2,9.585884E1,1.1681802E2,0E0,0E0,0E0,0E0,0E0,0E0,4.9413753E0,2.8236572E1,0E0,0E0,7.654976E1,1.501789E1,4.8332657E1,2.1865131E1,8.703125E0,8.058416E0,2.9076416E1,1.1070435E1,7.635836E1,0E0,1.5283815E1,0E0,0E0,0E0,0E0,0E0,0E0,0E0,0E0,0E0,0E0,0E0,0E0,0E0,0E0,0E0,0E0,0E0,0E0,0E0,0E0,0E0,0E0,0E0,0E0,0E0],"parents":[2147483647,0,0,1,1,2,2,3,3,4,4,5,5,6,6,7,7,9,9,10,10,11,11,12,12,13,13,14,14,16,16,17,17,18,18,20,20,21,21,22,22,23,23,24,24,25,25,26,26,33,33,34,34,37,37,38,38,39,39,40,40,41,41,42,42,43,43,44,44,45,45,47,47],"right_children":[2,4,6,8,10,12,14,16,-1,18,20,22,24,26,28,-1,30,32,34,-1,36,38,40,42,44,46,48,-1,-1,-1,-1,-1,-1,50,52,-1,-1,54,56,58,60,62,64,66,68,70,-1,72,-1,-1,-1,-1,-1,-1,-1,-1,-1,-1,-1,-1,-1,-1,-1,-1,-1,-1,-1,-1,-1,-1,-1,-1,-1],"split_conditions":[1.1706436E2,1.3914606E1,2.2191956E2,3E1,2.2E1,2E1,2.8381294E3,1.125E1,7.676274E-4,9.065174E-1,3E0,8.398743E-1,5.29E2,1.1087195E3,2.15148E-1,-3.2619478E-3,3.0206559E0,2.4784479E2,1.4030118E-1,-2.6237327E-3,6.1E1,2.508757E1,1.0807502E2,4.8393517E0,5.969028E0,8.809214E-1,2.4402829E-1,1.8424041E-3,1.2966415E-2,1.4814552E-3,-2.0802305E-3,2.3189508E-3,1.3873844E-2,4.1525293E2,1.9783347E2,2.8149593E-3,-1.3245568E-3,3.593688E-1,6.5144336E-1,1.1909722E-2,1.9783347E2,3.1688657E-1,9.896563E0,1.2268518E-3,7.051375E1,5.521472E2,5.502943E-3,1.7092369E3,6.5147206E-3,-1.3256662E-3,1.7004967E-3,4.4616256E-3,1.0118043E-2,7.328139E-4,3.873398E-3,-2.4021505E-3,6.6397927E-4,3.8198906E-3,-2.59119E-3,1.6976674E-3,-5.1246706E-4,-4.0069916E-3,-2.76336E-3,-1.3984286E-3,1.1824989E-3,1.2381883E-4,-3.8188063E-3,-2.3500968E-3,-1.2791884E-3,-8.3617524E-5,2.8279065E-3,1.6782229E-3,-1.9599171E-3],"split_indices":[6,1,1,3,2,2,1,5,0,6,6,2,2,1,2,0,2,1,2,0,2,1,1,1,1,2,2,0,0,0,0,0,0,1,1,0,0,2,2,1,1,1,1,1,1,1,0,1,0,0,0,0,0,0,0,0,0,0,0,0,0,0,0,0,0,0,0,0,0,0,0,0,0],"split_type":[0,0,0,0,0,0,0,0,0,0,0,0,0,0,0,0,0,0,0,0,0,0,0,0,0,0,0,0,0,0,0,0,0,0,0,0,0,0,0,0,0,0,0,0,0,0,0,0,0,0,0,0,0,0,0,0,0,0,0,0,0,0,0,0,0,0,0,0,0,0,0,0,0],"sum_hessian":[1.0432042E4,7.326842E2,9.699358E3,5.1289516E1,6.813947E2,8.92065E3,7.787079E2,4.822141E1,3.0681093E0,6.555584E2,2.5836296E1,1.2199503E3,7.7006997E3,7.1412354E2,6.458437E1,2.9192148E1,1.9029259E1,2.652479E2,3.9031052E2,1.4609361E1,1.1226936E1,4.585253E2,7.614249E2,3.2334514E3,4.4672485E3,5.0158337E2,2.1254016E2,9.044348E0,5.5540024E1,1.0111324E1,8.917934E0,7.7932625E0,2.5745462E2,9.926861E0,3.8038367E2,6.6946015E0,4.5323343E0,3.8442496E2,7.410036E1,2.8491406E2,4.765109E2,3.1875369E3,4.5914543E1,1.6355444E3,2.831704E3,4.3454312E2,6.704025E1,4.033239E1,1.7220778E2,4.535741E0,5.3911204E0,3.1624918E1,3.4875876E2,1.92311E2,1.9211394E2,5.1130814E1,2.2969545E1,7.854945E0,2.770591E2,5.415734E1,4.2235355E2,3.0238105E3,1.6372627E2,3.0336811E1,1.5577732E1,2.1294485E1,1.61425E3,2.6644258E3,1.672782E2,2.5033243E2,1.8421068E2,2.1747519E1,1.858487E1],"tree_param":{"num_deleted":"0","num_feature":"11","num_nodes":"73","size_leaf_vector":"1"}},{"base_weights":[-3.8506427E-1,2.8889625E0,-6.440701E-1,1.9097959E0,4.1928725E0,-7.9640007E-1,1.0881479E0,-6.817377E-1,2.4481828E0,9.853975E-1,1.5073506E-2,-1.1014893E0,-6.301887E-1,5.607399E-1,2.2320454E0,-3.0532037E-3,1.966915E-1,2.682616E0,1.0930569E0,-1.3306085E-3,5.3399606E-3,-2.0346097E-3,-1.1066729E0,-6.478052E-1,-9.003076E-3,2.801372E-1,3.1567186E-3,6.1789663E-3,1.1090995E-2,-1.8056914E-3,3.1351934E-3,3.3684871E0,2.2473226E0,-0E0,1.299376E0,-3.920671E-3,-8.8596547E-1,-2.2898724E-3,-5.374061E-1,9.32964E-2,-1.1821033E-3,3.3538932E-1,-8.601866E-2,1.993289E-3,1.2026288E-2,9.732598E-3,6.2355218E-3,-4.8202398E-4,7.541269E-4,4.8793023E-3,6.731671E-5,-1.5071051E-3,-3.471279E-3,1.9561546E-3,-2.1343897E-3,-7.8901195E-4,8.533555E-4,9.031358E-4,2.1923669E-3,-9.969895E-4,3.4641335E-4],"categories":[],"categories_nodes":[],"categories_segments":[],"categories_sizes":[],"default_left":[0,0,1,0,0,0,0,0,0,0,0,0,1,0,0,0,0,0,0,0,0,0,0,1,0,0,0,0,0,0,0,0,0,0,0,0,0,0,0,0,0,0,0,0,0,0,0,0,0,0,0,0,0,0,0,0,0,0,0,0,0],"id":2,"left_children":[1,3,5,7,9,11,13,15,17,19,-1,21,23,25,27,-1,29,31,33,-1,-1,-1,35,37,39,41,-1,-1,-1,-1,-1,43,45,47,49,-1,51,-1,53,55,-1,57,59,-1,-1,-1,-1,-1,-1,-1,-1,-1,-1,-1,-1,-1,-1,-1,-1,-1,-1],"loss_changes":[8.887652E3,9.123247E2,2.5675183E3,6.480635E2,9.373779E1,4.4573682E2,4.629381E2,1.6175331E1,9.369336E1,2.2634089E1,0E0,1.9855957E0,6.2911377E1,5.0187515E1,5.824597E1,0E0,1.4557922E1,2.9461914E1,1.5501221E1,0E0,0E0,0E0,2.161621E0,1.5759277E0,6.145449E0,6.8064957E0,0E0,0E0,0E0,0E0,0E0,4.461914E0,1.1015503E1,8.2723653E-1,6.150963E0,0E0,8.4987335E0,0E0,3.9854523E1,6.919148E0,0E0,4.262167E0,2.070056E0,0E0,0E0,0E0,0E0,0E0,0E0,0E0,0E0,0E0,0E0,0E0,0E0,0E0,0E0,0E0,0E0,0E0,0E0],"parents":[2147483647,0,0,1,1,2,2,3,3,4,4,5,5,6,6,7,7,8,8,9,9,11,11,12,12,13,13,14,14,16,16,17,17,18,18,22,22,23,23,24,24,25,25,31,31,32,32,33,33,34,34,36,36,38,38,39,39,41,41,42,42],"right_children":[2,4,6,8,10,12,14,16,18,20,-1,22,24,26,28,-1,30,32,34,-1,-1,-1,36,38,40,42,-1,-1,-1,-1,-1,44,46,48,50,-1,52,-1,54,56,-1,58,60,-1,-1,-1,-1,-1,-1,-1,-1,-1,-1,-1,-1,-1,-1,-1,-1,-1,-1],"split_conditions":[1.1706436E2,1.2300516E9,2.2191956E2,3.542245E2,3.568015E1,2.0931365E0,1.3107756E3,1.9783347E2,2.5651848E0,1.2437288E9,1.5073506E-2,1.2268518E-3,1.3452444E2,5.521472E2,2.8381294E3,-3.0532037E-3,1.1909248E9,2.4460918E-1,4E0,-1.3306085E-3,5.3399606E-3,-2.0346097E-3,3.1688657E-1,2.0811724E1,1.9783347E2,4.7872043E2,3.1567186E-3,6.1789663E-3,1.1090995E-2,-1.8056914E-3,3.1351934E-3,6.9481165E2,8.809033E3,1.2055555E1,1.2121847E9,-3.920671E-3,6.676736E-1,-2.2898724E-3,2.2847778E1,1.5407169E2,-1.1821033E-3,4.1525293E2,5.144735E2,1.993289E-3,1.2026288E-2,9.732598E-3,6.2355218E-3,-4.8202398E-4,7.541269E-4,4.8793023E-3,6.731671E-5,-1.5071051E-3,-3.471279E-3,1.9561546E-3,-2.1343897E-3,-7.8901195E-4,8.533555E-4,9.031358E-4,2.1923669E-3,-9.969895E-4,3.4641335E-4],"split_indices":[6,7,1,1,1,1,1,1,6,7,0,1,1,1,1,0,7,6,6,0,0,0,1,1,1,1,0,0,0,0,0,1,1,5,7,0,1,0,1,1,0,1,1,0,0,0,0,0,0,0,0,0,0,0,0,0,0,0,0,0,0],"split_type":[0,0,0,0,0,0,0,0,0,0,0,0,0,0,0,0,0,0,0,0,0,0,0,0,0,0,0,0,0,0,0,0,0,0,0,0,0,0,0,0,0,0,0,0,0,0,0,0,0,0,0,0,0,0,0,0,0,0,0,0,0],"sum_hessian":[1.0457172E4,7.6043E2,9.696742E3,4.4591562E2,3.1451434E2,8.917323E3,7.794182E2,7.609739E1,3.6981824E2,1.4920537E1,2.995938E2,3.127327E3,5.789997E3,5.4208875E2,2.3732945E2,6.3089985E1,1.3007404E1,3.0810715E2,6.1711094E1,4.5508566E0,1.036968E1,4.1406166E1,3.0859207E3,5.628821E3,1.6117613E2,3.0777805E2,2.3431068E2,1.756255E2,6.1703957E1,6.9644094E0,6.042995E0,9.7969604E1,2.1013753E2,1.1205687E1,5.0505405E1,2.8309204E3,2.550003E2,5.1828257E3,4.459949E2,1.2568186E2,3.5494267E1,2.6978128E2,3.799678E1,4.744964E0,9.322464E1,7.707534E1,1.330622E2,8.113423E0,3.0922635E0,4.5645935E1,4.8594728E0,5.838932E1,1.96611E2,2.4317467E1,4.2167743E2,3.7532E1,8.8149864E1,2.2790363E2,4.1877647E1,1.813225E1,1.9864529E1],"tree_param":{"num_deleted":"0","num_feature":"11","num_nodes":"61","size_leaf_vector":"1"}},{"base_weights":[-4.0650728E-1,2.8214536E0,-6.6486067E-1,1.8750707E0,4.0839753E0,-8.15005E-1,1.0515081E0,-7.187141E-1,2.3503354E0,-1.1311821E-1,4.1923475E0,-8.883883E-1,8.052884E-1,6.2181866E-1,2.451378E0,-8.51724E-1,5.281464E-2,2.5846708E0,-7.0156807E-1,-1.3660803E-3,7.7132887E-4,4.264893E0,-0E0,-1.01000644E-1,-9.845779E-1,3.3134755E-1,1.9311568E0,3.4035918E-1,1.7304168E0,-0E0,2.5357258E0,7.701706E-4,-3.2901159E-3,2.487852E-3,-1.6598803E-3,1.2862071E-1,2.7560663E0,-6.794121E-2,-2.8694374E-3,4.251806E-4,4.311479E0,8.134533E-3,-1.3828096E-1,2.4549055E0,-9.959249E-1,-4.5825925E-1,6.584531E-1,2.5759504E0,-1.0911629E-1,-2.8220955E-1,5.1973903E-1,4.1566625E-1,2.1483111E0,1.8042841E0,3.196447E0,-1.7439851E-3,3.6720757E-3,-1.1558108E-3,9.774983E-3,-1.2038867E-3,7.44899E-4,2.3991885E-3,1.513639E-2,-2.9492185E-3,9.6831616E-5,9.360108E-3,6.438765E-4,-4.0116445E-3,-3.163497E-3,-2.304618E-3,6.465333E-4,2.9678792E-3,-1.2971314E-3,-1.0998776E-3,9.569657E-3,-2.7794824E-3,3.0893246E-3,9.93668E-4,-1.977805E-3,-1.226168E-3,2.013382E-3,4.100896E-3,-9.7610355E-5,8.487924E-3,-1.7976548E-3,-0E0,6.621416E-3,3.5656309E-3,1.235305E-2],"categories":[],"categories_nodes":[],"categories_segments":[],"categories_sizes":[],"default_left":[0,0,1,0,0,1,1,1,1,1,1,0,0,0,0,0,0,0,0,0,0,0,0,0,0,0,1,0,0,0,0,0,0,0,0,0,0,0,0,0,0,0,0,1,0,0,1,0,0,0,0,0,1,0,0,0,0,0,0,0,0,0,0,0,0,0,0,0,0,0,0,0,0,0,0,0,0,0,0,0,0,0,0,0,0,0,0,0,0],"id":3,"left_children":[1,3,5,7,9,11,13,15,17,19,21,23,25,27,29,31,33,35,37,-1,-1,39,-1,41,43,45,47,49,51,-1,53,-1,-1,-1,-1,55,57,59,-1,-1,61,-1,63,65,67,69,71,73,75,77,79,81,83,85,87,-1,-1,-1,-1,-1,-1,-1,-1,-1,-1,-1,-1,-1,-1,-1,-1,-1,-1,-1,-1,-1,-1,-1,-1,-1,-1,-1,-1,-1,-1,-1,-1,-1,-1],"loss_changes":[8.690015E3,8.569033E2,2.490915E3,5.776282E2,1.5410352E2,1.0603853E3,4.5377808E2,8.818699E0,2.9344434E2,2.2905786E0,9.487549E1,6.413579E2,2.0024234E2,1.830825E2,3.7783936E1,8.732288E0,9.1779585E0,1.4750708E2,1.4718018E0,0E0,0E0,5.241211E1,0E0,8.5644775E1,3.137041E2,7.572791E1,1.5253378E2,5.657774E1,5.7059296E1,0E0,3.4010864E1,0E0,0E0,0E0,0E0,2.3405293E1,5.688037E1,1.8700014E0,0E0,0E0,2.1748047E0,0E0,1.09704666E2,7.8395386E0,9.367236E1,1.2666405E1,4.333394E1,5.0405396E1,2.919297E1,2.0047813E1,2.1156227E1,1.4403324E1,7.891196E1,1.6155243E1,2.7732422E1,0E0,0E0,0E0,0E0,0E0,0E0,0E0,0E0,0E0,0E0,0E0,0E0,0E0,0E0,0E0,0E0,0E0,0E0,0E0,0E0,0E0,0E0,0E0,0E0,0E0,0E0,0E0,0E0,0E0,0E0,0E0,0E0,0E0,0E0],"parents":[2147483647,0,0,1,1,2,2,3,3,4,4,5,5,6,6,7,7,8,8,9,9,10,10,11,11,12,12,13,13,14,14,15,15,16,16,17,17,18,18,21,21,23,23,24,24,25,25,26,26,27,27,28,28,30,30,35,35,36,36,37,37,40,40,42,42,43,43,44,44,45,45,46,46,47,47,48,48,49,49,50,50,51,51,52,52,53,53,54,54],"right_children":[2,4,6,8,10,12,14,16,18,20,22,24,26,28,30,32,34,36,38,-1,-1,40,-1,42,44,46,48,50,52,-1,54,-1,-1,-1,-1,56,58,60,-1,-1,62,-1,64,66,68,70,72,74,76,78,80,82,84,86,88,-1,-1,-1,-1,-1,-1,-1,-1,-1,-1,-1,-1,-1,-1,-1,-1,-1,-1,-1,-1,-1,-1,-1,-1,-1,-1,-1,-1,-1,-1,-1,-1,-1,-1],"split_conditions":[1.5292E4,1.2300516E9,2.2191956E2,2.6460248E2,1.5056783E1,3.35E2,3.89E2,2.14E2,2.5852964E0,7.1E1,2.6E1,7.8254695E0,7.08E2,1.5688297E3,2.2815949E-1,2.3E1,1.5772124E1,1.57E2,1.9236092E1,-1.3660803E-3,7.7132887E-4,4.9E1,-0E0,2E1,2E1,1.651807E2,1.0277447E0,1.74E2,2.5985548E-1,-0E0,1.5688297E3,7.701706E-4,-3.2901159E-3,2.487852E-3,-1.6598803E-3,1.2063396E9,1.1068252E-1,7.8254695E0,-2.8694374E-3,4.251806E-4,3.568015E1,8.134533E-3,8.9E1,1.4270888E1,1.2628472E-1,5.26E2,1.7377321E1,6.106427E1,1.154E3,2.2815949E-1,1.4030118E-1,1.7092369E3,9.8E1,2.807268E2,6.16E2,-1.7439851E-3,3.6720757E-3,-1.1558108E-3,9.774983E-3,-1.2038867E-3,7.44899E-4,2.3991885E-3,1.513639E-2,-2.9492185E-3,9.6831616E-5,9.360108E-3,6.438765E-4,-4.0116445E-3,-3.163497E-3,-2.304618E-3,6.465333E-4,2.9678792E-3,-1.2971314E-3,-1.0998776E-3,9.569657E-3,-2.7794824E-3,3.0893246E-3,9.93668E-4,-1.977805E-3,-1.226168E-3,2.013382E-3,4.100896E-3,-9.7610355E-5,8.487924E-3,-1.7976548E-3,-0E0,6.621416E-3,3.5656309E-3,1.235305E-2],"split_indices":[3,7,1,1,1,0,0,0,2,2,2,2,0,1,2,0,2,0,2,0,0,0,0,0,0,1,2,0,2,0,1,0,0,0,0,7,2,2,0,0,1,0,0,2,1,0,2,1,0,2,2,1,0,1,0,0,0,0,0,0,0,0,0,0,0,0,0,0,0,0,0,0,0,0,0,0,0,0,0,0,0,0,0,0,0,0,0,0,0],"split_type":[0,0,0,0,0,0,0,0,0,0,0,0,0,0,0,0,0,0,0,0,0,0,0,0,0,0,0,0,0,0,0,0,0,0,0,0,0,0,0,0,0,0,0,0,0,0,0,0,0,0,0,0,0,0,0,0,0,0,0,0,0,0,0,0,0,0,0,0,0,0,0,0,0,0,0,0,0,0,0,0,0,0,0,0,0,0,0,0,0],"sum_hessian":[1.0396112E4,7.642922E2,9.63182E3,4.4857172E2,3.157205E2,8.861301E3,7.705201E2,6.858503E1,3.799867E2,7.764759E0,3.0795572E2,8.481268E3,3.8003323E2,5.9882874E2,1.7169135E2,5.861376E1,9.971267E0,3.5425827E2,2.5728407E1,4.703286E0,3.061473E0,3.0251364E2,5.4420834E0,9.259386E2,7.5553286E3,2.7522275E2,1.048105E2,4.8647668E2,1.1235205E2,5.880769E0,1.6581058E2,3.063545E0,5.5550217E1,3.816278E0,6.154989E0,2.4309347E1,3.299489E2,7.118216E0,1.8610191E1,3.8645089E0,2.9864914E2,6.2225394E0,9.1971606E2,1.894643E1,7.536382E3,7.90072E1,1.9621555E2,7.8318794E1,2.6491707E1,1.0685568E2,3.79621E2,3.1388239E1,8.0963806E1,9.343421E1,7.237637E1,1.6177814E1,8.131532E0,3.8337004E0,3.2611523E2,4.0094275E0,3.1087885E0,3.972475E0,2.9467667E2,1.695229E2,7.501932E2,1.5595259E1,3.351171E0,2.7277075E3,4.8086743E3,6.083424E1,1.817296E1,1.671554E2,2.9060143E1,3.6404867E0,7.467831E1,1.7051327E1,9.44038E0,3.483761E1,7.2018074E1,2.009456E1,3.5952643E2,7.3140335E0,2.4074205E1,7.403229E1,6.931519E0,5.267892E0,8.816632E1,1.4537211E1,5.7839157E1],"tree_param":{"num_deleted":"0","num_feature":"11","num_nodes":"89","size_leaf_vector":"1"}},{"base_weights":[-4.031974E-1,-6.7148095E-1,2.87727E0,-7.83501E-1,1.3276823E0,1.9928381E0,4.0433855E0,1.0865296E-2,-7.9744357E-1,7.3718804E-1,2.6756663E0,-3.638302E-1,2.303509E0,3.8110805E-1,1.44853825E-2,-1.0896935E0,-6.5088224E-1,2.6690727E-1,2.7670406E-3,6.773167E-3,1.1235382E-2,-6.556543E-1,2.1482545E-1,1.8428527E0,3.4191518E0,3.1002583E-3,-1.3176751E-3,-3.8957512E-3,-3.0512896E-3,-6.6615415E-1,-2.0821068E-1,1.358982E-3,1.277508E-4,6.9429085E-4,-2.7318785E-3,-1.3393557E-3,5.273401E-1,3.0054204E0,1.3363415E0,1.2250026E-2,1.8341211E-3,-2.793551E-3,-2.2757733E-3,-5.247919E-4,-1.927965E-3,2.838499E-3,-2.2982747E-5,1.0779987E-2,6.523537E-4,2.7327752E-3,6.680935E-3],"categories":[],"categories_nodes":[],"categories_segments":[],"categories_sizes":[],"default_left":[1,1,0,0,0,0,0,0,0,0,0,0,1,0,0,0,1,0,0,0,0,0,0,0,0,0,0,0,0,0,0,0,0,0,0,0,0,0,0,0,0,0,0,0,0,0,0,0,0,0,0],"id":4,"left_children":[1,3,5,7,9,11,13,-1,15,17,19,21,23,25,-1,27,29,31,-1,-1,-1,33,35,37,39,-1,-1,-1,-1,41,43,-1,-1,-1,-1,-1,45,47,49,-1,-1,-1,-1,-1,-1,-1,-1,-1,-1,-1,-1],"loss_changes":[9.19643E3,2.1693696E3,7.457046E2,5.1515625E2,3.9134882E2,3.489795E2,1.1593359E2,0E0,3.8359326E2,7.220413E0,7.329834E0,1.1736962E1,1.5759595E2,1.023205E1,0E0,8.224121E0,3.943799E1,1.0568314E0,0E0,0E0,0E0,6.3983135E0,6.5189853E0,1.4704382E2,1.1631226E1,0E0,0E0,0E0,0E0,5.7158203E0,3.1187162E0,0E0,0E0,0E0,0E0,0E0,3.856439E0,1.3635803E1,5.9793976E1,0E0,0E0,0E0,0E0,0E0,0E0,0E0,0E0,0E0,0E0,0E0,0E0],"parents":[2147483647,0,0,1,1,2,2,3,3,4,4,5,5,6,6,8,8,9,9,10,10,11,11,12,12,13,13,15,15,16,16,17,17,21,21,22,22,23,23,24,24,29,29,30,30,36,36,37,37,38,38],"right_children":[2,4,6,8,10,12,14,-1,16,18,20,22,24,26,-1,28,30,32,-1,-1,-1,34,36,38,40,-1,-1,-1,-1,42,44,-1,-1,-1,-1,-1,46,48,50,-1,-1,-1,-1,-1,-1,-1,-1,-1,-1,-1,-1],"split_conditions":[1.137147E9,3.66E2,1.2300516E9,2E1,8.16E2,1.57E2,1.01E2,1.0865296E-2,1.09E2,3.89E2,1.154E3,1.1947235E9,4.44E2,1.2423548E9,1.44853825E-2,8.5E1,2.74E2,3.77E2,2.7670406E-3,6.773167E-3,1.1235382E-2,2.3E1,4.9E1,4.3768555E-1,5.2E1,3.1002583E-3,-1.3176751E-3,-3.8957512E-3,-3.0512896E-3,1.6E2,3.54E2,1.358982E-3,1.277508E-4,6.9429085E-4,-2.7318785E-3,-1.3393557E-3,1E2,7.2E1,1.1809646E9,1.2250026E-2,1.8341211E-3,-2.793551E-3,-2.2757733E-3,-5.247919E-4,-1.927965E-3,2.838499E-3,-2.2982747E-5,1.0779987E-2,6.523537E-4,2.7327752E-3,6.680935E-3],"split_indices":[7,0,7,0,0,0,0,0,0,0,0,7,0,7,0,0,0,0,0,0,0,0,0,6,3,0,0,0,0,0,0,0,0,0,0,0,0,3,7,0,0,0,0,0,0,0,0,0,0,0,0],"split_type":[0,0,0,0,0,0,0,0,0,0,0,0,0,0,0,0,0,0,0,0,0,0,0,0,0,0,0,0,0,0,0,0,0,0,0,0,0,0,0,0,0,0,0,0,0,0,0,0,0,0,0],"sum_hessian":[1.0425594E4,9.643532E3,7.820608E2,9.136816E3,5.0671603E2,4.574687E2,3.245921E2,2.6018255E1,9.110799E3,3.613758E2,1.4534023E2,5.2842663E1,4.0462604E2,1.0568362E1,3.140237E2,3.0240295E3,6.086769E3,4.4727257E1,3.1664856E2,7.8063286E1,6.727693E1,3.527531E1,1.7567354E1,3.019085E2,1.0271751E2,6.09995E0,4.468412E0,2.6550405E3,3.6898886E2,5.878237E3,2.0853201E2,2.345374E1,2.1273516E1,3.2291908E0,3.204612E1,4.5774813E0,1.2989873E1,7.916159E1,2.2274692E2,9.764542E1,5.072094E0,5.021772E2,5.3760596E3,1.9028944E2,1.8242569E1,6.631482E0,6.358391E0,7.585557E1,3.3060243E0,1.2419146E2,9.8555466E1],"tree_param":{"num_deleted":"0","num_feature":"11","num_nodes":"51","size_leaf_vector":"1"}},{"base_weights":[-4.132242E-1,-6.660213E-1,2.7600992E0,-7.7878064E-1,1.4842786E0,2.0651572E0,4.068329E0,5.058019E-3,-9.216773E-1,1.8822837E0,-2.012843E-1,-4.4867444E-1,2.4009457E0,2.6989812E-1,4.167652E0,3.2398316E-1,-4.1827318E-1,9.581056E-3,-9.318398E-1,1.1877105E0,1.0685658E-2,-3.6117524E-1,3.2965634E-3,7.539589E-1,-8.9226973E-1,2.6052203E0,-5.4353386E-1,2.884807E-3,-1.2446818E-3,1.4712729E-2,5.5883464E-4,8.352829E-3,2.6384366E-1,-6.6123885E-1,9.9787936E-2,-1.1160667E0,-8.0154514E-1,5.904328E-3,8.3510834E-1,2.5874019E-2,-2.8574355E-3,-1.3380314E-3,4.427662E-3,-3.5221158E-3,7.5221405E-4,-2.3466893E-1,2.6767156E0,-3.071652E-3,1.92941E-3,1.7929899E-3,-7.092008E-4,-9.1217103E-4,-2.6210307E-3,1.9104109E-3,-1.169928E-3,-3.907763E-3,-2.355167E-4,-3.777313E-3,-2.2783475E-3,3.4612903E-4,3.8301684E-3,1.4244773E-3,-2.5395413E-3,-1.5125022E-3,2.5508838E-4,1.0360464E-2,5.875709E-3],"categories":[],"categories_nodes":[],"categories_segments":[],"categories_sizes":[],"default_left":[1,1,0,0,1,0,0,1,0,0,0,0,1,0,1,0,0,0,0,0,0,0,0,0,0,0,0,0,0,0,0,0,0,0,0,1,0,0,0,0,0,0,0,0,0,0,0,0,0,0,0,0,0,0,0,0,0,0,0,0,0,0,0,0,0,0,0],"id":5,"left_children":[1,3,5,7,9,11,13,15,17,19,21,23,25,27,29,31,33,-1,35,37,-1,39,-1,41,43,45,47,-1,-1,-1,-1,-1,49,51,53,55,57,-1,59,61,-1,-1,-1,-1,-1,63,65,-1,-1,-1,-1,-1,-1,-1,-1,-1,-1,-1,-1,-1,-1,-1,-1,-1,-1,-1,-1],"loss_changes":[8.34579E3,2.3430596E3,6.2602246E2,1.02596E3,3.2773376E2,4.474109E2,8.488965E1,1.9253624E2,3.0777588E2,2.8835168E2,2.0441582E1,4.153391E1,2.8870703E2,8.069524E0,4.075E1,9.435715E1,7.798189E1,0E0,1.7688281E2,3.2990967E1,0E0,1.7284142E1,0E0,1.751064E1,9.283112E0,9.4254395E1,1.7502277E1,0E0,0E0,0E0,0E0,0E0,9.462334E1,1.2730942E1,4.0865387E1,1.1719971E1,1.8330225E2,0E0,3.1021034E1,1.8695728E1,0E0,0E0,0E0,0E0,0E0,1.605834E0,7.868628E1,0E0,0E0,0E0,0E0,0E0,0E0,0E0,0E0,0E0,0E0,0E0,0E0,0E0,0E0,0E0,0E0,0E0,0E0,0E0,0E0],"parents":[2147483647,0,0,1,1,2,2,3,3,4,4,5,5,6,6,7,7,8,8,9,9,10,10,11,11,12,12,13,13,14,14,15,15,16,16,18,18,19,19,21,21,23,23,24,24,25,25,26,26,32,32,33,33,34,34,35,35,36,36,38,38,39,39,45,45,46,46],"right_children":[2,4,6,8,10,12,14,16,18,20,22,24,26,28,30,32,34,-1,36,38,-1,40,-1,42,44,46,48,-1,-1,-1,-1,-1,50,52,54,56,58,-1,60,62,-1,-1,-1,-1,-1,64,66,-1,-1,-1,-1,-1,-1,-1,-1,-1,-1,-1,-1,-1,-1,-1,-1,-1,-1,-1,-1],"split_conditions":[1.137147E9,3.89E2,1.2408486E9,2E1,1.5415287E0,1.74E2,1.08E2,2E1,2E1,8.16E2,1.422E3,2.107141E0,2E1,2.5852964E0,5.4E1,2E1,1.8E2,9.581056E-3,5.29E2,1.5415287E0,1.0685658E-2,5.53E2,3.2965634E-3,1.1823188E9,2.9E1,1.7158669E-1,1.2311118E9,2.884807E-3,-1.2446818E-3,1.4712729E-2,5.5883464E-4,8.352829E-3,1.7341322E0,2.2815949E-1,9.258744E-1,3.54E2,1.16E2,5.904328E-3,4.61E2,2.58E2,-2.8574355E-3,-1.3380314E-3,4.427662E-3,-3.5221158E-3,7.5221405E-4,1.175725E9,2E0,-3.071652E-3,1.92941E-3,1.7929899E-3,-7.092008E-4,-9.1217103E-4,-2.6210307E-3,1.9104109E-3,-1.169928E-3,-3.907763E-3,-2.355167E-4,-3.777313E-3,-2.2783475E-3,3.4612903E-4,3.8301684E-3,1.4244773E-3,-2.5395413E-3,-1.5125022E-3,2.5508838E-4,1.0360464E-2,5.875709E-3],"split_indices":[7,0,7,2,2,0,0,0,0,0,0,2,2,2,2,0,0,0,2,2,0,0,0,7,3,2,7,0,0,0,0,0,2,2,2,0,0,0,0,2,0,0,0,0,0,7,6,0,0,0,0,0,0,0,0,0,0,0,0,0,0,0,0,0,0,0,0],"split_type":[0,0,0,0,0,0,0,0,0,0,0,0,0,0,0,0,0,0,0,0,0,0,0,0,0,0,0,0,0,0,0,0,0,0,0,0,0,0,0,0,0,0,0,0,0,0,0,0,0,0,0,0,0,0,0,0,0,0,0,0,0,0,0,0,0,0,0],"sum_hessian":[1.037908E4,9.619346E3,7.5973425E2,9.145243E3,4.741026E2,5.1004877E2,2.4968544E2,1.4105255E3,7.734718E3,3.831399E2,9.096271E1,5.9522476E1,4.505263E2,7.3139553E0,2.4237149E2,8.065446E2,6.039809E2,1.5201478E1,7.719516E3,2.5173862E2,1.3140128E2,8.521964E1,5.7430677E0,1.4073177E1,4.54493E1,4.2239993E2,2.8126379E1,3.1461546E0,4.1678004E0,2.3882994E2,3.5415473E0,1.3630361E1,7.9291425E2,4.106253E2,1.9335558E2,3.1703953E3,4.549121E3,9.014524E1,1.6159337E2,4.939666E1,3.582298E1,4.573557E0,9.49962E0,4.235371E1,3.0955892E0,9.66694E0,4.12733E2,2.3246984E1,4.8793936E0,5.169642E2,2.759501E2,8.272792E1,3.278974E2,9.511529E1,9.824028E1,3.1571995E3,1.3195757E1,1.55355E3,2.9955708E3,4.616273E1,1.1543064E2,3.5867085E1,1.3529575E1,5.3553457E0,4.3115945E0,3.0580917E2,1.069238E2],"tree_param":{"num_deleted":"0","num_feature":"11","num_nodes":"67","size_leaf_vector":"1"}},{"base_weights":[-3.9451572E-1,-6.5748626E-1,2.8078196E0,-7.7303237E-1,1.5304346E0,-3.7043354E-1,3.0816958E0,-8.7736654E-1,3.9943397E-1,-4.156607E-1,1.8455758E0,-9.206611E-1,1.4758056E0,2.4173303E0,4.2362385E0,9.9328915E-3,-8.904905E-1,1.80501E-1,1.6142497E0,-2.7969624E-3,6.053119E-2,1.3228992E0,2.8077424E0,7.0796616E-4,-3.586867E-3,4.780346E-4,5.8803307E-3,-8.0282256E-2,2.6700091E0,-0E0,1.5093791E-2,-1.1238066E0,-7.5217444E-1,-3.1318164E-1,4.5412752E-1,2.2746792E-1,6.712523E-3,2.1207873E-3,-3.306645E-1,8.637909E-1,1.949576E0,2.7730462E-1,1.0535149E-2,-2.3548221E-3,6.048561E-1,-1.6671479E-1,2.7761767E0,-4.0003913E-3,-3.3134064E-3,-3.7821922E-3,-2.1209319E-3,-1.8775088E-3,-1.1298363E-4,-5.0135405E-4,1.7859419E-3,2.930407E-3,-6.6812575E-4,-2.4498294E-3,1.0466255E-3,3.158186E-3,-1.0703492E-3,7.3274365E-3,1.086013E-3,2.651393E-3,-5.3768384E-4,5.0961482E-3,-3.9794063E-4,1.2666701E-3,-2.0583242E-3,1.0775367E-2,5.6712856E-3],"categories":[],"categories_nodes":[],"categories_segments":[],"categories_sizes":[],"default_left":[1,1,0,1,0,0,0,0,0,0,0,0,0,0,0,0,0,0,0,0,0,1,0,0,0,0,0,0,0,0,0,0,0,0,0,0,0,0,0,1,0,0,0,0,0,0,0,0,0,0,0,0,0,0,0,0,0,0,0,0,0,0,0,0,0,0,0,0,0,0,0],"id":6,"left_children":[1,3,5,7,9,11,13,15,17,19,21,23,25,27,29,-1,31,33,35,-1,37,39,41,-1,-1,-1,-1,43,45,-1,-1,47,49,51,53,55,-1,-1,57,59,61,63,-1,-1,65,67,69,-1,-1,-1,-1,-1,-1,-1,-1,-1,-1,-1,-1,-1,-1,-1,-1,-1,-1,-1,-1,-1,-1,-1,-1],"loss_changes":[8.755611E3,2.4359438E3,6.9806836E2,1.1193418E3,3.0401807E2,8.113818E1,4.7097314E2,4.2856445E2,1.9593692E2,1.448222E1,1.7748254E2,9.38866E0,2.0455322E0,3.0716333E2,9.55E1,0E0,2.6156836E2,8.8440475E1,4.3443573E1,0E0,1.0291959E1,6.688507E1,6.5640625E1,0E0,0E0,0E0,0E0,2.4391195E1,1.3734644E2,0E0,0E0,1.9643555E0,2.4597876E2,1.4211987E1,1.5350365E1,9.517805E0,0E0,0E0,8.42749E0,1.1425339E1,2.1122864E1,5.532611E0,0E0,0E0,1.9365326E1,7.0643044E0,1.0788916E2,0E0,0E0,0E0,0E0,0E0,0E0,0E0,0E0,0E0,0E0,0E0,0E0,0E0,0E0,0E0,0E0,0E0,0E0,0E0,0E0,0E0,0E0,0E0,0E0],"parents":[2147483647,0,0,1,1,2,2,3,3,4,4,5,5,6,6,7,7,8,8,9,9,10,10,11,11,12,12,13,13,14,14,16,16,17,17,18,18,20,20,21,21,22,22,27,27,28,28,31,31,32,32,33,33,34,34,35,35,38,38,39,39,40,40,41,41,44,44,45,45,46,46],"right_children":[2,4,6,8,10,12,14,16,18,20,22,24,26,28,30,-1,32,34,36,-1,38,40,42,-1,-1,-1,-1,44,46,-1,-1,48,50,52,54,56,-1,-1,58,60,62,64,-1,-1,66,68,70,-1,-1,-1,-1,-1,-1,-1,-1,-1,-1,-1,-1,-1,-1,-1,-1,-1,-1,-1,-1,-1,-1,-1,-1],"split_conditions":[1.137147E9,3.89E2,4.2992397E1,1.3452444E2,1.5407169E2,1.2434737E9,1.2408486E9,2E1,1.5688297E3,5.26E2,8.16E2,2.4E1,1.1164384E1,1.77E2,1.09E2,9.9328915E-3,3.106192E0,3.02E2,3.89E2,-2.7969624E-3,6.16E2,2.3502391E2,1.1087195E3,7.0796616E-4,-3.586867E-3,4.780346E-4,5.8803307E-3,1.1947235E9,2.2191956E2,-0E0,1.5093791E-2,1.1084491E-1,9.8E1,1.41E2,1.651807E2,1.7092369E3,6.712523E-3,2.1207873E-3,8.96E2,1.9783347E2,7.08E2,3.542245E2,1.0535149E-2,-2.3548221E-3,6.37884E2,9.4375E0,2E0,-4.0003913E-3,-3.3134064E-3,-3.7821922E-3,-2.1209319E-3,-1.8775088E-3,-1.1298363E-4,-5.0135405E-4,1.7859419E-3,2.930407E-3,-6.6812575E-4,-2.4498294E-3,1.0466255E-3,3.158186E-3,-1.0703492E-3,7.3274365E-3,1.086013E-3,2.651393E-3,-5.3768384E-4,5.0961482E-3,-3.9794063E-4,1.2666701E-3,-2.0583242E-3,1.0775367E-2,5.6712856E-3],"split_indices":[7,0,1,1,1,7,7,0,1,0,0,0,5,0,0,0,1,0,0,0,0,1,1,0,0,0,0,7,1,0,0,1,0,0,1,1,0,0,0,1,0,1,0,0,1,5,6,0,0,0,0,0,0,0,0,0,0,0,0,0,0,0,0,0,0,0,0,0,0,0,0],"split_type":[0,0,0,0,0,0,0,0,0,0,0,0,0,0,0,0,0,0,0,0,0,0,0,0,0,0,0,0,0,0,0,0,0,0,0,0,0,0,0,0,0,0,0,0,0,0,0,0,0,0,0,0,0,0,0,0,0,0,0,0,0,0,0,0,0,0,0,0,0,0,0],"sum_hessian":[1.0373405E4,9.592309E3,7.810965E2,9.116393E3,4.7591605E2,6.152804E1,7.195685E2,8.373883E3,7.4251025E2,6.564015E1,4.1027588E2,5.0811077E1,1.0716966E1,4.7290625E2,2.4666222E2,2.312251E1,8.35076E3,6.374569E2,1.05053345E2,3.4090946E1,3.154921E1,2.7870377E2,1.3157213E2,3.2041314E0,4.7606945E1,3.728543E0,6.988423E0,4.3678986E1,4.2922726E2,5.372165E0,2.4129005E2,3.0847485E3,5.2660117E3,2.2593417E2,4.1152274E2,2.2156609E1,8.2896736E1,1.2093831E1,1.945538E1,1.7255753E2,1.0614624E2,1.18656435E1,1.19706474E2,2.4030897E1,1.9648088E1,1.506611E1,4.1416116E2,2.6845571E3,4.0019128E2,1.5782814E3,3.6877305E3,1.1988552E2,1.0604865E2,3.4063248E1,3.774595E2,6.449872E0,1.5706736E1,1.2415536E1,7.039843E0,1.6903572E2,3.5218065E0,9.472228E1,1.142396E1,3.5337384E0,8.331905E0,5.665468E0,1.398262E1,6.4143925E0,8.651717E0,3.1463177E2,9.952938E1],"tree_param":{"num_deleted":"0","num_feature":"11","num_nodes":"71","size_leaf_vector":"1"}},{"base_weights":[-4.1785142E-1,2.733058E0,-6.746262E-1,1.9339283E0,3.8029394E0,-7.8069276E-1,1.2200783E0,2.2815163E0,-7.9849195E-1,6.367167E-1,3.941461E0,6.1427593E-2,-9.0980536E-1,1.5389105E0,-4.6120998E-1,4.322761E-1,2.6897E0,4.8116308E-2,-3.4808614E-3,6.3392655E-3,-2.1173346E-3,1.38994735E-2,4.2937696E-4,-5.2308565E-1,3.1078655E-1,9.2972405E-3,-9.2298514E-1,1.0407113E0,2.5915945E0,-6.5835744E-1,2.9927485E-3,-3.1343174E-1,9.991864E-1,2.794355E0,4.9262384E-1,-1.6907671E-3,2.5372375E-3,6.6586803E-3,-6.077909E-1,5.965091E-1,-7.925179E-2,-7.977893E-1,-1.1072923E0,1.5028049E0,7.391126E-1,9.440988E-3,5.14228E-1,2.0031075E-4,-2.4987482E-3,2.7421603E-3,-2.0621275E-3,-0E0,5.2516046E-3,-1.1714142E-3,9.921131E-3,-1.1811501E-3,5.073907E-3,-2.770613E-3,-9.849732E-4,1.4241908E-3,2.8825013E-3,-4.6691037E-4,1.0492548E-3,-3.8654557E-3,-2.2387565E-3,-3.8828827E-3,-1.4197623E-3,1.1088082E-3,5.59359E-3,7.9977536E-4,3.5491355E-3,-1.34335E-3,4.0006875E-3],"categories":[],"categories_nodes":[],"categories_segments":[],"categories_sizes":[],"default_left":[0,0,1,1,0,0,1,0,0,0,1,0,0,0,0,0,0,0,0,0,0,0,0,0,0,0,1,0,1,0,0,0,0,0,1,0,0,0,0,0,0,0,1,0,0,0,0,0,0,0,0,0,0,0,0,0,0,0,0,0,0,0,0,0,0,0,0,0,0,0,0,0,0],"id":7,"left_children":[1,3,5,7,9,11,13,15,17,19,21,23,25,27,29,31,33,35,-1,-1,-1,-1,-1,37,39,-1,41,43,45,47,-1,49,51,53,55,-1,-1,-1,57,59,61,63,65,67,69,-1,71,-1,-1,-1,-1,-1,-1,-1,-1,-1,-1,-1,-1,-1,-1,-1,-1,-1,-1,-1,-1,-1,-1,-1,-1,-1,-1],"loss_changes":[8.401768E3,6.058364E2,1.9352583E3,4.5709082E2,1.1939697E2,9.894375E2,2.805979E2,3.0129102E2,1.0898804E1,4.4173813E1,4.3226562E1,1.7825963E2,3.898125E2,2.0223718E2,2.7084738E1,3.8896812E1,6.416675E1,9.524965E0,0E0,0E0,0E0,0E0,0E0,8.361004E1,9.635081E1,0E0,1.7286182E2,3.222171E1,1.8010315E1,4.1736526E0,0E0,1.6456253E1,2.5747704E1,5.8876465E1,2.5100655E1,0E0,0E0,0E0,1.9201843E1,1.7872131E1,7.8424916E0,2.2112036E2,7.6291504E0,7.871826E0,2.5931847E1,0E0,1.3881064E1,0E0,0E0,0E0,0E0,0E0,0E0,0E0,0E0,0E0,0E0,0E0,0E0,0E0,0E0,0E0,0E0,0E0,0E0,0E0,0E0,0E0,0E0,0E0,0E0,0E0,0E0],"parents":[2147483647,0,0,1,1,2,2,3,3,4,4,5,5,6,6,7,7,8,8,9,9,10,10,11,11,12,12,13,13,14,14,15,15,16,16,17,17,23,23,24,24,26,26,27,27,28,28,29,29,31,31,32,32,33,33,34,34,38,38,39,39,40,40,41,41,42,42,43,43,44,44,46,46],"right_children":[2,4,6,8,10,12,14,16,18,20,22,24,26,28,30,32,34,36,-1,-1,-1,-1,-1,38,40,-1,42,44,46,48,-1,50,52,54,56,-1,-1,-1,58,60,62,64,66,68,70,-1,72,-1,-1,-1,-1,-1,-1,-1,-1,-1,-1,-1,-1,-1,-1,-1,-1,-1,-1,-1,-1,-1,-1,-1,-1,-1,-1],"split_conditions":[1.1706436E2,1.2300516E9,3.66E2,3.0206559E0,1.25E2,7.0739536E0,3.2579913E0,3.54E2,1.0424733E1,2.107141E0,7.8E1,1.8E2,2E1,8.16E2,1.154E3,1.57E2,9E0,1.2163141E9,-3.4808614E-3,6.3392655E-3,-2.1173346E-3,1.38994735E-2,4.2937696E-4,2E1,9.258744E-1,9.2972405E-3,2E1,1.8422319E0,1.4427742E0,3.77E2,2.9927485E-3,1.2769118E-1,1.1732166E9,1.2769118E-1,5.559115E-1,-1.6907671E-3,2.5372375E-3,6.6586803E-3,9.9E1,4.3617013E-1,5.441536E0,1.12E2,2.88E2,2.15148E-1,4.61E2,9.440988E-3,2.4320457E0,2.0031075E-4,-2.4987482E-3,2.7421603E-3,-2.0621275E-3,-0E0,5.2516046E-3,-1.1714142E-3,9.921131E-3,-1.1811501E-3,5.073907E-3,-2.770613E-3,-9.849732E-4,1.4241908E-3,2.8825013E-3,-4.6691037E-4,1.0492548E-3,-3.8654557E-3,-2.2387565E-3,-3.8828827E-3,-1.4197623E-3,1.1088082E-3,5.59359E-3,7.9977536E-4,3.5491355E-3,-1.34335E-3,4.0006875E-3],"split_indices":[6,7,0,2,0,2,2,0,2,2,2,0,0,0,0,0,6,7,0,0,0,0,0,0,2,0,2,2,2,0,0,2,7,2,2,0,0,0,0,2,2,0,0,2,0,0,2,0,0,0,0,0,0,0,0,0,0,0,0,0,0,0,0,0,0,0,0,0,0,0,0,0,0],"split_type":[0,0,0,0,0,0,0,0,0,0,0,0,0,0,0,0,0,0,0,0,0,0,0,0,0,0,0,0,0,0,0,0,0,0,0,0,0,0,0,0,0,0,0,0,0,0,0,0,0,0,0,0,0,0,0,0,0,0,0,0,0,0,0,0,0,0,0,0,0,0,0,0,0],"sum_hessian":[1.03600205E4,7.7459644E2,9.585425E3,4.5669598E2,3.1790045E2,9.082113E3,5.03311E2,4.0657324E2,5.0122738E1,1.5432855E1,3.024676E2,1.2071378E3,7.8749756E3,4.240242E2,7.928679E1,7.6833275E1,3.2973996E2,9.991479E0,4.013126E1,6.3284135E0,9.104442E0,2.9861154E2,3.8560545E0,3.5745084E2,8.49687E2,2.2792267E1,7.852183E3,2.991221E2,1.2490209E2,7.29647E1,6.322091E0,3.416423E1,4.266904E1,3.1234137E2,1.7398575E1,6.270789E0,3.7206898E0,5.9217615E0,3.5152908E2,4.890792E2,3.606078E2,4.7037944E3,3.148389E3,1.04534386E2,1.9458772E2,1.15743996E2,9.1580925E0,4.4935064E0,6.847119E1,3.384101E0,3.078013E1,1.6989033E1,2.5680008E1,3.8766441E0,3.0846475E2,1.1704263E1,5.6943116E0,2.1475441E2,1.3677466E2,2.8276163E2,2.0631758E2,3.2158398E2,3.902382E1,1.5571213E3,3.1466729E3,3.117635E3,3.0754026E1,1.1356684E1,9.3177704E1,7.4792145E1,1.1979558E2,4.589859E0,4.568234E0],"tree_param":{"num_deleted":"0","num_feature":"11","num_nodes":"73","size_leaf_vector":"1"}},{"base_weights":[-4.1185498E-1,2.7235866E0,-6.6637987E-1,-2.6188403E-1,3.012948E0,-7.723629E-1,1.3838083E0,8.046687E-1,-6.890572E-1,-1.1365907E-1,3.1971357E0,-8.649646E-1,5.1564527E-1,-6.809621E-1,1.7180943E0,-1.2716934E-3,1.2254827E0,-3.308135E-3,-1.0593544E-1,7.003224E-1,-6.8029875E-1,3.296032E0,-5.007387E-1,-9.410868E-2,-9.6044314E-1,1.9574209E-1,1.9949278E0,-8.445704E-1,1.5435562E-3,1.1340798E0,2.7296543E0,4.91793E-3,3.4183744E-4,2.713367E-3,-5.117949E-1,-1.0212639E-3,3.6002798E-3,-1.00173265E-1,-2.7720085E-3,-0E0,3.328178E0,-2.519487E-3,7.480387E-4,-5.731877E-1,1.221847E-1,9.6053E-3,-9.751965E-1,-4.8352966E-1,3.921287E-1,2.4135282E0,-4.3965232E-1,-3.4879367E-3,-2.4470866E-1,1.3081045E0,-2.8794631E-3,2.9093874E0,-1.2628055E-1,-2.523877E-3,6.121444E-4,-1.2706573E-3,6.722606E-4,7.3375675E-4,-9.351822E-4,5.2486584E-3,1.19102625E-2,6.7443764E-3,-2.368708E-3,1.4004774E-3,-1.8695613E-3,-3.993075E-3,-3.0532784E-3,4.168128E-4,-2.6407938E-3,-2.8117714E-3,1.6214676E-3,-3.6947042E-4,9.265459E-3,-2.3508167E-3,7.6283974E-4,1.5303077E-3,-2.3394322E-3,6.1332234E-3,3.3136697E-3,2.51273E-3,1.087097E-2,-1.395122E-3,7.4600073E-4],"categories":[],"categories_nodes":[],"categories_segments":[],"categories_sizes":[],"default_left":[0,0,1,0,0,1,0,0,0,0,1,0,0,0,0,0,0,0,0,0,0,0,1,0,0,0,1,1,0,1,1,0,0,0,0,0,0,0,0,0,0,0,0,0,1,0,0,0,0,0,1,0,0,0,0,0,0,0,0,0,0,0,0,0,0,0,0,0,0,0,0,0,0,0,0,0,0,0,0,0,0,0,0,0,0,0,0],"id":8,"left_children":[1,3,5,7,9,11,13,15,17,19,21,23,25,27,29,-1,31,-1,33,35,37,39,41,43,45,47,49,51,-1,53,55,-1,-1,-1,57,-1,-1,59,-1,61,63,-1,-1,65,67,-1,69,71,73,75,77,-1,79,81,-1,83,85,-1,-1,-1,-1,-1,-1,-1,-1,-1,-1,-1,-1,-1,-1,-1,-1,-1,-1,-1,-1,-1,-1,-1,-1,-1,-1,-1,-1,-1,-1],"loss_changes":[8.276597E3,6.8118164E2,2.090566E3,3.8972767E1,4.1458984E2,1.0914009E3,3.37057E2,1.6489525E1,7.3315277E0,2.5516602E1,2.6101367E2,6.2484814E2,2.8677863E2,1.6425442E1,2.1461743E2,0E0,2.0501423E0,0E0,1.3067829E1,1.0459218E1,8.3770657E-1,7.150537E1,5.463011E0,9.909794E1,4.34979E2,7.026704E1,1.203096E2,3.2210617E0,0E0,1.025361E2,7.892761E1,0E0,0E0,0E0,5.0137825E0,0E0,0E0,1.8953843E0,0E0,1.2864275E0,5.640869E1,0E0,0E0,8.8355385E1,1.2260275E2,0E0,1.1831055E2,2.072323E1,3.801946E1,6.1417603E1,4.975051E0,0E0,9.837839E0,2.5740234E1,0E0,4.0605225E1,2.3103962E0,0E0,0E0,0E0,0E0,0E0,0E0,0E0,0E0,0E0,0E0,0E0,0E0,0E0,0E0,0E0,0E0,0E0,0E0,0E0,0E0,0E0,0E0,0E0,0E0,0E0,0E0,0E0,0E0,0E0,0E0],"parents":[2147483647,0,0,1,1,2,2,3,3,4,4,5,5,6,6,7,7,8,8,9,9,10,10,11,11,12,12,13,13,14,14,16,16,18,18,19,19,20,20,21,21,22,22,23,23,24,24,25,25,26,26,27,27,29,29,30,30,34,34,37,37,39,39,40,40,43,43,44,44,46,46,47,47,48,48,49,49,50,50,52,52,53,53,55,55,56,56],"right_children":[2,4,6,8,10,12,14,16,18,20,22,24,26,28,30,-1,32,-1,34,36,38,40,42,44,46,48,50,52,-1,54,56,-1,-1,-1,58,-1,-1,60,-1,62,64,-1,-1,66,68,-1,70,72,74,76,78,-1,80,82,-1,84,86,-1,-1,-1,-1,-1,-1,-1,-1,-1,-1,-1,-1,-1,-1,-1,-1,-1,-1,-1,-1,-1,-1,-1,-1,-1,-1,-1,-1,-1,-1],"split_conditions":[1.49E2,1.55E2,3.89E2,3.0206559E0,2.7150219E1,2.096514E2,1.5407169E2,4.1525293E2,1.1164384E1,7.8E1,2.7E1,7.8254695E0,1.7092369E3,8.96E2,8.16E2,-1.2716934E-3,1.0833333E1,-3.308135E-3,1.1542553E1,2E0,3.7326388E-2,1.2769118E-1,2.04E2,1.68E2,2E1,1.74E2,8.1E1,7.9E1,1.5435562E-3,1.7377321E1,3.2579913E0,4.91793E-3,3.4183744E-4,2.713367E-3,2.1944925E1,-1.0212639E-3,3.6002798E-3,2.3298612E-2,-2.7720085E-3,9.035714E0,2.2191956E2,-2.519487E-3,7.480387E-4,2E1,1.5717592E-2,9.6053E-3,2.4604167E-1,2.2815949E-1,1.4030118E-1,1.4030118E-1,1.2769118E-1,-3.4879367E-3,2.58E2,1.8422319E0,-2.8794631E-3,1.2039891E3,1.154E3,-2.523877E-3,6.121444E-4,-1.2706573E-3,6.722606E-4,7.3375675E-4,-9.351822E-4,5.2486584E-3,1.19102625E-2,6.7443764E-3,-2.368708E-3,1.4004774E-3,-1.8695613E-3,-3.993075E-3,-3.0532784E-3,4.168128E-4,-2.6407938E-3,-2.8117714E-3,1.6214676E-3,-3.6947042E-4,9.265459E-3,-2.3508167E-3,7.6283974E-4,1.5303077E-3,-2.3394322E-3,6.1332234E-3,3.3136697E-3,2.51273E-3,1.087097E-2,-1.395122E-3,7.4600073E-4],"split_indices":[5,0,0,2,1,1,1,1,5,2,2,2,1,0,0,0,5,0,5,3,1,2,0,0,0,0,0,2,0,2,2,0,0,0,5,0,0,1,0,5,1,0,0,0,1,0,1,2,2,2,2,0,2,2,0,1,0,0,0,0,0,0,0,0,0,0,0,0,0,0,0,0,0,0,0,0,0,0,0,0,0,0,0,0,0,0,0],"split_type":[0,0,0,0,0,0,0,0,0,0,0,0,0,0,0,0,0,0,0,0,0,0,0,0,0,0,0,0,0,0,0,0,0,0,0,0,0,0,0,0,0,0,0,0,0,0,0,0,0,0,0,0,0,0,0,0,0,0,0,0,0,0,0,0,0,0,0,0,0,0,0,0,0,0,0,0,0,0,0,0,0,0,0,0,0,0,0],"sum_hessian":[1.034671E4,7.7078687E2,9.575924E3,6.7945496E1,7.028414E2,9.110335E3,4.6558817E2,1.6903854E1,5.1041637E1,3.9046234E1,6.6379517E2,8.502276E3,6.0805914E2,6.340497E1,4.021832E2,4.288627E0,1.2615228E1,3.0975538E1,2.00661E1,1.4708082E1,2.4338152E1,6.4755066E2,1.6244513E1,9.396513E2,7.562625E3,5.0782697E2,1.0023217E2,5.7662407E1,5.742561E0,2.6623108E2,1.3595212E2,8.550426E0,4.064802E0,3.423551E0,1.664255E1,3.3536286E0,1.1354453E1,7.5551515E0,1.6783E1,6.1473994E0,6.4140326E2,1.3141577E1,3.1029363E0,2.892317E2,6.504197E2,2.3834482E1,7.5387905E3,1.10408905E2,3.9741806E2,8.584755E1,1.4384619E1,4.0577126E1,1.7085283E1,2.4731314E2,1.8917944E1,1.2800742E2,7.944701E0,1.3232693E1,3.409856E0,4.285917E0,3.2692347E0,3.1285515E0,3.018848E0,3.5794945E1,6.056083E2,5.809124E0,2.8342255E2,4.5964603E2,1.9077364E2,2.766986E3,4.771804E3,3.4997307E1,7.54116E1,1.7493605E1,3.7992444E2,7.6518455E0,7.81957E1,1.1307932E1,3.0766869E0,5.7937226E0,1.129156E1,9.4849655E1,1.5246349E2,1.4444228E1,1.1356319E2,4.8378906E0,3.1068103E0],"tree_param":{"num_deleted":"0","num_feature":"11","num_nodes":"87","size_leaf_vector":"1"}},{"base_weights":[-3.916387E-1,2.7337935E0,-6.5179896E-1,1.9760096E0,3.9429462E0,-7.626432E-1,1.1038536E0,1.7522553E-1,2.3723395E0,5.0378066E-1,1.4081542E-2,1.0553468E-2,-7.7802366E-1,6.050926E-1,1.9307115E0,-4.3979263E-1,6.6982716E-1,1.9798583E0,1.1935762E-2,3.3936263E-3,-1.1191752E-3,-1.0617248E0,-6.279873E-1,2.963989E-1,2.9058186E-3,5.308311E-3,9.272543E-3,-2.8081231E-3,-1.1164455E-2,-4.1333416E-1,1.0800089E0,2.407185E0,7.8736734E-1,-3.8141946E-3,-3.023102E-3,-6.422172E-1,-9.293726E-2,1.3594744E-3,-0E0,-1.9747482E-3,1.1905578E-3,-2.2692839E-3,7.408449E-4,4.851504E-3,-1.5403247E-3,1.034229E-2,6.534617E-3,3.3612454E-3,5.388302E-4,-2.7607172E-3,-2.1870704E-3,-7.9237175E-4,3.5758122E-4,-1.0797882E-3,9.515253E-4],"categories":[],"categories_nodes":[],"categories_segments":[],"categories_sizes":[],"default_left":[0,0,1,0,0,0,0,0,1,0,0,0,0,0,0,0,0,0,0,0,0,0,1,0,0,0,0,0,0,0,0,0,0,0,0,0,0,0,0,0,0,0,0,0,0,0,0,0,0,0,0,0,0,0,0],"id":9,"left_children":[1,3,5,7,9,11,13,15,17,19,-1,-1,21,23,25,27,29,31,-1,-1,-1,33,35,37,-1,-1,-1,-1,39,41,43,45,47,-1,-1,49,51,-1,53,-1,-1,-1,-1,-1,-1,-1,-1,-1,-1,-1,-1,-1,-1,-1,-1],"loss_changes":[8.45379E3,6.652261E2,1.8727756E3,3.5708716E2,7.612744E1,5.4297656E2,2.2479535E2,3.3129578E1,1.124834E2,9.665052E0,0E0,0E0,3.7630127E2,2.3140808E1,2.7259705E1,6.9863787E0,3.0557964E1,1.4630261E2,0E0,0E0,0E0,9.988281E0,4.3934326E1,4.8419743E0,0E0,0E0,0E0,0E0,7.8983784E0,4.6496515E0,2.7341377E1,2.1023438E1,8.804367E0,0E0,0E0,8.130615E0,4.5726824E0,0E0,4.742772E0,0E0,0E0,0E0,0E0,0E0,0E0,0E0,0E0,0E0,0E0,0E0,0E0,0E0,0E0,0E0,0E0],"parents":[2147483647,0,0,1,1,2,2,3,3,4,4,5,5,6,6,7,7,8,8,9,9,12,12,13,13,14,14,15,15,16,16,17,17,21,21,22,22,23,23,28,28,29,29,30,30,31,31,32,32,35,35,36,36,38,38],"right_children":[2,4,6,8,10,12,14,16,18,20,-1,-1,22,24,26,28,30,32,-1,-1,-1,34,36,38,-1,-1,-1,-1,40,42,44,46,48,-1,-1,50,52,-1,54,-1,-1,-1,-1,-1,-1,-1,-1,-1,-1,-1,-1,-1,-1,-1,-1],"split_conditions":[1.1706436E2,1.2364909E9,3.35E2,2.67E2,1.08E2,2E1,6.56E2,1.1765115E9,5.8E2,1.0588335E0,1.4081542E-2,1.0553468E-2,1.16E2,4.3E2,1.154E3,2E0,7.6E1,2E0,1.1935762E-2,3.3936263E-3,-1.1191752E-3,8.5E1,2.74E2,4.02E2,2.9058186E-3,5.308311E-3,9.272543E-3,-2.8081231E-3,1.1474377E9,1.2261002E9,2.14E2,5.552525E-1,6E0,-3.8141946E-3,-3.023102E-3,1.74E2,3.1E2,1.3594744E-3,4.14E2,-1.9747482E-3,1.1905578E-3,-2.2692839E-3,7.408449E-4,4.851504E-3,-1.5403247E-3,1.034229E-2,6.534617E-3,3.3612454E-3,5.388302E-4,-2.7607172E-3,-2.1870704E-3,-7.9237175E-4,3.5758122E-4,-1.0797882E-3,9.515253E-4],"split_indices":[6,7,0,0,0,0,0,7,0,6,0,0,0,0,0,4,0,6,0,0,0,0,0,0,0,0,0,0,7,7,0,6,4,0,0,0,0,0,0,0,0,0,0,0,0,0,0,0,0,0,0,0,0,0,0],"split_type":[0,0,0,0,0,0,0,0,0,0,0,0,0,0,0,0,0,0,0,0,0,0,0,0,0,0,0,0,0,0,0,0,0,0,0,0,0,0,0,0,0,0,0,0,0,0,0,0,0,0,0,0,0,0,0],"sum_hessian":[1.0373127E4,7.910241E2,9.582104E3,4.996436E2,2.913805E2,9.017726E3,5.6437744E2,9.255564E1,4.0708795E2,9.24381E0,2.821367E2,2.9927298E1,8.987798E3,3.612605E2,2.0311696E2,4.0979286E1,5.1576355E1,3.1359714E2,9.34908E1,5.551263E0,3.6925466E0,3.0904326E3,5.8973657E3,1.6261034E2,1.9865015E2,1.464869E2,5.6630066E1,1.738747E1,2.3591816E1,1.3649883E1,3.792647E1,2.2438995E2,8.920718E1,2.6261921E3,4.6424054E2,5.741662E3,1.5570357E2,1.22604004E2,4.0006336E1,8.097873E0,1.5493944E1,1.0534062E1,3.1158204E0,3.2479088E1,5.447382E0,9.130074E1,1.3308922E2,6.559647E1,2.3610708E1,4.941907E2,5.2474717E3,9.38143E1,6.1889267E1,1.8788345E1,2.121799E1],"tree_param":{"num_deleted":"0","num_feature":"11","num_nodes":"55","size_leaf_vector":"1"}},{"base_weights":[-4.173199E-1,2.6795144E0,-6.7402804E-1,1.8572409E0,3.7633512E0,-7.9364043E-1,1.2597437E0,-2.664629E-3,2.2674572E0,3.7660846E-1,3.8629897E0,-0E0,-9.2342407E-1,6.923957E-1,2.2749667E0,2.4361422E0,-2.8749781E-3,3.166717E-3,-1.3601049E-3,3.920942E0,3.7179595E-1,-4.536578E-1,1.6481864E-1,-7.869437E-1,-1.1151148E0,-7.257151E-1,8.252212E-1,2.7727488E-1,2.6897616E0,2.659669E0,1.0538466E0,2.2315502E-3,3.9468381E0,-9.802756E-4,2.8799805E-3,5.78928E-3,-5.407469E-1,2.976905E-1,-4.3301922E-1,-1.0758077E0,-6.1597484E-1,-1.1289052E0,-2.4912208E-1,-3.239149E-2,-2.9726971E-3,5.055512E-1,1.1256185E0,3.2296414E-3,-5.0624986E-3,6.6345003E-3,1.1220174E-2,-0E0,9.436891E-3,-1.4125762E-3,4.2919484E-3,2.2955958E-3,1.3856033E-2,-3.1584888E-3,-1.2748919E-3,-6.145217E-4,1.4436505E-3,-1.9163107E-3,-1.7690969E-4,5.813495E-4,-3.7799613E-3,-2.2344964E-3,4.541915E-5,-3.988738E-3,-2.812383E-3,-1.4095462E-3,1.7075622E-3,-1.1013997E-3,7.7468634E-4,1.185578E-3,3.6697278E-3,1.4383803E-4,4.144851E-3,-1.8772356E-3,2.2894533E-3],"categories":[],"categories_nodes":[],"categories_segments":[],"categories_sizes":[],"default_left":[0,0,1,0,0,0,0,0,1,0,1,0,1,0,0,0,0,0,0,0,0,0,0,0,1,0,0,0,0,0,0,0,0,0,0,0,0,0,0,0,1,1,0,0,0,1,0,0,0,0,0,0,0,0,0,0,0,0,0,0,0,0,0,0,0,0,0,0,0,0,0,0,0,0,0,0,0,0,0],"id":10,"left_children":[1,3,5,7,9,11,13,-1,15,17,19,21,23,25,27,29,-1,-1,-1,31,33,35,37,39,41,43,45,47,49,51,53,-1,55,-1,-1,-1,57,59,61,63,65,67,69,71,-1,73,75,-1,77,-1,-1,-1,-1,-1,-1,-1,-1,-1,-1,-1,-1,-1,-1,-1,-1,-1,-1,-1,-1,-1,-1,-1,-1,-1,-1,-1,-1,-1,-1],"loss_changes":[8.223821E3,6.4557715E2,2.2153062E3,5.1665796E2,9.768848E1,9.260249E2,3.0695563E2,0E0,2.2887354E2,1.0808432E1,5.041992E1,9.5846306E1,1.9375293E2,7.465054E1,1.544743E2,9.430713E1,0E0,0E0,0E0,3.2207031E0,6.5147176E0,6.926303E1,7.5494865E1,2.1785059E2,3.484619E1,2.2282295E0,2.714798E1,8.597915E0,1.4025513E1,3.8827393E1,2.2000252E1,0E0,7.8222656E-1,0E0,0E0,0E0,1.778939E1,4.3320053E1,7.012951E0,1.7955933E1,4.4786865E1,5.682129E0,8.521612E0,1.6933297E0,0E0,1.2563126E1,1.0122269E1,0E0,1.5832926E1,0E0,0E0,0E0,0E0,0E0,0E0,0E0,0E0,0E0,0E0,0E0,0E0,0E0,0E0,0E0,0E0,0E0,0E0,0E0,0E0,0E0,0E0,0E0,0E0,0E0,0E0,0E0,0E0,0E0,0E0],"parents":[2147483647,0,0,1,1,2,2,3,3,4,4,5,5,6,6,8,8,9,9,10,10,11,11,12,12,13,13,14,14,15,15,19,19,20,20,21,21,22,22,23,23,24,24,25,25,26,26,27,27,28,28,29,29,30,30,32,32,36,36,37,37,38,38,39,39,40,40,41,41,42,42,43,43,45,45,46,46,48,48],"right_children":[2,4,6,8,10,12,14,-1,16,18,20,22,24,26,28,30,-1,-1,-1,32,34,36,38,40,42,44,46,48,50,52,54,-1,56,-1,-1,-1,58,60,62,64,66,68,70,72,-1,74,76,-1,78,-1,-1,-1,-1,-1,-1,-1,-1,-1,-1,-1,-1,-1,-1,-1,-1,-1,-1,-1,-1,-1,-1,-1,-1,-1,-1,-1,-1,-1,-1],"split_conditions":[1.1706436E2,1.2300516E9,4.1525293E2,1.9783347E2,1.5056783E1,1.5772124E1,1.5688297E3,-2.664629E-3,2E1,3.68E2,2.6605381E1,1.5407169E2,2E1,1.4030118E-1,2.4402829E-1,2.5651848E0,-2.8749781E-3,3.166717E-3,-1.3601049E-3,3.920817E1,1.1E1,2.0844907E-2,3.2579913E0,1.1052604E1,4.0935187E0,5.9519916E2,7.940639E2,1.7092369E3,2.4141543E3,1.1068252E-1,6.9481165E2,2.2315502E-3,1.7158669E-1,-9.802756E-4,2.8799805E-3,5.78928E-3,2.0811724E1,2.4402829E-1,1.0424733E1,1.7377321E1,2.2191956E2,3.1688657E-1,2.0811724E1,5.144735E2,-2.9726971E-3,6.5144336E-1,1.9997834E-1,3.2296414E-3,2.8381294E3,6.6345003E-3,1.1220174E-2,-0E0,9.436891E-3,-1.4125762E-3,4.2919484E-3,2.2955958E-3,1.3856033E-2,-3.1584888E-3,-1.2748919E-3,-6.145217E-4,1.4436505E-3,-1.9163107E-3,-1.7690969E-4,5.813495E-4,-3.7799613E-3,-2.2344964E-3,4.541915E-5,-3.988738E-3,-2.812383E-3,-1.4095462E-3,1.7075622E-3,-1.1013997E-3,7.7468634E-4,1.185578E-3,3.6697278E-3,1.4383803E-4,4.144851E-3,-1.8772356E-3,2.2894533E-3],"split_indices":[6,7,1,1,1,2,1,0,2,2,2,1,2,2,2,6,0,0,0,1,4,1,2,1,1,1,1,1,1,2,1,0,2,0,0,0,1,2,2,2,1,1,1,1,0,2,2,0,1,0,0,0,0,0,0,0,0,0,0,0,0,0,0,0,0,0,0,0,0,0,0,0,0,0,0,0,0,0,0],"split_type":[0,0,0,0,0,0,0,0,0,0,0,0,0,0,0,0,0,0,0,0,0,0,0,0,0,0,0,0,0,0,0,0,0,0,0,0,0,0,0,0,0,0,0,0,0,0,0,0,0,0,0,0,0,0,0,0,0,0,0,0,0,0,0,0,0,0,0,0,0,0,0,0,0,0,0,0,0,0,0],"sum_hessian":[1.0320294E4,7.8398315E2,9.536311E3,4.585517E2,3.2543146E2,8.985625E3,5.506852E2,6.0874874E1,3.9767682E2,1.0610579E1,3.148209E2,1.2644149E3,7.7212104E3,3.6239355E2,1.8829164E2,3.7894202E2,1.8734827E1,5.9701614E0,4.640417E0,3.0849866E2,6.3222394E0,3.3379553E2,9.306194E2,4.536297E3,3.1849136E3,2.748818E1,3.3490536E2,3.4984955E1,1.5330669E2,3.1934802E2,5.959399E1,4.2555375E0,3.042431E2,3.1697402E0,3.1524992E0,7.1411643E0,3.266544E2,7.6571277E2,1.6490663E2,1.6692157E3,2.8670813E3,3.1317449E3,5.316858E1,6.7000737E0,2.0788107E1,1.7387877E2,1.610266E2,5.869645E0,2.9115309E1,7.67547E1,7.655198E1,5.5200086E0,3.13828E2,4.847843E0,5.4746147E1,4.1306267E0,3.001125E2,9.386297E1,2.3279141E2,1.4859804E2,6.1711475E2,1.2227757E2,4.2629055E1,8.522052E0,1.6606936E3,2.7607212E3,1.0636008E2,2.9768613E3,1.5488359E2,4.779093E1,5.3776474E0,3.6446075E0,3.0554662E0,1.4443372E2,2.9445063E1,1.0133E1,1.508936E2,1.7573967E1,1.1541342E1],"tree_param":{"num_deleted":"0","num_feature":"11","num_nodes":"79","size_leaf_vector":"1"}},{"base_weights":[-4.0864307E-1,2.5841873E0,-6.587682E-1,-2.7955514E-1,2.8309348E0,-7.881937E-1,9.764452E-1,3.2911953E-1,-6.831761E-1,1.5367319E-1,3.01883E0,1.2953858E-1,-9.1305846E-1,4.5403054E-1,1.9909183E0,-1.9617563E-3,8.369374E-1,5.299173E-4,-2.799546E-3,1.4690534E0,-7.6665056E-1,3.099444E0,-4.4109315E-1,1.5698171E-3,1.8735157E0,-9.3760014E-1,1.9710808E0,1.1846832E-1,1.5270623E0,3.966274E-1,2.4349308E0,-1.2241289E-3,4.360794E-3,6.4575323E-3,-1.0101367E-3,-3.2187633E-3,7.6363696E-4,2.5011122E0,3.5074034E0,7.4356963E-4,-2.351821E-3,-4.9843827E-1,2.2069095E-1,2.2720666E0,1.2210675E-1,8.582869E-3,-9.486023E-1,-3.0804121E-1,2.4764762E0,3.722673E-1,-3.0776125E-1,5.5997767E-3,-0E0,-3.8713217E-1,9.1178536E-1,4.4681963E-1,9.369768E-3,-1.2966162E-3,8.918038E-3,4.351735E-4,1.234133E-2,7.5263204E-3,-2.1653243E-3,-1.7614312E-3,1.6305118E-3,7.432526E-4,8.178494E-3,2.660115E-3,-9.981364E-4,-3.4268606E-3,-5.9041206E-4,-1.9674806E-3,7.608709E-4,-0E0,9.5998505E-3,1.3802716E-4,2.4714465E-3,-2.0755331E-3,3.0907997E-4,-2.5558912E-3,8.4269675E-4,4.7699213E-3,-8.2827354E-4,-4.6902744E-4,3.8029049E-3],"categories":[],"categories_nodes":[],"categories_segments":[],"categories_sizes":[],"default_left":[0,0,1,0,0,0,0,0,0,0,1,1,1,1,0,0,0,0,0,0,0,0,0,0,0,0,0,1,1,0,0,0,0,0,0,0,0,0,0,0,0,0,0,0,0,0,1,1,0,1,0,0,0,1,0,0,0,0,0,0,0,0,0,0,0,0,0,0,0,0,0,0,0,0,0,0,0,0,0,0,0,0,0,0,0],"id":11,"left_children":[1,3,5,7,9,11,13,15,17,19,21,23,25,27,29,-1,31,-1,-1,33,35,37,39,41,43,45,47,49,51,53,55,-1,-1,-1,-1,-1,-1,57,59,-1,-1,61,63,65,67,-1,69,71,73,75,77,-1,-1,79,81,83,-1,-1,-1,-1,-1,-1,-1,-1,-1,-1,-1,-1,-1,-1,-1,-1,-1,-1,-1,-1,-1,-1,-1,-1,-1,-1,-1,-1,-1],"loss_changes":[7.7143486E3,5.69999E2,2.017022E3,1.9295792E1,3.6257764E2,1.0110879E3,3.6194586E2,1.8753567E1,5.9940796E0,7.828883E1,2.0376416E2,2.3545827E2,5.630757E2,1.6762762E2,1.565711E2,0E0,1.6229923E1,0E0,0E0,2.3226543E1,8.035921E0,8.8625E1,4.9089155E0,1.09940056E2,4.6352966E1,3.0530615E2,8.580484E1,4.0942284E1,1.2994629E1,2.7919193E1,7.8697876E1,0E0,0E0,0E0,0E0,0E0,0E0,5.6642822E1,3.1826172E1,0E0,0E0,1.0865176E2,1.2713101E2,2.6837158E0,7.908055E0,0E0,1.9883643E2,3.8250484E0,3.8571777E1,2.5645058E1,1.6870544E1,0E0,0E0,8.151922E0,2.4311424E1,1.3225853E1,0E0,0E0,0E0,0E0,0E0,0E0,0E0,0E0,0E0,0E0,0E0,0E0,0E0,0E0,0E0,0E0,0E0,0E0,0E0,0E0,0E0,0E0,0E0,0E0,0E0,0E0,0E0,0E0,0E0],"parents":[2147483647,0,0,1,1,2,2,3,3,4,4,5,5,6,6,7,7,8,8,9,9,10,10,11,11,12,12,13,13,14,14,16,16,19,19,20,20,21,21,22,22,23,23,24,24,25,25,26,26,27,27,28,28,29,29,30,30,37,37,38,38,41,41,42,42,43,43,44,44,46,46,47,47,48,48,49,49,50,50,53,53,54,54,55,55],"right_children":[2,4,6,8,10,12,14,16,18,20,22,24,26,28,30,-1,32,-1,-1,34,36,38,40,42,44,46,48,50,52,54,56,-1,-1,-1,-1,-1,-1,58,60,-1,-1,62,64,66,68,-1,70,72,74,76,78,-1,-1,80,82,84,-1,-1,-1,-1,-1,-1,-1,-1,-1,-1,-1,-1,-1,-1,-1,-1,-1,-1,-1,-1,-1,-1,-1,-1,-1,-1,-1,-1,-1],"split_conditions":[1.1706436E2,4.2992397E1,2.6460248E2,7.8E1,1.55E2,7.8254695E0,1.3107756E3,1.34E2,3E1,3.0206559E0,2.7E1,4.81E2,8.16E2,3.02E2,6.56E2,-1.9617563E-3,2E0,5.299173E-4,-2.799546E-3,1.28E1,3.1E1,4E0,4.3E2,1.74E2,1.5415287E0,2E1,1.465E3,2E1,1.5415287E0,3.45E2,2.4402829E-1,-1.2241289E-3,4.360794E-3,6.4575323E-3,-1.0101367E-3,-3.2187633E-3,7.6363696E-4,1.2769118E-1,1.7158669E-1,7.4356963E-4,-2.351821E-3,2E1,1.7393646E2,2.4402829E-1,5.26E2,8.582869E-3,2.74E2,1.3914606E1,2.3502391E2,1.4030118E-1,1.63E2,5.5997767E-3,-0E0,1.1068252E-1,4.81E2,2.8381294E3,9.369768E-3,-1.2966162E-3,8.918038E-3,4.351735E-4,1.234133E-2,7.5263204E-3,-2.1653243E-3,-1.7614312E-3,1.6305118E-3,7.432526E-4,8.178494E-3,2.660115E-3,-9.981364E-4,-3.4268606E-3,-5.9041206E-4,-1.9674806E-3,7.608709E-4,-0E0,9.5998505E-3,1.3802716E-4,2.4714465E-3,-2.0755331E-3,3.0907997E-4,-2.5558912E-3,8.4269675E-4,4.7699213E-3,-8.2827354E-4,-4.6902744E-4,3.8029049E-3],"split_indices":[6,1,1,2,0,2,1,0,0,2,2,0,0,0,0,0,3,0,0,5,3,3,0,0,2,0,2,0,2,0,2,0,0,0,0,0,0,2,2,0,0,0,1,2,0,0,0,1,1,2,0,0,0,2,0,1,0,0,0,0,0,0,0,0,0,0,0,0,0,0,0,0,0,0,0,0,0,0,0,0,0,0,0,0,0],"split_type":[0,0,0,0,0,0,0,0,0,0,0,0,0,0,0,0,0,0,0,0,0,0,0,0,0,0,0,0,0,0,0,0,0,0,0,0,0,0,0,0,0,0,0,0,0,0,0,0,0,0,0,0,0,0,0,0,0,0,0,0,0,0,0,0,0,0,0,0,0,0,0,0,0,0,0,0,0,0,0,0,0,0,0,0,0],"sum_hessian":[1.0280936E4,7.869518E2,9.493983E3,6.210233E1,7.248494E2,8.801932E3,6.920523E2,2.4614384E1,3.7487946E1,4.8752125E1,6.760973E2,1.0533956E3,7.7485356E3,4.649627E2,2.270896E2,8.087669E0,1.6526716E1,3.6267233E0,3.386122E1,1.8433641E1,3.0318481E1,6.61731E2,1.43663025E1,9.8926324E2,6.413232E1,7.6887837E3,5.9752235E1,3.6151266E2,1.0345002E2,5.3142628E1,1.7394698E2,4.1082177E0,1.2418498E1,1.5148493E1,3.2851484E0,2.7273933E1,3.0445473E0,2.9220462E2,3.695264E2,3.1108534E0,1.1255449E1,2.9727805E2,6.919852E2,4.9953804E1,1.417851E1,1.8834948E1,7.6699487E3,1.1145659E1,4.8606575E1,2.2832382E2,1.3318886E2,9.793246E1,5.51756E0,2.12927E1,3.1849928E1,2.230435E1,1.5164262E2,4.361587E0,2.8784305E2,3.8124058E0,3.65714E2,6.9299994E0,2.9034805E2,1.7265617E2,5.1932904E2,3.1117303E0,4.684207E1,3.5213003E0,1.0657209E1,7.350088E3,3.198607E2,8.065553E0,3.0801067E0,5.659206E0,4.2947372E1,1.20361694E2,1.0796213E2,7.5998886E1,5.7189972E1,1.3652578E1,7.640121E0,2.2186655E1,9.663273E0,1.4439518E1,7.864833E0],"tree_param":{"num_deleted":"0","num_feature":"11","num_nodes":"85","size_leaf_vector":"1"}},{"base_weights":[-4.0540168E-1,2.63769E0,-6.6114205E-1,1.8823055E0,3.8576686E0,-7.692715E-1,1.3810602E0,-4.5552582E-1,2.2040508E0,-1.6893019E-3,1.3839452E-2,1.1323994E-2,-7.867819E-1,8.169855E-1,8.644801E-3,-7.7587056E-1,-0E0,1.0958937E-2,1.7308747E0,-1.0656124E0,-6.1559904E-1,2.929342E-3,1.0933849E-3,7.676754E-4,-3.2390882E-3,2.697112E-3,-4.0109858E-1,1.3190172E0,2.842994E0,-3.930356E-3,-3.0202293E-3,-6.360648E-1,7.146925E-2,3.3436675E-4,-2.4556348E-3,5.8632046E-3,1.4245893E-3,1.0475233E-2,1.3223442E-3,-2.2732695E-3,-1.5914552E-3,5.3173484E-4,-1.8588455E-4],"categories":[],"categories_nodes":[],"categories_segments":[],"categories_sizes":[],"default_left":[0,0,1,0,0,0,0,0,0,0,0,0,0,0,0,0,0,0,1,0,1,0,0,0,0,0,0,0,0,0,0,1,0,0,0,0,0,0,0,0,0,0,0],"id":12,"left_children":[1,3,5,7,9,11,13,15,17,-1,-1,-1,19,21,-1,23,25,-1,27,29,31,-1,-1,-1,-1,-1,33,35,37,-1,-1,39,41,-1,-1,-1,-1,-1,-1,-1,-1,-1,-1],"loss_changes":[8.0431895E3,6.759575E2,2.1115454E3,3.9369653E2,1.5917578E2,6.5504346E2,2.7917682E2,9.672447E0,1.5261206E2,0E0,0E0,0E0,4.2399268E2,7.9122925E-1,0E0,8.177431E0,1.3713309E1,0E0,1.1243457E2,3.2313965E1,7.9658936E1,0E0,0E0,0E0,0E0,0E0,5.4635763E0,7.4401764E1,1.9171875E1,0E0,0E0,1.1978027E1,1.8394167E0,0E0,0E0,0E0,0E0,0E0,0E0,0E0,0E0,0E0,0E0],"parents":[2147483647,0,0,1,1,2,2,3,3,4,4,5,5,6,6,7,7,8,8,12,12,13,13,15,15,16,16,18,18,19,19,20,20,26,26,27,27,28,28,31,31,32,32],"right_children":[2,4,6,8,10,12,14,16,18,-1,-1,-1,20,22,-1,24,26,-1,28,30,32,-1,-1,-1,-1,-1,34,36,38,-1,-1,40,42,-1,-1,-1,-1,-1,-1,-1,-1,-1,-1],"split_conditions":[1.1706436E2,1.238813E9,3.89E2,1.77E2,1.08E2,2E1,8.16E2,8.7E1,4.0392178E-1,-1.6893019E-3,1.3839452E-2,1.1323994E-2,1.55E2,7.52E2,8.644801E-3,2.1E1,1E2,1.0958937E-2,4.44E2,8.5E1,3.1E2,2.929342E-3,1.0933849E-3,7.676754E-4,-3.2390882E-3,2.697112E-3,8.125E0,3E0,6E0,-3.930356E-3,-3.0202293E-3,1.9E2,3.54E2,3.3436675E-4,-2.4556348E-3,5.8632046E-3,1.4245893E-3,1.0475233E-2,1.3223442E-3,-2.2732695E-3,-1.5914552E-3,5.3173484E-4,-1.8588455E-4],"split_indices":[6,7,0,0,0,0,0,0,6,0,0,0,0,0,0,0,0,0,0,0,0,0,0,0,0,0,5,3,4,0,0,0,0,0,0,0,0,0,0,0,0,0,0],"split_type":[0,0,0,0,0,0,0,0,0,0,0,0,0,0,0,0,0,0,0,0,0,0,0,0,0,0,0,0,0,0,0,0,0,0,0,0,0,0,0,0,0,0,0],"sum_hessian":[1.0310981E4,7.933351E2,9.517646E3,5.0293808E2,2.9039703E2,9.044147E3,4.7349902E2,6.015931E1,4.4277875E2,6.2647467E0,2.841323E2,3.266602E1,9.011481E3,3.2236917E2,1.5112985E2,3.1548168E1,2.861114E1,1.3286884E2,3.099099E2,3.4103196E3,5.6011616E3,3.0197488E2,2.0394274E1,3.0679178E0,2.8480251E1,6.9286346E0,2.1682505E1,2.3944344E2,7.0466484E1,2.5828628E3,8.274569E2,5.4407783E3,1.6038333E2,9.350451E0,1.2332053E1,1.659673E2,7.347614E1,6.425431E1,6.2121778E0,4.9862534E3,4.5452475E2,9.9823494E1,6.0559837E1],"tree_param":{"num_deleted":"0","num_feature":"11","num_nodes":"43","size_leaf_vector":"1"}},{"base_weights":[-3.8208172E-1,2.60545E0,-6.354382E-1,1.7027543E0,3.7160256E0,-7.8708273E-1,1.0446587E0,-5.9027034E-1,2.1600022E0,8.024993E-1,3.8407576E0,5.065044E-2,-9.192507E-1,5.723548E-1,2.3347301E0,-8.496641E-1,2.788754E-1,2.3650591E0,-3.0299127E-3,-1.6290344E-3,1.4369663E0,1.3552576E-2,2.7730997E-4,3.5065714E-1,-5.378853E-1,-1.1251796E0,-7.996176E-1,4.0007716E-1,1.108856E0,7.471083E-1,2.6580489E0,-3.4628883E-3,-3.1969857E-1,9.0335655E-1,-1.8528312E-3,2.580978E0,8.998076E-1,5.654287E-3,5.025984E-4,6.143243E-1,-5.5625252E-2,-6.49623E-1,-1.3333102E-1,-3.9488652E-1,-3.941095E-3,-6.441801E-1,-1.0555935E0,2.0233764E-1,1.0880617E0,-2.1987928E-3,1.2895231E0,-4.42064E-2,1.0752691E0,6.921191E-3,1.2169745E-2,7.263536E-4,-2.3341067E-3,1.9233809E-4,3.8565309E-3,-0E0,9.152546E-3,3.7205575E-3,-1.2914998E-3,7.334945E-4,3.042289E-3,-6.212583E-4,7.578145E-3,-3.1669291E-3,-1.747061E-3,-2.4139325E-3,1.0493464E-3,-2.2768916E-3,-0E0,-3.2854576E-3,-2.1581412E-3,-3.8572606E-3,-2.2181685E-3,1.2653053E-3,-1.5406461E-3,4.0426482E-3,-0E0,3.1143837E-3,6.1292253E-3,-2.0827386E-3,2.4939417E-3,5.5039404E-3,5.6316715E-4],"categories":[],"categories_nodes":[],"categories_segments":[],"categories_sizes":[],"default_left":[0,0,1,0,0,0,0,0,1,0,1,1,0,0,0,0,0,0,0,0,0,0,0,0,0,0,1,1,0,0,0,0,0,0,0,0,0,0,0,0,1,0,0,0,0,0,1,1,0,0,1,0,0,0,0,0,0,0,0,0,0,0,0,0,0,0,0,0,0,0,0,0,0,0,0,0,0,0,0,0,0,0,0,0,0,0,0],"id":13,"left_children":[1,3,5,7,9,11,13,15,17,19,21,23,25,27,29,31,33,35,-1,-1,37,-1,-1,39,41,43,45,47,49,51,53,-1,55,57,-1,59,61,-1,-1,63,65,67,69,71,-1,73,75,77,79,-1,81,83,85,-1,-1,-1,-1,-1,-1,-1,-1,-1,-1,-1,-1,-1,-1,-1,-1,-1,-1,-1,-1,-1,-1,-1,-1,-1,-1,-1,-1,-1,-1,-1,-1,-1,-1],"loss_changes":[7.800758E3,7.530176E2,2.4249233E3,4.9336377E2,1.00506836E2,9.65603E2,4.677973E2,2.0916037E1,2.568324E2,2.6181452E1,4.99209E1,2.1218881E2,1.7675098E2,4.9711792E1,8.849744E1,1.482872E0,1.6432194E1,9.367908E1,0E0,0E0,1.3162804E0,0E0,0E0,8.6019714E1,1.704921E1,4.1098633E0,1.8387573E2,5.972615E1,5.0203705E1,1.3305956E1,3.533484E1,0E0,6.437458E0,1.5967388E0,0E0,3.2671875E1,1.6253067E1,0E0,0E0,4.819937E1,8.882093E1,7.374817E0,2.6035244E1,3.3661218E0,0E0,1.7049683E1,3.0723267E1,3.914252E1,7.9755096E0,0E0,9.095596E0,1.2044628E1,1.2297142E1,0E0,0E0,0E0,0E0,0E0,0E0,0E0,0E0,0E0,0E0,0E0,0E0,0E0,0E0,0E0,0E0,0E0,0E0,0E0,0E0,0E0,0E0,0E0,0E0,0E0,0E0,0E0,0E0,0E0,0E0,0E0,0E0,0E0,0E0],"parents":[2147483647,0,0,1,1,2,2,3,3,4,4,5,5,6,6,7,7,8,8,9,9,10,10,11,11,12,12,13,13,14,14,15,15,16,16,17,17,20,20,23,23,24,24,25,25,26,26,27,27,28,28,29,29,30,30,32,32,33,33,35,35,36,36,39,39,40,40,41,41,42,42,43,43,45,45,46,46,47,47,48,48,50,50,51,51,52,52],"right_children":[2,4,6,8,10,12,14,16,18,20,22,24,26,28,30,32,34,36,-1,-1,38,-1,-1,40,42,44,46,48,50,52,54,-1,56,58,-1,60,62,-1,-1,64,66,68,70,72,-1,74,76,78,80,-1,82,84,86,-1,-1,-1,-1,-1,-1,-1,-1,-1,-1,-1,-1,-1,-1,-1,-1,-1,-1,-1,-1,-1,-1,-1,-1,-1,-1,-1,-1,-1,-1,-1,-1,-1,-1],"split_conditions":[1.1706436E2,1.2292132E9,2.2191956E2,3.7315134E2,3.920817E1,1.7377321E1,1.5688297E3,1.9783347E2,6.5068655E0,1.2437288E9,3E1,3.2986112E-2,2.4604167E-1,9.400959E2,2.2815949E-1,1.3914606E1,2E0,2.2063105E0,-3.0299127E-3,-1.6290344E-3,3.68E2,1.3552576E-2,2.7730997E-4,1.3621219E0,1.25196304E2,8.1018516E-4,2E1,6.174208E-1,1.4030118E-1,1.1068252E-1,2.8381294E3,-3.4628883E-3,5.599374E1,1.2063396E9,-1.8528312E-3,1.1068252E-1,1.2121847E9,5.654287E-3,5.025984E-4,3.593688E-1,2.3958334E-3,1.8495243E1,7.9574627E-1,9.6E1,-3.941095E-3,5.969028E0,3.1688657E-1,2.753936E-1,6.9481165E2,-2.1987928E-3,2.4402829E-1,3.2688708E3,1.5536362E-1,6.921191E-3,1.2169745E-2,7.263536E-4,-2.3341067E-3,1.9233809E-4,3.8565309E-3,-0E0,9.152546E-3,3.7205575E-3,-1.2914998E-3,7.334945E-4,3.042289E-3,-6.212583E-4,7.578145E-3,-3.1669291E-3,-1.747061E-3,-2.4139325E-3,1.0493464E-3,-2.2768916E-3,-0E0,-3.2854576E-3,-2.1581412E-3,-3.8572606E-3,-2.2181685E-3,1.2653053E-3,-1.5406461E-3,4.0426482E-3,-0E0,3.1143837E-3,6.1292253E-3,-2.0827386E-3,2.4939417E-3,5.5039404E-3,5.6316715E-4],"split_indices":[6,7,1,1,1,2,1,1,2,7,2,1,1,1,2,1,3,6,0,0,2,0,0,2,1,1,2,2,2,2,1,0,1,7,0,2,7,0,0,2,1,1,2,2,0,1,1,2,1,0,2,1,2,0,0,0,0,0,0,0,0,0,0,0,0,0,0,0,0,0,0,0,0,0,0,0,0,0,0,0,0,0,0,0,0,0,0],"split_type":[0,0,0,0,0,0,0,0,0,0,0,0,0,0,0,0,0,0,0,0,0,0,0,0,0,0,0,0,0,0,0,0,0,0,0,0,0,0,0,0,0,0,0,0,0,0,0,0,0,0,0,0,0,0,0,0,0,0,0,0,0,0,0,0,0,0,0,0,0,0,0,0,0,0,0,0,0,0,0,0,0,0,0,0,0,0,0],"sum_hessian":[1.0282424E4,7.977761E2,9.484647E3,4.5165604E2,3.461201E2,8.70376E3,7.808878E2,7.443089E1,3.7722516E2,1.6903454E1,3.2921664E2,1.1859624E3,7.517797E3,5.8051666E2,2.0037115E2,5.812292E1,1.6307974E1,3.551794E2,2.2045748E1,5.9470444E0,1.095641E1,3.2498486E2,4.2317514E0,7.885228E2,3.9743958E2,2.7354685E3,4.7823286E3,4.5106833E2,1.2944832E2,3.878578E1,1.6158537E2,3.9157345E1,1.8965578E1,9.206036E0,7.1019382E0,3.0379446E2,5.1384953E1,7.307772E0,3.6486378E0,4.7681265E2,3.117102E2,3.061707E2,9.126889E1,2.1777245E1,2.7136912E3,2.994868E3,1.7874608E3,3.5927304E2,9.179527E1,9.915073E0,1.1953324E2,1.2737634E1,2.604815E1,1.04655365E2,5.6930008E1,7.991729E0,1.0973849E1,4.4453645E0,4.7606716E0,5.2265244E0,2.9856793E2,4.708342E1,4.3015313E0,1.9244635E2,2.843663E2,3.0278433E2,8.925874E0,9.522026E1,2.1095041E2,3.858168E1,5.268721E1,1.07927065E1,1.0984537E1,2.1241777E2,2.7824502E3,1.5840642E3,2.0339655E2,2.9138718E2,6.7885864E1,8.59376E1,5.8576803E0,7.81194E1,4.141384E1,8.930453E0,3.8071806E0,1.2522881E1,1.3525268E1],"tree_param":{"num_deleted":"0","num_feature":"11","num_nodes":"87","size_leaf_vector":"1"}},{"base_weights":[-3.997E-1,2.5447814E0,-6.489254E-1,-7.958365E-1,2.7745585E0,-7.917531E-1,9.6363914E-1,7.829976E-4,-8.988685E-1,2.9033806E0,-5.243456E-1,-8.46747E-1,1.1932557E0,4.5865276E-1,2.054907E0,-3.4452206E-3,-1.8207835E-1,1.5487654E0,3.1734464E0,1.3220853E-3,-2.9732022E-3,-9.336279E-2,-9.414859E-1,5.592885E-1,2.4273474E0,2.27092E-1,1.2365994E0,-4.0667947E-2,2.3583484E0,7.3004933E-4,-1.5680193E-3,-6.452405E-2,1.818382E0,5.024859E-1,3.225233E0,-6.607982E-1,3.8467254E-2,9.445128E-3,-9.553158E-1,-6.314605E-1,8.9985955E-1,2.6150732E0,-1.1533512E-3,1.1908379E-1,1.0903921E0,3.287635E-1,1.3383602E0,-5.6064016E-1,6.346892E-1,6.3765717E-1,2.5731204E0,-2.3427997E-3,2.2830253E-3,6.909167E-3,2.2605653E-3,2.7767958E-3,1.742025E-4,4.541767E-3,1.1556779E-2,6.735603E-3,-2.9228828E-3,8.548858E-4,-1.3649372E-3,-3.4185029E-3,-4.491891E-4,-2.9620954E-3,-2.0255905E-4,3.938339E-3,-1.7206956E-3,1.9678644E-4,9.635317E-3,-2.3940728E-4,1.329031E-3,4.42193E-3,-1.0006094E-3,-1.5805595E-3,2.8606066E-3,4.8541673E-3,8.262468E-5,3.4445012E-4,-2.6147778E-3,4.3342365E-3,-1.4099239E-3,-0E0,4.33105E-3,7.26069E-3,1.1594165E-2],"categories":[],"categories_nodes":[],"categories_segments":[],"categories_sizes":[],"default_left":[0,0,1,0,1,1,0,0,0,0,0,0,0,1,0,0,0,0,0,0,0,0,0,0,1,1,0,1,0,0,0,1,0,0,0,0,1,0,1,0,1,0,0,0,0,0,1,0,0,0,0,0,0,0,0,0,0,0,0,0,0,0,0,0,0,0,0,0,0,0,0,0,0,0,0,0,0,0,0,0,0,0,0,0,0,0,0],"id":14,"left_children":[1,3,5,7,9,11,13,-1,15,17,19,21,23,25,27,-1,29,31,33,-1,-1,35,37,39,41,43,45,47,49,-1,-1,51,53,55,57,59,61,-1,63,65,67,69,-1,71,73,75,77,79,81,83,85,-1,-1,-1,-1,-1,-1,-1,-1,-1,-1,-1,-1,-1,-1,-1,-1,-1,-1,-1,-1,-1,-1,-1,-1,-1,-1,-1,-1,-1,-1,-1,-1,-1,-1,-1,-1],"loss_changes":[7.573916E3,6.3752734E2,2.1957017E3,8.20462E0,3.3514062E2,9.6177637E2,4.1861377E2,0E0,1.1661949E0,2.2364795E2,1.3301385E1,6.057832E2,1.73504E2,9.425878E1,1.5699341E2,0E0,2.690552E0,6.195697E1,6.713965E1,0E0,0E0,7.249396E1,4.0071143E2,7.305359E1,4.910144E1,3.7973267E1,6.4722595E0,1.6251045E1,6.3036377E1,0E0,0E0,1.5321314E1,1.0159943E1,1.8619876E0,6.0239746E1,9.5853424E1,7.039077E1,0E0,1.506294E2,4.1264286E0,4.7913734E1,2.4520752E1,0E0,1.9623764E1,1.4825409E1,1.2331913E1,6.063217E0,4.3815193E0,1.7150429E1,1.3205242E1,9.149048E0,0E0,0E0,0E0,0E0,0E0,0E0,0E0,0E0,0E0,0E0,0E0,0E0,0E0,0E0,0E0,0E0,0E0,0E0,0E0,0E0,0E0,0E0,0E0,0E0,0E0,0E0,0E0,0E0,0E0,0E0,0E0,0E0,0E0,0E0,0E0,0E0],"parents":[2147483647,0,0,1,1,2,2,3,3,4,4,5,5,6,6,8,8,9,9,10,10,11,11,12,12,13,13,14,14,16,16,17,17,18,18,21,21,22,22,23,23,24,24,25,25,26,26,27,27,28,28,31,31,32,32,33,33,34,34,35,35,36,36,38,38,39,39,40,40,41,41,43,43,44,44,45,45,46,46,47,47,48,48,49,49,50,50],"right_children":[2,4,6,8,10,12,14,-1,16,18,20,22,24,26,28,-1,30,32,34,-1,-1,36,38,40,42,44,46,48,50,-1,-1,52,54,56,58,60,62,-1,64,66,68,70,-1,72,74,76,78,80,82,84,86,-1,-1,-1,-1,-1,-1,-1,-1,-1,-1,-1,-1,-1,-1,-1,-1,-1,-1,-1,-1,-1,-1,-1,-1,-1,-1,-1,-1,-1,-1,-1,-1,-1,-1,-1,-1],"split_conditions":[1.1706436E2,1.3914606E1,2.2191956E2,2.4E1,1.7377321E1,4.61E2,1.3107756E3,7.829976E-4,3.106192E0,3.45E2,2.7E1,7.8254695E0,8.96E2,2.74E2,3.89E2,-3.4452206E-3,8.125E0,7.6E1,1.7158669E-1,1.3220853E-3,-2.9732022E-3,8.9E1,2E1,1.5407169E2,4.6E1,8.809214E-1,6.174208E-1,1.1068252E-1,2.2815949E-1,7.3004933E-4,-1.5680193E-3,1.5536362E-1,1.364375E1,6.16E2,2.2191956E2,2E1,1.0150463E-2,9.445128E-3,2.74E2,2.0811724E1,6.5068655E0,2.096514E2,-1.1533512E-3,5.521472E2,5.9519916E2,9.400959E2,1.8422319E0,8.7E1,1.4030118E-1,2.8381294E3,2.8381294E3,-2.3427997E-3,2.2830253E-3,6.909167E-3,2.2605653E-3,2.7767958E-3,1.742025E-4,4.541767E-3,1.1556779E-2,6.735603E-3,-2.9228828E-3,8.548858E-4,-1.3649372E-3,-3.4185029E-3,-4.491891E-4,-2.9620954E-3,-2.0255905E-4,3.938339E-3,-1.7206956E-3,1.9678644E-4,9.635317E-3,-2.3940728E-4,1.329031E-3,4.42193E-3,-1.0006094E-3,-1.5805595E-3,2.8606066E-3,4.8541673E-3,8.262468E-5,3.4445012E-4,-2.6147778E-3,4.3342365E-3,-1.4099239E-3,-0E0,4.33105E-3,7.26069E-3,1.1594165E-2],"split_indices":[6,1,1,0,2,0,1,0,1,0,2,2,0,0,0,0,5,0,2,0,0,0,0,1,2,2,2,2,2,0,0,2,5,0,1,0,1,0,0,1,2,1,0,1,1,1,2,0,2,1,1,0,0,0,0,0,0,0,0,0,0,0,0,0,0,0,0,0,0,0,0,0,0,0,0,0,0,0,0,0,0,0,0,0,0,0,0],"split_type":[0,0,0,0,0,0,0,0,0,0,0,0,0,0,0,0,0,0,0,0,0,0,0,0,0,0,0,0,0,0,0,0,0,0,0,0,0,0,0,0,0,0,0,0,0,0,0,0,0,0,0,0,0,0,0,0,0,0,0,0,0,0,0,0,0,0,0,0,0,0,0,0,0,0,0,0,0,0,0,0,0,0,0,0,0,0,0],"sum_hessian":[1.0296796E4,7.9752527E2,9.499271E3,4.984482E1,7.476804E2,8.730538E3,7.6873303E2,3.0405185E0,4.68043E1,7.2072424E2,2.695617E1,8.500024E3,2.3051358E2,5.3379584E2,2.3493721E2,3.8033054E1,8.771243E0,1.2924403E2,5.914802E2,6.238695E0,2.0717474E1,9.5214734E2,7.547877E3,1.6038474E2,7.0128845E1,4.2007983E2,1.1371601E2,3.0283743E1,2.0465347E2,3.134471E0,5.6367726E0,1.898405E1,1.1025998E2,1.3157159E1,5.7832306E2,1.7450397E2,7.776434E2,2.2398712E1,7.5254785E3,3.3658806E1,1.2672593E2,6.6301956E1,3.8268855E0,3.8224963E2,3.7830196E1,1.5622075E1,9.809394E1,1.8504568E1,1.1779175E1,2.6628557E1,1.7802492E2,1.1142996E1,7.841055E0,9.142561E1,1.8834362E1,3.2894433E0,9.867715E0,3.0976034E1,5.4734705E2,5.8030167E0,1.6870094E2,5.286798E2,2.4896356E2,7.3066465E3,2.18832E2,2.0662857E1,1.2995947E1,1.106062E2,1.6119722E1,4.4701204E0,6.183184E1,2.2443224E2,1.578174E2,3.456862E1,3.2615788E0,5.6813884E0,9.940686E0,9.330251E1,4.7914224E0,4.090965E0,1.4413604E1,6.8941507E0,4.885024E0,1.6938042E1,9.690515E0,1.2637965E2,5.164526E1],"tree_param":{"num_deleted":"0","num_feature":"11","num_nodes":"87","size_leaf_vector":"1"}},{"base_weights":[-4.0512007E-1,2.5361032E0,-6.5765613E-1,1.6929985E0,3.6425254E0,-7.58559E-1,1.6837704E0,-8.1319743E-1,2.1323063E0,3.7684262E-1,3.7341955E0,1.2846856E-1,-8.9479995E-1,-3.422678E-1,1.99727E0,-9.638916E-1,1.7841062E-1,2.3374958E0,-5.371896E-1,4.0434245E-3,-1.6600736E-3,3.790553E0,6.4586735E-1,-3.298202E-2,1.4756696E0,-9.502697E-1,5.107009E-1,-5.067108E-1,1.5619852E-3,4.325819E-1,2.2348423E0,5.9543573E-4,-3.6862555E-3,-1.23918E-3,2.280898E-3,1.2757173E-1,2.5161083E0,5.8550257E-2,-2.822772E-3,1.4332862E-3,1.3399682E-2,-1.2424397E-3,4.5372504E-3,-5.5040205E-1,2.0671326E-1,1.9880686E0,1.7126839E-1,9.010288E-3,-9.6312845E-1,2.3904141E-2,1.8079158E0,-3.1978185E-3,1.5734528E-1,-2.3484863E-3,8.523426E-1,1.4677181E0,2.813914E0,-1.9426338E-3,3.6560071E-3,-1.628052E-3,9.0002E-3,-1.6514923E-3,2.4726833E-3,2.9329185E-3,-2.038179E-3,-2.0948953E-3,1.4868407E-3,7.219849E-3,2.1713032E-4,1.6490243E-3,-1.2614198E-3,-3.956461E-3,-3.015002E-3,-2.2455147E-3,1.2519599E-3,7.7506443E-3,-2.2057225E-3,1.8262108E-3,-1.5585393E-3,-2.4921907E-4,3.716586E-3,6.90668E-3,2.7750167E-3,2.6555131E-3,1.07235415E-2],"categories":[],"categories_nodes":[],"categories_segments":[],"categories_sizes":[],"default_left":[0,0,1,0,0,0,0,0,1,0,1,1,1,0,0,0,0,0,0,0,0,0,1,0,0,0,0,0,0,0,0,0,0,0,0,1,0,0,0,0,0,0,0,0,0,1,0,0,0,0,1,0,0,0,0,0,0,0,0,0,0,0,0,0,0,0,0,0,0,0,0,0,0,0,0,0,0,0,0,0,0,0,0,0,0],"id":15,"left_children":[1,3,5,7,9,11,13,15,17,19,21,23,25,27,29,31,33,35,37,-1,-1,39,41,43,45,47,49,51,-1,53,55,-1,-1,-1,-1,57,59,61,-1,-1,-1,-1,-1,63,65,67,69,-1,71,73,75,-1,77,-1,79,81,83,-1,-1,-1,-1,-1,-1,-1,-1,-1,-1,-1,-1,-1,-1,-1,-1,-1,-1,-1,-1,-1,-1,-1,-1,-1,-1,-1,-1],"loss_changes":[7.6808164E3,7.094253E2,2.2575195E3,5.4282837E2,8.9319824E1,1.1045674E3,2.577909E2,1.34824295E1,2.3624695E2,1.7337273E1,3.548633E1,2.6716644E2,6.2122754E2,9.592902E0,1.1805737E2,9.340878E0,6.2153687E0,1.465979E2,6.699724E0,0E0,0E0,3.9597656E1,1.4864286E1,1.373706E2,8.34798E1,3.6476025E2,1.9100626E2,1.636337E1,0E0,3.0580242E1,9.522839E1,0E0,0E0,0E0,0E0,2.8600834E1,7.819824E1,9.009836E0,0E0,0E0,0E0,0E0,0E0,2.0231667E1,1.3571268E2,1.1957214E1,8.879961E0,0E0,1.190957E2,5.3163593E1,9.595621E1,0E0,7.832843E0,0E0,1.0082138E1,3.510034E1,6.335962E1,0E0,0E0,0E0,0E0,0E0,0E0,0E0,0E0,0E0,0E0,0E0,0E0,0E0,0E0,0E0,0E0,0E0,0E0,0E0,0E0,0E0,0E0,0E0,0E0,0E0,0E0,0E0,0E0],"parents":[2147483647,0,0,1,1,2,2,3,3,4,4,5,5,6,6,7,7,8,8,9,9,10,10,11,11,12,12,13,13,14,14,15,15,16,16,17,17,18,18,21,21,22,22,23,23,24,24,25,25,26,26,27,27,29,29,30,30,35,35,36,36,37,37,43,43,44,44,45,45,46,46,48,48,49,49,50,50,52,52,54,54,55,55,56,56],"right_children":[2,4,6,8,10,12,14,16,18,20,22,24,26,28,30,32,34,36,38,-1,-1,40,42,44,46,48,50,52,-1,54,56,-1,-1,-1,-1,58,60,62,-1,-1,-1,-1,-1,64,66,68,70,-1,72,74,76,-1,78,-1,80,82,84,-1,-1,-1,-1,-1,-1,-1,-1,-1,-1,-1,-1,-1,-1,-1,-1,-1,-1,-1,-1,-1,-1,-1,-1,-1,-1,-1,-1],"split_conditions":[1.1706436E2,1.2314554E9,7.3935785E2,2.807268E2,1.08E2,7.0739536E0,3.02E2,1.9783347E2,2.2592645E0,2.107141E0,2.8E1,3.54E2,3.45E2,2.4141543E3,2.4402829E-1,2.5E1,1.1887267E9,1.74E2,1.9236092E1,4.0434245E-3,-1.6600736E-3,9.896563E0,6.577546E-2,1.84E2,1.5415287E0,2E1,7.52E2,1.98E2,1.5619852E-3,1.1068252E-1,1.5688297E3,5.9543573E-4,-3.6862555E-3,-1.23918E-3,2.280898E-3,7.260162E-2,1.4030118E-1,9.361831E0,-2.822772E-3,1.4332862E-3,1.3399682E-2,-1.2424397E-3,4.5372504E-3,2E1,1.7393646E2,5.9519916E2,3.2579913E0,9.010288E-3,3.1688657E-1,1.7393646E2,1.2825154E1,-3.1978185E-3,2.51E2,-2.3484863E-3,4.61E2,7.677E3,7.52E2,-1.9426338E-3,3.6560071E-3,-1.628052E-3,9.0002E-3,-1.6514923E-3,2.4726833E-3,2.9329185E-3,-2.038179E-3,-2.0948953E-3,1.4868407E-3,7.219849E-3,2.1713032E-4,1.6490243E-3,-1.2614198E-3,-3.956461E-3,-3.015002E-3,-2.2455147E-3,1.2519599E-3,7.7506443E-3,-2.2057225E-3,1.8262108E-3,-1.5585393E-3,-2.4921907E-4,3.716586E-3,6.90668E-3,2.7750167E-3,2.6555131E-3,1.07235415E-2],"split_indices":[6,7,1,1,0,2,0,1,2,2,2,0,0,1,2,0,7,0,2,0,0,1,1,0,2,0,0,0,0,2,1,0,0,0,0,2,2,2,0,0,0,0,0,0,1,1,2,0,1,1,2,0,0,0,0,0,0,0,0,0,0,0,0,0,0,0,0,0,0,0,0,0,0,0,0,0,0,0,0,0,0,0,0,0,0],"split_type":[0,0,0,0,0,0,0,0,0,0,0,0,0,0,0,0,0,0,0,0,0,0,0,0,0,0,0,0,0,0,0,0,0,0,0,0,0,0,0,0,0,0,0,0,0,0,0,0,0,0,0,0,0,0,0,0,0,0,0,0,0,0,0,0,0,0,0,0,0,0,0,0,0,0,0,0,0,0,0,0,0,0,0,0,0],"sum_hessian":[1.0316693E4,8.097892E2,9.506904E3,4.7148492E2,3.3830423E2,9.119639E3,3.872651E2,6.904802E1,4.0243692E2,1.0578948E1,3.2772528E2,1.2135469E3,7.9060923E3,5.147609E1,3.3578903E2,6.07872E1,8.260822E0,3.7489792E2,2.7539E1,4.471489E0,6.1074586E0,3.1982318E2,7.902101E0,1.0901709E3,1.23376E2,7.6089263E3,2.9716605E2,4.5769707E1,5.706381E0,4.7660538E1,2.8812848E2,3.4711418E0,5.731606E1,4.107569E0,4.153253E0,2.9375368E1,3.4552255E2,9.741414E0,1.7797586E1,5.960129E0,3.1386307E2,4.1173573E0,3.7847438E0,3.4283115E2,7.473398E2,8.515019E1,3.822581E1,2.1570415E1,7.587356E3,2.224385E2,7.472754E1,2.711118E1,1.8658527E1,1.1293082E1,3.636746E1,1.3669125E2,1.5143724E2,1.8199379E1,1.1175989E1,5.8961143E0,3.3962643E2,5.926549E0,3.814865E0,3.0600073E0,3.3977115E2,1.5604515E2,5.912946E2,8.075722E1,4.39297E0,2.5889242E1,1.2336566E1,2.7495361E3,4.8378193E3,7.1105225E1,1.5133328E2,6.4774315E1,9.953227E0,1.3053854E1,5.6046724E0,7.1532183E0,2.921424E1,6.81228E1,6.856844E1,2.0866962E1,1.3057028E2],"tree_param":{"num_deleted":"0","num_feature":"11","num_nodes":"85","size_leaf_vector":"1"}},{"base_weights":[-4.0294445E-1,-6.583288E-1,2.5351918E0,-7.6896536E-1,1.3924847E0,1.7099533E0,3.5725389E0,-8.6336404E-1,5.120958E-1,7.740751E-1,2.5615134E0,2.1087677E0,-8.6637026E-1,6.8587923E-1,3.6792035E0,-1.5718949E-1,-9.6954376E-1,2.6990712E-1,2.149147E0,2.8422382E-1,1.709895E0,2.856702E0,5.8466434E-1,-2.690845E-3,2.359954E0,-3.6131726E-3,-0E0,-1.4792769E-3,1.2484252E0,3.7353468E0,-0E0,2.007541E0,-1.9613558E-1,8.99257E-3,-9.803941E-1,-5.864322E-1,5.1931834E-1,2.4225497E0,-1.6132718E-3,1.3998905E0,-5.3238504E-2,-0E0,1.7991649E0,-0E0,2.9641714E0,-2.081219E-3,1.2832541E0,-2.3410678E-1,2.5380785E0,-1.5997103E-3,1.6621083E-3,5.3922534E-3,2.2185399E-4,1.5690245E-3,1.318188E-2,3.341526E-4,8.374621E-3,-3.4274943E-3,-1.7984274E-4,-3.4906073E-3,-3.4871703E-4,-0E0,-2.9874775E-3,-1.9310145E-3,2.021293E-3,1.1529195E-3,9.019984E-3,7.712498E-4,5.936947E-3,-2.0655578E-3,7.0661894E-4,6.4732386E-3,1.2570415E-3,3.5259502E-3,1.0723432E-2,5.1160455E-3,3.2257306E-4,-2.6958503E-3,2.1541016E-3,4.5186232E-4,9.175739E-3],"categories":[],"categories_nodes":[],"categories_segments":[],"categories_sizes":[],"default_left":[1,1,0,1,0,1,0,0,0,1,1,0,1,0,1,0,0,0,1,0,0,0,0,0,0,0,0,0,0,0,0,0,0,0,1,0,0,0,0,0,0,0,0,0,0,0,0,1,0,0,0,0,0,0,0,0,0,0,0,0,0,0,0,0,0,0,0,0,0,0,0,0,0,0,0,0,0,0,0,0,0],"id":16,"left_children":[1,3,5,7,9,11,13,15,17,19,21,23,25,27,29,31,33,35,37,39,41,43,45,-1,47,-1,49,-1,51,53,-1,55,57,-1,59,61,63,65,-1,67,69,-1,71,-1,73,-1,75,77,79,-1,-1,-1,-1,-1,-1,-1,-1,-1,-1,-1,-1,-1,-1,-1,-1,-1,-1,-1,-1,-1,-1,-1,-1,-1,-1,-1,-1,-1,-1,-1,-1],"loss_changes":[7.7210244E3,2.154296E3,6.516011E2,1.089791E3,3.334386E2,5.0276904E2,8.638281E1,6.253379E2,2.396771E2,1.4598524E2,8.001672E1,3.1469238E2,1.0218555E1,1.9113598E1,6.894043E1,9.489663E1,2.989214E2,1.1994241E2,6.646854E1,8.702881E1,1.684311E1,4.1813232E1,3.2881348E1,0E0,1.8311206E2,0E0,5.9479704E0,0E0,4.2158318E0,3.058252E1,0E0,1.1227287E1,1.22997505E2,0E0,1.2659912E2,2.0614243E1,3.0352715E1,1.5675812E1,0E0,1.4577415E1,2.6252844E1,0E0,1.5325317E0,0E0,9.708252E-1,0E0,2.7450562E0,1.8451431E1,7.454321E1,0E0,0E0,0E0,0E0,0E0,0E0,0E0,0E0,0E0,0E0,0E0,0E0,0E0,0E0,0E0,0E0,0E0,0E0,0E0,0E0,0E0,0E0,0E0,0E0,0E0,0E0,0E0,0E0,0E0,0E0,0E0,0E0],"parents":[2147483647,0,0,1,1,2,2,3,3,4,4,5,5,6,6,7,7,8,8,9,9,10,10,11,11,12,12,13,13,14,14,15,15,16,16,17,17,18,18,19,19,20,20,21,21,22,22,24,24,26,26,28,28,29,29,31,31,32,32,34,34,35,35,36,36,37,37,39,39,40,40,42,42,44,44,46,46,47,47,48,48],"right_children":[2,4,6,8,10,12,14,16,18,20,22,24,26,28,30,32,34,36,38,40,42,44,46,-1,48,-1,50,-1,52,54,-1,56,58,-1,60,62,64,66,-1,68,70,-1,72,-1,74,-1,76,78,80,-1,-1,-1,-1,-1,-1,-1,-1,-1,-1,-1,-1,-1,-1,-1,-1,-1,-1,-1,-1,-1,-1,-1,-1,-1,-1,-1,-1,-1,-1,-1,-1],"split_conditions":[1.1373215E9,3.89E2,1.2292132E9,2.096514E2,8.16E2,1.6422523E0,2.7150219E1,1.9236092E1,2.1331433E3,2.3502391E2,1.4427742E0,1.9783347E2,2.14E2,1.2437288E9,2.8E1,2E1,2E1,1.84E2,9.4E1,1.8422319E0,2.2815949E-1,3.3722394E2,1.006E3,-2.690845E-3,1.57E2,-3.6131726E-3,1.1930913E9,-1.4792769E-3,7.8E1,8.3E1,-0E0,7.107824E0,7.3E1,8.99257E-3,2.74E2,2.2815949E-1,1.2769118E-1,1.2769118E-1,-1.6132718E-3,4.81E2,1.5407169E2,-0E0,7.52E2,-0E0,1.2039891E3,-2.081219E-3,1.17122E1,1.1068252E-1,1.858774E-1,-1.5997103E-3,1.6621083E-3,5.3922534E-3,2.2185399E-4,1.5690245E-3,1.318188E-2,3.341526E-4,8.374621E-3,-3.4274943E-3,-1.7984274E-4,-3.4906073E-3,-3.4871703E-4,-0E0,-2.9874775E-3,-1.9310145E-3,2.021293E-3,1.1529195E-3,9.019984E-3,7.712498E-4,5.936947E-3,-2.0655578E-3,7.0661894E-4,6.4732386E-3,1.2570415E-3,3.5259502E-3,1.0723432E-2,5.1160455E-3,3.2257306E-4,-2.6958503E-3,2.1541016E-3,4.5186232E-4,9.175739E-3],"split_indices":[7,0,7,1,0,2,1,2,1,1,2,1,0,7,2,0,0,0,0,2,2,1,0,0,0,0,7,0,2,0,0,1,0,0,0,2,2,2,0,0,1,0,0,0,1,0,2,2,2,0,0,0,0,0,0,0,0,0,0,0,0,0,0,0,0,0,0,0,0,0,0,0,0,0,0,0,0,0,0,0,0],"split_type":[0,0,0,0,0,0,0,0,0,0,0,0,0,0,0,0,0,0,0,0,0,0,0,0,0,0,0,0,0,0,0,0,0,0,0,0,0,0,0,0,0,0,0,0,0,0,0,0,0,0,0,0,0,0,0,0,0,0,0,0,0,0,0,0,0,0,0,0,0,0,0,0,0,0,0,0,0,0,0,0,0],"sum_hessian":[1.0265844E4,9.45085E3,8.1499414E2,8.972198E3,4.7865097E2,4.6613562E2,3.488585E2,8.35941E3,6.1278864E2,3.2218796E2,1.5646301E2,4.051622E2,6.097344E1,1.4804697E1,3.340538E2,1.096146E3,7.2632637E3,5.4235266E2,7.043598E1,2.1887495E2,1.03312996E2,1.3269981E2,2.3763195E1,3.0931559E1,3.7423062E2,4.979487E1,1.117857E1,5.1981497E0,9.606547E0,3.2878906E2,5.264732E0,1.1867338E1,1.0842787E3,1.6154062E1,7.24711E3,1.1921203E2,4.2314066E2,6.45451E1,5.890885E0,4.547807E1,1.7339688E2,5.5709214E0,9.774207E1,5.2601666E0,1.2743965E2,8.869809E0,1.4893386E1,2.3614632E1,3.50616E2,5.74336E0,5.43521E0,5.224551E0,4.381996E0,5.639554E0,3.231495E2,4.047107E0,7.820231E0,1.6040283E2,9.2387585E2,7.0836685E3,1.634412E2,3.943848E1,7.9773544E1,1.8265722E1,4.0487494E2,6.7438507E0,5.7801243E1,1.2605145E1,3.2872925E1,5.3361095E1,1.2003579E2,9.1335556E1,6.406515E0,1.1472009E1,1.1596764E2,1.0756403E1,4.1369824E0,1.5457333E1,8.157298E0,1.3887385E1,3.367286E2],"tree_param":{"num_deleted":"0","num_feature":"11","num_nodes":"81","size_leaf_vector":"1"}},{"base_weights":[-3.9075497E-1,-6.3769966E-1,2.4864106E0,-7.8616637E-1,9.947264E-1,1.5805362E0,3.5050209E0,-8.663679E-1,6.891072E-1,4.9066442E-1,2.2936866E0,-9.466215E-1,1.9719418E0,3.6175642E0,4.117769E-1,-1.2367984E-1,-9.7645044E-1,2.4592115E-1,2.265098E0,2.3858383E-1,1.6515341E0,6.540881E-1,2.6398544E0,-1.494785E-1,-3.5921407E-3,-6.091885E-1,2.2182872E0,1.4918104E-1,3.6971292E0,-1.4219052E-3,8.711351E-1,2.1241364E-1,-3.7983286E-1,8.51701E-3,-9.865581E-1,1.5916531E0,-8.440916E-2,2.4874365E0,-1.6027534E-3,5.153296E-1,-1.6849318E-1,1.7140143E0,1.7820079E-4,-7.5415246E-2,9.63209E-1,-2.2161391E-1,9.825763E-3,-1.4637533E-3,7.372969E-4,-3.2203177E-3,2.1585107E-3,2.3335247E0,-2.3710898E-3,2.3936003E-3,-1.3707867E-3,6.968388E-4,1.2987529E-2,6.880702E-5,3.918583E-3,-2.0151231E-3,1.6123013E-3,5.966639E-3,-1.5207954E-3,-4.052607E-3,-3.0664678E-3,-3.7234224E-4,6.3460153E-3,6.1044923E-4,-3.0910755E-3,5.6742725E-4,9.421968E-3,1.1583874E-3,3.3364915E-3,-1.0880091E-3,9.5796946E-4,6.260529E-3,9.79926E-4,-2.150187E-3,2.4861312E-3,4.3135174E-3,8.2311477E-4,7.5407105E-4,-1.7029445E-3,6.655635E-5,8.381644E-3],"categories":[],"categories_nodes":[],"categories_segments":[],"categories_sizes":[],"default_left":[1,1,0,1,0,0,1,0,0,1,0,0,0,0,0,0,0,0,1,1,1,0,0,0,0,1,1,0,0,0,1,0,0,0,0,0,1,0,0,0,0,0,0,0,1,0,0,0,0,0,0,0,0,0,0,0,0,0,0,0,0,0,0,0,0,0,0,0,0,0,0,0,0,0,0,0,0,0,0,0,0,0,0,0,0],"id":17,"left_children":[1,3,5,7,9,11,13,15,17,19,21,23,25,27,29,31,33,35,37,39,41,43,45,47,-1,49,51,53,55,-1,57,59,61,-1,63,65,67,69,-1,71,73,75,-1,77,79,81,-1,-1,-1,-1,-1,83,-1,-1,-1,-1,-1,-1,-1,-1,-1,-1,-1,-1,-1,-1,-1,-1,-1,-1,-1,-1,-1,-1,-1,-1,-1,-1,-1,-1,-1,-1,-1,-1,-1],"loss_changes":[7.288348E3,2.2937922E3,7.000825E2,1.0292236E3,5.061693E2,4.551604E2,1.1550488E2,6.698257E2,3.0821136E2,1.650917E2,1.07572754E2,2.1660728E0,2.584486E2,9.214551E1,1.1640364E1,9.293233E1,2.6530078E2,1.6262563E2,6.97424E1,5.573491E1,8.135345E0,1.2315392E1,9.637537E1,2.458236E0,0E0,2.0140755E1,1.3275842E2,7.22682E0,2.225E1,0E0,2.7283144E0,9.4151566E1,7.668074E1,0E0,1.24740234E2,3.0610428E1,6.350513E1,3.9735046E1,0E0,2.013839E1,1.3527825E1,5.5842896E0,0E0,1.2542251E1,3.6685486E0,3.088231E0,0E0,0E0,0E0,0E0,0E0,5.263159E1,0E0,0E0,0E0,0E0,0E0,0E0,0E0,0E0,0E0,0E0,0E0,0E0,0E0,0E0,0E0,0E0,0E0,0E0,0E0,0E0,0E0,0E0,0E0,0E0,0E0,0E0,0E0,0E0,0E0,0E0,0E0,0E0,0E0],"parents":[2147483647,0,0,1,1,2,2,3,3,4,4,5,5,6,6,7,7,8,8,9,9,10,10,11,11,12,12,13,13,14,14,15,15,16,16,17,17,18,18,19,19,20,20,21,21,22,22,23,23,25,25,26,26,27,27,28,28,30,30,31,31,32,32,34,34,35,35,36,36,37,37,39,39,40,40,41,41,43,43,44,44,45,45,51,51],"right_children":[2,4,6,8,10,12,14,16,18,20,22,24,26,28,30,32,34,36,38,40,42,44,46,48,-1,50,52,54,56,-1,58,60,62,-1,64,66,68,70,-1,72,74,76,-1,78,80,82,-1,-1,-1,-1,-1,84,-1,-1,-1,-1,-1,-1,-1,-1,-1,-1,-1,-1,-1,-1,-1,-1,-1,-1,-1,-1,-1,-1,-1,-1,-1,-1,-1,-1,-1,-1,-1,-1,-1],"split_conditions":[1.1373215E9,2.2191956E2,1.227661E9,3.1E2,1.5688297E3,1.9783347E2,2E1,2E1,8.16E2,3.89E2,2.4402829E-1,6.2E0,1.84E2,2.7150219E1,3E0,1.0277447E0,2E1,1.2740268E0,4.6E1,2E1,1.9704113E0,1.1068252E-1,4.02E2,1.5056783E1,-3.5921407E-3,5.9519916E2,2E1,3.7326388E-2,4.8E1,-1.4219052E-3,6.577546E-2,9.9E1,2.0844907E-2,8.51701E-3,2.4604167E-1,3.54E2,1.5772124E1,2.096514E2,-1.6027534E-3,8.651174E2,2.56E2,1.4295836E3,1.7820079E-4,3.2688708E3,2.41E2,1.84E2,9.825763E-3,-1.4637533E-3,7.372969E-4,-3.2203177E-3,2.1585107E-3,1.7158669E-1,-2.3710898E-3,2.3936003E-3,-1.3707867E-3,6.968388E-4,1.2987529E-2,6.880702E-5,3.918583E-3,-2.0151231E-3,1.6123013E-3,5.966639E-3,-1.5207954E-3,-4.052607E-3,-3.0664678E-3,-3.7234224E-4,6.3460153E-3,6.1044923E-4,-3.0910755E-3,5.6742725E-4,9.421968E-3,1.1583874E-3,3.3364915E-3,-1.0880091E-3,9.5796946E-4,6.260529E-3,9.79926E-4,-2.150187E-3,2.4861312E-3,4.3135174E-3,8.2311477E-4,7.5407105E-4,-1.7029445E-3,6.655635E-5,8.381644E-3],"split_indices":[7,1,7,0,1,1,2,2,0,0,2,5,0,1,4,2,0,2,2,0,2,2,0,1,0,1,2,1,0,0,1,0,1,0,1,0,2,1,0,1,0,1,0,1,0,0,0,0,0,0,0,2,0,0,0,0,0,0,0,0,0,0,0,0,0,0,0,0,0,0,0,0,0,0,0,0,0,0,0,0,0,0,0,0,0],"split_type":[0,0,0,0,0,0,0,0,0,0,0,0,0,0,0,0,0,0,0,0,0,0,0,0,0,0,0,0,0,0,0,0,0,0,0,0,0,0,0,0,0,0,0,0,0,0,0,0,0,0,0,0,0,0,0,0,0,0,0,0,0,0,0,0,0,0,0,0,0,0,0,0,0,0,0,0,0,0,0,0,0,0,0,0,0],"sum_hessian":[1.0234061E4,9.431101E3,8.0295996E2,8.649095E3,7.82006E2,4.3622095E2,3.6673898E2,8.206761E3,4.4233374E2,5.71761E2,2.1024501E2,5.6719296E1,3.7950168E2,3.5231924E2,1.4419742E1,1.06247E3,7.1442905E3,3.528547E2,8.947905E1,4.782285E2,9.353249E1,4.1067616E1,1.691774E2,8.312431E0,4.8406864E1,3.1770823E1,3.4773083E2,8.628582E0,3.4369067E2,4.921548E0,9.498194E0,4.5886188E2,6.036081E2,1.5159949E1,7.129131E3,6.3951378E1,2.8890332E2,8.36264E1,5.8526444E0,2.8450916E2,1.9371933E2,8.902161E1,4.510883E0,1.3309193E1,2.7758423E1,9.457219E0,1.5972017E2,5.190337E0,3.122094E0,2.7374315E1,4.396508E0,3.3618207E2,1.1548771E1,3.9564428E0,4.6721387E0,3.1944063E0,3.4049625E2,4.821161E0,4.677033E0,1.0695664E2,3.5190524E2,9.234839E0,5.943732E2,2.6828599E3,4.446271E3,7.6607313E0,5.6290646E1,2.2230641E2,6.659692E1,8.502317E0,7.5124084E1,2.1209358E2,7.2415565E1,1.4943256E2,4.4286777E1,8.1887215E1,7.134395E0,9.490382E0,3.8188105E0,1.5352143E1,1.24062805E1,3.0922456E0,6.3649735E0,1.0313525E1,3.2586853E2],"tree_param":{"num_deleted":"0","num_feature":"11","num_nodes":"85","size_leaf_vector":"1"}},{"base_weights":[-3.809709E-1,2.5089488E0,-6.369343E-1,2.7282774E0,-3.388837E-1,-7.466308E-1,1.3861247E0,2.0696507E0,3.556958E0,-9.011386E-1,4.822081E-3,9.92757E-2,-8.841043E-1,1.7420869E0,-1.4083754E-1,6.768098E-1,2.3833306E0,6.842616E-1,1.2689321E-2,-3.510785E-3,-0E0,-4.9502188E-1,3.361229E-1,8.936346E-3,-8.981741E-1,1.1484072E0,2.4404516E0,-3.9747676E-1,1.0916337E0,-3.4911284E-1,1.1479695E0,2.4456167E0,4.2167056E-2,4.9160016E-3,-1.5035776E-3,6.601463E-3,-5.796083E-1,5.335322E-1,-4.4673942E-2,-7.589834E-1,-1.1040785E0,8.662677E-1,1.6246688E0,8.640223E-3,5.310892E-4,-3.3333257E-3,-2.818649E-3,2.8961184E-4,4.484205E-3,-2.4610655E-3,1.6371279E-4,5.266835E-3,-4.1645346E-4,8.699082E-3,-8.504945E-5,-1.5932515E-3,2.1950514E-3,-2.9480695E-3,-1.3411202E-3,6.7653065E-4,2.2054364E-3,-5.4927345E-4,1.3665181E-3,-3.6454177E-3,-2.032165E-3,-3.8662783E-3,-8.612878E-5,2.1023524E-3,4.2757704E-3,5.997928E-3,7.8078825E-5,-1.5358051E-3,2.6660212E-3],"categories":[],"categories_nodes":[],"categories_segments":[],"categories_sizes":[],"default_left":[0,1,1,0,0,0,1,0,0,0,0,0,0,0,0,0,1,0,0,0,0,0,0,0,1,1,1,0,0,0,0,0,0,0,0,0,0,0,0,0,1,0,0,0,0,0,0,0,0,0,0,0,0,0,0,0,0,0,0,0,0,0,0,0,0,0,0,0,0,0,0,0,0],"id":18,"left_children":[1,3,5,7,9,11,13,15,17,19,-1,21,23,25,27,29,31,33,-1,-1,-1,35,37,-1,39,41,43,45,47,49,51,53,55,-1,-1,-1,57,59,61,63,65,67,69,-1,-1,71,-1,-1,-1,-1,-1,-1,-1,-1,-1,-1,-1,-1,-1,-1,-1,-1,-1,-1,-1,-1,-1,-1,-1,-1,-1,-1,-1],"loss_changes":[7.64209E3,5.3432275E2,2.1123176E3,3.6340527E2,7.447403E1,1.0479932E3,2.6961212E2,1.8367383E2,5.3702637E1,6.008751E0,0E0,1.7923817E2,3.9261914E2,1.4007141E2,3.4497353E1,4.988674E1,5.0970215E1,2.1118832E1,0E0,0E0,0E0,8.106414E1,6.896414E1,0E0,2.1310645E2,1.7909332E1,9.457031E0,1.3752599E1,1.7985973E0,5.7873626E0,3.3503174E1,4.4493652E1,7.7063804E0,0E0,0E0,0E0,1.4959305E1,1.8530197E1,1.5906757E1,2.2770972E2,1.2500244E1,8.183128E0,9.867767E0,0E0,0E0,2.0671734E1,0E0,0E0,0E0,0E0,0E0,0E0,0E0,0E0,0E0,0E0,0E0,0E0,0E0,0E0,0E0,0E0,0E0,0E0,0E0,0E0,0E0,0E0,0E0,0E0,0E0,0E0,0E0],"parents":[2147483647,0,0,1,1,2,2,3,3,4,4,5,5,6,6,7,7,8,8,9,9,11,11,12,12,13,13,14,14,15,15,16,16,17,17,21,21,22,22,24,24,25,25,26,26,27,27,28,28,29,29,30,30,31,31,32,32,36,36,37,37,38,38,39,39,40,40,41,41,42,42,45,45],"right_children":[2,4,6,8,10,12,14,16,18,20,-1,22,24,26,28,30,32,34,-1,-1,-1,36,38,-1,40,42,44,46,48,50,52,54,56,-1,-1,-1,58,60,62,64,66,68,70,-1,-1,72,-1,-1,-1,-1,-1,-1,-1,-1,-1,-1,-1,-1,-1,-1,-1,-1,-1,-1,-1,-1,-1,-1,-1,-1,-1,-1,-1],"split_conditions":[1.49E2,1.0424733E1,3.89E2,1.2292132E9,1.2442303E9,7.8254695E0,1.5415287E0,3.54E2,1.09E2,1.5E1,4.822081E-3,1.74E2,2E1,7.08E2,1.154E3,1.1684394E9,2.2592645E0,2.107141E0,1.2689321E-2,-3.510785E-3,-0E0,2E1,1.2740268E0,8.936346E-3,1.9236092E1,2.15148E-1,1.2740268E0,5.53E2,1.422E3,2E0,1.2333333E1,8.9E1,1.2136486E9,4.9160016E-3,-1.5035776E-3,6.601463E-3,6.4E1,2.2815949E-1,5.441536E0,1.55E2,3.54E2,5.53E2,6.56E2,8.640223E-3,5.310892E-4,5.01E2,-2.818649E-3,2.8961184E-4,4.484205E-3,-2.4610655E-3,1.6371279E-4,5.266835E-3,-4.1645346E-4,8.699082E-3,-8.504945E-5,-1.5932515E-3,2.1950514E-3,-2.9480695E-3,-1.3411202E-3,6.7653065E-4,2.2054364E-3,-5.4927345E-4,1.3665181E-3,-3.6454177E-3,-2.032165E-3,-3.8662783E-3,-8.612878E-5,2.1023524E-3,4.2757704E-3,5.997928E-3,7.8078825E-5,-1.5358051E-3,2.6660212E-3],"split_indices":[5,2,0,7,7,2,2,0,0,3,0,0,0,0,0,7,2,2,0,0,0,0,2,0,2,2,2,0,0,3,5,3,7,0,0,0,0,2,2,0,0,0,0,0,0,0,0,0,0,0,0,0,0,0,0,0,0,0,0,0,0,0,0,0,0,0,0,0,0,0,0,0,0],"split_type":[0,0,0,0,0,0,0,0,0,0,0,0,0,0,0,0,0,0,0,0,0,0,0,0,0,0,0,0,0,0,0,0,0,0,0,0,0,0,0,0,0,0,0,0,0,0,0,0,0,0,0,0,0,0,0,0,0,0,0,0,0,0,0,0,0,0,0,0,0,0,0,0,0],"sum_hessian":[1.0307682E4,8.3269745E2,9.474984E3,7.7370844E2,5.898903E1,8.992798E3,4.8218677E2,4.4722064E2,3.264878E2,4.7670155E1,1.1318873E1,1.2567183E3,7.7360796E3,3.9051044E2,9.167633E1,8.729835E1,3.5992227E2,1.1176896E1,3.153109E2,4.257705E1,5.0931053E0,3.547308E2,9.019875E2,2.5340324E1,7.7107393E3,2.2311949E2,1.6739096E2,8.087603E1,1.0800303E1,2.7629818E1,5.966853E1,3.4993558E2,9.986706E0,5.899125E0,5.277771E0,5.9711437E0,3.4875967E2,5.932056E2,3.087819E2,4.6252812E3,3.085458E3,1.5529996E2,6.7819534E1,1.638287E2,3.5622592E0,4.630802E1,3.4568005E1,4.206024E0,6.594279E0,1.223862E1,1.5391197E1,4.5688385E1,1.3980144E1,3.435296E2,6.405967E0,5.67413E0,4.3125753E0,1.3488724E2,2.1387244E2,1.4051016E2,4.5269547E2,2.5080782E2,5.797407E1,1.7491686E3,2.8761125E3,3.0729868E3,1.2471134E1,1.0314392E2,5.2156033E1,6.3052486E1,4.7670455E0,3.231002E1,1.3998002E1],"tree_param":{"num_deleted":"0","num_feature":"11","num_nodes":"73","size_leaf_vector":"1"}},{"base_weights":[-3.9695656E-1,2.3957064E0,-6.3617295E-1,1.14963815E-1,2.7033353E0,-7.8330296E-1,9.8294556E-1,1.1217573E0,-3.6172473E-1,1.962189E-1,2.8769817E0,1.6578896E-2,-9.1274315E-1,5.644575E-1,2.2757068E0,-1.0934771E-1,1.5075939E0,-5.988837E-1,3.7757364E-1,1.2630746E0,-5.6670666E-1,2.9638317E0,-4.7538456E-1,-9.452188E-2,1.541687E0,-9.706375E-1,2.1954371E-1,2.7277783E-1,1.5665071E0,-1.3715657E-3,2.3643095E0,-1.3262967E-3,7.2086E-4,4.5750363E-4,1.6425797E0,7.268181E-4,-6.836792E-1,-1.7893605E-3,3.6833982E-3,5.2335695E-3,2.6563725E-1,-2.4732472E-3,7.374946E-4,-0E0,2.9880943E0,7.557299E-4,-2.4499414E-3,2.0854554E-1,-4.71108E-1,2.0243645E0,3.0249026E-1,8.005953E-3,-9.7898346E-1,-6.156656E-2,1.5204272E0,-4.159554E-1,4.66751E-1,-2.327544E-2,1.9195825E0,8.498314E-3,2.6154965E-1,1.1869477E-3,6.709278E-3,-2.7131434E-3,7.0668856E-4,-1.1168731E-3,2.5568488E-3,7.0047253E-3,1.0803803E-2,1.6775382E-3,-1.1557484E-3,-3.017749E-3,-9.139659E-4,1.4375816E-3,7.434913E-3,-1.5755945E-3,2.1579794E-3,-3.992845E-3,-3.0561374E-3,-2.2351244E-3,9.3586673E-4,6.511975E-3,-1.8686309E-3,2.940206E-3,-1.9828973E-3,1.1529371E-3,4.484764E-3,-1.7268551E-3,2.3012627E-3,1.3387203E-3,7.6759337E-3,2.186512E-3,-9.4031455E-4],"categories":[],"categories_nodes":[],"categories_segments":[],"categories_sizes":[],"default_left":[0,0,1,0,0,0,1,0,0,0,1,1,1,0,0,1,0,0,0,0,0,0,0,1,0,0,0,0,0,0,1,0,0,0,0,0,1,0,0,0,0,0,0,0,0,0,0,1,0,0,0,0,0,0,1,0,1,1,0,0,0,0,0,0,0,0,0,0,0,0,0,0,0,0,0,0,0,0,0,0,0,0,0,0,0,0,0,0,0,0,0,0,0],"id":19,"left_children":[1,3,5,7,9,11,13,15,17,19,21,23,25,27,29,31,33,35,37,39,41,43,45,47,49,51,53,55,57,-1,59,-1,-1,-1,61,-1,63,-1,-1,-1,65,-1,-1,-1,67,-1,-1,69,71,73,75,-1,77,79,81,83,85,87,89,-1,91,-1,-1,-1,-1,-1,-1,-1,-1,-1,-1,-1,-1,-1,-1,-1,-1,-1,-1,-1,-1,-1,-1,-1,-1,-1,-1,-1,-1,-1,-1,-1,-1],"loss_changes":[6.8367207E3,5.6203467E2,2.2495737E3,5.4047073E1,3.0270117E2,8.951709E2,4.1370135E2,1.9507545E1,1.540711E1,5.0980293E1,2.0650049E2,2.0731573E2,4.8972607E2,1.7235976E2,5.374701E1,2.096801E0,2.2397995E0,5.7309227E0,1.8490364E1,1.5833206E0,5.6843376E0,4.5759766E1,5.2655387E0,1.3054335E2,4.3054123E1,2.0988623E2,1.3627885E2,6.5690796E1,7.7208405E1,0E0,2.0651001E1,0E0,0E0,0E0,2.1001053E0,0E0,6.578949E0,0E0,0E0,0E0,6.378638E0,0E0,0E0,0E0,1.4717285E1,0E0,0E0,9.448709E1,3.9329308E1,1.0207825E0,1.0267345E1,0E0,1.1087256E2,6.0771088E1,5.6043564E1,2.4509106E1,3.767269E1,1.2791218E1,3.887674E1,0E0,4.608914E0,0E0,0E0,0E0,0E0,0E0,0E0,0E0,0E0,0E0,0E0,0E0,0E0,0E0,0E0,0E0,0E0,0E0,0E0,0E0,0E0,0E0,0E0,0E0,0E0,0E0,0E0,0E0,0E0,0E0,0E0,0E0,0E0],"parents":[2147483647,0,0,1,1,2,2,3,3,4,4,5,5,6,6,7,7,8,8,9,9,10,10,11,11,12,12,13,13,14,14,15,15,16,16,17,17,18,18,19,19,20,20,21,21,22,22,23,23,24,24,25,25,26,26,27,27,28,28,30,30,34,34,36,36,40,40,44,44,47,47,48,48,49,49,50,50,52,52,53,53,54,54,55,55,56,56,57,57,58,58,60,60],"right_children":[2,4,6,8,10,12,14,16,18,20,22,24,26,28,30,32,34,36,38,40,42,44,46,48,50,52,54,56,58,-1,60,-1,-1,-1,62,-1,64,-1,-1,-1,66,-1,-1,-1,68,-1,-1,70,72,74,76,-1,78,80,82,84,86,88,90,-1,92,-1,-1,-1,-1,-1,-1,-1,-1,-1,-1,-1,-1,-1,-1,-1,-1,-1,-1,-1,-1,-1,-1,-1,-1,-1,-1,-1,-1,-1,-1,-1,-1],"split_conditions":[1.1706436E2,2.096514E2,2.2191956E2,1.5772124E1,1.55E2,2E1,3.89E2,2E0,4.2992397E1,3.0206559E0,2.8E1,4.81E2,2.74E2,1.4295836E3,2.2815949E-1,6.5E1,8.103078E-1,2.4E1,1.5395833E0,2.15148E-1,2.3E1,1.1068252E-1,3.45E2,2E1,1.5415287E0,2E1,7.52E2,1.74E2,3.89E2,-1.3715657E-3,1.6422523E0,-1.3262967E-3,7.2086E-4,4.5750363E-4,8E0,7.268181E-4,3.02E2,-1.7893605E-3,3.6833982E-3,5.2335695E-3,1.3E2,-2.4732472E-3,7.374946E-4,-0E0,3.54E2,7.557299E-4,-2.4499414E-3,3.400463E-2,7.3E1,5.26E2,2.2191956E2,8.005953E-3,2.4604167E-1,1.651807E2,4.6E1,2.6E1,8.809214E-1,1.1068252E-1,2.5985548E-1,8.498314E-3,3.3722394E2,1.1869477E-3,6.709278E-3,-2.7131434E-3,7.0668856E-4,-1.1168731E-3,2.5568488E-3,7.0047253E-3,1.0803803E-2,1.6775382E-3,-1.1557484E-3,-3.017749E-3,-9.139659E-4,1.4375816E-3,7.434913E-3,-1.5755945E-3,2.1579794E-3,-3.992845E-3,-3.0561374E-3,-2.2351244E-3,9.3586673E-4,6.511975E-3,-1.8686309E-3,2.940206E-3,-1.9828973E-3,1.1529371E-3,4.484764E-3,-1.7268551E-3,2.3012627E-3,1.3387203E-3,7.6759337E-3,2.186512E-3,-9.4031455E-4],"split_indices":[6,1,1,2,0,2,0,3,1,2,2,0,0,1,2,0,6,0,6,2,3,2,0,0,2,0,0,0,0,0,2,0,0,0,3,0,2,0,0,0,0,0,0,0,0,0,0,1,0,0,1,0,1,1,2,0,2,2,2,0,1,0,0,0,0,0,0,0,0,0,0,0,0,0,0,0,0,0,0,0,0,0,0,0,0,0,0,0,0,0,0,0,0],"split_type":[0,0,0,0,0,0,0,0,0,0,0,0,0,0,0,0,0,0,0,0,0,0,0,0,0,0,0,0,0,0,0,0,0,0,0,0,0,0,0,0,0,0,0,0,0,0,0,0,0,0,0,0,0,0,0,0,0,0,0,0,0,0,0,0,0,0,0,0,0,0,0,0,0,0,0,0,0,0,0,0,0,0,0,0,0,0,0,0,0,0,0,0,0],"sum_hessian":[1.0209478E4,7.995792E2,9.409898E3,9.66284E1,7.0295087E2,8.630265E3,7.79634E2,2.8064535E1,6.8563866E1,4.691893E1,6.560319E2,1.2022333E3,7.428031E3,5.981162E2,1.8151778E2,7.606912E0,2.0457623E1,5.38293E1,1.4734564E1,1.7777973E1,2.9140959E1,6.405886E2,1.5443318E1,1.1271578E3,7.507542E1,7.068424E3,3.5960712E2,4.7174893E2,1.26367256E2,4.676001E0,1.7684177E2,4.4908934E0,3.1160188E0,3.7333207E0,1.6724302E1,3.169439E0,5.0659863E1,6.739706E0,7.994858E0,1.0494314E1,7.2836595E0,2.6053478E1,3.08748E0,5.365454E0,6.3522314E2,3.0889633E0,1.2354356E1,6.254269E2,5.0173093E2,4.9938633E1,2.5136786E1,1.2190002E1,7.056234E3,3.0151987E2,5.8087254E1,1.00802986E2,3.7094595E2,2.3942278E1,1.0242498E2,1.6945819E2,7.3835764E0,6.580017E0,1.0144285E1,4.745425E1,3.2056103E0,3.6434944E0,3.6401653E0,7.954777E1,5.5567535E2,4.1723938E2,2.0818752E2,1.640679E2,3.37663E2,5.9518933E0,4.398674E1,5.70955E0,1.9427235E1,2.6743232E3,4.3819106E3,1.0749156E2,1.9402829E2,5.0663548E1,7.423709E0,6.4318295E0,9.4371155E1,3.2843622E2,4.250975E1,1.611311E1,7.829169E0,1.9160213E1,8.326476E1,4.3521214E0,3.0314548E0],"tree_param":{"num_deleted":"0","num_feature":"11","num_nodes":"93","size_leaf_vector":"1"}},{"base_weights":[-4.1884148E-1,2.3831494E0,-6.6442776E-1,2.5992117E0,-5.997218E-1,-8.070442E-1,9.167798E-1,4.0941626E-1,2.79536E0,-8.758713E-1,3.937948E-1,2.3423443E-2,-9.3528444E-1,3.7329748E-1,2.0403945E0,-5.174284E-1,1.4530419E0,8.3835196E-1,2.9537418E0,-3.472213E-3,6.1223237E-4,3.4293458E-3,-1.4124248E-3,-8.588495E-2,1.5729936E0,-9.873895E-1,3.2363686E-1,1.22832775E-1,1.634577E0,1.0991545E-1,2.294285E0,-7.7169603E-1,1.6356609E-3,1.684927E0,-0E0,6.1933305E-2,1.8079469E0,4.2851663E-1,3.003032E0,8.940674E-3,-1.3663845E-1,8.302931E-3,3.5827735E-1,7.88086E-3,-9.974495E-1,8.772131E-2,2.2334125E0,-4.6898955E-1,3.8926634E-1,1.7184187E0,5.3422344E-5,-5.6615305E-1,1.0414151E0,9.224719E-1,8.840424E-3,6.9760316E-4,-3.2307622E-3,6.281725E-3,5.719405E-4,1.7883283E-3,-1.6912229E-3,7.067933E-3,3.6391924E-4,-0E0,2.7130246E-3,9.087176E-3,1.1515711E-2,-2.6263949E-3,4.508661E-4,-1.5462957E-3,2.1215335E-3,-4.003372E-3,-3.1718386E-3,-2.581592E-3,1.4500684E-3,6.5640564E-4,8.328539E-3,2.8958344E-3,-1.919777E-3,-1.027837E-4,1.9796824E-3,6.2987222E-3,1.2808162E-4,5.3125364E-4,-2.6642904E-3,4.8452946E-3,-0E0,7.327475E-5,3.5108635E-3],"categories":[],"categories_nodes":[],"categories_segments":[],"categories_sizes":[],"default_left":[0,1,1,0,0,0,