{"learner":{"attributes":{"scikit_learn":"{\"_estimator_type\": \"classifier\"}"},"feature_names":["city","city_development_index","relevent_experience","enrolled_university","education_level","major_discipline","experience","company_size","company_type","last_new_job","training_hours","gender","has_extended"],"feature_types":["int","float","int","float","float","float","float","float","float","float","int","float","int"],"gradient_booster":{"model":{"gbtree_model_param":{"num_parallel_tree":"1","num_trees":"398"},"iteration_indptr":[0,1,2,3,4,5,6,7,8,9,10,11,12,13,14,15,16,17,18,19,20,21,22,23,24,25,26,27,28,29,30,31,32,33,34,35,36,37,38,39,40,41,42,43,44,45,46,47,48,49,50,51,52,53,54,55,56,57,58,59,60,61,62,63,64,65,66,67,68,69,70,71,72,73,74,75,76,77,78,79,80,81,82,83,84,85,86,87,88,89,90,91,92,93,94,95,96,97,98,99,100,101,102,103,104,105,106,107,108,109,110,111,112,113,114,115,116,117,118,119,120,121,122,123,124,125,126,127,128,129,130,131,132,133,134,135,136,137,138,139,140,141,142,143,144,145,146,147,148,149,150,151,152,153,154,155,156,157,158,159,160,161,162,163,164,165,166,167,168,169,170,171,172,173,174,175,176,177,178,179,180,181,182,183,184,185,186,187,188,189,190,191,192,193,194,195,196,197,198,199,200,201,202,203,204,205,206,207,208,209,210,211,212,213,214,215,216,217,218,219,220,221,222,223,224,225,226,227,228,229,230,231,232,233,234,235,236,237,238,239,240,241,242,243,244,245,246,247,248,249,250,251,252,253,254,255,256,257,258,259,260,261,262,263,264,265,266,267,268,269,270,271,272,273,274,275,276,277,278,279,280,281,282,283,284,285,286,287,288,289,290,291,292,293,294,295,296,297,298,299,300,301,302,303,304,305,306,307,308,309,310,311,312,313,314,315,316,317,318,319,320,321,322,323,324,325,326,327,328,329,330,331,332,333,334,335,336,337,338,339,340,341,342,343,344,345,346,347,348,349,350,351,352,353,354,355,356,357,358,359,360,361,362,363,364,365,366,367,368,369,370,371,372,373,374,375,376,377,378,379,380,381,382,383,384,385,386,387,388,389,390,391,392,393,394,395,396,397,398],"tree_info":[0,0,0,0,0,0,0,0,0,0,0,0,0,0,0,0,0,0,0,0,0,0,0,0,0,0,0,0,0,0,0,0,0,0,0,0,0,0,0,0,0,0,0,0,0,0,0,0,0,0,0,0,0,0,0,0,0,0,0,0,0,0,0,0,0,0,0,0,0,0,0,0,0,0,0,0,0,0,0,0,0,0,0,0,0,0,0,0,0,0,0,0,0,0,0,0,0,0,0,0,0,0,0,0,0,0,0,0,0,0,0,0,0,0,0,0,0,0,0,0,0,0,0,0,0,0,0,0,0,0,0,0,0,0,0,0,0,0,0,0,0,0,0,0,0,0,0,0,0,0,0,0,0,0,0,0,0,0,0,0,0,0,0,0,0,0,0,0,0,0,0,0,0,0,0,0,0,0,0,0,0,0,0,0,0,0,0,0,0,0,0,0,0,0,0,0,0,0,0,0,0,0,0,0,0,0,0,0,0,0,0,0,0,0,0,0,0,0,0,0,0,0,0,0,0,0,0,0,0,0,0,0,0,0,0,0,0,0,0,0,0,0,0,0,0,0,0,0,0,0,0,0,0,0,0,0,0,0,0,0,0,0,0,0,0,0,0,0,0,0,0,0,0,0,0,0,0,0,0,0,0,0,0,0,0,0,0,0,0,0,0,0,0,0,0,0,0,0,0,0,0,0,0,0,0,0,0,0,0,0,0,0,0,0,0,0,0,0,0,0,0,0,0,0,0,0,0,0,0,0,0,0,0,0,0,0,0,0,0,0,0,0,0,0,0,0,0,0,0,0,0,0,0,0,0,0,0,0,0,0,0,0,0,0,0,0,0,0,0,0,0,0,0,0,0,0,0,0,0,0,0,0,0,0,0,0,0,0,0,0,0,0,0,0,0,0,0,0],"trees":[{"base_weights":[8.781472E-3,1.1837287E0,-4.455936E-1,2.0965809E-2,-0E0,-1.0879545E0,4.8687235E-1,-1.1757703E0,-6.2260544E-1,7.627739E-1,-6.086906E-1,-6.626563E-1,-1.2466356E0,-0E0,-7.16198E-1,8.3101404E-1,-0E0,-2.9588511E-2,-1.1802685E0,-7.3020357E-1,-0E0,-2.2024464E-2,-0E0,-3.2426512E-1,-8.9135975E-1,5.64302E-1,1.1238538E0,1.2130856E-1,-5.5137584E-3,1.5868506E-1,-6.4856834E-3,-0E0,-1.2489551E0,-0E0,-7.679796E-1,-0E0,-8.354011E-3,-0E0,-9.1552824E-1,9.717689E-1,1.8337123E-1,2.0659365E-2,-0E0,-0E0,7.1910815E-3,3.5396725E-1,-1.8747903E-3,-0E0,-1.2702428E0,-1.3892674E-2,-0E0,-2.927624E-4,-1.779927E-2,1.0066952E0,-0E0,-3.0871856E-1,6.839153E-1,5.007618E-1,-0E0,-2.2795077E-2,-0E0,-0E0,1.8170996E-2,-0E0,-5.727826E-1,7.7381456E-1,-0E0,-0E0,1.0364555E-2,-4.3690903E-3,2.0631824E-3,-1.2487167E-2,-0E0,1.4439331E-2,-0E0],"categories":[],"categories_nodes":[],"categories_segments":[],"categories_sizes":[],"default_left":[0,0,0,0,0,0,0,0,0,0,1,0,0,0,0,0,1,0,0,0,0,0,0,1,0,0,1,0,0,0,0,0,0,0,0,0,0,0,0,0,0,0,0,0,0,0,0,0,0,0,0,0,0,0,0,0,0,0,0,0,0,0,0,0,0,1,0,0,0,0,0,0,0,0,0],"id":0,"left_children":[1,3,5,-1,-1,7,9,11,13,15,17,19,21,-1,23,25,27,29,31,33,-1,-1,-1,35,37,39,41,43,-1,45,-1,-1,47,-1,49,-1,-1,-1,51,53,55,-1,-1,-1,-1,57,-1,-1,59,-1,-1,-1,-1,61,-1,63,65,67,-1,-1,-1,-1,-1,69,71,73,-1,-1,-1,-1,-1,-1,-1,-1,-1],"loss_changes":[2.5159163E3,7.0477295E0,2.035777E3,0E0,0E0,6.1573486E1,4.2120328E2,3.8476807E1,1.5299591E1,6.215143E1,7.99122E1,5.952606E0,3.6538086E0,0E0,7.5211945E0,6.111609E1,4.6989365E0,1.1809964E1,1.2001053E1,6.8837204E0,0E0,0E0,0E0,5.9739466E0,6.0191345E0,7.641112E1,3.2489685E1,4.9546256E0,0E0,6.800557E0,0E0,0E0,4.730423E0,0E0,4.226738E0,0E0,0E0,0E0,5.986603E0,1.1636688E1,8.138885E1,0E0,0E0,0E0,0E0,6.387582E0,0E0,0E0,4.8439636E0,0E0,0E0,0E0,0E0,7.645111E0,0E0,8.482837E0,1.2713158E1,4.5763454E0,0E0,0E0,0E0,0E0,0E0,3.6548479E0,9.017292E0,8.384766E0,0E0,0E0,0E0,0E0,0E0,0E0,0E0,0E0,0E0],"parents":[2147483647,0,0,1,1,2,2,5,5,6,6,7,7,8,8,9,9,10,10,11,11,12,12,14,14,15,15,16,16,17,17,18,18,19,19,23,23,24,24,25,25,26,26,27,27,29,29,32,32,34,34,38,38,39,39,40,40,45,45,48,48,53,53,55,55,56,56,57,57,63,63,64,64,65,65],"right_children":[2,4,6,-1,-1,8,10,12,14,16,18,20,22,-1,24,26,28,30,32,34,-1,-1,-1,36,38,40,42,44,-1,46,-1,-1,48,-1,50,-1,-1,-1,52,54,56,-1,-1,-1,-1,58,-1,-1,60,-1,-1,-1,-1,62,-1,64,66,68,-1,-1,-1,-1,-1,70,72,74,-1,-1,-1,-1,-1,-1,-1,-1,-1],"split_conditions":[6.25E-1,3.22E2,1.400001E1,2.0965809E-2,-0E0,1E0,1.000001E1,7.76E-1,7.8E-1,9.24E-1,5E0,1.05E2,3.36E2,-0E0,6E0,9.2E-1,3E0,2E0,6.91E-1,3E0,-0E0,-2.2024464E-2,-0E0,1E0,1E0,7.95E-1,5E0,1E0,-5.5137584E-3,6.9E1,-6.4856834E-3,-0E0,5E0,-0E0,7.75E-1,-0E0,-8.354011E-3,-0E0,1.3E1,1.7E2,1E0,2.0659365E-2,-0E0,-0E0,7.1910815E-3,9.23E-1,-1.8747903E-3,-0E0,3.12E2,-1.3892674E-2,-0E0,-2.927624E-4,-1.779927E-2,6E0,-0E0,8.93E-1,1.05E2,5E0,-0E0,-2.2795077E-2,-0E0,-0E0,1.8170996E-2,8.56E-1,9.2E1,5E0,-0E0,-0E0,1.0364555E-2,-4.3690903E-3,2.0631824E-3,-1.2487167E-2,-0E0,1.4439331E-2,-0E0],"split_indices":[1,10,7,0,0,2,5,1,1,1,9,0,10,0,0,1,9,3,1,5,0,0,0,3,5,1,8,2,0,0,0,0,8,0,1,0,0,0,10,10,2,0,0,0,0,1,0,0,10,0,0,0,0,10,0,1,10,0,0,0,0,0,0,1,0,8,0,0,0,0,0,0,0,0,0],"split_type":[0,0,0,0,0,0,0,0,0,0,0,0,0,0,0,0,0,0,0,0,0,0,0,0,0,0,0,0,0,0,0,0,0,0,0,0,0,0,0,0,0,0,0,0,0,0,0,0,0,0,0,0,0,0,0,0,0,0,0,0,0,0,0,0,0,0,0,0,0,0,0,0,0,0,0],"sum_hessian":[4.6876875E3,1.3098638E3,3.3778237E3,1.304812E3,5.0516973E0,2.0050371E3,1.3727865E3,1.6625067E3,3.4253033E2,1.1046354E3,2.6815115E2,2.2494473E2,1.437562E3,5.5404408E1,2.8712595E2,1.0196601E3,8.497531E1,1.4424037E2,1.2391078E2,1.9529166E2,2.9653069E1,1.4361245E3,1.4374732E0,1.0994642E2,1.7717952E2,5.592589E2,4.6040115E2,5.2036545E1,3.2938766E1,7.795214E1,6.628822E1,6.2427444E0,1.1766804E2,7.6802177E0,1.8761143E2,3.5115456E1,7.483096E1,2.3820949E0,1.7479742E2,2.5418588E2,3.0507303E2,4.4734064E2,1.3060504E1,2.3410324E1,2.8626219E1,6.292023E1,1.5031911E1,1.1910474E0,1.1647699E2,1.8498293E2,2.6285205E0,2.6079926E1,1.487175E2,2.4790205E2,6.2838264E0,1.4612975E2,1.589433E2,5.372038E1,9.199854E0,1.1528594E2,1.1910474E0,4.1070757E0,2.4379498E2,8.234679E1,6.3782948E1,1.4399355E2,1.4949747E1,3.162454E0,5.0557922E1,4.304216E1,3.9304626E1,5.7581284E1,6.2016625E0,1.4058467E2,3.4088798E0],"tree_param":{"num_deleted":"0","num_feature":"13","num_nodes":"75","size_leaf_vector":"1"}},{"base_weights":[-5.8814636E-3,2.0334186E-2,-4.753012E-1,-1.1218177E0,4.687087E-1,-5.9189975E-1,-1.1977588E0,7.16518E-1,-4.656921E-1,-6.422501E-1,-0E0,-2.2437995E-2,-1.3445191E-2,7.9541117E-1,-2.4932474E-1,4.3351125E-2,-1.153953E0,-0E0,-6.7885876E-1,5.0353086E-1,1.0893248E0,-1.0643977E-2,-0E0,3.5736802E-1,-2.1039523E-1,-0E0,-1.2233342E0,-7.02279E-1,-0E0,5.1135696E-2,8.648982E-1,1.9511154E-2,-0E0,4.6779186E-1,-0E0,-0E0,-8.451432E-3,-2.1966923E-2,-0E0,-1.2890606E-2,-0E0,1.2119499E-2,-3.741515E-1,1.6019275E-2,-0E0,-0E0,1.2709506E-2,-5.486003E-2,-1.3063805E-2,7.926937E-3,-6.0311984E-3,4.1451986E-4,-6.7896033E-3],"categories":[],"categories_nodes":[],"categories_segments":[],"categories_sizes":[],"default_left":[0,0,0,0,0,0,0,0,1,0,0,0,0,0,0,0,0,0,0,0,0,0,0,0,0,0,0,0,0,0,0,0,0,0,0,0,0,0,0,0,0,0,0,0,0,0,0,0,0,0,0,0,0],"id":1,"left_children":[1,-1,3,5,7,9,11,13,15,17,-1,-1,-1,19,21,23,25,-1,27,29,31,-1,-1,33,35,-1,37,39,-1,41,43,-1,-1,45,-1,-1,-1,-1,-1,-1,-1,-1,47,-1,-1,49,-1,51,-1,-1,-1,-1,-1],"loss_changes":[2.535408E3,0E0,2.042348E3,5.9470947E1,3.1765756E2,1.1913681E1,3.1040771E1,8.836194E1,1.08265076E2,7.75679E0,0E0,0E0,0E0,6.884021E1,8.632271E0,1.450676E1,1.1551453E1,0E0,6.404686E0,7.86814E1,1.1833252E1,0E0,0E0,6.1284294E0,4.037091E0,0E0,4.5975647E0,5.864044E0,0E0,7.3156456E1,1.160701E1,0E0,0E0,4.6267605E0,0E0,0E0,0E0,0E0,0E0,0E0,0E0,0E0,1.0005228E1,0E0,0E0,8.42937E0,0E0,5.821598E0,0E0,0E0,0E0,0E0,0E0],"parents":[2147483647,0,0,2,2,3,3,4,4,5,5,6,6,7,7,8,8,9,9,13,13,14,14,15,15,16,16,18,18,19,19,20,20,23,23,24,24,26,26,27,27,29,29,30,30,33,33,42,42,45,45,47,47],"right_children":[2,-1,4,6,8,10,12,14,16,18,-1,-1,-1,20,22,24,26,-1,28,30,32,-1,-1,34,36,-1,38,40,-1,42,44,-1,-1,46,-1,-1,-1,-1,-1,-1,-1,-1,48,-1,-1,50,-1,52,-1,-1,-1,-1,-1],"split_conditions":[6.25E-1,2.0334186E-2,1.400001E1,7.75E-1,1.000001E1,1.000001E1,1E0,9.24E-1,5E0,4E0,-0E0,-2.2437995E-2,-1.3445191E-2,9.2E-1,1E0,2E0,6.91E-1,-0E0,3.08E2,1E0,3E0,-1.0643977E-2,-0E0,9.23E-1,2E0,-0E0,3.16E2,4.00001E0,-0E0,7.69E-1,1.58E2,1.9511154E-2,-0E0,9.13E-1,-0E0,-0E0,-8.451432E-3,-2.1966923E-2,-0E0,-1.2890606E-2,-0E0,1.2119499E-2,1E0,1.6019275E-2,-0E0,8.04E-1,1.2709506E-2,8.93E-1,-1.3063805E-2,7.926937E-3,-6.0311984E-3,4.1451986E-4,-6.7896033E-3],"split_indices":[1,0,7,1,5,9,2,1,9,5,0,0,0,1,2,3,1,0,10,2,4,0,0,1,4,0,10,3,0,1,10,0,0,1,0,0,0,0,0,0,0,0,4,0,0,1,0,1,0,0,0,0,0],"split_type":[0,0,0,0,0,0,0,0,0,0,0,0,0,0,0,0,0,0,0,0,0,0,0,0,0,0,0,0,0,0,0,0,0,0,0,0,0,0,0,0,0,0,0,0,0,0,0,0,0,0,0,0,0],"sum_hessian":[4.661033E3,1.3360297E3,3.3250037E3,1.9783229E3,1.3466808E3,2.6964395E2,1.708679E3,1.0730758E3,2.7360498E2,2.5694492E2,1.2699057E1,1.432899E3,2.757799E2,1.00157495E3,7.150079E1,1.533038E2,1.2030119E2,1.0802784E1,2.4614212E2,5.26351E2,4.7522397E2,3.0645987E1,4.0854805E1,8.297796E1,7.032584E1,6.2427444E0,1.1405845E2,2.4256667E2,3.5754635E0,2.4787135E2,2.7847964E2,4.7063522E2,4.58873E0,7.377783E1,9.2001295E0,4.4308113E1,2.6017727E1,1.128674E2,1.1910474E0,2.3462953E2,7.9371223E0,1.0614153E2,1.4172981E2,2.6620544E2,1.2274227E1,3.7433186E1,3.6344646E1,9.257841E1,4.9151405E1,2.3806036E1,1.3627149E1,5.7868744E1,3.4709663E1],"tree_param":{"num_deleted":"0","num_feature":"13","num_nodes":"53","size_leaf_vector":"1"}},{"base_weights":[-4.5172027E-3,1.9911231E-2,-4.4627112E-1,-1.0304788E0,3.9804757E-1,-1.1382877E0,-5.3512067E-1,6.3311374E-1,-5.416411E-1,-7.265671E-1,-2.1260174E-2,-0E0,-6.394539E-1,7.086019E-1,-2.4286659E-1,-0E0,-1.0434402E0,-2.8381036E-3,-1.4496657E-2,-1.5706868E-1,-8.935162E-1,4.3776578E-1,1.8016566E-2,-0E0,-4.6029738E-1,1.4264023E-1,-4.382132E-3,-1.0789679E0,-0E0,-5.807674E-1,-0E0,-0E0,-1.7909214E-2,5.631438E-3,1.5339711E-2,-9.759993E-3,-0E0,6.444836E-3,-7.4285977E-3,-0E0,-1.9943777E-2,-0E0,-6.963071E-1,6.180757E-1,-4.5322874E-1,-0E0,-1.5241574E-2,7.0402783E-1,-0E0,-1.1818204E-1,-1.558314E-2,-0E0,1.3356145E-2,1.0175296E-3,-8.2368255E-3],"categories":[],"categories_nodes":[],"categories_segments":[],"categories_sizes":[],"default_left":[0,0,0,0,0,1,0,0,1,0,0,0,0,0,0,1,0,0,0,0,0,0,0,0,0,0,0,0,0,0,0,0,0,0,0,0,0,0,0,0,0,0,0,0,0,0,0,0,0,0,0,0,0,0,0],"id":2,"left_children":[1,-1,3,5,7,9,11,13,15,17,-1,-1,19,21,23,25,27,-1,-1,29,31,33,-1,-1,35,37,-1,39,-1,41,-1,-1,-1,43,-1,-1,-1,-1,-1,-1,-1,-1,45,47,49,-1,-1,51,-1,53,-1,-1,-1,-1,-1],"loss_changes":[2.3379744E3,0E0,1.67301E3,8.822705E1,3.07528E2,2.1869385E1,2.254943E1,7.8846375E1,6.86448E1,4.474655E0,0E0,0E0,2.9561523E1,7.188611E1,7.314144E0,5.779729E0,7.500885E0,0E0,0E0,1.3105629E1,1.505864E1,1.0063799E2,0E0,0E0,4.349642E0,1.0697105E1,0E0,5.6376495E0,0E0,4.1235237E0,0E0,0E0,0E0,8.957624E1,0E0,0E0,0E0,0E0,0E0,0E0,0E0,0E0,6.5517464E0,1.1654053E1,1.5085682E1,0E0,0E0,7.5465546E0,0E0,1.0857135E1,0E0,0E0,0E0,0E0,0E0],"parents":[2147483647,0,0,2,2,3,3,4,4,5,5,6,6,7,7,8,8,9,9,12,12,13,13,14,14,15,15,16,16,19,19,20,20,21,21,24,24,25,25,27,27,29,29,33,33,42,42,43,43,44,44,47,47,49,49],"right_children":[2,-1,4,6,8,10,12,14,16,18,-1,-1,20,22,24,26,28,-1,-1,30,32,34,-1,-1,36,38,-1,40,-1,42,-1,-1,-1,44,-1,-1,-1,-1,-1,-1,-1,-1,46,48,50,-1,-1,52,-1,54,-1,-1,-1,-1,-1],"split_conditions":[6.25E-1,1.9911231E-2,1.000001E1,1E0,1.000001E1,2E0,7.69E-1,9.24E-1,2E0,7.62E-1,-2.1260174E-2,-0E0,5E0,9.2E-1,1E0,1E0,4.2000008E1,-2.8381036E-3,-1.4496657E-2,3E0,3E0,1E0,1.8016566E-2,-0E0,9.49E-1,9.24E-1,-4.382132E-3,6.93E-1,-0E0,1E0,-0E0,-0E0,-1.7909214E-2,7.96E-1,1.5339711E-2,-9.759993E-3,-0E0,6.444836E-3,-7.4285977E-3,-0E0,-1.9943777E-2,-0E0,2E0,2.1E1,1E0,-0E0,-1.5241574E-2,6.8E-1,-0E0,8.9E-1,-1.558314E-2,-0E0,1.3356145E-2,1.0175296E-3,-8.2368255E-3],"split_indices":[1,0,8,2,5,3,1,1,9,1,0,0,8,1,3,3,6,0,0,8,5,2,0,0,1,1,0,1,0,11,0,0,0,1,0,0,0,0,0,0,0,0,6,6,4,0,0,1,0,1,0,0,0,0,0],"split_type":[0,0,0,0,0,0,0,0,0,0,0,0,0,0,0,0,0,0,0,0,0,0,0,0,0,0,0,0,0,0,0,0,0,0,0,0,0,0,0,0,0,0,0,0,0,0,0,0,0,0,0,0,0,0,0],"sum_hessian":[4.670438E3,1.3017335E3,3.3687046E3,1.9964248E3,1.3722799E3,1.6180824E3,3.783424E2,1.1069056E3,2.6537424E2,2.5460968E2,1.3634727E3,6.015313E1,3.1818927E2,1.0295317E3,7.7373886E1,1.3547725E2,1.2989699E2,5.252318E1,2.020865E2,1.2537688E2,1.9281241E2,5.749546E2,4.5457712E2,2.5913198E1,5.146069E1,7.499499E1,6.048227E1,1.2751357E2,2.3834052E0,4.211649E1,8.326039E1,3.0221888E1,1.6259052E2,3.008109E2,2.7414368E2,4.7886387E1,3.5743012E0,6.665336E1,8.341628E0,7.4823003E0,1.2003127E2,6.252881E0,3.5863605E1,1.361772E2,1.6463371E2,6.0152345E0,2.9848373E1,1.2700682E2,9.170383E0,1.0869673E2,5.593699E1,4.8384976E0,1.2216833E2,5.8875496E1,4.9821236E1],"tree_param":{"num_deleted":"0","num_feature":"13","num_nodes":"55","size_leaf_vector":"1"}},{"base_weights":[1.1904746E-2,-3.869527E-1,6.396717E-1,-2.3961753E-1,-1.2456387E0,8.392856E-1,-2.8557757E-2,-6.063596E-1,-2.3256667E-2,-2.2228532E-2,-0E0,9.163531E-1,4.0976232E-1,2.6652414E-1,-2.9300737E-1,3.7741715E-1,-7.054295E-1,-6.1651516E-1,8.104539E-2,9.4981366E-1,1.18549645E-1,4.7209468E-1,-2.0286476E-3,5.8522E-1,-0E0,-0E0,-5.1081544E-1,-0E0,1.025145E-2,-7.309623E-1,-0E0,-1.5541734E-1,-9.7112036E-1,2.1877915E-1,-4.9194954E-2,9.563073E-1,-0E0,8.341631E-3,-0E0,5.1388836E-1,-0E0,1.3263215E-2,-0E0,-1.3533508E-2,-0E0,-7.368886E-1,-0E0,-3.171153E-1,-0E0,-1.8498406E-2,-0E0,-2.4358719E-3,2.4483758E-1,-1.3274708E-1,1.1818567E-2,1.6976843E-2,-0E0,5.564184E-1,-0E0,-0E0,-1.3162147E-2,-0E0,-7.6977964E-3,-0E0,2.7211708E-1,-6.0029387E-2,-1.5498285E-2,-0E0,5.770058E-1,2.9793027E-1,-0E0,-2.3839907E-1,1.167288E-3,1.1642041E-2,5.573149E-5,8.196276E-5,5.9875357E-3,-1.0207586E-2,-1.4710672E-3],"categories":[],"categories_nodes":[],"categories_segments":[],"categories_sizes":[],"default_left":[0,1,0,0,0,0,1,0,1,0,0,1,0,1,0,1,1,1,1,0,0,1,0,0,0,0,0,0,0,1,0,0,0,0,0,0,0,0,0,0,0,0,0,0,0,0,0,0,0,0,0,0,0,0,0,0,0,0,0,0,0,0,0,0,0,0,0,0,0,0,0,1,0,0,0,0,0,0,0],"id":3,"left_children":[1,3,5,7,9,11,13,15,17,-1,-1,19,21,23,25,27,29,31,33,35,37,39,-1,41,-1,-1,43,-1,-1,45,-1,47,49,51,53,55,-1,-1,-1,57,-1,-1,-1,-1,-1,59,-1,61,-1,-1,-1,-1,63,65,-1,-1,-1,67,-1,-1,-1,-1,-1,-1,69,71,-1,-1,73,75,-1,77,-1,-1,-1,-1,-1,-1,-1],"loss_changes":[1.1794939E3,3.4757248E2,2.5214764E2,1.897912E2,4.9225464E0,3.2963562E1,3.3357025E1,9.21853E1,1.0229208E2,0E0,0E0,2.1418823E1,1.15480995E1,1.3484097E1,1.9539467E1,1.0578989E1,1.1999603E1,2.9656693E1,2.5416739E1,9.735901E0,5.692673E0,8.047668E0,0E0,7.8248177E0,0E0,0E0,1.916954E1,0E0,0E0,4.4091797E0,0E0,5.7758675E0,8.100708E0,7.488598E0,3.5168247E1,6.4299316E0,0E0,0E0,0E0,7.31971E0,0E0,0E0,0E0,0E0,0E0,4.716858E0,0E0,6.2076273E0,0E0,0E0,0E0,0E0,6.3214607E0,2.4056837E1,0E0,0E0,0E0,4.152153E0,0E0,0E0,0E0,0E0,0E0,0E0,5.3992004E0,1.4401943E1,0E0,0E0,4.396576E0,3.9526863E0,0E0,7.8271265E0,0E0,0E0,0E0,0E0,0E0,0E0,0E0],"parents":[2147483647,0,0,1,1,2,2,3,3,4,4,5,5,6,6,7,7,8,8,11,11,12,12,13,13,14,14,15,15,16,16,17,17,18,18,19,19,20,20,21,21,23,23,26,26,29,29,31,31,32,32,33,33,34,34,35,35,39,39,45,45,47,47,52,52,53,53,57,57,64,64,65,65,68,68,69,69,71,71],"right_children":[2,4,6,8,10,12,14,16,18,-1,-1,20,22,24,26,28,30,32,34,36,38,40,-1,42,-1,-1,44,-1,-1,46,-1,48,50,52,54,56,-1,-1,-1,58,-1,-1,-1,-1,-1,60,-1,62,-1,-1,-1,-1,64,66,-1,-1,-1,68,-1,-1,-1,-1,-1,-1,70,72,-1,-1,74,76,-1,78,-1,-1,-1,-1,-1,-1,-1],"split_conditions":[1.400001E1,2.1E1,1.000001E1,1.1E1,2.88E2,2.1E1,4E0,1E0,5E0,-2.2228532E-2,-0E0,5E0,5E0,1E0,1.3E1,4E0,5E0,1E0,1.6E1,3E0,2.6E1,5E0,-2.0286476E-3,2E0,-0E0,-0E0,4.00001E0,-0E0,1.025145E-2,4E0,-0E0,2E0,1.67E2,7E0,2E1,3.1E2,-0E0,8.341631E-3,-0E0,3E0,-0E0,1.3263215E-2,-0E0,-1.3533508E-2,-0E0,4E0,-0E0,1.1E1,-0E0,-1.8498406E-2,-0E0,-2.4358719E-3,1E0,7E0,1.1818567E-2,1.6976843E-2,-0E0,6E0,-0E0,-0E0,-1.3162147E-2,-0E0,-7.6977964E-3,-0E0,1.000001E1,1E0,-1.5498285E-2,-0E0,9.5E1,1.3E1,-0E0,4E0,1.167288E-3,1.1642041E-2,5.573149E-5,8.196276E-5,5.9875357E-3,-1.0207586E-2,-1.4710672E-3],"split_indices":[7,6,5,6,10,6,9,6,5,0,0,8,9,11,6,5,9,4,6,4,10,8,0,9,0,0,11,0,0,4,0,11,10,10,6,10,0,0,0,4,0,0,0,0,0,10,0,10,0,0,0,0,11,7,0,0,0,10,0,0,0,0,0,0,8,9,0,0,10,6,0,8,0,0,0,0,0,0,0],"split_type":[0,0,0,0,0,0,0,0,0,0,0,0,0,0,0,0,0,0,0,0,0,0,0,0,0,0,0,0,0,0,0,0,0,0,0,0,0,0,0,0,0,0,0,0,0,0,0,0,0,0,0,0,0,0,0,0,0,0,0,0,0,0,0,0,0,0,0,0,0,0,0,0,0,0,0,0,0,0,0],"sum_hessian":[4.6890024E3,2.860115E3,1.8288873E3,2.4570215E3,4.030935E2,1.4171888E3,4.116985E2,8.9219995E2,1.5648215E3,3.970172E2,6.076294E0,1.1779515E3,2.3923738E2,1.7869957E2,2.329989E2,7.179522E1,8.204047E2,2.4201555E2,1.3228059E3,1.1186968E3,5.9254707E1,2.2952078E2,9.716595E0,7.138266E1,1.0731691E2,8.573126E1,1.4726764E2,1.3848916E1,5.79463E1,7.861123E2,3.429246E1,1.2007321E2,1.2194234E2,6.7391E2,6.4889594E2,1.1141154E3,4.581413E0,2.3219416E1,3.6035294E1,2.2318512E2,6.335664E0,5.4599773E1,1.6782885E1,9.43484E1,5.2919247E1,7.8153656E2,4.5757227E0,8.143238E1,3.8640835E1,1.11086426E2,1.0855912E1,2.082742E1,6.530826E2,5.970555E2,5.184046E1,1.1074021E3,6.7132235E0,2.1307552E2,1.0109607E1,1.0623531E1,7.70913E2,8.805168E0,7.262721E1,4.0222694E1,6.1285986E2,5.6112103E2,3.5934452E1,2.909198E0,2.101663E2,5.7103265E2,4.1827198E1,2.5927213E2,3.018489E2,1.6931248E2,4.085382E1,9.8055046E1,4.7297763E2,5.7801777E1,2.0147035E2],"tree_param":{"num_deleted":"0","num_feature":"13","num_nodes":"79","size_leaf_vector":"1"}},{"base_weights":[-9.920962E-3,1.9248059E-2,-4.3798727E-1,-1.0752214E0,4.6925256E-1,-6.081736E-1,-1.1387459E0,8.2790846E-1,-1.0530645E-1,-3.0632218E-4,-7.731535E-1,-1.1639953E0,-5.3611606E-1,8.7235254E-1,-1.3806872E-3,4.2959996E-2,-7.9575586E-1,-0E0,-8.793748E-1,-7.271831E-1,-2.1383712E-2,-0E0,-1.0602131E-2,9.175888E-1,1.1277671E-3,-3.3324176E-1,3.9386964E-1,-0E0,-1.6632326E-2,-0E0,-9.2032164E-1,-8.0063957E-1,-0E0,-0E0,9.228515E-1,1.1483688E-3,-5.12875E-1,8.2582504E-1,3.5892148E-2,-0E0,-1.6982976E-2,-0E0,-1.4860457E-2,-0E0,1.6374225E-2,-0E0,-7.3498803E-1,1.5405798E-2,-0E0,1.2373916E-2,-2.4407399E-1,-0E0,-7.8149486E-1,-4.5052794E-1,-0E0,-0E0,-1.5521921E-2,-0E0,-1.2825266E-2,8.318023E-3,-2.3381624E-3],"categories":[],"categories_nodes":[],"categories_segments":[],"categories_sizes":[],"default_left":[0,0,0,1,0,0,0,1,0,0,0,0,0,0,0,0,0,0,0,0,0,0,0,0,0,0,0,0,0,0,0,0,0,0,0,0,0,1,0,0,0,0,0,0,0,0,0,0,0,0,0,0,0,1,0,0,0,0,0,0,0],"id":4,"left_children":[1,-1,3,5,7,9,11,13,15,-1,17,19,21,23,-1,25,27,-1,29,31,-1,-1,-1,33,-1,35,37,-1,-1,-1,39,41,-1,-1,43,-1,45,47,49,-1,-1,-1,-1,-1,-1,-1,51,-1,-1,-1,53,-1,55,57,59,-1,-1,-1,-1,-1,-1],"loss_changes":[2.1854812E3,0E0,1.9475388E3,3.8763428E1,2.9184927E2,1.8945473E1,7.062744E0,4.2171387E1,6.0893364E1,0E0,1.5692841E1,1.1289307E1,4.90567E0,2.130658E1,0E0,5.8099144E1,1.3796074E1,0E0,7.415024E0,1.2795822E1,0E0,0E0,0E0,4.4656982E0,0E0,1.8397755E1,2.888132E1,0E0,0E0,0E0,7.1900787E0,8.468613E0,0E0,0E0,4.3125E0,0E0,1.5064659E1,5.6883163E0,3.267063E1,0E0,0E0,0E0,0E0,0E0,0E0,0E0,4.4335747E0,0E0,0E0,0E0,7.69298E0,0E0,3.978199E0,1.2758558E1,4.8350067E0,0E0,0E0,0E0,0E0,0E0,0E0],"parents":[2147483647,0,0,2,2,3,3,4,4,5,5,6,6,7,7,8,8,10,10,11,11,12,12,13,13,15,15,16,16,18,18,19,19,23,23,25,25,26,26,30,30,31,31,34,34,36,36,37,37,38,38,46,46,50,50,52,52,53,53,54,54],"right_children":[2,-1,4,6,8,10,12,14,16,-1,18,20,22,24,-1,26,28,-1,30,32,-1,-1,-1,34,-1,36,38,-1,-1,-1,40,42,-1,-1,44,-1,46,48,50,-1,-1,-1,-1,-1,-1,-1,52,-1,-1,-1,54,-1,56,58,60,-1,-1,-1,-1,-1,-1],"split_conditions":[6.25E-1,1.9248059E-2,1.400001E1,1E0,1E0,6E0,3E0,5E0,3E0,-3.0632218E-4,1E0,7.69E-1,5E0,9.24E-1,-1.3806872E-3,2E0,2E0,-0E0,1E0,7.67E-1,-2.1383712E-2,-0E0,-1.0602131E-2,6.49E-1,1.1277671E-3,7.8E-1,9E0,-0E0,-1.6632326E-2,-0E0,6.91E-1,1E0,-0E0,-0E0,3E0,1.1483688E-3,6E0,5E0,7.69E-1,-0E0,-1.6982976E-2,-0E0,-1.4860457E-2,-0E0,1.6374225E-2,-0E0,1E0,1.5405798E-2,-0E0,1.2373916E-2,9.15E-1,-0E0,3E0,1E0,9.24E-1,-0E0,-1.5521921E-2,-0E0,-1.2825266E-2,8.318023E-3,-2.3381624E-3],"split_indices":[1,0,7,3,4,0,4,8,4,0,7,1,0,1,0,4,3,0,6,1,0,0,0,1,0,1,0,0,0,0,1,6,0,0,8,0,0,8,1,0,0,0,0,0,0,0,11,0,0,0,1,0,6,3,1,0,0,0,0,0,0],"split_type":[0,0,0,0,0,0,0,0,0,0,0,0,0,0,0,0,0,0,0,0,0,0,0,0,0,0,0,0,0,0,0,0,0,0,0,0,0,0,0,0,0,0,0,0,0,0,0,0,0,0,0,0,0,0,0,0,0,0,0,0,0],"sum_hessian":[4.637269E3,1.2897887E3,3.3474805E3,1.9713953E3,1.3760852E3,2.6082544E2,1.7105698E3,8.550003E2,5.2108484E2,7.0212135E1,1.906133E2,1.6219504E3,8.861941E1,8.2458606E2,3.0414242E1,4.233124E2,9.777242E1,2.442183E1,1.6619147E2,1.8896346E2,1.4329869E3,5.79076E0,8.282864E1,7.6968274E2,5.4903305E1,1.9224677E2,2.3106564E2,1.440679E1,8.336564E1,6.2595677E0,1.599319E2,1.7472557E2,1.4237884E1,3.5823958E0,7.6610034E2,4.5664055E1,1.4658272E2,8.970521E1,1.4136044E2,6.507508E0,1.5342438E2,5.5101333E0,1.6921544E2,3.5984933E0,7.625019E2,5.059236E1,9.599036E1,8.703375E1,2.6714513E0,4.8405556E1,9.295488E1,4.561709E0,9.142864E1,6.067812E1,3.2276764E1,1.5482817E1,7.594583E1,1.7148201E1,4.3529915E1,1.3381803E1,1.8894962E1],"tree_param":{"num_deleted":"0","num_feature":"13","num_nodes":"61","size_leaf_vector":"1"}},{"base_weights":[-8.06845E-3,-3.6377296E-1,5.425523E-1,-8.465725E-1,2.2904706E-1,7.2137547E-1,-1.15332454E-1,-9.481267E-1,-3.8959974E-1,1.909485E-2,-7.818973E-1,5.110579E-1,9.532482E-1,-3.822831E-1,1.5448627E-1,-0E0,-9.6165305E-1,-8.2041726E-2,-6.1377954E-1,-9.173689E-1,-1.0064716E-1,6.25981E-1,6.55868E-2,9.642765E-1,-0E0,2.08397E-2,-8.5868436E-1,1.2357129E-2,-3.0713317E-1,-9.8817915E-1,-4.2890133E-3,-0E0,-2.3864542E-1,-0E0,-6.897892E-1,-1.6592879E-2,-0E0,-3.7830806E-1,2.944007E-3,4.4678327E-1,1.6036788E-2,5.112168E-3,-3.155779E-1,-0E0,9.7325283E-1,2.7641553E-1,-5.80628E-4,-0E0,-9.833003E-1,-1.078689E-2,1.1785848E-4,-2.3514096E-1,-1.0120035E0,-3.0782337E-3,4.485953E-3,-0E0,-9.730047E-3,-1.295243E-2,-0E0,-6.4220953E-1,-0E0,7.706394E-1,-2.3631334E-1,-1.1664367E-2,1.7207658E-3,9.836165E-1,-0E0,-0E0,7.9338765E-3,-0E0,-1.807941E-2,-5.028466E-1,1.0814702E-3,-4.9939317E-1,-1.8481085E-2,-7.990246E-1,-0E0,7.995262E-1,-0E0,-0E0,-1.0289755E-2,1.7821137E-2,2.1750825E-3,-1.1303171E-2,-0E0,-0E0,-5.953778E-1,-0E0,-1.6720695E-2,8.203166E-1,-0E0,-9.736545E-3,1.9388698E-3,-1.1427481E-2,-0E0,1.1607093E-3,1.5512969E-2],"categories":[],"categories_nodes":[],"categories_segments":[],"categories_sizes":[],"default_left":[0,0,0,0,0,0,0,1,0,0,0,0,0,0,0,0,0,0,0,0,0,0,0,0,0,0,0,0,0,0,0,0,0,0,0,0,0,0,0,0,0,0,0,0,0,0,0,0,0,0,0,0,0,0,0,0,0,0,0,0,0,0,0,0,0,1,0,0,0,0,0,0,0,0,0,0,0,0,0,0,0,0,0,0,0,0,1,0,0,0,0,0,0,0,0,0,0],"id":5,"left_children":[1,3,5,7,9,11,13,15,17,-1,19,21,23,25,27,-1,29,31,33,35,37,39,41,43,-1,45,47,-1,49,51,-1,53,55,-1,57,-1,-1,59,-1,61,-1,-1,63,-1,65,67,-1,-1,69,-1,-1,71,73,-1,-1,-1,-1,-1,-1,75,-1,77,79,-1,-1,81,-1,-1,-1,-1,-1,83,-1,85,-1,87,-1,89,-1,91,-1,-1,-1,-1,-1,-1,93,-1,-1,95,-1,-1,-1,-1,-1,-1,-1],"loss_changes":[9.158849E2,8.2402515E2,2.2104657E2,5.9259888E1,1.1108156E3,5.4582947E1,3.0181114E1,1.4859131E1,1.5197891E1,0E0,4.4286255E1,3.4241745E1,8.621887E0,4.8311768E1,5.0179108E1,0E0,1.1478027E1,4.0210514E0,1.0811813E1,1.2059174E1,1.0813614E1,1.6535324E1,1.6223791E1,7.5566406E0,0E0,3.7447238E0,1.1392014E1,0E0,1.4276427E1,8.892212E0,0E0,4.233926E0,5.491557E0,0E0,7.9818726E0,0E0,0E0,4.35032E0,0E0,9.61444E1,0E0,0E0,1.3572519E1,0E0,6.7334595E0,4.364719E0,0E0,0E0,4.5066757E0,0E0,0E0,8.592539E0,3.7773438E0,0E0,0E0,0E0,0E0,0E0,0E0,5.626849E0,0E0,1.1283966E1,7.8107553E0,0E0,0E0,3.822998E0,0E0,0E0,0E0,0E0,0E0,5.882841E0,0E0,7.8791275E0,0E0,6.4859104E0,0E0,7.4454803E0,0E0,7.8172727E0,0E0,0E0,0E0,0E0,0E0,0E0,4.308876E0,0E0,0E0,3.7431488E0,0E0,0E0,0E0,0E0,0E0,0E0,0E0],"parents":[2147483647,0,0,1,1,2,2,3,3,4,4,5,5,6,6,7,7,8,8,10,10,11,11,12,12,13,13,14,14,16,16,17,17,18,18,19,19,20,20,21,21,22,22,23,23,25,25,26,26,28,28,29,29,31,31,32,32,34,34,37,37,39,39,42,42,44,44,45,45,48,48,51,51,52,52,59,59,61,61,62,62,65,65,71,71,73,73,75,75,77,77,79,79,86,86,89,89],"right_children":[2,4,6,8,10,12,14,16,18,-1,20,22,24,26,28,-1,30,32,34,36,38,40,42,44,-1,46,48,-1,50,52,-1,54,56,-1,58,-1,-1,60,-1,62,-1,-1,64,-1,66,68,-1,-1,70,-1,-1,72,74,-1,-1,-1,-1,-1,-1,76,-1,78,80,-1,-1,82,-1,-1,-1,-1,-1,84,-1,86,-1,88,-1,90,-1,92,-1,-1,-1,-1,-1,-1,94,-1,-1,96,-1,-1,-1,-1,-1,-1,-1],"split_conditions":[1.000001E1,6.4E1,1.000001E1,1E0,6.5E1,1E0,5.6E1,1E0,1.2E1,1.909485E-2,1E0,6.5E1,3E0,5E0,6.5E1,-0E0,5E1,5E0,1E0,1.000001E1,4.00001E0,4.9E1,1E0,1E0,-0E0,6E0,1E0,1.2357129E-2,4.00001E0,4E0,-4.2890133E-3,3E0,1.5E1,-0E0,1.000001E1,-1.6592879E-2,-0E0,1.4E1,2.944007E-3,1.2E1,1.6036788E-2,5.112168E-3,1.13E2,-0E0,1.2E2,5E0,-5.80628E-4,-0E0,1E0,-1.078689E-2,1.1785848E-4,3E0,1E0,-3.0782337E-3,4.485953E-3,-0E0,-9.730047E-3,-1.295243E-2,-0E0,1.19E2,-0E0,3E0,4.4E1,-1.1664367E-2,1.7207658E-3,2.1E1,-0E0,-0E0,7.9338765E-3,-0E0,-1.807941E-2,3E0,1.0814702E-3,2E0,-1.8481085E-2,1E0,-0E0,1.000001E1,-0E0,1.4E1,-1.0289755E-2,1.7821137E-2,2.1750825E-3,-1.1303171E-2,-0E0,-0E0,3E0,-0E0,-1.6720695E-2,5E0,-0E0,-9.736545E-3,1.9388698E-3,-1.1427481E-2,-0E0,1.1607093E-3,1.5512969E-2],"split_indices":[8,0,5,2,0,2,0,6,0,0,2,0,4,9,0,0,0,8,6,9,11,0,4,5,0,0,6,0,11,0,0,8,6,0,9,0,0,6,0,0,0,0,0,0,0,0,0,0,11,0,0,0,11,0,0,0,0,0,0,0,0,4,0,0,0,6,0,0,0,0,0,4,0,6,0,8,0,9,0,0,0,0,0,0,0,0,4,0,0,0,0,0,0,0,0,0,0],"split_type":[0,0,0,0,0,0,0,0,0,0,0,0,0,0,0,0,0,0,0,0,0,0,0,0,0,0,0,0,0,0,0,0,0,0,0,0,0,0,0,0,0,0,0,0,0,0,0,0,0,0,0,0,0,0,0,0,0,0,0,0,0,0,0,0,0,0,0,0,0,0,0,0,0,0,0,0,0,0,0,0,0,0,0,0,0,0,0,0,0,0,0,0,0,0,0,0,0],"sum_hessian":[4.6715605E3,2.849222E3,1.8223386E3,1.5770725E3,1.2721493E3,1.4429841E3,3.793545E2,1.2688295E3,3.0824304E2,6.94421E2,5.7772833E2,7.874388E2,6.5554535E2,2.0588382E2,1.7347069E2,1.9553513E1,1.249276E3,1.5031197E2,1.5793108E2,4.691926E2,1.08535736E2,6.0806854E2,1.7937024E2,6.4976385E2,5.7814918E0,1.0473359E2,1.0115023E2,8.677725E1,8.6693436E1,1.1905857E3,5.8690323E1,6.756504E1,8.2746925E1,1.1492739E1,1.4643834E2,4.5979227E2,9.400344E0,6.823528E1,4.030046E1,4.0154614E2,2.065224E2,1.2856836E2,5.080189E1,4.0696445E0,6.456942E2,4.2291367E1,6.2442223E1,1.3744856E1,8.740537E1,5.5304478E1,3.1388958E1,5.0058205E1,1.1405275E3,2.1630352E1,4.5934692E1,5.437528E1,2.8371649E1,1.4335866E2,3.0796802E0,3.0062584E1,3.81727E1,2.8065753E2,1.2088861E2,3.7274837E1,1.3527054E1,6.389855E2,6.7087545E0,8.690923E0,3.360044E1,3.129087E0,8.427629E1,3.969786E1,1.0360344E1,9.61664E1,1.0443611E3,2.597682E1,4.0857635E0,2.7794336E2,2.71417E0,8.340291E1,3.74857E1,6.088627E2,3.012279E1,3.6345284E1,3.3525774E0,8.170244E0,8.7996155E1,2.1314633E0,2.3845356E1,2.7477866E2,3.1647158E0,1.6384396E1,6.701852E1,8.364417E1,4.351985E0,3.1782755E1,2.429959E2],"tree_param":{"num_deleted":"0","num_feature":"13","num_nodes":"97","size_leaf_vector":"1"}},{"base_weights":[9.215907E-3,1.0898458E0,-4.1403794E-1,1.929953E-2,-0E0,-6.442805E-1,8.410807E-2,-1.3909109E-2,-7.5496006E-1,4.407842E-1,-3.3962888E-1,2.5246057E-1,-1.9405568E-1,-9.474622E-1,-6.140532E-1,5.301755E-1,-8.470274E-3,-0E0,-5.700301E-1,5.5352743E-3,-0E0,-0E0,-5.318152E-1,-9.633156E-1,-0E0,-4.329474E-1,-1.0808219E0,7.897281E-1,1.6285501E-1,5.6944698E-2,-7.2870003E-3,-1.5179998E-1,-1.630803E-2,-3.3724995E-3,1.3193518E-1,-0E0,-1.0711775E-2,-7.254335E-1,-1.132169E0,-6.156741E-2,-4.9775815E-1,-0E0,-1.9210398E-2,8.274854E-1,-0E0,2.422488E-1,-5.5716895E-3,-3.9616305E-2,5.4038977E-3,1.5754169E-3,-2.8116396E-1,4.794113E-3,-1.9298826E-3,-7.8864855E-1,-3.6216178E-4,-2.0232644E-2,-0E0,2.3488428E-4,-2.3221485E-1,-9.967538E-5,-5.543655E-1,-0E0,8.5476106E-1,-7.5111847E-4,3.4221375E-1,5.321434E-3,-3.4150663E-1,-6.599775E-1,-0E0,-1.4242708E-2,-0E0,-7.4370108E-3,-0E0,-7.029267E-1,-4.6028905E-3,-0E0,1.552374E-2,7.5999796E-3,-0E0,-5.752446E-1,-0E0,-0E0,-1.4930841E-2,5.591666E-3,-7.548356E-3,-1.2623073E-2,-0E0,-0E0,-1.2704783E-2],"categories":[],"categories_nodes":[],"categories_segments":[],"categories_sizes":[],"default_left":[0,0,0,0,0,0,0,1,0,0,0,0,1,0,0,1,0,0,0,0,0,0,0,0,0,0,0,0,0,0,0,0,0,0,0,0,0,0,0,0,0,0,0,0,0,0,0,0,0,0,0,0,0,1,0,0,0,0,0,0,0,0,1,0,0,0,0,0,0,0,0,0,0,1,0,0,0,0,0,0,0,0,0,0,0,0,0,0,0],"id":6,"left_children":[1,3,5,-1,-1,7,9,11,13,15,17,19,21,23,25,27,-1,29,31,-1,-1,33,35,37,-1,39,41,43,45,47,-1,49,-1,-1,51,-1,-1,53,55,57,59,-1,-1,61,-1,63,-1,65,-1,-1,67,-1,-1,69,-1,-1,-1,-1,71,-1,73,-1,75,-1,77,-1,79,81,83,-1,-1,-1,-1,85,-1,-1,-1,-1,-1,87,-1,-1,-1,-1,-1,-1,-1,-1,-1],"loss_changes":[2.1284434E3,4.3187256E0,3.8709088E2,0E0,0E0,1.528393E2,1.598859E2,1.7088053E1,3.4932617E1,4.9965958E1,3.5510086E1,3.8500586E0,1.7922718E1,6.6796265E0,8.182797E1,4.2422226E1,0E0,5.659315E0,3.04757E1,0E0,0E0,3.6813855E0,5.4051266E0,8.862549E0,0E0,1.5580795E1,3.8853455E0,6.8486176E0,9.209562E0,6.701888E0,0E0,6.408558E0,0E0,0E0,5.194951E0,0E0,0E0,8.564255E0,6.6435547E0,3.950622E0,1.4855545E1,0E0,0E0,7.0000763E0,0E0,9.331106E0,0E0,1.2084564E1,0E0,0E0,1.2116593E1,0E0,0E0,6.6641693E0,0E0,0E0,0E0,0E0,5.663821E0,0E0,1.742717E1,0E0,5.750305E0,0E0,8.254051E0,0E0,8.765839E0,8.762648E0,1.1430923E1,0E0,0E0,0E0,0E0,4.7038116E0,0E0,0E0,0E0,0E0,0E0,6.001053E0,0E0,0E0,0E0,0E0,0E0,0E0,0E0,0E0,0E0],"parents":[2147483647,0,0,1,1,2,2,5,5,6,6,7,7,8,8,9,9,10,10,11,11,12,12,13,13,14,14,15,15,17,17,18,18,21,21,22,22,23,23,25,25,26,26,27,27,28,28,29,29,31,31,34,34,37,37,38,38,39,39,40,40,43,43,45,45,47,47,50,50,53,53,58,58,60,60,62,62,64,64,66,66,67,67,68,68,73,73,79,79],"right_children":[2,4,6,-1,-1,8,10,12,14,16,18,20,22,24,26,28,-1,30,32,-1,-1,34,36,38,-1,40,42,44,46,48,-1,50,-1,-1,52,-1,-1,54,56,58,60,-1,-1,62,-1,64,-1,66,-1,-1,68,-1,-1,70,-1,-1,-1,-1,72,-1,74,-1,76,-1,78,-1,80,82,84,-1,-1,-1,-1,86,-1,-1,-1,-1,-1,88,-1,-1,-1,-1,-1,-1,-1,-1,-1],"split_conditions":[6.25E-1,3.22E2,1E0,1.929953E-2,-0E0,7.76E-1,1E0,2E0,9.15E-1,9.26E-1,1.000001E1,1.57E2,1.6E1,8.00001E0,9.24E-1,1E0,-8.470274E-3,9.25E-1,2E0,5.5352743E-3,-0E0,2.7E1,1E0,8.9E-1,-0E0,5E0,1E0,1.7E2,1.41E2,9.2E-1,-7.2870003E-3,7.64E-1,-1.630803E-2,-3.3724995E-3,1.13E2,-0E0,-1.0711775E-2,8.87E-1,4.00001E0,4.5E1,2E0,-0E0,-1.9210398E-2,6E0,-0E0,6E0,-5.5716895E-3,7.69E-1,5.4038977E-3,1.5754169E-3,9.2E-1,4.794113E-3,-1.9298826E-3,2E0,-3.6216178E-4,-2.0232644E-2,-0E0,2.3488428E-4,1.11E2,-9.967538E-5,2E1,-0E0,3E0,-7.5111847E-4,2.1E1,5.321434E-3,4.00001E0,4E0,9.23E-1,-1.4242708E-2,-0E0,-7.4370108E-3,-0E0,2E0,-4.6028905E-3,-0E0,1.552374E-2,7.5999796E-3,-0E0,1.2E1,-0E0,-0E0,-1.4930841E-2,5.591666E-3,-7.548356E-3,-1.2623073E-2,-0E0,-0E0,-1.2704783E-2],"split_indices":[1,10,2,0,0,1,4,3,1,1,5,10,6,4,1,3,0,1,3,0,0,10,11,1,0,5,6,10,10,1,0,1,0,0,10,0,0,1,3,10,3,0,0,10,0,6,0,1,0,0,1,0,0,11,0,0,0,0,10,0,6,0,5,0,6,0,11,6,1,0,0,0,0,11,0,0,0,0,0,10,0,0,0,0,0,0,0,0,0],"split_type":[0,0,0,0,0,0,0,0,0,0,0,0,0,0,0,0,0,0,0,0,0,0,0,0,0,0,0,0,0,0,0,0,0,0,0,0,0,0,0,0,0,0,0,0,0,0,0,0,0,0,0,0,0,0,0,0,0,0,0,0,0,0,0,0,0,0,0,0,0,0,0,0,0,0,0,0,0,0,0,0,0,0,0,0,0,0,0,0,0],"sum_hessian":[4.627772E3,1.3055161E3,3.322256E3,1.2995822E3,5.9339123E0,2.2829973E3,1.0392588E3,3.5402124E2,1.9289761E3,5.7551044E2,4.637483E2,1.2192704E2,2.3209422E2,7.7319794E2,1.1557781E3,5.3583435E2,3.9676125E1,1.9395184E2,2.6979645E2,1.1583047E2,6.0965695E0,1.4334875E2,8.874546E1,7.549482E2,1.82498E1,8.552425E2,3.0053558E2,2.955262E2,2.403081E2,1.7051192E2,2.3439928E1,1.3938824E2,1.3040819E2,4.4028927E1,9.931983E1,7.4656324E0,8.127982E1,3.4924353E2,4.0570462E2,1.4926256E2,7.059799E2,1.1926293E0,2.9934296E2,2.7860574E2,1.6920483E1,2.2471849E2,1.5589608E1,1.0112608E2,6.9385826E1,2.5415068E1,1.1397318E2,8.566334E1,1.3656491E1,3.082558E2,4.0987743E1,4.003672E2,5.3374515E0,7.169138E1,7.7571175E1,8.97237E1,6.162562E2,8.316443E0,2.702893E2,3.6273987E1,1.884445E2,3.3678036E1,6.744805E1,4.3284416E1,7.068877E1,3.0416614E2,4.0896535E0,5.0982048E1,2.6589127E1,3.8317307E2,2.3308315E2,8.11478E0,2.6217453E2,1.6108064E2,2.736387E1,4.613346E1,2.131459E1,7.2178736E0,3.6066544E1,4.0129463E1,3.0559305E1,3.7886307E2,4.31002E0,7.4233685E0,3.871009E1],"tree_param":{"num_deleted":"0","num_feature":"13","num_nodes":"89","size_leaf_vector":"1"}},{"base_weights":[1.10535575E-2,-3.5252333E-1,5.978003E-1,-8.371492E-1,2.3542202E-1,7.842448E-1,-1.4079411E-2,-1.9010037E-1,-9.290359E-1,1.9083794E-2,-7.9439855E-1,8.1685823E-1,7.550473E-2,3.1136012E-1,-3.611481E-1,4.2126778E-1,-3.84924E-1,-9.539585E-1,-2.712418E-1,-9.3651307E-1,-4.1615203E-1,8.332552E-1,-0E0,-5.6229797E-3,5.123481E-1,4.640106E-1,-1.8445251E-3,-6.118338E-1,-0E0,5.479438E-1,-0E0,-0E0,-6.3941556E-1,-2.5140935E-1,-9.746783E-1,-0E0,-9.769259E-3,-1.795792E-2,-3.4010342E-1,9.076992E-3,-6.305456E-1,9.037157E-1,4.888998E-1,-0E0,6.5349734E-1,-0E0,5.169913E-1,-7.3713136E-1,-0E0,6.5719713E-3,-2.766458E-1,1.2346625E-2,-0E0,-0E0,-1.2662614E-2,-5.6453484E-1,2.062499E-3,-0E0,-1.7398654E-2,-0E0,-4.811462E-1,-0E0,-7.2667646E-1,9.074308E-1,-0E0,5.922043E-1,-0E0,1.368516E-2,-0E0,9.641978E-3,-0E0,-1.3633754E-2,-0E0,-9.529636E-3,-0E0,-1.1865046E-2,-0E0,-0E0,-1.1693461E-2,-1.3711664E-2,-0E0,-0E0,9.198813E-1,1.9463588E-1,7.875228E-1,-0E0,1.6328637E-2,4.263793E-1,-0E0,1.4395549E-2,-0E0,-0E0,9.198917E-3],"categories":[],"categories_nodes":[],"categories_segments":[],"categories_sizes":[],"default_left":[0,0,0,1,0,1,0,0,0,0,0,0,0,0,0,0,0,0,0,0,0,0,0,0,0,0,0,1,0,1,0,0,0,0,0,0,0,0,0,0,1,0,1,0,0,0,0,0,0,0,0,0,0,0,0,0,0,0,0,0,0,0,0,0,0,0,0,0,0,0,0,0,0,0,0,0,0,0,0,0,0,0,0,0,0,0,0,0,0,0,0,0,0],"id":7,"left_children":[1,3,5,7,9,11,13,15,17,-1,19,21,23,25,27,29,31,33,35,37,39,41,-1,-1,43,45,-1,47,49,51,-1,-1,53,55,57,-1,-1,-1,59,-1,61,63,65,-1,67,-1,69,71,-1,-1,73,-1,-1,-1,-1,75,-1,-1,-1,-1,77,-1,79,81,-1,83,-1,-1,-1,-1,-1,-1,-1,-1,-1,-1,-1,-1,-1,-1,-1,-1,85,87,89,-1,-1,91,-1,-1,-1,-1,-1],"loss_changes":[1.0108492E3,8.3578394E2,2.1433215E2,8.436377E1,1.1509733E3,2.4161499E1,4.8574173E1,2.6866737E1,1.0294922E1,0E0,1.7258575E1,2.3437744E1,1.667211E1,1.6632767E1,2.117188E1,4.0738926E0,1.4780996E1,6.852173E0,5.644511E0,5.481018E0,4.0968147E1,1.6668823E1,0E0,0E0,4.6886435E0,7.491497E0,0E0,7.3275948E0,1.0416041E1,5.941942E0,0E0,0E0,5.5670357E0,1.1176552E1,9.91687E0,0E0,0E0,0E0,7.0681896E0,0E0,7.943115E0,4.1765747E0,1.6678417E1,0E0,5.6977253E0,0E0,3.8360138E0,4.078163E0,0E0,0E0,6.6786795E0,0E0,0E0,0E0,0E0,4.164509E0,0E0,0E0,0E0,0E0,5.2734337E0,0E0,8.693031E0,4.060669E0,0E0,7.6660767E0,0E0,0E0,0E0,0E0,0E0,0E0,0E0,0E0,0E0,0E0,0E0,0E0,0E0,0E0,0E0,0E0,4.0981445E0,7.9724007E0,4.4415054E0,0E0,0E0,4.46113E0,0E0,0E0,0E0,0E0,0E0],"parents":[2147483647,0,0,1,1,2,2,3,3,4,4,5,5,6,6,7,7,8,8,10,10,11,11,12,12,13,13,14,14,15,15,16,16,17,17,18,18,19,19,20,20,21,21,24,24,25,25,27,27,28,28,29,29,32,32,33,33,34,34,38,38,40,40,41,41,42,42,44,44,46,46,47,47,50,50,55,55,60,60,62,62,63,63,65,65,82,82,83,83,84,84,87,87],"right_children":[2,4,6,8,10,12,14,16,18,-1,20,22,24,26,28,30,32,34,36,38,40,42,-1,-1,44,46,-1,48,50,52,-1,-1,54,56,58,-1,-1,-1,60,-1,62,64,66,-1,68,-1,70,72,-1,-1,74,-1,-1,-1,-1,76,-1,-1,-1,-1,78,-1,80,82,-1,84,-1,-1,-1,-1,-1,-1,-1,-1,-1,-1,-1,-1,-1,-1,-1,-1,86,88,90,-1,-1,92,-1,-1,-1,-1,-1],"split_conditions":[1.400001E1,6.4E1,1.000001E1,1E0,6.5E1,5E0,2E0,1E0,3E0,1.9083794E-2,1.02E2,3E0,4.9E1,6.5E1,5E1,1.03E2,1.2E1,4E0,1.8E1,1E0,1.03E2,7.4E1,-0E0,-5.6229797E-3,9E0,5E0,-1.8445251E-3,1.9E1,6.5E1,1.8E1,-0E0,-0E0,2E0,3E0,1E0,-0E0,-9.769259E-3,-1.795792E-2,1E0,9.076992E-3,1E0,3.16E2,2.1E1,-0E0,1.9E1,-0E0,2.24E2,3.02E2,-0E0,6.5719713E-3,8.00001E0,1.2346625E-2,-0E0,-0E0,-1.2662614E-2,1.000001E1,2.062499E-3,-0E0,-1.7398654E-2,-0E0,7.4E1,-0E0,3.08E2,5E0,-0E0,9.8E1,-0E0,1.368516E-2,-0E0,9.641978E-3,-0E0,-1.3633754E-2,-0E0,-9.529636E-3,-0E0,-1.1865046E-2,-0E0,-0E0,-1.1693461E-2,-1.3711664E-2,-0E0,-0E0,3E0,4.9E1,1.22E2,-0E0,1.6328637E-2,4E0,-0E0,1.4395549E-2,-0E0,-0E0,9.198917E-3],"split_indices":[7,0,5,3,0,8,3,7,4,0,0,4,0,0,0,10,0,0,6,2,0,0,0,0,6,0,0,6,0,6,0,0,6,0,6,0,0,0,8,0,3,10,6,0,6,0,10,10,0,0,4,0,0,0,0,8,0,0,0,0,0,0,10,10,0,0,0,0,0,0,0,0,0,0,0,0,0,0,0,0,0,0,8,10,0,0,0,6,0,0,0,0,0],"split_type":[0,0,0,0,0,0,0,0,0,0,0,0,0,0,0,0,0,0,0,0,0,0,0,0,0,0,0,0,0,0,0,0,0,0,0,0,0,0,0,0,0,0,0,0,0,0,0,0,0,0,0,0,0,0,0,0,0,0,0,0,0,0,0,0,0,0,0,0,0,0,0,0,0,0,0,0,0,0,0,0,0,0,0,0,0,0,0,0,0,0,0,0,0],"sum_hessian":[4.7156084E3,2.9037363E3,1.8118723E3,1.5985154E3,1.305221E3,1.3984559E3,4.1341638E2,2.1321536E2,1.3852999E3,7.210465E2,5.8417444E2,1.324038E3,7.441799E1,2.005021E2,2.1291428E2,3.8729443E1,1.7448593E2,1.318968E3,6.6331894E1,4.0074146E2,1.8343301E2,1.3059496E3,1.8088392E1,2.9348906E1,4.5069084E1,1.6173477E2,3.8767334E1,1.26587074E2,8.63272E1,3.385352E1,4.8759217E0,7.916581E1,9.5320114E1,5.2450798E1,1.2665172E3,3.6847336E1,2.948456E1,3.35621E2,6.512043E1,2.4927074E1,1.5850595E2,1.0541351E3,2.5181439E2,8.844344E0,3.622474E1,4.661505E0,1.5707327E2,9.871234E1,2.7874735E1,3.9169888E1,4.715732E1,3.0425398E1,3.4281218E0,1.0160909E1,8.51592E1,3.9532978E1,1.2917818E1,1.9108654E1,1.2474086E3,5.2411227E0,5.9879303E1,2.5696331E1,1.3280962E2,1.0505414E3,3.5937438E0,2.1714996E2,3.4664433E1,3.3336082E1,2.8886564E0,1.5275758E2,4.3156824E0,9.6086685E1,2.62565E0,3.0563202E1,1.6594116E1,3.518749E1,4.3454905E0,1.9328686E1,4.055062E1,1.2971756E2,3.0920558E0,2.361798E1,1.0269235E3,9.069516E1,1.26454796E2,7.6162677E0,1.0193071E3,5.770438E1,3.299078E1,1.2405067E2,2.4041274E0,4.8098297E0,5.289455E1],"tree_param":{"num_deleted":"0","num_feature":"13","num_nodes":"93","size_leaf_vector":"1"}},{"base_weights":[4.97812E-3,1.902148E-2,-4.0652958E-1,-9.3152577E-1,3.5428014E-1,-1.030859E0,-4.705317E-1,6.798568E-1,-1.7937413E-1,-5.1709783E-1,-1.1009101E0,6.702456E-4,-5.8970726E-1,7.4386996E-1,-0E0,5.8331E-2,-9.742109E-1,-9.611589E-3,-0E0,-1.9546501E-2,-0E0,-1.9886924E-1,-7.810837E-1,5.2136E-1,9.52655E-1,5.202403E-1,-1.3294777E-1,-0E0,-1.7966006E-2,-1.3040154E-2,-0E0,-1.4103042E-2,-0E0,9.6244745E-2,1.5036742E-2,-0E0,1.6964098E-2,-0E0,6.417903E-1,7.533555E-3,-4.1936943E-1,5.397878E-1,-1.9884416E-1,1.315575E-2,-0E0,-1.1656017E-2,-5.964051E-5,-0E0,6.1864984E-1,-3.5412207E-1,-0E0,-0E0,1.21130785E-2,-0E0,-8.955665E-3],"categories":[],"categories_nodes":[],"categories_segments":[],"categories_sizes":[],"default_left":[0,0,0,0,0,0,0,0,1,0,1,0,0,0,0,0,0,0,0,0,0,0,0,0,0,0,0,0,0,0,0,0,0,0,0,0,0,0,0,0,0,0,0,0,0,0,0,0,0,0,0,0,0,0,0],"id":8,"left_children":[1,-1,3,5,7,9,11,13,15,17,19,-1,21,23,-1,25,27,-1,-1,-1,-1,29,31,33,35,37,39,-1,-1,-1,-1,-1,-1,41,-1,-1,-1,-1,43,-1,45,47,49,-1,-1,-1,-1,-1,51,53,-1,-1,-1,-1,-1],"loss_changes":[2.072516E3,0E0,1.3559742E3,7.5476074E1,2.4436972E2,4.0668823E1,2.826706E1,4.3569336E1,1.0603223E2,4.255604E0,5.381714E0,0E0,1.4627861E1,2.1039886E1,0E0,3.8763264E1,6.225792E0,0E0,0E0,0E0,0E0,1.9342566E1,3.9343948E0,5.058381E1,4.525482E0,9.720314E0,4.4490086E1,0E0,0E0,0E0,0E0,0E0,0E0,3.0426767E1,0E0,0E0,0E0,0E0,7.9863586E0,0E0,1.3443729E1,7.2161827E0,6.559596E0,0E0,0E0,0E0,0E0,0E0,4.1639023E0,8.714604E0,0E0,0E0,0E0,0E0,0E0],"parents":[2147483647,0,0,2,2,3,3,4,4,5,5,6,6,7,7,8,8,9,9,10,10,12,12,13,13,15,15,16,16,21,21,22,22,23,23,24,24,25,25,26,26,33,33,38,38,40,40,41,41,42,42,48,48,49,49],"right_children":[2,-1,4,6,8,10,12,14,16,18,20,-1,22,24,-1,26,28,-1,-1,-1,-1,30,32,34,36,38,40,-1,-1,-1,-1,-1,-1,42,-1,-1,-1,-1,44,-1,46,48,50,-1,-1,-1,-1,-1,52,54,-1,-1,-1,-1,-1],"split_conditions":[6.25E-1,1.902148E-2,1.000001E1,1E0,1E0,7.76E-1,7.81E-1,9.24E-1,5E0,1.000001E1,2E0,6.702456E-4,5E0,1E0,-0E0,6E0,1E0,-9.611589E-3,-0E0,-1.9546501E-2,-0E0,3E0,9.49E-1,9.2E-1,6.49E-1,5E0,7.63E-1,-0E0,-1.7966006E-2,-1.3040154E-2,-0E0,-1.4103042E-2,-0E0,7.94E-1,1.5036742E-2,-0E0,1.6964098E-2,-0E0,3E0,7.533555E-3,1E0,6.8E-1,9.5E1,1.315575E-2,-0E0,-1.1656017E-2,-5.964051E-5,-0E0,1.8E1,3E0,-0E0,-0E0,1.21130785E-2,-0E0,-8.955665E-3],"split_indices":[1,0,8,2,4,1,1,1,9,9,11,0,8,2,0,0,11,0,0,0,0,8,1,1,1,0,1,0,0,0,0,0,0,1,0,0,0,0,4,0,2,1,0,0,0,0,0,0,0,0,0,0,0,0,0],"split_type":[0,0,0,0,0,0,0,0,0,0,0,0,0,0,0,0,0,0,0,0,0,0,0,0,0,0,0,0,0,0,0,0,0,0,0,0,0,0,0,0,0,0,0,0,0,0,0,0,0,0,0,0,0,0,0],"sum_hessian":[4.6671426E3,1.2967698E3,3.3703728E3,2.0002988E3,1.370074E3,1.6233733E3,3.7692554E2,8.6017145E2,5.0990253E2,2.1639665E2,1.4069767E3,5.8254017E1,3.186715E2,7.961868E2,6.3984646E1,3.8847134E2,1.2143117E2,2.0869316E2,7.7034917E0,1.3937626E3,1.3214102E1,1.2426115E2,1.9441037E2,4.1679016E2,3.7939667E2,1.24131355E2,2.6434E2,4.812039E0,1.16619125E2,3.849394E1,8.576721E1,1.915148E2,2.8955758E0,1.9775406E2,2.190361E2,2.1437356E0,3.7725293E2,2.115385E1,1.0297751E2,7.7916504E1,1.864235E2,8.890366E1,1.088504E2,8.9006935E1,1.3970575E1,1.02120735E2,8.430276E1,3.8885443E0,8.501512E1,8.226294E1,2.6587463E1,8.344022E0,7.66711E1,1.1668691E1,7.0594246E1],"tree_param":{"num_deleted":"0","num_feature":"13","num_nodes":"55","size_leaf_vector":"1"}},{"base_weights":[2.2525636E-3,1.0430429E0,-3.9861515E-1,1.8514834E-2,-0E0,-9.0059423E-1,3.3562657E-1,-3.8204086E-1,-9.846552E-1,4.8883444E-1,-1.9392708E-1,6.937227E-4,-4.836467E-1,-5.740744E-1,-1.8132912E-2,5.726879E-1,-2.3534846E-1,1.6051824E-1,-6.0423195E-1,-0E0,-7.032142E-1,-6.195039E-1,-0E0,2.8969413E-1,1.5821517E-2,-0E0,-8.163963E-3,3.0182812E-1,-1.03212325E-2,-0E0,-7.921007E-1,-7.3839915E-1,-0E0,-7.209469E-1,-0E0,6.4652973E-1,-0E0,3.8002795E-1,-0E0,-0E0,-1.7446643E-2,-2.0076483E-3,-1.5340743E-2,-1.3161566E-2,-0E0,1.2000416E-2,-0E0,3.938994E-1,-3.224588E-1,-0E0,7.727566E-3,-0E0,4.717615E-1,1.5082326E-3,-4.3398932E-1,9.379417E-3,-0E0,-0E0,-9.103206E-3],"categories":[],"categories_nodes":[],"categories_segments":[],"categories_sizes":[],"default_left":[0,0,0,0,0,1,0,0,0,0,0,0,0,0,0,0,0,0,0,0,0,0,0,1,0,0,0,0,0,0,0,0,0,0,0,0,0,0,0,0,0,0,0,0,0,0,0,0,0,0,0,0,0,0,0,0,0,0,0],"id":9,"left_children":[1,3,5,-1,-1,7,9,11,13,15,17,-1,19,21,-1,23,25,27,29,-1,31,33,-1,35,-1,-1,-1,37,-1,-1,39,41,-1,43,-1,45,47,49,-1,-1,-1,-1,-1,-1,-1,-1,-1,51,53,-1,-1,-1,55,-1,57,-1,-1,-1,-1],"loss_changes":[1.947699E3,7.327759E0,1.2432104E3,0E0,0E0,7.270422E1,1.13517334E2,1.7090534E1,1.213623E1,6.8780945E1,4.769398E1,0E0,2.4826206E1,8.120766E0,0E0,7.686377E1,8.17696E0,1.4687564E1,1.954953E1,0E0,5.4269943E0,6.368103E0,0E0,5.536381E1,0E0,0E0,0E0,4.152194E0,0E0,0E0,1.576516E1,4.410858E0,0E0,4.1031036E0,0E0,7.767456E0,3.9936577E1,3.8396187E0,0E0,0E0,0E0,0E0,0E0,0E0,0E0,0E0,0E0,6.324007E0,1.1109896E1,0E0,0E0,0E0,6.5056725E0,0E0,8.486666E0,0E0,0E0,0E0,0E0],"parents":[2147483647,0,0,1,1,2,2,5,5,6,6,7,7,8,8,9,9,10,10,12,12,13,13,15,15,16,16,17,17,18,18,20,20,21,21,23,23,27,27,30,30,31,31,33,33,35,35,36,36,37,37,47,47,48,48,52,52,54,54],"right_children":[2,4,6,-1,-1,8,10,12,14,16,18,-1,20,22,-1,24,26,28,30,-1,32,34,-1,36,-1,-1,-1,38,-1,-1,40,42,-1,44,-1,46,48,50,-1,-1,-1,-1,-1,-1,-1,-1,-1,52,54,-1,-1,-1,56,-1,58,-1,-1,-1,-1],"split_conditions":[6.25E-1,3.04E2,1.000001E1,1.8514834E-2,-0E0,1E0,5E0,7.38E-1,7.69E-1,9.24E-1,2E0,6.937227E-4,8E0,1.000001E1,-1.8132912E-2,9.2E-1,2E0,9.25E-1,7.45E-1,-0E0,1.000001E1,7.62E-1,-0E0,2E0,1.5821517E-2,-0E0,-8.163963E-3,8.6E1,-1.03212325E-2,-0E0,1E1,8.3E-1,-0E0,3.08E2,-0E0,1.72E2,8.07E-1,5E0,-0E0,-0E0,-1.7446643E-2,-2.0076483E-3,-1.5340743E-2,-1.3161566E-2,-0E0,1.2000416E-2,-0E0,1.6E1,3E0,-0E0,7.727566E-3,-0E0,1.88E2,1.5082326E-3,1E0,9.379417E-3,-0E0,-0E0,-9.103206E-3],"split_indices":[1,10,8,0,0,3,9,1,1,1,3,0,0,9,0,1,3,1,1,0,9,1,0,3,0,0,0,0,0,0,6,1,0,10,0,10,1,0,0,0,0,0,0,0,0,0,0,10,0,0,0,0,10,0,11,0,0,0,0],"split_type":[0,0,0,0,0,0,0,0,0,0,0,0,0,0,0,0,0,0,0,0,0,0,0,0,0,0,0,0,0,0,0,0,0,0,0,0,0,0,0,0,0,0,0,0,0,0,0,0,0,0,0,0,0,0,0,0,0,0,0],"sum_hessian":[4.641852E3,1.2940284E3,3.347824E3,1.2850791E3,8.949287E0,1.9947275E3,1.3530963E3,2.979067E2,1.6968208E3,1.062844E3,2.9025235E2,4.167389E1,2.5623282E2,1.8928384E2,1.507537E3,9.6472345E2,9.812059E1,1.4620766E2,1.440447E2,8.818547E1,1.6804736E2,1.8279941E2,6.4844337E0,5.3602686E2,4.2869656E2,3.9269363E1,5.8851227E1,1.3610439E2,1.0103266E1,3.1732805E1,1.1231189E2,1.6177428E2,6.2730803E0,1.4555975E2,3.723966E1,2.3497224E2,3.0105463E2,1.12250534E2,2.3853855E1,2.64025E1,8.5909386E1,4.186436E1,1.1990991E2,1.4291792E2,2.6418386E0,2.2849768E2,6.474554E0,1.3640431E2,1.6465031E2,9.295618E0,1.0295492E2,1.4826156E1,1.2157816E2,1.8590805E1,1.4605951E2,1.1741758E2,4.160585E0,1.269691E1,1.333626E2],"tree_param":{"num_deleted":"0","num_feature":"13","num_nodes":"59","size_leaf_vector":"1"}},{"base_weights":[-1.9965498E-3,1.0429945E0,-3.9915708E-1,1.8533535E-2,-0E0,-9.200485E-1,3.6088637E-1,-4.19756E-1,-9.9921834E-1,6.985699E-1,-1.7755449E-1,-0E0,-5.738245E-1,-5.015934E-1,-1.0597477E0,7.549189E-1,-0E0,1.0601662E-1,-9.3703884E-1,-0E0,-7.611562E-1,-0E0,-5.965565E-1,-1.939581E-2,-3.691776E-1,5.6164E-1,9.313288E-1,5.7315916E-1,-8.1338696E-2,-9.63984E-1,-0E0,-0E0,-8.112282E-1,-1.1053894E-2,-0E0,-0E0,-1.120479E-2,8.277579E-1,2.8815785E-1,1.667356E-2,-0E0,-0E0,6.8881565E-1,3.8909566E-1,-3.8742742E-1,-0E0,-1.0048255E0,-1.4993418E-2,-0E0,-0E0,1.5318903E-2,6.227864E-1,-0E0,1.3538982E-2,-0E0,-0E0,8.507381E-3,-1.4590657E-2,-1.3039019E-2,-1.8036475E-2,-0E0,1.2768274E-2,-0E0,5.6279222E-3,-1.6137062E-1,6.638551E-2,-5.2298605E-3,-0E0,-9.861365E-3,-0E0,6.6333828E-3],"categories":[],"categories_nodes":[],"categories_segments":[],"categories_sizes":[],"default_left":[0,0,0,0,0,1,0,0,0,0,0,0,0,0,0,0,0,0,1,0,0,0,0,0,0,0,0,0,0,0,0,0,0,0,0,0,0,0,1,0,0,0,1,0,0,0,0,0,0,0,0,0,0,0,0,0,0,0,0,0,0,0,0,0,0,0,0,0,0,0,0],"id":10,"left_children":[1,3,5,-1,-1,7,9,11,13,15,17,-1,19,21,23,25,-1,27,29,-1,31,-1,33,-1,35,37,39,41,43,45,-1,-1,47,-1,-1,-1,-1,49,51,-1,-1,-1,53,55,57,-1,59,-1,-1,-1,-1,61,63,-1,-1,-1,-1,-1,65,-1,-1,-1,-1,-1,67,69,-1,-1,-1,-1,-1],"loss_changes":[1.9221366E3,1.196167E1,1.3420485E3,0E0,0E0,6.432861E1,2.5430501E2,1.8623001E1,3.441577E1,3.9085724E1,1.20548836E2,0E0,2.8146866E1,8.852158E0,2.5544678E1,1.0652618E1,0E0,3.7719032E1,4.811035E0,0E0,4.585434E0,0E0,4.8390656E0,0E0,4.668145E0,1.9233017E1,5.4170837E0,8.321053E0,3.8618053E1,4.344879E0,0E0,0E0,7.1933365E0,0E0,0E0,0E0,0E0,8.787476E0,2.6176493E1,0E0,0E0,0E0,9.406586E0,6.950015E0,2.0964996E1,0E0,3.7098846E0,0E0,0E0,0E0,0E0,1.1319595E1,5.7310886E0,0E0,0E0,0E0,0E0,0E0,4.6614547E0,0E0,0E0,0E0,0E0,0E0,5.808838E0,4.373553E0,0E0,0E0,0E0,0E0,0E0],"parents":[2147483647,0,0,1,1,2,2,5,5,6,6,7,7,8,8,9,9,10,10,12,12,13,13,14,14,15,15,17,17,18,18,20,20,22,22,24,24,25,25,26,26,27,27,28,28,29,29,32,32,37,37,38,38,42,42,43,43,44,44,46,46,51,51,52,52,58,58,64,64,65,65],"right_children":[2,4,6,-1,-1,8,10,12,14,16,18,-1,20,22,24,26,-1,28,30,-1,32,-1,34,-1,36,38,40,42,44,46,-1,-1,48,-1,-1,-1,-1,50,52,-1,-1,-1,54,56,58,-1,60,-1,-1,-1,-1,62,64,-1,-1,-1,-1,-1,66,-1,-1,-1,-1,-1,68,70,-1,-1,-1,-1,-1],"split_conditions":[6.25E-1,3.04E2,1.000001E1,1.8533535E-2,-0E0,1E0,1E0,6E0,7.76E-1,9.24E-1,5E0,-0E0,7.38E-1,2E0,3E0,9.15E-1,-0E0,6E0,2E0,-0E0,1E0,-0E0,2.82E2,-1.939581E-2,4E0,7.94E-1,2.28E2,5E0,8.04E-1,6.93E-1,-0E0,-0E0,1.19E2,-1.1053894E-2,-0E0,-0E0,-1.120479E-2,6.8E-1,2E0,1.667356E-2,-0E0,-0E0,3E0,9E0,9.03E-1,-0E0,3.12E2,-1.4993418E-2,-0E0,-0E0,1.5318903E-2,1.12E2,5E0,1.3538982E-2,-0E0,-0E0,8.507381E-3,-1.4590657E-2,9.24E-1,-1.8036475E-2,-0E0,1.2768274E-2,-0E0,5.6279222E-3,4E0,9.2E-1,-5.2298605E-3,-0E0,-9.861365E-3,-0E0,6.6333828E-3],"split_indices":[1,10,8,0,0,3,4,0,1,1,9,0,1,3,4,1,0,0,11,0,8,0,10,0,9,1,10,0,1,1,0,0,0,0,0,0,0,1,3,0,0,0,4,10,1,0,10,0,0,0,0,10,0,0,0,0,0,0,1,0,0,0,0,0,9,1,0,0,0,0,0],"split_type":[0,0,0,0,0,0,0,0,0,0,0,0,0,0,0,0,0,0,0,0,0,0,0,0,0,0,0,0,0,0,0,0,0,0,0,0,0,0,0,0,0,0,0,0,0,0,0,0,0,0,0,0,0,0,0,0,0,0,0,0,0,0,0,0,0,0,0,0,0,0,0],"sum_hessian":[4.6323203E3,1.2667079E3,3.3656125E3,1.2596189E3,7.08908E0,2.003118E3,1.3624944E3,2.944798E2,1.7086383E3,8.4631116E2,5.1618317E2,8.330994E1,2.1116986E2,2.0761124E2,1.501027E3,7.923519E2,5.3959286E1,3.713391E2,1.4484407E2,4.532236E1,1.658475E2,3.7830814E1,1.6978043E2,1.4040144E3,9.701267E1,4.148266E2,3.775253E2,1.1609624E2,2.5524286E2,1.4168571E2,3.158358E0,1.3636604E1,1.5221089E2,1.6567447E2,4.105961E0,5.687294E1,4.0139732E1,1.8725241E2,2.2757419E2,3.7256345E2,4.9618607E0,2.0137215E1,9.595902E1,8.85041E1,1.6673875E2,7.488173E0,1.3419754E2,1.4811098E2,4.099912E0,5.970895E0,1.8128152E2,1.1119791E2,1.1637628E2,9.206085E1,3.8981702E0,3.2001202E0,8.530398E1,6.2251766E1,1.0448699E2,1.3299738E2,1.2001734E0,1.02318954E2,8.878951E0,2.4911484E1,9.14648E1,6.0970604E1,4.351639E1,7.108906E1,2.037574E1,3.430411E1,2.6666492E1],"tree_param":{"num_deleted":"0","num_feature":"13","num_nodes":"71","size_leaf_vector":"1"}},{"base_weights":[-4.673167E-3,1.0129724E0,-3.9192197E-1,1.7935975E-2,-0E0,-9.2399967E-1,4.0505546E-1,-1.0003431E0,-5.1036984E-1,6.64533E-1,-5.584105E-1,-5.8036107E-1,-1.0619293E0,-1.5639679E-3,-6.8271357E-1,7.0726264E-1,-2.5298417E-1,-0E0,-6.707354E-1,-0E0,-6.0911065E-1,-2.8496364E-1,-1.9056028E-2,-0E0,-8.666811E-1,7.6746446E-1,-0E0,6.427534E-5,-1.1587005E-2,-0E0,-6.9595635E-1,-6.368521E-1,-0E0,-4.4312358E-1,-0E0,-0E0,-1.5766649E-2,5.086021E-1,1.0300039E0,-0E0,-7.178889E-1,-0E0,-6.7982274E-1,-1.014871E-2,-0E0,9.013634E-1,1.3880235E-1,1.8533774E-2,-0E0,-1.3005065E-2,-0E0,-1.2371776E-2,-0E0,-0E0,9.32259E-1,-3.0635816E-1,5.9944206E-1,-0E0,1.7134007E-2,-0E0,-1.3972427E-2,1.1914111E-2,-0E0],"categories":[],"categories_nodes":[],"categories_segments":[],"categories_sizes":[],"default_left":[0,0,0,0,0,0,0,0,0,1,0,0,0,0,0,0,0,0,0,0,0,0,0,0,0,0,0,0,0,0,0,0,0,0,0,0,0,0,0,0,0,0,0,0,0,0,0,0,0,0,0,0,0,0,0,0,0,0,0,0,0,0,0],"id":11,"left_children":[1,3,5,-1,-1,7,9,11,13,15,17,19,21,-1,23,25,27,-1,29,-1,31,33,-1,-1,35,37,-1,-1,-1,-1,39,41,-1,43,-1,-1,-1,45,47,-1,49,-1,51,-1,-1,53,55,-1,-1,-1,-1,-1,-1,-1,57,59,61,-1,-1,-1,-1,-1,-1],"loss_changes":[1.8234363E3,5.5683594E0,1.4352142E3,0E0,0E0,4.7390137E1,3.398349E2,2.5147339E1,1.8002487E1,4.714731E1,2.0616112E1,5.6181717E0,6.2579346E0,0E0,2.317257E1,4.562903E1,1.0274935E1,0E0,6.713516E0,0E0,5.850174E0,3.8776903E0,0E0,0E0,6.318817E0,4.795105E1,0E0,0E0,0E0,0E0,5.281662E0,6.7493744E0,0E0,4.311805E0,0E0,0E0,0E0,6.415889E1,1.4884247E1,0E0,5.363838E0,0E0,5.573578E0,0E0,0E0,1.1402679E1,6.16478E1,0E0,0E0,0E0,0E0,0E0,0E0,0E0,8.281998E0,1.7966383E1,9.984581E0,0E0,0E0,0E0,0E0,0E0,0E0],"parents":[2147483647,0,0,1,1,2,2,5,5,6,6,7,7,8,8,9,9,10,10,11,11,12,12,14,14,15,15,16,16,18,18,20,20,21,21,24,24,25,25,30,30,31,31,33,33,37,37,38,38,40,40,42,42,45,45,46,46,54,54,55,55,56,56],"right_children":[2,4,6,-1,-1,8,10,12,14,16,18,20,22,-1,24,26,28,-1,30,-1,32,34,-1,-1,36,38,-1,-1,-1,-1,40,42,-1,44,-1,-1,-1,46,48,-1,50,-1,52,-1,-1,54,56,-1,-1,-1,-1,-1,-1,-1,58,60,62,-1,-1,-1,-1,-1,-1],"split_conditions":[6.25E-1,3.2E2,1.400001E1,1.7935975E-2,-0E0,1E0,1.000001E1,7.94E-1,6E0,5E0,7.27E-1,3E0,3E0,-1.5639679E-3,7.81E-1,9.24E-1,7.94E-1,-0E0,1E0,-0E0,7.89E-1,4.00001E0,-1.9056028E-2,-0E0,1E0,9.2E-1,-0E0,6.427534E-5,-1.1587005E-2,-0E0,4E0,1E0,-0E0,3E0,-0E0,-0E0,-1.5766649E-2,7.96E-1,3E0,-0E0,3.16E2,-0E0,3.3E2,-1.014871E-2,-0E0,6E0,1E0,1.8533774E-2,-0E0,-1.3005065E-2,-0E0,-1.2371776E-2,-0E0,-0E0,6.8E-1,1E0,1.25E2,-0E0,1.7134007E-2,-0E0,-1.3972427E-2,1.1914111E-2,-0E0],"split_indices":[1,10,7,0,0,2,5,1,0,8,1,5,0,0,1,1,1,0,4,0,1,11,0,0,5,1,0,0,0,0,10,11,0,4,0,0,0,1,4,0,10,0,10,0,0,10,2,0,0,0,0,0,0,0,1,4,10,0,0,0,0,0,0],"split_type":[0,0,0,0,0,0,0,0,0,0,0,0,0,0,0,0,0,0,0,0,0,0,0,0,0,0,0,0,0,0,0,0,0,0,0,0,0,0,0,0,0,0,0,0,0,0,0,0,0,0,0,0,0,0,0,0,0,0,0,0,0,0,0],"sum_hessian":[4.628231E3,1.2665829E3,3.361648E3,1.263027E3,3.5559247E0,2.0219025E3,1.3397454E3,1.6811248E3,3.4077774E2,1.0642988E3,2.754466E2,2.419169E2,1.4392079E3,1.1659703E2,2.2418073E2,1.0275746E3,3.672418E1,4.066217E1,2.3478442E2,7.7426496E0,2.3417426E2,4.6356213E1,1.3928517E3,5.664075E1,1.6753998E2,9.49194E2,7.838069E1,1.2879815E1,2.3844362E1,3.3015356E0,2.314829E2,2.2809802E2,6.076218E0,3.5179512E1,1.1176699E1,2.4071488E0,1.6513283E2,5.0438998E2,4.4480396E2,4.0634284E0,2.2741946E2,1.4100736E1,2.139973E2,3.1319782E1,3.8597302E0,2.2852182E2,2.7586816E2,4.4091617E2,3.8878055E0,2.2527467E2,2.1447985E0,2.1210713E2,1.8901663E0,2.1913466E0,2.2633047E2,1.315823E2,1.4428586E2,9.459189E0,2.1687128E2,8.8662315E1,4.291999E1,1.3425352E2,1.0032333E1],"tree_param":{"num_deleted":"0","num_feature":"13","num_nodes":"63","size_leaf_vector":"1"}},{"base_weights":[-8.773065E-3,1.7808853E-2,-4.0403143E-1,-9.253866E-1,3.9311665E-1,-9.987575E-1,-5.146439E-1,6.429981E-1,-5.5398095E-1,-5.856441E-1,-1.8568706E-2,-0E0,-5.791065E-1,4.0219545E-1,8.7410665E-1,-0E0,-1.1410767E0,-1.0890717E-2,-0E0,-5.2002005E-2,-6.5568584E-1,-0E0,7.0114857E-1,9.2280924E-1,-0E0,2.7286512E-1,-2.9654306E-1,-2.0473117E-2,-0E0,2.986347E-4,-5.7345317E-3,-0E0,-1.2003519E-2,5.651479E-1,-4.436571E-1,8.7083E-1,-2.346128E-1,9.429353E-1,-0E0,8.082385E-3,-2.4043617E-3,-5.244092E-1,-0E0,-0E0,6.2612367E-1,-7.286399E-2,-8.6047715E-1,9.183818E-1,-0E0,-0E0,-1.0318494E-2,-0E0,1.6791873E-2,-1.4546872E-2,-0E0,1.2033763E-2,-0E0,4.676701E-2,-7.5107445E-3,-0E0,-1.714208E-2,1.6427469E-2,-0E0,-8.259275E-4,7.5524496E-3],"categories":[],"categories_nodes":[],"categories_segments":[],"categories_sizes":[],"default_left":[0,0,0,0,0,0,0,0,0,0,0,0,0,0,0,1,0,0,0,0,0,0,0,0,0,0,0,0,0,0,0,0,0,0,0,1,0,0,0,0,0,0,0,0,0,0,1,0,0,0,0,0,0,0,0,0,0,0,0,0,0,0,0,0,0],"id":12,"left_children":[1,-1,3,5,7,9,11,13,15,17,-1,-1,19,21,23,25,27,-1,-1,29,31,33,35,37,-1,39,41,-1,-1,-1,-1,-1,-1,43,45,47,49,51,-1,-1,-1,53,-1,-1,55,57,59,61,-1,-1,-1,-1,-1,-1,-1,-1,-1,63,-1,-1,-1,-1,-1,-1,-1],"loss_changes":[1.8557142E3,0E0,1.3941307E3,4.436682E1,3.1485693E2,1.9089966E1,7.1497574E0,4.502475E1,9.371534E1,5.722847E0,0E0,0E0,5.158882E0,6.3007378E1,1.5926056E1,1.1855337E1,4.409088E0,0E0,0E0,3.86465E0,4.7593613E0,6.341085E1,5.5834244E1,1.1142151E1,0E0,9.740034E0,8.359949E0,0E0,0E0,0E0,0E0,0E0,0E0,6.2920227E0,1.2474569E1,1.839177E1,4.780412E0,4.5789795E0,0E0,0E0,0E0,5.221816E0,0E0,0E0,4.7948112E0,7.315753E0,6.373581E0,4.347351E0,0E0,0E0,0E0,0E0,0E0,0E0,0E0,0E0,0E0,5.4609876E0,0E0,0E0,0E0,0E0,0E0,0E0,0E0],"parents":[2147483647,0,0,2,2,3,3,4,4,5,5,6,6,7,7,8,8,9,9,12,12,13,13,14,14,15,15,16,16,19,19,20,20,21,21,22,22,23,23,25,25,26,26,33,33,34,34,35,35,36,36,37,37,41,41,44,44,45,45,46,46,47,47,57,57],"right_children":[2,-1,4,6,8,10,12,14,16,18,-1,-1,20,22,24,26,28,-1,-1,30,32,34,36,38,-1,40,42,-1,-1,-1,-1,-1,-1,44,46,48,50,52,-1,-1,-1,54,-1,-1,56,58,60,62,-1,-1,-1,-1,-1,-1,-1,-1,-1,64,-1,-1,-1,-1,-1,-1,-1],"split_conditions":[6.25E-1,1.7808853E-2,1.400001E1,1E0,1.000001E1,7.76E-1,7.81E-1,1E0,5E0,2.5E2,-1.8568706E-2,-0E0,1.4E1,9.15E-1,9.26E-1,2E0,3.14E2,-1.0890717E-2,-0E0,1E0,1E0,7.96E-1,9.24E-1,3E0,-0E0,9.24E-1,1.12E2,-2.0473117E-2,-0E0,2.986347E-4,-5.7345317E-3,-0E0,-1.2003519E-2,1.000001E1,1E0,5E0,5.7E1,4E0,-0E0,8.082385E-3,-2.4043617E-3,1E0,-0E0,-0E0,1.25E2,8.9E-1,1E0,2.28E2,-0E0,-0E0,-1.0318494E-2,-0E0,1.6791873E-2,-1.4546872E-2,-0E0,1.2033763E-2,-0E0,8.56E-1,-7.5107445E-3,-0E0,-1.714208E-2,1.6427469E-2,-0E0,-8.259275E-4,7.5524496E-3],"split_indices":[1,0,7,2,5,1,1,2,9,10,0,0,10,1,1,3,10,0,0,3,5,1,1,4,0,1,10,0,0,0,0,0,0,8,4,8,10,8,0,0,0,2,0,0,10,1,3,10,0,0,0,0,0,0,0,0,0,1,0,0,0,0,0,0,0],"split_type":[0,0,0,0,0,0,0,0,0,0,0,0,0,0,0,0,0,0,0,0,0,0,0,0,0,0,0,0,0,0,0,0,0,0,0,0,0,0,0,0,0,0,0,0,0,0,0,0,0,0,0,0,0,0,0,0,0,0,0,0,0,0,0,0,0],"sum_hessian":[4.6118975E3,1.2806943E3,3.3312031E3,2.0201063E3,1.3110969E3,1.6878738E3,3.3223257E2,1.0464243E3,2.6467267E2,2.2175668E2,1.4661171E3,4.986867E1,2.8236392E2,5.398213E2,5.0660294E2,1.3518748E2,1.2948518E2,2.1401364E2,7.7430406E0,5.187368E1,2.3049023E2,2.3830872E2,3.015126E2,4.7258713E2,3.401581E1,7.922622E1,5.5961266E1,1.2828487E2,1.2003224E0,2.0245321E1,3.1628359E1,6.5591044E0,2.2393112E2,1.07805954E2,1.3050276E2,2.63632E2,3.7880604E1,4.6489096E2,7.696178E0,6.893961E1,1.0286607E1,4.395677E1,1.2004494E1,5.1067576E0,1.02699196E2,8.429341E1,4.620935E1,2.5820105E2,5.4309397E0,2.3156546E1,1.4724058E1,3.5907574E0,4.613002E2,2.166918E1,2.2287592E1,9.5857155E1,6.8420415E0,4.8300274E1,3.599314E1,4.584504E0,4.1624847E1,2.560636E2,2.1374502E0,2.4588934E1,2.371134E1],"tree_param":{"num_deleted":"0","num_feature":"13","num_nodes":"65","size_leaf_vector":"1"}},{"base_weights":[2.7277078E-3,1.7707169E-2,-3.703484E-1,-8.6810446E-1,3.9426345E-1,-9.366342E-1,-4.9146426E-1,6.464286E-1,-5.401408E-1,-6.3990897E-1,-1.8102875E-2,-0E0,-5.681388E-1,7.1027815E-1,-7.913951E-2,-0E0,-9.7390544E-1,-6.6514534E-1,-0E0,-3.272787E-3,-7.3444176E-1,4.5302263E-1,9.8027134E-1,1.0655571E-3,-9.604931E-3,1.0351161E-1,-8.120003E-3,-0E0,-1.0414393E0,-0E0,-1.22021055E-2,-0E0,-7.77965E-1,8.130731E-1,1.14422746E-1,1.0202928E0,-0E0,-1.3799106E-1,1.0273334E-2,-0E0,-1.0821285E0,-8.0670685E-1,-0E0,-0E0,1.4914698E-2,-3.1198737E-1,5.497759E-1,1.0359573E0,-0E0,-0E0,-7.856341E-3,-0E0,-1.9406147E-2,-1.4590783E-2,-0E0,-4.6197372E-4,-1.0508817E-2,-0E0,1.08897565E-2,-0E0,1.8454976E-2],"categories":[],"categories_nodes":[],"categories_segments":[],"categories_sizes":[],"default_left":[0,0,0,0,0,0,0,0,0,0,0,0,0,0,1,0,0,0,0,0,0,0,1,0,0,0,0,0,0,0,0,0,0,0,0,0,0,0,0,0,0,0,0,0,0,0,0,0,0,0,0,0,0,0,0,0,0,0,0,0,0],"id":13,"left_children":[1,-1,3,5,7,9,11,13,15,17,-1,-1,19,21,23,25,27,29,-1,-1,31,33,35,-1,-1,37,-1,-1,39,-1,-1,-1,41,43,45,47,-1,49,-1,-1,51,53,-1,-1,-1,55,57,59,-1,-1,-1,-1,-1,-1,-1,-1,-1,-1,-1,-1,-1],"loss_changes":[1.7523921E3,0E0,1.300918E3,3.780359E1,3.1855988E2,2.6746094E1,9.841026E0,5.527112E1,6.837684E1,9.276825E0,0E0,0E0,9.665756E0,5.3230988E1,9.7353E0,5.446886E0,1.3720306E1,7.392746E0,0E0,0E0,9.060982E0,5.6494095E1,2.5975891E1,0E0,0E0,1.7744078E1,0E0,0E0,7.0821533E0,0E0,0E0,0E0,5.2656555E0,5.565323E0,5.8194134E1,8.591003E0,0E0,6.4829693E0,0E0,0E0,4.1983643E0,3.6840591E0,0E0,0E0,0E0,6.0095005E0,8.130089E0,5.3371277E0,0E0,0E0,0E0,0E0,0E0,0E0,0E0,0E0,0E0,0E0,0E0,0E0,0E0],"parents":[2147483647,0,0,2,2,3,3,4,4,5,5,6,6,7,7,8,8,9,9,12,12,13,13,14,14,15,15,16,16,17,17,20,20,21,21,22,22,25,25,28,28,32,32,33,33,34,34,35,35,37,37,40,40,41,41,45,45,46,46,47,47],"right_children":[2,-1,4,6,8,10,12,14,16,18,-1,-1,20,22,24,26,28,30,-1,-1,32,34,36,-1,-1,38,-1,-1,40,-1,-1,-1,42,44,46,48,-1,50,-1,-1,52,54,-1,-1,-1,56,58,60,-1,-1,-1,-1,-1,-1,-1,-1,-1,-1,-1,-1,-1],"split_conditions":[6.25E-1,1.7707169E-2,1.400001E1,1E0,1.000001E1,8.66E-1,7.81E-1,9.24E-1,4E0,8.56E-1,-1.8102875E-2,-0E0,5E0,9.2E-1,2E0,9.25E-1,6.93E-1,3E0,-0E0,-3.272787E-3,1E0,7.94E-1,5E0,1.0655571E-3,-9.604931E-3,9.2E-1,-8.120003E-3,-0E0,1E0,-0E0,-1.22021055E-2,-0E0,1.000001E1,6.8E-1,1E0,3E0,-0E0,8.04E-1,1.0273334E-2,-0E0,5E0,9.49E-1,-0E0,-0E0,1.4914698E-2,1E0,1.000001E1,4E0,-0E0,-0E0,-7.856341E-3,-0E0,-1.9406147E-2,-1.4590783E-2,-0E0,-4.6197372E-4,-1.0508817E-2,-0E0,1.08897565E-2,-0E0,1.8454976E-2],"split_indices":[1,0,7,2,5,1,1,1,9,1,0,0,8,1,9,1,1,5,0,0,5,1,8,0,0,1,0,0,11,0,0,0,9,1,2,4,0,1,0,0,8,1,0,0,0,4,8,8,0,0,0,0,0,0,0,0,0,0,0,0,0],"split_type":[0,0,0,0,0,0,0,0,0,0,0,0,0,0,0,0,0,0,0,0,0,0,0,0,0,0,0,0,0,0,0,0,0,0,0,0,0,0,0,0,0,0,0,0,0,0,0,0,0,0,0,0,0,0,0,0,0,0,0,0,0],"sum_hessian":[4.6653657E3,1.2703617E3,3.395004E3,2.0628477E3,1.3321564E3,1.717341E3,3.4550674E2,1.0580762E3,2.740801E2,4.3255502E2,1.2847859E3,5.8081135E1,2.874256E2,9.8385956E2,7.4216705E1,1.2209886E2,1.5198123E2,4.2084833E2,1.1706712E1,1.0732278E2,1.8010283E2,5.293849E2,4.5447467E2,4.6691116E1,2.7525587E1,1.0857247E2,1.3526389E1,7.221795E0,1.4475945E2,1.6571701E1,4.042766E2,5.3103075E0,1.7479251E2,2.395364E2,2.8984845E2,4.439825E2,1.0492139E1,6.2865826E1,4.5706646E1,5.104115E0,1.3965533E2,1.702043E2,4.5882187E0,1.0612451E1,2.2892397E2,1.3704549E2,1.5280296E2,4.384708E2,5.511725E0,2.9893408E1,3.2972416E1,1.2037165E0,1.3845161E2,1.6704976E2,3.1545343E0,8.730955E1,4.9735943E1,1.1533263E1,1.412697E2,3.5935488E0,4.3487726E2],"tree_param":{"num_deleted":"0","num_feature":"13","num_nodes":"61","size_leaf_vector":"1"}},{"base_weights":[1.4981799E-2,-2.8533337E-1,5.019087E-1,-1.571298E-1,-1.0035466E0,6.602065E-1,-4.4671018E-2,2.584546E-1,-2.6922417E-1,-1.789005E-2,-0E0,4.4017798E-1,8.82658E-1,3.4675306E-1,-4.9146706E-1,-3.0147206E-4,3.3781272E-1,-5.4274446E-1,-7.6552086E-2,9.40698E-3,1.2604767E-1,8.9420336E-1,-0E0,7.449286E-3,-0E0,-0E0,-6.704815E-1,7.795624E-3,2.1565412E-3,3.3597487E-1,-6.13616E-1,-5.049815E-1,1.2231689E-3,-1.5077982E-3,2.824978E-1,1.6222676E-2,1.2915006E-3,-0E0,-7.8516257E-1,-0E0,8.532488E-3,-7.569819E-1,-4.2134184E-1,-6.7074195E-2,-9.065004E-1,-2.1286575E-2,1.1033574E-2,8.350109E-3,-0E0,-0E0,-1.4459379E-2,-5.6040734E-3,-1.726379E-2,-4.4220045E-1,-0E0,-2.3408888E-1,1.7826613E-3,-1.7549189E-2,-0E0,5.4411374E-2,-3.1889015E-1,-1.778043E-1,-5.889554E-1,-7.130018E-3,-0E0,1.143457E-2,3.410928E-1,-4.1239846E-1,-0E0,-5.960227E-3,-0E0,-1.1682837E-2,-0E0,-4.930748E-4,3.0060909E-3,-0E0,8.823361E-3,-0E0,-8.243128E-3],"categories":[],"categories_nodes":[],"categories_segments":[],"categories_sizes":[],"default_left":[0,1,0,1,1,0,0,1,0,0,0,0,0,0,0,0,1,0,1,0,1,1,0,0,0,0,0,0,0,1,0,1,0,0,0,0,0,0,0,0,0,0,0,0,0,0,0,0,0,0,0,0,0,0,0,0,0,0,0,0,0,0,0,0,0,0,0,0,0,0,0,0,0,0,0,0,0,0,0],"id":14,"left_children":[1,3,5,7,9,11,13,15,17,-1,-1,19,21,23,25,-1,27,29,31,-1,33,35,-1,-1,-1,-1,37,-1,-1,39,41,43,45,-1,47,-1,-1,-1,49,-1,-1,51,53,55,57,59,-1,-1,-1,-1,-1,-1,-1,61,-1,63,-1,-1,-1,65,67,69,71,-1,-1,73,75,77,-1,-1,-1,-1,-1,-1,-1,-1,-1,-1,-1],"loss_changes":[6.815655E2,2.5237498E2,1.6002252E2,1.1457616E2,5.6068726E0,5.413916E1,7.1288414E1,1.3956726E1,9.689276E1,0E0,0E0,1.5185638E1,8.89093E0,7.072731E0,1.3012718E1,0E0,4.0363083E0,5.266176E1,4.3435608E1,0E0,8.452986E0,4.4837646E0,0E0,0E0,0E0,0E0,1.131535E1,0E0,0E0,3.7404609E0,7.8545837E0,2.5647282E1,1.9190596E1,0E0,5.938553E0,0E0,0E0,0E0,4.859169E0,0E0,0E0,2.4304718E1,3.7112274E0,4.469675E0,6.056656E0,2.3562592E1,0E0,0E0,0E0,0E0,0E0,0E0,0E0,5.8078766E0,0E0,4.241409E0,0E0,0E0,0E0,5.8237476E0,7.0235863E0,5.1487784E0,7.519478E0,0E0,0E0,5.469423E0,7.100272E0,4.570303E0,0E0,0E0,0E0,0E0,0E0,0E0,0E0,0E0,0E0,0E0,0E0],"parents":[2147483647,0,0,1,1,2,2,3,3,4,4,5,5,6,6,7,7,8,8,11,11,12,12,13,13,14,14,16,16,17,17,18,18,20,20,21,21,26,26,29,29,30,30,31,31,32,32,34,34,38,38,41,41,42,42,43,43,44,44,45,45,53,53,55,55,59,59,60,60,61,61,62,62,65,65,66,66,67,67],"right_children":[2,4,6,8,10,12,14,16,18,-1,-1,20,22,24,26,-1,28,30,32,-1,34,36,-1,-1,-1,-1,38,-1,-1,40,42,44,46,-1,48,-1,-1,-1,50,-1,-1,52,54,56,58,60,-1,-1,-1,-1,-1,-1,-1,62,-1,64,-1,-1,-1,66,68,70,72,-1,-1,74,76,78,-1,-1,-1,-1,-1,-1,-1,-1,-1,-1,-1],"split_conditions":[1.000001E1,2.1E1,1.000001E1,1E0,2E0,1E0,2E0,3E0,1.1E1,-1.789005E-2,-0E0,1E0,3E0,1.8E1,2E0,-3.0147206E-4,1.5E1,1E0,5E0,9.40698E-3,1.3E1,2.1E1,-0E0,7.449286E-3,-0E0,-0E0,3E0,7.795624E-3,2.1565412E-3,3E0,2E0,1E0,2E1,-1.5077982E-3,2.1E1,1.6222676E-2,1.2915006E-3,-0E0,1E0,-0E0,8.532488E-3,3E0,3E0,1E0,4E0,1.8E1,1.1033574E-2,8.350109E-3,-0E0,-0E0,-1.4459379E-2,-5.6040734E-3,-1.726379E-2,5E0,-0E0,1.6E1,1.7826613E-3,-1.7549189E-2,-0E0,5E0,4E0,3E0,1E0,-7.130018E-3,-0E0,2E0,3E0,2E0,-0E0,-5.960227E-3,-0E0,-1.1682837E-2,-0E0,-4.930748E-4,3.0060909E-3,-0E0,8.823361E-3,-0E0,-8.243128E-3],"split_indices":[8,6,5,3,11,2,3,5,6,0,0,4,4,6,9,0,6,6,5,0,6,6,0,0,0,0,6,0,0,5,9,4,6,0,6,0,0,0,4,0,0,6,4,2,4,6,0,0,0,0,0,0,0,6,0,6,0,0,0,9,9,6,2,0,0,11,8,3,0,0,0,0,0,0,0,0,0,0,0],"split_type":[0,0,0,0,0,0,0,0,0,0,0,0,0,0,0,0,0,0,0,0,0,0,0,0,0,0,0,0,0,0,0,0,0,0,0,0,0,0,0,0,0,0,0,0,0,0,0,0,0,0,0,0,0,0,0,0,0,0,0,0,0,0,0,0,0,0,0,0,0,0,0,0,0,0,0,0,0,0,0],"sum_hessian":[4.6351045E3,2.857279E3,1.7778256E3,2.4415737E3,4.1570538E2,1.3901298E3,3.8769574E2,5.000794E2,1.9414944E3,4.125446E2,3.160771E0,7.2847046E2,6.6165936E2,1.9682962E2,1.9086612E2,8.794095E1,4.1213846E2,7.785788E2,1.1629155E3,5.368746E2,1.9159584E2,6.556395E2,6.0198197E0,1.7037117E2,2.6458452E1,6.2317905E1,1.2854822E2,2.4573244E2,1.6640602E2,4.6985027E1,7.315938E2,1.9082094E2,9.720946E2,5.858222E1,1.3301363E2,6.2485657E2,3.0782936E1,1.8180946E1,1.1036727E2,1.1610626E1,3.53744E1,3.8193826E2,3.4965552E2,1.0540316E2,8.541778E1,9.3047864E2,4.161594E1,6.980596E1,6.3207664E1,2.3451352E0,1.0802213E2,1.4662958E2,2.3530869E2,3.3583893E2,1.3816615E1,7.8092926E1,2.7310234E1,7.599412E1,9.423657E0,7.221833E2,2.082954E2,1.4648541E2,1.893535E2,4.7941563E1,3.015136E1,6.607132E2,6.1470085E1,1.6327946E2,4.501593E1,8.109385E1,6.539156E1,1.6562686E2,2.3726631E1,4.889906E2,1.7172256E2,7.889666E0,5.3580418E1,1.6523018E1,1.4675644E2],"tree_param":{"num_deleted":"0","num_feature":"13","num_nodes":"79","size_leaf_vector":"1"}},{"base_weights":[-0E0,9.8606026E-1,-3.7993392E-1,-0E0,1.7436372E-2,-8.9858156E-1,3.9289048E-1,-4.5052674E-1,-9.6952397E-1,6.3514394E-1,-5.072179E-1,-5.396383E-1,-0E0,-1.8178254E-2,-6.1500555E-1,6.9161767E-1,-0E0,-0E0,-1.0308052E0,-5.851979E-1,-0E0,-1.8445231E-1,-8.740861E-1,4.9517447E-1,1.5774544E-2,-0E0,-1.184596E0,-0E0,-6.367372E-1,-0E0,-6.078653E-1,-0E0,-9.1266865E-1,8.68948E-1,1.374991E-1,-0E0,-2.1730658E-2,-2.112022E-3,-7.3925036E-1,-0E0,-1.4031446E-2,-0E0,-9.3924576E-1,1.6407916E-2,-0E0,-3.6311063E-1,6.1652195E-1,-8.2466793E-1,-0E0,-1.7025745E-2,-0E0,-5.3090805E-1,-0E0,1.1854296E-2,-0E0,-0E0,-1.5490411E-2,-0E0,-1.3355741E-2],"categories":[],"categories_nodes":[],"categories_segments":[],"categories_sizes":[],"default_left":[0,0,0,0,0,0,0,0,0,0,1,0,0,0,0,0,0,0,0,0,0,1,0,0,0,0,0,0,1,0,0,0,0,1,0,0,0,0,0,0,0,0,0,0,0,0,1,0,0,0,0,0,0,0,0,0,0,0,0],"id":15,"left_children":[1,3,5,-1,-1,7,9,11,13,15,17,19,-1,-1,21,23,-1,-1,25,27,-1,29,31,33,-1,-1,35,-1,37,-1,39,-1,41,43,45,-1,-1,-1,47,-1,-1,-1,49,-1,-1,51,53,55,-1,-1,-1,57,-1,-1,-1,-1,-1,-1,-1],"loss_changes":[1.7303049E3,3.690796E0,1.3457019E3,0E0,0E0,4.8436035E1,2.951867E2,1.0064644E1,1.8211182E1,4.416342E1,7.197184E1,9.786369E0,0E0,0E0,2.1647484E1,2.4264526E1,0E0,0E0,2.0204453E1,1.10613785E1,0E0,8.714346E0,5.2883987E0,6.243843E1,0E0,0E0,9.639618E0,0E0,3.908371E0,0E0,5.174858E0,0E0,5.195053E0,1.7655396E1,7.451524E1,0E0,0E0,0E0,7.1023636E0,0E0,0E0,0E0,4.6387177E0,0E0,0E0,8.345869E0,6.345001E0,6.746147E0,0E0,0E0,0E0,1.4324997E1,0E0,0E0,0E0,0E0,0E0,0E0,0E0],"parents":[2147483647,0,0,1,1,2,2,5,5,6,6,7,7,8,8,9,9,10,10,11,11,14,14,15,15,18,18,19,19,21,21,22,22,23,23,26,26,28,28,30,30,32,32,33,33,34,34,38,38,42,42,45,45,46,46,47,47,51,51],"right_children":[2,4,6,-1,-1,8,10,12,14,16,18,20,-1,-1,22,24,-1,-1,26,28,-1,30,32,34,-1,-1,36,-1,38,-1,40,-1,42,44,46,-1,-1,-1,48,-1,-1,-1,50,-1,-1,52,54,56,-1,-1,-1,58,-1,-1,-1,-1,-1,-1,-1],"split_conditions":[6.25E-1,1E0,1.400001E1,-0E0,1.7436372E-2,7.94E-1,1.000001E1,1E0,1E0,9.24E-1,5E0,7.89E-1,-0E0,-1.8178254E-2,8E0,9.2E-1,-0E0,-0E0,7.25E-1,3E0,-0E0,1.7E1,1E0,7.96E-1,1.5774544E-2,-0E0,1E0,-0E0,5E0,-0E0,2E0,-0E0,1E0,2.1E1,1E0,-0E0,-2.1730658E-2,-2.112022E-3,1.05E2,-0E0,-1.4031446E-2,-0E0,1.000001E1,1.6407916E-2,-0E0,8.6E1,2.1E1,1E0,-0E0,-1.7025745E-2,-0E0,5E0,-0E0,1.1854296E-2,-0E0,-0E0,-1.5490411E-2,-0E0,-1.3355741E-2],"split_indices":[1,5,7,0,0,1,5,2,2,1,9,1,0,0,0,1,0,0,1,5,0,6,6,1,0,0,11,0,6,0,7,0,5,6,2,0,0,0,0,0,0,0,9,0,0,0,6,11,0,0,0,0,0,0,0,0,0,0,0],"split_type":[0,0,0,0,0,0,0,0,0,0,0,0,0,0,0,0,0,0,0,0,0,0,0,0,0,0,0,0,0,0,0,0,0,0,0,0,0,0,0,0,0,0,0,0,0,0,0,0,0,0,0,0,0,0,0,0,0,0,0],"sum_hessian":[4.6114185E3,1.2772616E3,3.334157E3,1.8621417E0,1.2753994E3,2.001428E3,1.332729E3,2.9707895E2,1.704349E3,1.0593511E3,2.7337796E2,2.3969504E2,5.73839E1,1.4232516E3,2.8109744E2,9.8474115E2,7.46099E1,1.4428465E2,1.2909329E2,2.3144852E2,8.246528E0,1.2256803E2,1.585294E2,5.3315485E2,4.5158627E2,1.8493273E1,1.1060002E2,9.659368E0,2.2178915E2,9.3486984E1,2.9081047E1,7.2989683E0,1.5123044E2,2.4412408E2,2.890308E2,2.4069886E0,1.0819304E2,5.3305573E1,1.6848358E2,6.5585623E0,2.2522486E1,2.9042659E0,1.4832617E2,2.3275595E2,1.1368135E1,1.3302861E2,1.5600217E2,1.4457974E2,2.3903833E1,1.4517236E2,3.1538203E0,8.844399E1,4.458462E1,1.4441096E2,1.1591201E1,9.012549E0,1.355672E2,2.3175402E1,6.526859E1],"tree_param":{"num_deleted":"0","num_feature":"13","num_nodes":"59","size_leaf_vector":"1"}},{"base_weights":[-3.7361294E-2,-3.8008508E-1,5.014424E-1,-8.062991E-1,1.5582602E-1,6.700016E-1,-3.932567E-2,-3.166447E-1,-8.68598E-1,9.0297484E-1,-6.829033E-1,7.407634E-1,2.5097466E-1,2.790135E-1,-3.9189836E-1,3.5177711E-3,-4.3065634E-1,-8.7665254E-1,-0E0,1.6023403E-2,-0E0,-7.0579875E-1,-0E0,7.748521E-1,-0E0,9.622604E-3,-0E0,4.0359163E-1,-1.4884872E-3,-6.2048566E-1,-0E0,-9.107121E-4,-1.102039E-2,-1.01385E0,-7.3903507E-1,-7.2295934E-1,-0E0,8.553982E-1,4.344426E-1,6.0059223E-3,-1.2916208E-3,-8.540102E-3,1.0562792E-1,-0E0,4.6129942E-1,-0E0,-9.71369E-1,6.8891635E-3,-2.8446054E-1,-2.4825346E-1,-1.8811647E-2,1.3671904E-2,-8.7149984E-1,-7.416785E-1,-0E0,-0E0,8.649916E-1,8.669981E-2,6.401988E-1,3.5864863E-1,-1.18227474E-1,8.769364E-3,-0E0,-1.798411E-2,-0E0,-8.6847935E-3,-0E0,-4.1173443E-1,-0E0,-2.4759842E-3,-9.1101325E-1,-0E0,-1.3311598E-2,5.809985E-1,1.695428E-2,5.6084557E-3,-6.202895E-4,1.1876817E-2,-0E0,-0E0,9.997435E-3,-7.832215E-3,-0E0,-0E0,-5.1711434E-1,-1.6779138E-2,-2.486656E-1,6.2199855E-1,-0E0,-1.24690775E-2,-0E0,-0E0,-8.389655E-3,-0E0,1.1395909E-2],"categories":[],"categories_nodes":[],"categories_segments":[],"categories_sizes":[],"default_left":[0,0,0,1,0,1,0,1,1,0,0,1,0,0,0,0,0,0,0,0,0,0,0,0,0,0,0,0,0,0,0,0,0,0,0,0,0,0,0,0,0,0,0,0,0,0,1,0,0,0,0,0,0,0,0,0,1,0,0,0,0,0,0,0,0,0,0,0,0,0,0,0,0,0,0,0,0,0,0,0,0,0,0,0,0,0,0,0,0,0,0,0,0,0,0],"id":16,"left_children":[1,3,5,7,9,11,13,15,17,19,21,23,25,27,29,-1,31,33,-1,-1,-1,35,-1,37,39,-1,41,43,-1,45,47,-1,-1,49,51,53,-1,55,57,-1,-1,-1,59,-1,61,-1,63,-1,65,67,-1,-1,69,71,-1,-1,73,75,77,79,81,-1,-1,-1,-1,-1,-1,83,-1,-1,85,-1,-1,87,-1,-1,-1,-1,-1,-1,-1,-1,-1,-1,89,-1,91,93,-1,-1,-1,-1,-1,-1,-1],"loss_changes":[8.333694E2,6.396491E2,1.6500195E2,3.5137573E1,7.7286975E2,2.9887207E1,4.7564667E1,1.4455099E1,8.809326E0,4.399658E0,1.2408234E1,2.257666E1,1.732288E1,1.2340811E1,1.911131E1,0E0,7.1115265E0,5.0755615E0,0E0,0E0,0E0,9.172394E0,0E0,1.5510498E1,3.8477044E0,0E0,7.2586646E0,7.1919937E0,0E0,2.8420002E1,9.9623375E0,0E0,0E0,1.1664978E1,1.510657E2,6.8984985E0,0E0,6.7683716E0,1.0273689E1,0E0,0E0,0E0,8.263769E0,0E0,4.48275E0,0E0,4.2524033E0,0E0,3.8578506E0,4.74348E0,0E0,0E0,9.4279785E0,5.3357544E0,0E0,0E0,5.309021E0,5.738042E0,4.5701485E0,5.6328077E0,5.3324375E0,0E0,0E0,0E0,0E0,0E0,0E0,3.7401943E0,0E0,0E0,4.527649E0,0E0,0E0,9.496498E0,0E0,0E0,0E0,0E0,0E0,0E0,0E0,0E0,0E0,0E0,5.03203E0,0E0,4.652298E0,3.998352E0,0E0,0E0,0E0,0E0,0E0,0E0,0E0],"parents":[2147483647,0,0,1,1,2,2,3,3,4,4,5,5,6,6,7,7,8,8,9,9,10,10,11,11,12,12,13,13,14,14,16,16,17,17,21,21,23,23,24,24,26,26,27,27,29,29,30,30,33,33,34,34,35,35,37,37,38,38,42,42,44,44,46,46,48,48,49,49,52,52,53,53,56,56,57,57,58,58,59,59,60,60,67,67,70,70,73,73,84,84,86,86,87,87],"right_children":[2,4,6,8,10,12,14,16,18,20,22,24,26,28,30,-1,32,34,-1,-1,-1,36,-1,38,40,-1,42,44,-1,46,48,-1,-1,50,52,54,-1,56,58,-1,-1,-1,60,-1,62,-1,64,-1,66,68,-1,-1,70,72,-1,-1,74,76,78,80,82,-1,-1,-1,-1,-1,-1,84,-1,-1,86,-1,-1,88,-1,-1,-1,-1,-1,-1,-1,-1,-1,-1,90,-1,92,94,-1,-1,-1,-1,-1,-1,-1],"split_conditions":[1.400001E1,6.4E1,1.000001E1,1E0,6.5E1,2.1E1,2E0,1E0,2E0,3.22E2,1.000001E1,5E0,6E0,6.9E1,6.4E1,3.5177711E-3,1.2E1,1.1E1,-0E0,1.6023403E-2,-0E0,4.00001E0,-0E0,6.5E1,2.6E1,9.622604E-3,3.2E1,5E0,-1.4884872E-3,5E0,6.5E1,-9.107121E-4,-1.102039E-2,4E0,1.2E1,2.68E2,-0E0,4E0,9.8E1,6.0059223E-3,-1.2916208E-3,-8.540102E-3,6.5E1,-0E0,2.24E2,-0E0,2E0,6.8891635E-3,4.00001E0,3E0,-1.8811647E-2,1.3671904E-2,1E0,1E0,-0E0,-0E0,1.1E1,2E0,1.22E2,4.9E1,1.07E2,8.769364E-3,-0E0,-1.798411E-2,-0E0,-8.6847935E-3,-0E0,1E1,-0E0,-2.4759842E-3,5E1,-0E0,-1.3311598E-2,1.94E2,1.695428E-2,5.6084557E-3,-6.202895E-4,1.1876817E-2,-0E0,-0E0,9.997435E-3,-7.832215E-3,-0E0,-0E0,9.7E1,-1.6779138E-2,1.2E1,7E0,-0E0,-1.24690775E-2,-0E0,-0E0,-8.389655E-3,-0E0,1.1395909E-2],"split_indices":[7,0,5,3,0,6,3,6,11,10,9,8,0,0,0,0,0,0,0,0,0,3,0,0,10,0,0,0,0,9,0,0,0,0,0,10,0,8,0,0,0,0,0,0,10,0,11,0,11,0,0,0,11,6,0,0,6,3,0,0,0,0,0,0,0,0,0,10,0,0,0,0,0,10,0,0,0,0,0,0,0,0,0,0,10,0,6,10,0,0,0,0,0,0,0],"split_type":[0,0,0,0,0,0,0,0,0,0,0,0,0,0,0,0,0,0,0,0,0,0,0,0,0,0,0,0,0,0,0,0,0,0,0,0,0,0,0,0,0,0,0,0,0,0,0,0,0,0,0,0,0,0,0,0,0,0,0,0,0,0,0,0,0,0,0,0,0,0,0,0,0,0,0,0,0,0,0,0,0,0,0,0,0,0,0,0,0,0,0,0,0,0,0],"sum_hessian":[4.5058477E3,2.7652585E3,1.7405889E3,1.5477001E3,1.2175586E3,1.3383147E3,4.022742E2,1.951404E2,1.3525596E3,6.4927106E2,5.682876E2,1.12266E3,2.1565459E2,1.9887509E2,2.033991E2,2.0366856E1,1.7477354E2,1.3391656E3,1.3393936E1,6.4715173E2,2.119296E0,5.565177E2,1.1769855E1,1.0631072E3,5.955289E1,9.888454E1,1.1677004E2,1.6575793E2,3.311717E1,1.2694649E2,7.6452614E1,7.73738E1,9.739974E1,6.179925E2,7.2117316E2,5.476616E2,8.856118E0,8.3081445E2,2.3229274E2,2.493552E1,3.4617367E1,1.9679577E1,9.709047E1,6.57609E0,1.5918184E2,4.8802452E1,7.814403E1,3.1983444E1,4.4469166E1,5.272894E1,5.6526355E2,5.0147583E1,6.710256E2,5.3258875E2,1.5072842E1,9.421062E0,8.213934E2,1.0575014E2,1.265426E2,6.2378952E1,3.4711514E1,1.5438803E2,4.7938E0,7.447844E1,3.6655877E0,2.6527977E1,1.794119E1,4.3092216E1,9.636723E0,4.7403976E1,6.2362164E2,8.727304E0,5.2386145E2,2.4209717E2,5.792962E2,5.8094437E1,4.7655697E1,1.2393872E2,2.6038797E0,2.3664507E1,3.8714443E1,2.3599918E1,1.1111595E1,4.120475E0,3.897174E1,5.728763E2,5.074537E1,2.3496594E2,7.1312284E0,2.7979763E1,1.0991978E1,2.0922884E1,2.9822483E1,7.9335504E0,2.270324E2],"tree_param":{"num_deleted":"0","num_feature":"13","num_nodes":"95","size_leaf_vector":"1"}},{"base_weights":[-1.3778944E-3,1.6894324E-2,-3.5829255E-1,-8.155287E-1,3.1840566E-1,-4.0515968E-1,-8.7253004E-1,5.103359E-1,-4.200355E-1,-4.91242E-1,-0E0,-4.6881327E-1,-1.6279133E-2,5.935315E-1,-3.609815E-1,-0E0,-7.308032E-1,-0E0,-9.237393E-3,-0E0,-6.949423E-1,3.287792E-1,1.6071336E-2,-0E0,-7.180921E-1,-0E0,-7.578839E-1,-0E0,-7.4423367E-1,-1.0102763E-2,7.2389644E-1,-0E0,-1.5673717E-2,-1.4484708E-2,-0E0,-0E0,-1.384424E-2,5.179352E-1,-4.570576E-1,7.614134E-1,-0E0,6.089118E-1,-0E0,-0E0,-5.7220054E-1,1.3848178E-2,-0E0,1.174858E-2,-0E0,-1.4708177E-2,-2.4797933E-4],"categories":[],"categories_nodes":[],"categories_segments":[],"categories_sizes":[],"default_left":[0,0,0,0,0,0,1,0,0,0,0,0,0,0,0,0,0,0,0,0,0,0,0,0,0,0,0,0,0,0,0,0,0,0,0,0,0,0,0,0,0,0,0,0,0,0,0,0,0,0,0],"id":17,"left_children":[1,-1,3,5,7,9,11,13,15,17,-1,19,-1,21,23,-1,25,-1,-1,-1,27,29,-1,-1,31,-1,33,-1,35,37,39,-1,-1,-1,-1,-1,-1,41,43,45,-1,47,-1,-1,49,-1,-1,-1,-1,-1,-1],"loss_changes":[1.5610052E3,0E0,1.0401014E3,3.32865E1,1.9269939E2,8.470245E0,2.0001709E1,8.167627E1,3.4007515E1,5.228859E0,0E0,2.261039E1,0E0,7.085956E1,1.3200148E1,0E0,4.807205E0,0E0,0E0,0E0,3.9181976E0,8.253778E1,0E0,0E0,9.205112E0,0E0,4.1892166E0,0E0,4.1282425E0,7.186111E1,8.875198E0,0E0,0E0,0E0,0E0,0E0,0E0,1.013158E1,1.0016483E1,4.811157E0,0E0,4.6148453E0,0E0,0E0,1.3174812E1,0E0,0E0,0E0,0E0,0E0,0E0],"parents":[2147483647,0,0,2,2,3,3,4,4,5,5,6,6,7,7,8,8,9,9,11,11,13,13,14,14,16,16,20,20,21,21,24,24,26,26,28,28,29,29,30,30,37,37,38,38,39,39,41,41,44,44],"right_children":[2,-1,4,6,8,10,12,14,16,18,-1,20,-1,22,24,-1,26,-1,-1,-1,28,30,-1,-1,32,-1,34,-1,36,38,40,-1,-1,-1,-1,-1,-1,42,44,46,-1,48,-1,-1,50,-1,-1,-1,-1,-1,-1],"split_conditions":[6.25E-1,1.6894324E-2,1.000001E1,7.76E-1,1.000001E1,1E0,1E0,9.24E-1,2E0,3E0,-0E0,6E0,-1.6279133E-2,9.2E-1,4.2E1,-0E0,6.8E-1,-0E0,-9.237393E-3,-0E0,1E0,1E0,1.6071336E-2,-0E0,2E0,-0E0,2.1E1,-0E0,1E0,7.94E-1,1.16E2,-0E0,-1.5673717E-2,-1.4484708E-2,-0E0,-0E0,-1.384424E-2,2.1E1,8E0,1.7E2,-0E0,1.17E2,-0E0,-0E0,8.6E1,1.3848178E-2,-0E0,1.174858E-2,-0E0,-1.4708177E-2,-2.4797933E-4],"split_indices":[1,0,8,1,5,2,3,1,3,5,0,0,0,1,10,0,1,0,0,0,8,2,0,0,6,0,6,0,6,1,0,0,0,0,0,0,0,6,0,10,0,10,0,0,0,0,0,0,0,0,0],"split_type":[0,0,0,0,0,0,0,0,0,0,0,0,0,0,0,0,0,0,0,0,0,0,0,0,0,0,0,0,0,0,0,0,0,0,0,0,0,0,0,0,0,0,0,0,0,0,0,0,0,0,0],"sum_hessian":[4.563881E3,1.2283081E3,3.3355728E3,1.997614E3,1.3379586E3,2.6892093E2,1.728693E3,1.0730449E3,2.6491373E2,2.159915E2,5.292944E1,2.1773595E2,1.5109572E3,9.9066876E2,8.237619E1,1.1799401E2,1.4691971E2,7.516445E0,2.0847505E2,7.530191E1,1.4243405E2,5.624013E2,4.282675E2,4.0725506E1,4.165069E1,2.39015E0,1.4452956E2,1.1984864E1,1.3044917E2,2.9400174E2,2.6839957E2,4.979081E0,3.6671604E1,1.2845255E2,1.6077015E1,7.0252934E0,1.2342389E2,1.2521188E2,1.6878984E2,2.5729742E2,1.1102133E1,1.1615415E2,9.057732E0,3.2810905E1,1.3597894E2,2.4958429E2,7.713135E0,1.0649681E2,9.657339E0,7.9637764E1,5.634118E1],"tree_param":{"num_deleted":"0","num_feature":"13","num_nodes":"51","size_leaf_vector":"1"}},{"base_weights":[9.468881E-3,-3.0098164E-1,5.250382E-1,-6.862657E-1,1.7638771E-1,6.924837E-1,-4.0241767E-2,-7.6622087E-1,-2.699137E-1,9.189407E-1,-6.330494E-1,7.697213E-1,2.4590744E-1,6.340896E-2,-3.551051E-1,-7.9292893E-1,-0E0,-0E0,-5.0503E-1,1.6337575E-2,-0E0,-6.935744E-1,-2.1339281E-1,5.1942986E-1,1.52070625E-2,5.795998E-1,-1.5274916E-2,1.6617744E-1,-2.2127591E-1,-6.64885E-1,-0E0,-1.3242209E-1,-8.1245166E-1,-1.9845937E-4,-1.2251133E-2,-1.2410791E-2,-0E0,-4.0483853E-1,-0E0,7.757688E-1,2.2245345E-1,6.338982E-1,-0E0,-1.1456123E-2,9.1338967E-4,-0E0,9.231633E-3,-8.325479E-3,-0E0,-0E0,-1.3816074E-2,-0E0,-4.293376E-1,-9.629784E-1,-6.789821E-1,-5.3139496E-1,-0E0,1.6110616E-2,-0E0,3.0242354E-1,-0E0,6.84734E-1,-0E0,4.018438E-3,-1.5126827E-1,-1.2207356E-2,-0E0,-9.7741306E-1,-0E0,1.2808495E-2,-8.1681246E-1,-0E0,-6.5864384E-1,6.5356344E-3,-0E0,-0E0,1.2939105E-2,-0E0,-7.3075667E-3,-0E0,-1.7422426E-2,-1.4523122E-2,-0E0,-0E0,-1.339517E-2],"categories":[],"categories_nodes":[],"categories_segments":[],"categories_sizes":[],"default_left":[0,0,0,0,0,0,0,0,1,0,0,0,0,0,0,0,0,0,0,0,0,1,0,0,0,1,0,0,0,0,0,0,0,0,0,0,0,0,0,0,0,0,0,0,0,1,0,0,0,0,0,0,0,1,0,0,0,0,0,0,0,0,0,0,0,0,0,0,0,0,0,0,0,0,0,0,0,0,0,0,0,0,0,0,0],"id":18,"left_children":[1,3,5,7,9,11,13,15,17,19,21,23,25,27,29,31,-1,-1,33,-1,-1,35,37,39,-1,41,43,45,47,49,-1,51,53,-1,-1,-1,-1,55,-1,57,59,61,-1,-1,-1,63,-1,-1,-1,-1,-1,-1,65,67,69,71,-1,-1,-1,73,-1,75,-1,-1,77,-1,-1,79,-1,-1,81,-1,83,-1,-1,-1,-1,-1,-1,-1,-1,-1,-1,-1,-1],"loss_changes":[7.4354254E2,5.3520105E2,1.7179437E2,4.2949158E1,7.765374E2,3.683203E1,1.5599343E1,2.0220703E1,1.5540253E1,5.8327637E0,6.5345917E0,1.1256409E1,2.4885757E1,7.9621706E0,1.621164E1,7.3102417E0,0E0,0E0,7.034397E0,0E0,0E0,4.506256E0,6.4701114E0,1.6654282E1,0E0,6.673958E0,1.0568845E1,1.4966375E1,4.4865036E0,4.151184E0,0E0,4.7476826E0,5.7631226E0,0E0,0E0,0E0,0E0,4.755431E0,0E0,1.3684898E1,5.1762486E0,6.087696E0,0E0,0E0,0E0,5.602151E0,0E0,0E0,0E0,0E0,0E0,0E0,6.4496455E0,7.51474E0,1.3998322E2,6.286504E0,0E0,0E0,0E0,4.1976824E0,0E0,4.586693E0,0E0,0E0,7.8418255E0,0E0,0E0,4.2622986E0,0E0,0E0,4.704956E0,0E0,4.8405933E0,0E0,0E0,0E0,0E0,0E0,0E0,0E0,0E0,0E0,0E0,0E0,0E0],"parents":[2147483647,0,0,1,1,2,2,3,3,4,4,5,5,6,6,7,7,8,8,9,9,10,10,11,11,12,12,13,13,14,14,15,15,18,18,21,21,22,22,23,23,25,25,26,26,27,27,28,28,29,29,31,31,32,32,37,37,39,39,40,40,41,41,45,45,52,52,53,53,54,54,55,55,59,59,61,61,64,64,67,67,70,70,72,72],"right_children":[2,4,6,8,10,12,14,16,18,20,22,24,26,28,30,32,-1,-1,34,-1,-1,36,38,40,-1,42,44,46,48,50,-1,52,54,-1,-1,-1,-1,56,-1,58,60,62,-1,-1,-1,64,-1,-1,-1,-1,-1,-1,66,68,70,72,-1,-1,-1,74,-1,76,-1,-1,78,-1,-1,80,-1,-1,82,-1,84,-1,-1,-1,-1,-1,-1,-1,-1,-1,-1,-1,-1],"split_conditions":[1.400001E1,6.4E1,1.000001E1,1E0,6.5E1,2.1E1,2E0,3E0,1.4E1,3E0,1E0,1.1E1,6E0,7E1,5E1,4E0,-0E0,-0E0,3E0,1.6337575E-2,-0E0,4E0,4.00001E0,3E0,1.52070625E-2,5E0,3.2E1,6.2E1,1E2,1.1E1,-0E0,4E0,1.1E1,-1.9845937E-4,-1.2251133E-2,-1.2410791E-2,-0E0,2E1,-0E0,1E0,9E1,3E0,-0E0,-1.1456123E-2,9.1338967E-4,1E0,9.231633E-3,-8.325479E-3,-0E0,-0E0,-1.3816074E-2,-0E0,3E0,2E0,1.2E1,1E0,-0E0,1.6110616E-2,-0E0,4.00001E0,-0E0,3E0,-0E0,4.018438E-3,1.2E1,-1.2207356E-2,-0E0,1E0,-0E0,1.2808495E-2,4.2000008E1,-0E0,1E0,6.5356344E-3,-0E0,-0E0,1.2939105E-2,-0E0,-7.3075667E-3,-0E0,-1.7422426E-2,-1.4523122E-2,-0E0,-0E0,-1.339517E-2],"split_indices":[7,0,5,2,0,6,4,4,6,4,2,6,0,0,0,0,0,0,7,0,0,4,11,6,0,8,0,0,0,6,0,7,0,0,0,0,0,6,0,4,0,4,0,0,0,11,0,0,0,0,0,0,0,11,0,6,0,0,0,11,0,0,0,0,0,0,0,6,0,0,6,0,8,0,0,0,0,0,0,0,0,0,0,0,0],"split_type":[0,0,0,0,0,0,0,0,0,0,0,0,0,0,0,0,0,0,0,0,0,0,0,0,0,0,0,0,0,0,0,0,0,0,0,0,0,0,0,0,0,0,0,0,0,0,0,0,0,0,0,0,0,0,0,0,0,0,0,0,0,0,0,0,0,0,0,0,0,0,0,0,0,0,0,0,0,0,0,0,0,0,0,0,0],"sum_hessian":[4.620344E3,2.8747537E3,1.7455905E3,1.5995527E3,1.275201E3,1.3576824E3,3.8790802E2,1.3194933E3,2.800594E2,6.7034515E2,6.0485583E2,1.1366177E3,2.2106467E2,2.7446875E2,1.1343928E2,1.2638406E3,5.5652817E1,1.4368962E2,1.3636977E2,6.669298E2,3.4153526E0,5.0650217E2,9.835367E1,3.4318723E2,7.934305E2,1.0856104E2,1.12503624E2,2.2651743E2,4.7951305E1,6.4472916E1,4.8966366E1,5.0754627E1,1.2130859E3,5.2655106E1,8.371466E1,5.0137958E2,5.1225915E0,6.2199562E1,3.6154106E1,1.6264415E2,1.8054306E2,1.0632289E2,2.2381535E0,1.8118792E1,9.4384834E1,1.5473007E2,7.178735E1,2.5721422E1,2.2229885E1,1.2998962E1,5.1473953E1,2.5939342E1,2.4815283E1,5.202496E2,6.9283636E2,5.026592E1,1.1933641E1,1.320411E2,3.060304E1,1.5135461E2,2.9188457E1,1.031942E2,3.1286926E0,5.4676113E1,1.0005396E2,1.9108713E1,5.7065697E0,5.1267584E2,7.573734E0,5.3716854E1,6.391195E2,5.280712E0,4.4985207E1,1.2935641E2,2.1998192E1,5.515771E0,9.767843E1,4.6517014E1,5.3536945E1,6.1203794E0,5.0655545E2,6.362071E2,2.9123967E0,4.3054347E0,4.067977E1],"tree_param":{"num_deleted":"0","num_feature":"13","num_nodes":"85","size_leaf_vector":"1"}},{"base_weights":[-9.2894223E-4,9.258542E-1,-3.5075948E-1,1.6396986E-2,-0E0,-8.1381357E-1,3.4425277E-1,-3.8568288E-1,-8.7368405E-1,6.7459184E-1,-1.6569363E-1,-0E0,-4.7621298E-1,-6.0195214E-1,-9.698205E-1,7.174414E-1,-0E0,1.2537946E-1,-8.3695984E-1,6.571906E-3,-2.2055148E-3,-0E0,-5.2895665E-1,-6.2498873E-1,-0E0,-6.806761E-1,-1.849675E-2,7.4948174E-1,-0E0,2.3878506E-1,-7.593039E-3,-0E0,-1.0230013E0,-0E0,-1.0014258E-2,-1.132313E-2,-0E0,-1.4319518E-2,-0E0,7.6927453E-1,-0E0,-0E0,6.812364E-1,-1.0419055E0,-0E0,-0E0,1.3805037E-2,4.5619032E-1,-3.7922055E-1,7.711736E-1,-0E0,-0E0,-1.8709594E-2,-0E0,5.3904474E-1,-0E0,-9.843983E-3,1.4145379E-2,-0E0,1.06477225E-2,-0E0],"categories":[],"categories_nodes":[],"categories_segments":[],"categories_sizes":[],"default_left":[0,0,0,0,0,1,0,0,0,1,0,0,0,0,0,0,0,0,0,0,0,0,0,0,0,0,0,0,0,0,0,0,0,0,0,0,0,0,0,0,0,0,1,0,0,0,0,0,0,1,0,0,0,0,0,0,0,0,0,0,0],"id":19,"left_children":[1,3,5,-1,-1,7,9,11,13,15,17,19,21,23,25,27,-1,29,31,-1,-1,-1,33,35,-1,37,-1,39,-1,41,-1,-1,43,-1,-1,-1,-1,-1,-1,45,-1,47,49,51,-1,-1,-1,53,55,57,-1,-1,-1,-1,59,-1,-1,-1,-1,-1,-1],"loss_changes":[1.4782438E3,6.0061035E0,1.0771156E3,0E0,0E0,3.8124146E1,2.2888097E2,1.2830708E1,2.7725098E1,2.9402191E1,1.07900795E2,4.0410333E0,4.153202E0,9.924744E0,8.463379E0,1.6446533E1,0E0,2.142981E1,2.4018349E1,0E0,0E0,0E0,5.8315926E0,4.8664856E0,0E0,2.0724136E1,0E0,1.2186707E1,0E0,3.546177E1,0E0,0E0,3.9333801E0,0E0,0E0,0E0,0E0,0E0,0E0,4.6509705E0,0E0,3.6298126E1,1.2261623E1,3.8251953E0,0E0,0E0,0E0,6.7857056E0,8.477751E0,3.7255096E0,0E0,0E0,0E0,0E0,5.8498344E0,0E0,0E0,0E0,0E0,0E0,0E0],"parents":[2147483647,0,0,1,1,2,2,5,5,6,6,7,7,8,8,9,9,10,10,11,11,12,12,13,13,14,14,15,15,17,17,18,18,22,22,23,23,25,25,27,27,29,29,32,32,39,39,41,41,42,42,43,43,47,47,48,48,49,49,54,54],"right_children":[2,4,6,-1,-1,8,10,12,14,16,18,20,22,24,26,28,-1,30,32,-1,-1,-1,34,36,-1,38,-1,40,-1,42,-1,-1,44,-1,-1,-1,-1,-1,-1,46,-1,48,50,52,-1,-1,-1,54,56,58,-1,-1,-1,-1,60,-1,-1,-1,-1,-1,-1],"split_conditions":[6.25E-1,3.3E2,1.400001E1,1.6396986E-2,-0E0,1E0,1E0,1E0,8.9E-1,5E0,5E0,4.2E1,7.38E-1,1.000001E1,5E0,9.26E-1,-0E0,9.23E-1,7.45E-1,6.571906E-3,-2.2055148E-3,-0E0,1E0,2.8E2,-0E0,1E0,-1.849675E-2,2.06E2,-0E0,9.2E-1,-7.593039E-3,-0E0,3.16E2,-0E0,-1.0014258E-2,-1.132313E-2,-0E0,-1.4319518E-2,-0E0,5E0,-0E0,8.04E-1,3E0,5E0,-0E0,-0E0,1.3805037E-2,9E0,2E0,5E0,-0E0,-0E0,-1.8709594E-2,-0E0,1.52E2,-0E0,-9.843983E-3,1.4145379E-2,-0E0,1.06477225E-2,-0E0],"split_indices":[1,10,7,0,0,3,4,7,1,8,9,10,1,9,8,1,0,1,1,0,0,0,6,10,0,2,0,10,0,1,0,0,10,0,0,0,0,0,0,10,0,1,4,8,0,0,0,10,3,8,0,0,0,0,10,0,0,0,0,0,0],"split_type":[0,0,0,0,0,0,0,0,0,0,0,0,0,0,0,0,0,0,0,0,0,0,0,0,0,0,0,0,0,0,0,0,0,0,0,0,0,0,0,0,0,0,0,0,0,0,0,0,0,0,0,0,0,0,0,0,0,0,0,0,0],"sum_hessian":[4.562402E3,1.2404086E3,3.3219932E3,1.2380663E3,2.3421915E0,2.0006978E3,1.3212955E3,2.6945804E2,1.7312397E3,8.111676E2,5.101279E2,3.832778E1,2.3113025E2,4.8864868E2,1.2425911E3,7.7355005E2,3.761754E1,3.5022983E2,1.5989807E2,1.9965317E1,1.8362463E1,3.015959E1,2.0097066E2,4.78237E2,1.0411681E1,3.0265042E2,9.399406E2,7.3757043E2,3.597962E1,3.071517E2,4.307812E1,3.2027145E1,1.2787093E2,9.152988E0,1.9181767E2,4.6506018E2,1.3176823E1,2.4246425E2,6.018617E1,7.2037384E2,1.7196608E1,1.9859436E2,1.0855734E2,1.2666695E2,1.2039849E0,1.6622297E1,7.037515E2,8.545411E1,1.1314025E2,1.03930504E2,4.6268353E0,1.1975461E0,1.254694E2,2.7069733E0,8.274714E1,3.7065403E1,7.6074844E1,1.01483376E2,2.4471304E0,8.0794975E1,1.9521673E0],"tree_param":{"num_deleted":"0","num_feature":"13","num_nodes":"61","size_leaf_vector":"1"}},{"base_weights":[2.6082727E-3,1.6364554E-2,-3.4182855E-1,-7.6308435E-1,2.9482132E-1,-8.5317373E-1,-3.4275275E-1,4.8836604E-1,-4.6641415E-1,-8.479686E-3,-1.5854686E-2,-0E0,-4.198063E-1,5.5275786E-1,-1.9039015E-1,-0E0,-5.3793633E-1,-4.2012252E-2,-6.24991E-1,3.381947E-1,7.98094E-1,-0E0,-4.2842898E-1,-8.9442855E-1,-2.954504E-1,-4.8580968E-1,9.3279585E-2,-0E0,-6.753022E-1,-0E0,7.1010154E-1,-0E0,1.4381644E-2,-1.2316156E-2,-0E0,-0E0,-1.0743669E0,-6.5428804E-4,-7.091153E-1,-1.0544862E-2,-0E0,-2.528958E-3,3.172443E-1,-8.4059733E-1,-1.7468043E-3,6.066834E-1,-4.5242313E-1,7.416354E-1,-0E0,-0E0,-1.2045999E0,-1.4679419E-2,-0E0,-0E0,8.818646E-3,-0E0,-1.7909247E-2,6.881173E-1,-0E0,-0E0,-5.4128975E-1,1.3614519E-2,-0E0,-2.2115985E-2,-0E0,-0E0,1.2758239E-2,-1.1492755E-2,-0E0],"categories":[],"categories_nodes":[],"categories_segments":[],"categories_sizes":[],"default_left":[0,0,0,0,0,0,0,0,0,0,0,0,0,0,0,0,0,0,0,0,0,0,0,0,0,0,0,0,0,0,0,0,0,0,0,0,0,0,0,0,0,0,0,0,0,0,0,1,0,0,0,0,0,0,0,0,0,0,0,0,0,0,0,0,0,0,0,0,0],"id":20,"left_children":[1,-1,3,5,7,9,11,13,15,-1,-1,-1,17,19,21,-1,23,25,27,29,31,-1,33,35,37,39,41,-1,43,45,47,-1,-1,-1,-1,-1,49,-1,51,-1,-1,-1,53,55,-1,57,59,61,-1,-1,63,-1,-1,-1,-1,-1,-1,65,-1,-1,67,-1,-1,-1,-1,-1,-1,-1,-1],"loss_changes":[1.4633865E3,0E0,8.982263E2,6.37583E1,1.9635559E2,1.2695557E1,1.107333E1,5.0479904E1,8.120728E0,0E0,0E0,0E0,1.8594944E1,4.016745E1,6.6207466E0,0E0,7.2014313E0,1.1823904E1,8.154129E0,7.024556E1,6.7561035E0,0E0,1.1088103E1,1.1029865E1,1.0119853E1,4.310853E0,6.7510195E0,0E0,8.391922E0,8.343291E1,6.9233856E0,0E0,0E0,0E0,0E0,0E0,1.1907677E1,0E0,3.7244396E0,0E0,0E0,0E0,5.860214E0,9.884949E0,0E0,9.73877E0,1.0935558E1,3.777481E0,0E0,0E0,4.8511124E0,0E0,0E0,0E0,0E0,0E0,0E0,4.006214E0,0E0,0E0,6.066456E0,0E0,0E0,0E0,0E0,0E0,0E0,0E0,0E0],"parents":[2147483647,0,0,2,2,3,3,4,4,5,5,6,6,7,7,8,8,12,12,13,13,14,14,16,16,17,17,18,18,19,19,20,20,22,22,23,23,24,24,25,25,26,26,28,28,29,29,30,30,36,36,38,38,42,42,43,43,45,45,46,46,47,47,50,50,57,57,60,60],"right_children":[2,-1,4,6,8,10,12,14,16,-1,-1,-1,18,20,22,-1,24,26,28,30,32,-1,34,36,38,40,42,-1,44,46,48,-1,-1,-1,-1,-1,50,-1,52,-1,-1,-1,54,56,-1,58,60,62,-1,-1,64,-1,-1,-1,-1,-1,-1,66,-1,-1,68,-1,-1,-1,-1,-1,-1,-1,-1],"split_conditions":[6.25E-1,1.6364554E-2,1.000001E1,1E0,1.000001E1,7.69E-1,7.94E-1,9.24E-1,7.25E-1,-8.479686E-3,-1.5854686E-2,-0E0,5E0,9.15E-1,3.5E1,-0E0,9.03E-1,3E0,1E0,1E0,5E0,-0E0,1.04E2,6E0,9.23E-1,2E2,2.8E1,-0E0,7.7E1,7.69E-1,1.58E2,-0E0,1.4381644E-2,-1.2316156E-2,-0E0,-0E0,1E0,-6.5428804E-4,1.17E2,-1.0544862E-2,-0E0,-2.528958E-3,9.2E-1,1.4E1,-1.7468043E-3,2.1E1,3E0,2.1E1,-0E0,-0E0,3.14E2,-1.4679419E-2,-0E0,-0E0,8.818646E-3,-0E0,-1.7909247E-2,6.8E-1,-0E0,-0E0,9.5E1,1.3614519E-2,-0E0,-2.2115985E-2,-0E0,-0E0,1.2758239E-2,-1.1492755E-2,-0E0],"split_indices":[1,0,8,2,5,1,1,1,1,0,0,0,8,1,10,0,1,8,6,2,10,0,0,6,1,10,10,0,10,1,10,0,0,0,0,0,11,0,10,0,0,0,1,10,0,6,0,6,0,0,10,0,0,0,0,0,0,1,0,0,0,0,0,0,0,0,0,0,0],"split_type":[0,0,0,0,0,0,0,0,0,0,0,0,0,0,0,0,0,0,0,0,0,0,0,0,0,0,0,0,0,0,0,0,0,0,0,0,0,0,0,0,0,0,0,0,0,0,0,0,0,0,0,0,0,0,0,0,0,0,0,0,0,0,0,0,0,0,0,0,0],"sum_hessian":[4.564688E3,1.2427179E3,3.32197E3,2.0067932E3,1.3151769E3,1.6298049E3,3.769882E2,1.0596903E3,2.5548657E2,2.0633316E2,1.4234718E3,6.498246E1,3.1200574E2,9.808907E2,7.879964E1,3.694069E1,2.1854588E2,1.27735634E2,1.8427011E2,5.5064386E2,4.3024683E2,3.2284523E1,4.6515114E1,6.6722496E1,1.518234E2,4.1304424E1,8.6431206E1,9.46819E0,1.7480191E2,2.9136462E2,2.592792E2,7.862893E0,4.2238394E2,3.6304493E1,1.0210621E1,1.2879306E1,5.3843193E1,1.1093242E2,4.0890972E1,3.719837E1,4.1060543E0,2.388179E1,6.254942E1,1.2160398E2,5.3197937E1,1.23288414E2,1.6807622E2,2.4975598E2,9.523231E0,4.110894E0,4.97323E1,3.3341995E1,7.548977E0,1.7698065E1,4.4851353E1,3.0613697E1,9.099029E1,1.14982E2,8.306416E0,1.5256059E1,1.5282016E2,2.365781E2,1.3177885E1,4.8531036E1,1.201264E0,3.7942476E0,1.1118775E2,1.1785725E2,3.4962917E1],"tree_param":{"num_deleted":"0","num_feature":"13","num_nodes":"69","size_leaf_vector":"1"}},{"base_weights":[-0E0,1.5857559E-2,-3.206127E-1,-7.9389226E-1,3.85261E-1,-3.6918268E-1,-8.563889E-1,6.6421634E-1,-4.6550978E-2,-4.2511564E-1,-0E0,-4.0655708E-1,-9.1091555E-1,7.126445E-1,-0E0,2.2152284E-1,-7.082639E-1,-4.626617E-1,-0E0,-0E0,-6.302505E-1,-9.4191235E-1,-2.8173316E-3,7.577897E-1,-2.9915956E-5,2.3328525E-3,-7.4817073E-3,5.400492E-1,-0E0,-0E0,-8.721606E-1,-8.648939E-3,-0E0,-6.740364E-1,-0E0,-9.9156246E-2,-1.6943807E-2,5.511705E-1,9.408432E-1,6.302706E-1,-0E0,8.325608E-3,-1.6519846E-1,-0E0,-1.640528E-2,-0E0,-1.2923446E-2,-0E0,-7.2883423E-3,-0E0,5.645235E-1,-0E0,1.6758043E-2,-0E0,1.3291475E-2,-0E0,-8.95806E-3,1.2670918E-2,3.1736827E-1,-5.4643084E-3,3.0841738E-1,8.334943E-3,-0E0,-0E0,7.2024763E-3],"categories":[],"categories_nodes":[],"categories_segments":[],"categories_sizes":[],"default_left":[0,0,0,0,0,0,1,0,0,0,0,0,1,1,0,0,0,0,0,0,0,0,0,0,0,0,0,0,0,0,0,0,0,0,0,0,0,0,0,0,0,0,0,0,0,0,0,0,0,0,1,0,0,0,0,0,0,0,0,0,0,0,0,0,0],"id":21,"left_children":[1,-1,3,5,7,9,11,13,15,17,-1,19,21,23,25,27,29,31,-1,-1,33,35,-1,37,-1,-1,-1,39,41,-1,43,-1,-1,45,-1,47,-1,49,51,53,-1,-1,55,-1,-1,-1,-1,-1,-1,-1,57,-1,-1,-1,-1,59,-1,-1,61,-1,63,-1,-1,-1,-1],"loss_changes":[1.3223798E3,0E0,1.1299161E3,4.0841797E1,1.6800386E2,7.027584E0,2.8667236E1,3.0024323E1,9.798072E1,6.3911057E0,0E0,1.9412354E1,2.490857E1,3.192038E1,4.862642E0,2.3063908E1,1.7719261E1,4.6712227E0,0E0,0E0,6.199421E0,1.2596558E1,0E0,1.1701172E1,0E0,0E0,0E0,9.984825E0,2.0240393E1,0E0,1.0823929E1,0E0,0E0,6.4185295E0,0E0,4.024334E0,0E0,5.263153E0,4.207489E0,1.0537281E1,0E0,0E0,1.1634024E1,0E0,0E0,0E0,0E0,0E0,0E0,0E0,4.0647354E0,0E0,0E0,0E0,0E0,1.1315134E1,0E0,0E0,1.1873825E1,0E0,3.8348494E0,0E0,0E0,0E0,0E0],"parents":[2147483647,0,0,2,2,3,3,4,4,5,5,6,6,7,7,8,8,9,9,11,11,12,12,13,13,14,14,15,15,16,16,17,17,20,20,21,21,23,23,27,27,28,28,30,30,33,33,35,35,37,37,38,38,39,39,42,42,50,50,55,55,58,58,60,60],"right_children":[2,-1,4,6,8,10,12,14,16,18,-1,20,22,24,26,28,30,32,-1,-1,34,36,-1,38,-1,-1,-1,40,42,-1,44,-1,-1,46,-1,48,-1,50,52,54,-1,-1,56,-1,-1,-1,-1,-1,-1,-1,58,-1,-1,-1,-1,60,-1,-1,62,-1,64,-1,-1,-1,-1],"split_conditions":[6.25E-1,1.5857559E-2,1.400001E1,7.76E-1,1E0,7.66E-1,1E0,9.24E-1,5E0,1.000001E1,-0E0,7E0,3E0,5E0,3E0,9E0,7.67E-1,4E0,-0E0,-0E0,1.000001E1,3E0,-2.8173316E-3,9.2E-1,-2.9915956E-5,2.3328525E-3,-7.4817073E-3,3E0,7.62E-1,-0E0,5E0,-8.648939E-3,-0E0,1E0,-0E0,4E0,-1.6943807E-2,6.49E-1,3E0,5E0,-0E0,8.325608E-3,5.5E1,-0E0,-1.640528E-2,-0E0,-1.2923446E-2,-0E0,-7.2883423E-3,-0E0,2E0,-0E0,1.6758043E-2,-0E0,1.3291475E-2,4.8E1,-8.95806E-3,1.2670918E-2,8.93E-1,-5.4643084E-3,1.000001E1,8.334943E-3,-0E0,-0E0,7.2024763E-3],"split_indices":[1,0,7,1,4,1,3,1,9,9,0,0,4,8,9,0,1,4,0,0,9,0,0,1,0,0,0,4,1,0,8,0,0,8,0,7,0,1,8,0,0,0,0,0,0,0,0,0,0,0,3,0,0,0,0,0,0,0,1,0,8,0,0,0,0],"split_type":[0,0,0,0,0,0,0,0,0,0,0,0,0,0,0,0,0,0,0,0,0,0,0,0,0,0,0,0,0,0,0,0,0,0,0,0,0,0,0,0,0,0,0,0,0,0,0,0,0,0,0,0,0,0,0,0,0,0,0,0,0,0,0,0,0],"sum_hessian":[4.5615923E3,1.2024406E3,3.3591516E3,2.0179292E3,1.3412224E3,2.8271088E2,1.7352183E3,8.2522974E2,5.159926E2,2.5053014E2,3.2180744E1,2.1101598E2,1.5242024E3,7.751647E2,5.0065083E1,3.6069925E2,1.552934E2,2.403822E2,1.0147928E1,7.806013E1,1.3295584E2,1.4509081E3,7.329423E1,7.404046E2,3.476003E1,3.325009E1,1.6814993E1,1.3446657E2,2.262327E2,3.1758255E1,1.2353513E2,2.328832E2,7.499008E0,1.2908696E2,3.8688805E0,4.218217E1,1.408726E3,3.825962E2,3.5780844E2,1.2216563E2,1.2300933E1,6.384218E1,1.6239052E2,3.0861502E0,1.2044899E2,8.783304E0,1.2030366E2,2.2175556E1,2.0006617E1,1.6684276E0,3.8092776E2,2.1637282E0,3.556447E2,1.9993608E1,1.0217202E2,1.05765976E2,5.662454E1,2.0528429E2,1.7564346E2,4.611715E1,5.9648827E1,1.2898677E2,4.66567E1,5.322671E0,5.4326157E1],"tree_param":{"num_deleted":"0","num_feature":"13","num_nodes":"65","size_leaf_vector":"1"}},{"base_weights":[1.3126735E-2,1.6154159E-2,-3.2448375E-1,-5.1072264E-1,7.5691134E-2,-5.69115E-2,-5.932613E-1,3.7087527E-1,-2.6681992E-1,1.966406E-1,-2.4170962E-1,-3.3356717E-1,-7.639198E-1,4.3360633E-1,-1.2083173E-1,4.260299E-2,-5.558242E-1,-0E0,6.0434723E-3,-0E0,-3.4932235E-1,-0E0,-3.6847034E-1,-9.579098E-1,-6.0164696E-1,4.827201E-1,-1.0657916E-3,-0E0,-8.23082E-3,1.6827881E-1,-4.3495167E-3,-7.007758E-2,-7.994825E-1,-1.2230818E-1,-1.445492E-2,-4.708356E-1,-2.0293008E-1,-1.7236933E-2,-0E0,-1.1209256E-2,-0E0,4.0804945E-2,1.0172106E-2,3.30183E-1,-0E0,2.4900169E-3,-3.061426E-1,-0E0,-1.5109643E-2,-4.50556E-3,1.3866787E-3,-5.9516793E-1,-2.1785204E-1,7.017127E-4,-4.7843936E-3,4.6455534E-3,-1.5115213E-3,-0E0,7.584059E-3,-0E0,-7.7377544E-3,-1.0942984E-2,-0E0,-5.6867194E-3,-0E0],"categories":[],"categories_nodes":[],"categories_segments":[],"categories_sizes":[],"default_left":[0,0,0,0,0,1,0,0,0,0,0,0,1,1,1,0,0,0,0,0,0,0,1,0,0,0,0,0,0,0,0,0,0,0,0,1,1,0,0,0,0,1,0,0,0,0,0,0,0,0,0,1,1,0,0,0,0,0,0,0,0,0,0,0,0],"id":22,"left_children":[1,-1,3,5,7,9,11,13,15,17,19,21,23,25,27,29,31,-1,-1,-1,33,-1,35,37,39,41,-1,-1,-1,43,-1,45,47,49,-1,51,53,-1,-1,-1,-1,55,-1,57,-1,-1,59,-1,-1,-1,-1,61,63,-1,-1,-1,-1,-1,-1,-1,-1,-1,-1,-1,-1],"loss_changes":[1.3924423E3,0E0,2.5053409E2,7.913153E1,1.06756325E2,1.8193554E1,7.308539E1,2.085933E1,4.6863716E1,6.84404E0,7.745407E0,7.78006E0,1.7879883E1,1.6737297E1,4.1788573E0,7.519732E0,2.2587845E1,0E0,0E0,0E0,9.987032E0,0E0,5.3209E0,1.2002777E1,1.3217606E1,1.497715E1,0E0,0E0,0E0,4.5754952E0,0E0,7.0088773E0,9.807182E0,5.4434443E0,0E0,4.424141E0,7.302206E0,0E0,0E0,0E0,0E0,4.827856E0,0E0,5.032427E0,0E0,0E0,4.215513E0,0E0,0E0,0E0,0E0,4.6338577E0,4.839608E0,0E0,0E0,0E0,0E0,0E0,0E0,0E0,0E0,0E0,0E0,0E0,0E0],"parents":[2147483647,0,0,2,2,3,3,4,4,5,5,6,6,7,7,8,8,9,9,10,10,11,11,12,12,13,13,14,14,15,15,16,16,20,20,22,22,23,23,24,24,25,25,29,29,31,31,32,32,33,33,35,35,36,36,41,41,43,43,46,46,51,51,52,52],"right_children":[2,-1,4,6,8,10,12,14,16,18,20,22,24,26,28,30,32,-1,-1,-1,34,-1,36,38,40,42,-1,-1,-1,44,-1,46,48,50,-1,52,54,-1,-1,-1,-1,56,-1,58,-1,-1,60,-1,-1,-1,-1,62,64,-1,-1,-1,-1,-1,-1,-1,-1,-1,-1,-1,-1],"split_conditions":[6.25E-1,1.6154159E-2,1E0,7.94E-1,1E0,2E0,6E0,9.25E-1,2E0,4.7E1,3.8E1,2E0,1E0,2.1E1,2E0,9.23E-1,2E0,-0E0,6.0434723E-3,-0E0,1.8E1,-0E0,2E0,4.00001E0,1.13E2,1.1E1,-1.0657916E-3,-0E0,-8.23082E-3,4.4E1,-4.3495167E-3,6E0,1E0,1.05E2,-1.445492E-2,1.7E1,4E0,-1.7236933E-2,-0E0,-1.1209256E-2,-0E0,2E0,1.0172106E-2,5E0,-0E0,2.4900169E-3,7.62E-1,-0E0,-1.5109643E-2,-4.50556E-3,1.3866787E-3,3E0,2E0,7.017127E-4,-4.7843936E-3,4.6455534E-3,-1.5115213E-3,-0E0,7.584059E-3,-0E0,-7.7377544E-3,-1.0942984E-2,-0E0,-5.6867194E-3,-0E0],"split_indices":[1,0,2,1,4,3,0,1,3,0,0,3,9,6,9,1,9,0,0,0,6,0,9,3,0,6,0,0,0,0,0,0,11,0,0,6,6,0,0,0,0,9,0,0,0,0,1,0,0,0,0,4,4,0,0,0,0,0,0,0,0,0,0,0,0],"split_type":[0,0,0,0,0,0,0,0,0,0,0,0,0,0,0,0,0,0,0,0,0,0,0,0,0,0,0,0,0,0,0,0,0,0,0,0,0,0,0,0,0,0,0,0,0,0,0,0,0,0,0,0,0,0,0,0,0,0,0,0,0,0,0,0,0],"sum_hessian":[4.5404956E3,1.2403617E3,3.3001338E3,2.2659736E3,1.0341602E3,3.6690942E2,1.8990641E3,5.6908484E2,4.650753E2,1.3426805E2,2.3264139E2,7.8117004E2,1.117894E3,5.2136694E2,4.7717888E1,2.1240271E2,2.5267259E2,3.595463E1,9.8313416E1,6.110747E1,1.7153392E2,8.483029E1,6.963397E2,4.7004233E2,6.4785175E2,4.9068887E2,3.06781E1,3.1261814E1,1.6456076E1,1.7129518E2,4.1107517E1,9.9311615E1,1.5336098E2,1.3380899E2,3.772493E1,3.8988922E2,3.0645053E2,4.6424756E2,5.7947636E0,6.131201E2,3.4731617E1,1.0407989E2,3.8660898E2,8.1742485E1,8.95527E1,3.3932842E1,6.537877E1,7.142104E0,1.4621887E2,1.06025085E2,2.7783901E1,2.3211737E2,1.5777185E2,3.929869E1,2.6715182E2,6.0646004E1,4.3433884E1,8.88554E0,7.285695E1,1.4868921E1,5.050985E1,2.2529285E2,6.8245177E0,1.1520673E2,4.2565117E1],"tree_param":{"num_deleted":"0","num_feature":"13","num_nodes":"65","size_leaf_vector":"1"}},{"base_weights":[1.0535209E-2,-2.8894806E-1,4.990466E-1,-6.8164253E-1,1.8000211E-1,7.3551863E-1,1.2794492E-1,-2.3260772E-1,-7.4303377E-1,8.4503675E-1,-5.801012E-1,1.4016562E-2,4.5291832E-1,3.5861728E-1,-8.334621E-2,6.1723904E-4,-9.291912E-3,-4.024426E-5,-7.6683843E-1,-0E0,1.5407063E-2,-4.0329352E-1,-8.085798E-1,5.306385E-1,-0E0,4.5831573E-1,-0E0,3.024569E-1,-4.1399813E-1,-1.3994998E-2,-1.9094305E-3,-4.5301992E-1,-0E0,-0E0,-1.4873656E-2,-0E0,9.843505E-3,8.747208E-3,-0E0,3.3014905E-2,1.1435916E-2,-6.2230897E-1,-0E0,-0E0,-9.128421E-3,-3.491861E-3,2.6757282E-1,-0E0,-7.9367155E-1,4.608491E-3,-3.836931E-1,9.987483E-3,-3.0051426E-3,-0E0,-1.7149538E-2,-0E0,-1.1152189E-2],"categories":[],"categories_nodes":[],"categories_segments":[],"categories_sizes":[],"default_left":[0,0,0,1,0,0,0,0,0,0,0,0,0,0,0,0,0,0,0,0,0,0,0,0,0,1,0,0,0,0,0,1,0,0,0,0,0,0,0,0,0,0,0,0,0,0,0,0,0,0,0,0,0,0,0,0,0],"id":23,"left_children":[1,3,5,7,9,11,13,15,17,19,21,-1,23,25,27,-1,-1,-1,29,-1,-1,31,33,35,-1,37,-1,39,41,-1,-1,43,-1,-1,-1,-1,-1,-1,-1,45,-1,47,49,-1,-1,-1,51,-1,53,-1,55,-1,-1,-1,-1,-1,-1],"loss_changes":[6.7666223E2,5.297597E2,1.4655548E2,3.3296265E1,6.5901086E2,4.307556E0,3.71866E1,2.1356918E1,1.7035095E1,1.7917297E1,1.1441757E1,0E0,1.0859375E1,1.4344418E1,4.708955E1,0E0,0E0,0E0,1.4015015E1,0E0,0E0,9.893166E0,9.160507E0,5.023594E0,0E0,7.02219E0,0E0,8.275403E0,1.4087013E1,0E0,0E0,7.103218E0,0E0,0E0,0E0,0E0,0E0,0E0,0E0,6.824806E0,0E0,7.7861214E0,9.886794E0,0E0,0E0,0E0,1.39973755E1,0E0,1.1625965E1,0E0,5.734553E0,0E0,0E0,0E0,0E0,0E0,0E0],"parents":[2147483647,0,0,1,1,2,2,3,3,4,4,5,5,6,6,7,7,8,8,9,9,10,10,12,12,13,13,14,14,18,18,21,21,22,22,23,23,25,25,27,27,28,28,31,31,39,39,41,41,42,42,46,46,48,48,50,50],"right_children":[2,4,6,8,10,12,14,16,18,20,22,-1,24,26,28,-1,-1,-1,30,-1,-1,32,34,36,-1,38,-1,40,42,-1,-1,44,-1,-1,-1,-1,-1,-1,-1,46,-1,48,50,-1,-1,-1,52,-1,54,-1,56,-1,-1,-1,-1,-1,-1],"split_conditions":[1.400001E1,5.8E1,1E0,1E0,6.5E1,6.5E1,4E0,1.2E1,4E0,6.4E1,1E0,1.4016562E-2,1.21E2,7E1,2E0,6.1723904E-4,-9.291912E-3,-4.024426E-5,3E0,-0E0,1.5407063E-2,1.78E2,1E0,6E0,-0E0,3E0,-0E0,2E0,6.4E1,-1.3994998E-2,-1.9094305E-3,1E0,-0E0,-0E0,-1.4873656E-2,-0E0,9.843505E-3,8.747208E-3,-0E0,6.4E1,1.1435916E-2,5E0,6.7E1,-0E0,-9.128421E-3,-3.491861E-3,6.5E1,-0E0,1.1E1,4.608491E-3,1E0,9.987483E-3,-3.0051426E-3,-0E0,-1.7149538E-2,-0E0,-1.1152189E-2],"split_indices":[7,0,4,3,0,0,9,0,0,0,4,0,10,0,3,0,0,0,4,0,0,10,6,10,0,4,0,4,0,0,0,3,0,0,0,0,0,0,0,0,0,9,0,0,0,0,0,0,6,0,12,0,0,0,0,0,0],"split_type":[0,0,0,0,0,0,0,0,0,0,0,0,0,0,0,0,0,0,0,0,0,0,0,0,0,0,0,0,0,0,0,0,0,0,0,0,0,0,0,0,0,0,0,0,0,0,0,0,0,0,0,0,0,0,0,0,0],"sum_hessian":[4.5997363E3,2.8419275E3,1.7578087E3,1.5554423E3,1.2864851E3,1.05523E3,7.025787E2,2.0813454E2,1.3473077E3,6.919978E2,5.9448737E2,8.377129E2,2.1751712E2,3.5383362E2,3.4874506E2,9.6108955E1,1.1202559E2,5.3770664E1,1.2935371E3,2.0854818E1,6.71143E2,3.669703E2,2.2751706E2,1.9530115E2,2.2215971E1,2.8245386E2,7.137975E1,1.488171E2,1.9992798E2,1.22957E3,6.3967175E1,3.377128E2,2.925749E1,5.8133187E0,2.2170374E2,3.0855677E0,1.9221559E2,2.690406E2,1.3413273E1,1.0198058E2,4.683651E1,1.21303856E2,7.862412E1,5.3732292E1,2.839805E2,3.283022E1,6.915037E1,3.6822254E1,8.44816E1,3.875942E1,3.9864704E1,5.205972E1,1.7090645E1,1.7971405E1,6.651019E1,1.4846897E1,2.5017809E1],"tree_param":{"num_deleted":"0","num_feature":"13","num_nodes":"57","size_leaf_vector":"1"}},{"base_weights":[-0E0,8.586158E-1,-3.1646892E-1,1.5226546E-2,-0E0,-7.32283E-1,3.115747E-1,-3.0564567E-1,-7.9478E-1,3.654973E-1,-6.011754E-1,-0E0,-3.786872E-1,-8.379489E-1,-4.5645338E-1,4.3624583E-1,-2.6523298E-1,-0E0,-8.6288184E-1,-0E0,-4.4969165E-1,-4.9964827E-1,-1.5473478E-2,-5.495357E-1,-0E0,1.567403E-1,7.600785E-1,-0E0,-6.12284E-1,-1.7382348E-2,-0E0,-0E0,-1.0078706E-2,-5.530006E-1,-0E0,-2.6709144E-3,-1.3394858E-2,5.638277E-1,-1.367417E-1,1.3610542E-2,-0E0,-1.3447969E-2,-0E0,-0E0,-1.0132459E-2,6.0063297E-1,-0E0,1.7483708E-1,-3.9780852E-1,6.393678E-1,-0E0,3.4002656E-1,-2.5844139E-3,-0E0,-4.8608223E-1,-0E0,1.1741053E-2,-0E0,7.7226385E-3,-0E0,-9.45886E-3],"categories":[],