{"learner":{"attributes":{"scikit_learn":"{\"_estimator_type\": \"classifier\"}"},"feature_names":["encounter_id","patient_nbr","race","gender","age","admission_type_id","admission_source_id","time_in_hospital","payer_code","num_lab_procedures","num_procedures","num_medications","number_outpatient","diag_1","diag_2","diag_3","number_diagnoses","max_glu_serum","metformin","repaglinide","nateglinide","chlorpropamide","glimepiride","acetohexamide","glipizide","glyburide","tolbutamide","pioglitazone","rosiglitazone","acarbose","miglitol","troglitazone","tolazamide","examide","citoglipton","insulin","glyburide-metformin","glipizide-metformin","glimepiride-pioglitazone","metformin-rosiglitazone","metformin-pioglitazone","change","diabetesMed","weight","medical_specialty","A1Cresult","has_extended"],"feature_types":["int","int","float","int","int","int","int","int","float","int","int","int","int","float","float","float","int","float","int","int","int","int","int","int","int","int","int","int","int","int","int","int","int","int","int","int","int","int","int","int","int","int","int","float","float","float","float"],"gradient_booster":{"model":{"gbtree_model_param":{"num_parallel_tree":"1","num_trees":"759"},"iteration_indptr":[0,1,2,3,4,5,6,7,8,9,10,11,12,13,14,15,16,17,18,19,20,21,22,23,24,25,26,27,28,29,30,31,32,33,34,35,36,37,38,39,40,41,42,43,44,45,46,47,48,49,50,51,52,53,54,55,56,57,58,59,60,61,62,63,64,65,66,67,68,69,70,71,72,73,74,75,76,77,78,79,80,81,82,83,84,85,86,87,88,89,90,91,92,93,94,95,96,97,98,99,100,101,102,103,104,105,106,107,108,109,110,111,112,113,114,115,116,117,118,119,120,121,122,123,124,125,126,127,128,129,130,131,132,133,134,135,136,137,138,139,140,141,142,143,144,145,146,147,148,149,150,151,152,153,154,155,156,157,158,159,160,161,162,163,164,165,166,167,168,169,170,171,172,173,174,175,176,177,178,179,180,181,182,183,184,185,186,187,188,189,190,191,192,193,194,195,196,197,198,199,200,201,202,203,204,205,206,207,208,209,210,211,212,213,214,215,216,217,218,219,220,221,222,223,224,225,226,227,228,229,230,231,232,233,234,235,236,237,238,239,240,241,242,243,244,245,246,247,248,249,250,251,252,253,254,255,256,257,258,259,260,261,262,263,264,265,266,267,268,269,270,271,272,273,274,275,276,277,278,279,280,281,282,283,284,285,286,287,288,289,290,291,292,293,294,295,296,297,298,299,300,301,302,303,304,305,306,307,308,309,310,311,312,313,314,315,316,317,318,319,320,321,322,323,324,325,326,327,328,329,330,331,332,333,334,335,336,337,338,339,340,341,342,343,344,345,346,347,348,349,350,351,352,353,354,355,356,357,358,359,360,361,362,363,364,365,366,367,368,369,370,371,372,373,374,375,376,377,378,379,380,381,382,383,384,385,386,387,388,389,390,391,392,393,394,395,396,397,398,399,400,401,402,403,404,405,406,407,408,409,410,411,412,413,414,415,416,417,418,419,420,421,422,423,424,425,426,427,428,429,430,431,432,433,434,435,436,437,438,439,440,441,442,443,444,445,446,447,448,449,450,451,452,453,454,455,456,457,458,459,460,461,462,463,464,465,466,467,468,469,470,471,472,473,474,475,476,477,478,479,480,481,482,483,484,485,486,487,488,489,490,491,492,493,494,495,496,497,498,499,500,501,502,503,504,505,506,507,508,509,510,511,512,513,514,515,516,517,518,519,520,521,522,523,524,525,526,527,528,529,530,531,532,533,534,535,536,537,538,539,540,541,542,543,544,545,546,547,548,549,550,551,552,553,554,555,556,557,558,559,560,561,562,563,564,565,566,567,568,569,570,571,572,573,574,575,576,577,578,579,580,581,582,583,584,585,586,587,588,589,590,591,592,593,594,595,596,597,598,599,600,601,602,603,604,605,606,607,608,609,610,611,612,613,614,615,616,617,618,619,620,621,622,623,624,625,626,627,628,629,630,631,632,633,634,635,636,637,638,639,640,641,642,643,644,645,646,647,648,649,650,651,652,653,654,655,656,657,658,659,660,661,662,663,664,665,666,667,668,669,670,671,672,673,674,675,676,677,678,679,680,681,682,683,684,685,686,687,688,689,690,691,692,693,694,695,696,697,698,699,700,701,702,703,704,705,706,707,708,709,710,711,712,713,714,715,716,717,718,719,720,721,722,723,724,725,726,727,728,729,730,731,732,733,734,735,736,737,738,739,740,741,742,743,744,745,746,747,748,749,750,751,752,753,754,755,756,757,758,759],"tree_info":[0,0,0,0,0,0,0,0,0,0,0,0,0,0,0,0,0,0,0,0,0,0,0,0,0,0,0,0,0,0,0,0,0,0,0,0,0,0,0,0,0,0,0,0,0,0,0,0,0,0,0,0,0,0,0,0,0,0,0,0,0,0,0,0,0,0,0,0,0,0,0,0,0,0,0,0,0,0,0,0,0,0,0,0,0,0,0,0,0,0,0,0,0,0,0,0,0,0,0,0,0,0,0,0,0,0,0,0,0,0,0,0,0,0,0,0,0,0,0,0,0,0,0,0,0,0,0,0,0,0,0,0,0,0,0,0,0,0,0,0,0,0,0,0,0,0,0,0,0,0,0,0,0,0,0,0,0,0,0,0,0,0,0,0,0,0,0,0,0,0,0,0,0,0,0,0,0,0,0,0,0,0,0,0,0,0,0,0,0,0,0,0,0,0,0,0,0,0,0,0,0,0,0,0,0,0,0,0,0,0,0,0,0,0,0,0,0,0,0,0,0,0,0,0,0,0,0,0,0,0,0,0,0,0,0,0,0,0,0,0,0,0,0,0,0,0,0,0,0,0,0,0,0,0,0,0,0,0,0,0,0,0,0,0,0,0,0,0,0,0,0,0,0,0,0,0,0,0,0,0,0,0,0,0,0,0,0,0,0,0,0,0,0,0,0,0,0,0,0,0,0,0,0,0,0,0,0,0,0,0,0,0,0,0,0,0,0,0,0,0,0,0,0,0,0,0,0,0,0,0,0,0,0,0,0,0,0,0,0,0,0,0,0,0,0,0,0,0,0,0,0,0,0,0,0,0,0,0,0,0,0,0,0,0,0,0,0,0,0,0,0,0,0,0,0,0,0,0,0,0,0,0,0,0,0,0,0,0,0,0,0,0,0,0,0,0,0,0,0,0,0,0,0,0,0,0,0,0,0,0,0,0,0,0,0,0,0,0,0,0,0,0,0,0,0,0,0,0,0,0,0,0,0,0,0,0,0,0,0,0,0,0,0,0,0,0,0,0,0,0,0,0,0,0,0,0,0,0,0,0,0,0,0,0,0,0,0,0,0,0,0,0,0,0,0,0,0,0,0,0,0,0,0,0,0,0,0,0,0,0,0,0,0,0,0,0,0,0,0,0,0,0,0,0,0,0,0,0,0,0,0,0,0,0,0,0,0,0,0,0,0,0,0,0,0,0,0,0,0,0,0,0,0,0,0,0,0,0,0,0,0,0,0,0,0,0,0,0,0,0,0,0,0,0,0,0,0,0,0,0,0,0,0,0,0,0,0,0,0,0,0,0,0,0,0,0,0,0,0,0,0,0,0,0,0,0,0,0,0,0,0,0,0,0,0,0,0,0,0,0,0,0,0,0,0,0,0,0,0,0,0,0,0,0,0,0,0,0,0,0,0,0,0,0,0,0,0,0,0,0,0,0,0,0,0,0,0,0,0,0,0,0,0,0,0,0,0,0,0,0,0,0,0,0,0,0,0,0,0,0,0,0,0,0,0,0,0,0,0,0,0,0,0,0,0,0,0,0,0,0,0,0,0,0,0,0,0,0,0,0,0,0,0,0,0,0,0,0,0,0,0,0,0,0,0,0,0,0,0,0,0,0,0,0,0,0,0,0,0,0,0,0,0,0,0,0,0,0,0,0,0,0,0,0,0,0,0,0,0,0,0,0,0,0,0,0,0,0,0,0,0,0,0,0,0,0,0,0,0],"trees":[{"base_weights":[2.1667776E-1,-2.533567E-1,3.1480202E-1,-5.995344E-1,1.3355795E-1,2.3484533E-1,6.124179E-1,-8.634692E-1,-2.926917E-1,2.8776702E-1,-7.240489E-1,3.044057E-1,-1.6347247E-1,6.884786E-1,3.6963955E-1,-6.798116E-1,-1.1637799E0,-2.1595569E-1,-1.0266341E0,3.7095505E-1,1.2236647E-2,-9.2072946E-1,-0E0,5.3917747E-2,4.3437383E-1,-4.11299E-2,-5.842859E-1,4.5124844E-1,7.5358593E-1,4.5107028E-1,-3.9214257E-2,-3.5289228E-2,-8.689546E-2,-1.3502072E-1,-4.371253E-2,-3.434538E-2,2.8293E-3,-1.0061869E-1,4.0773335E-3,-9.8849125E-3,3.1741887E-2,3.3586677E-2,-1.36971325E-2,-9.434457E-2,-1.5564028E-2,-3.8463812E-2,1.0233331E-2,2.2451496E-2,-1.4432326E-2,4.629518E-2,2.683493E-2,-4.0741682E-2,4.7957916E-3,-6.6640966E-2,1.1712526E-3,1.9012403E-2,5.1804587E-2,8.796181E-3,6.1219748E-2,2.2869785E-3,4.1212533E-2,2.564282E-2,-1.9248633E-2],"categories":[],"categories_nodes":[],"categories_segments":[],"categories_sizes":[],"default_left":[0,0,0,0,0,0,0,0,0,0,0,0,0,0,0,0,0,0,0,0,0,1,1,0,0,0,0,0,0,0,0,0,0,0,0,0,0,0,0,0,0,0,0,0,0,0,0,0,0,0,0,0,0,0,0,0,0,0,0,0,0,0,0],"id":0,"left_children":[1,3,5,7,9,11,13,15,17,19,21,23,25,27,29,31,33,35,37,39,41,43,45,47,49,51,53,55,57,59,61,-1,-1,-1,-1,-1,-1,-1,-1,-1,-1,-1,-1,-1,-1,-1,-1,-1,-1,-1,-1,-1,-1,-1,-1,-1,-1,-1,-1,-1,-1,-1,-1],"loss_changes":[1.2620541E3,6.351727E2,5.322466E2,1.9323395E2,2.9355798E2,4.9640936E2,7.954651E1,5.5329956E1,5.7018517E1,4.117888E1,4.5830948E1,4.9265698E2,1.3244153E2,4.5483276E1,4.17769E1,7.004019E1,1.349671E2,6.121968E1,3.3749893E1,2.1582611E1,3.7238937E1,3.9655014E1,6.4272037E0,2.809446E2,1.3602136E2,1.01709785E2,9.333037E1,2.7885406E1,2.0224487E1,2.431134E1,1.4140068E1,0E0,0E0,0E0,0E0,0E0,0E0,0E0,0E0,0E0,0E0,0E0,0E0,0E0,0E0,0E0,0E0,0E0,0E0,0E0,0E0,0E0,0E0,0E0,0E0,0E0,0E0,0E0,0E0,0E0,0E0,0E0,0E0],"parents":[2147483647,0,0,1,1,2,2,3,3,4,4,5,5,6,6,7,7,8,8,9,9,10,10,11,11,12,12,13,13,14,14,15,15,16,16,17,17,18,18,19,19,20,20,21,21,22,22,23,23,24,24,25,25,26,26,27,27,28,28,29,29,30,30],"right_children":[2,4,6,8,10,12,14,16,18,20,22,24,26,28,30,32,34,36,38,40,42,44,46,48,50,52,54,56,58,60,62,-1,-1,-1,-1,-1,-1,-1,-1,-1,-1,-1,-1,-1,-1,-1,-1,-1,-1,-1,-1,-1,-1,-1,-1,-1,-1,-1,-1,-1,-1,-1,-1],"split_conditions":[6E0,3.793905E7,1E0,7E0,2.5750363E8,2.720111E8,2.5041667E8,1.0180542E8,1.5152864E8,1.7869914E8,1E0,3.0474208E7,1.1452225E8,3.471022E7,3E0,1.137159E7,2.3147272E7,1.2E1,1E0,9.7E1,4.3183396E7,2.48E2,6E0,6.622676E7,1.5072752E8,1E0,1.7386237E8,1.6E1,9.7E1,1.1E1,2.55E2,-3.5289228E-2,-8.689546E-2,-1.3502072E-1,-4.371253E-2,-3.434538E-2,2.8293E-3,-1.0061869E-1,4.0773335E-3,-9.8849125E-3,3.1741887E-2,3.3586677E-2,-1.36971325E-2,-9.434457E-2,-1.5564028E-2,-3.8463812E-2,1.0233331E-2,2.2451496E-2,-1.4432326E-2,4.629518E-2,2.683493E-2,-4.0741682E-2,4.7957916E-3,-6.6640966E-2,1.1712526E-3,1.9012403E-2,5.1804587E-2,8.796181E-3,6.1219748E-2,2.2869785E-3,4.1212533E-2,2.564282E-2,-1.9248633E-2],"split_indices":[16,1,12,6,0,0,0,0,0,0,12,1,1,1,5,1,1,11,12,13,1,15,8,0,0,42,1,8,13,11,13,0,0,0,0,0,0,0,0,0,0,0,0,0,0,0,0,0,0,0,0,0,0,0,0,0,0,0,0,0,0,0,0],"split_type":[0,0,0,0,0,0,0,0,0,0,0,0,0,0,0,0,0,0,0,0,0,0,0,0,0,0,0,0,0,0,0,0,0,0,0,0,0,0,0,0,0,0,0,0,0,0,0,0,0,0,0,0,0,0,0,0,0,0,0,0,0,0,0],"sum_hessian":[2.733186E4,4.7074214E3,2.2624438E4,2.4901912E3,2.2172302E3,1.7861508E4,4.7629307E3,1.3197156E3,1.1704757E3,1.8901257E3,3.2710455E2,1.5220589E4,2.6409182E3,3.5957456E3,1.1671853E3,8.4886957E2,4.7084604E2,1.0772473E3,9.322832E1,1.4327366E3,4.573892E2,2.5303946E2,7.40651E1,5.2195146E3,1.0001074E4,2.0645022E3,5.7641614E2,8.090083E2,2.786737E3,9.848445E2,1.8234082E2,5.588788E2,2.8999075E2,2.3945007E2,2.3139597E2,5.9026697E2,4.8698038E2,7.9843956E1,1.3384359E1,6.1878372E1,1.3708582E3,1.4859668E2,3.087925E2,1.7559506E2,7.7444405E1,1.4069793E1,5.9995308E1,2.6625378E3,2.5569766E3,3.9577407E3,6.043334E3,3.7033514E2,1.694167E3,4.1041177E2,1.6600435E2,4.146644E2,3.943439E2,7.261029E1,2.714127E3,1.4718866E2,8.376558E2,5.2981663E1,1.2935916E2],"tree_param":{"num_deleted":"0","num_feature":"47","num_nodes":"63","size_leaf_vector":"1"}},{"base_weights":[2.0122193E-1,-8.278081E-2,3.3316773E-1,-4.781725E-1,8.064959E-2,3.670463E-1,-7.679874E-1,-7.49894E-1,-2.5000712E-1,-1.24183565E-1,1.728415E-1,9.9316075E-2,4.2154986E-1,-1.0311033E0,-1.9729362E-1,-9.33106E-1,-4.0971678E-1,-5.072141E-1,-7.341358E-2,-5.984683E-2,-7.179514E-1,-2.4468815E-2,2.7266723E-1,-1.2975271E-1,1.6630204E-1,2.7281666E-1,4.9419057E-1,-1.2875057E0,-6.82336E-1,2.1770325E-1,-3.639637E-1,-5.7478033E-2,-1.2281606E-1,3.8829583E-3,-7.166439E-2,-9.7641386E-2,-3.0590499E-2,-1.2927671E-2,1.9574847E-2,-1.8538488E-2,8.1555E-3,7.417084E-3,-7.0987925E-2,1.7355474E-2,-1.7376715E-2,4.399495E-3,2.885823E-2,-0E0,-4.6248194E-2,-1.0711693E-2,1.6428966E-2,8.804779E-3,3.0707894E-2,3.1757038E-2,4.5816496E-2,-1.05611056E-1,-0E0,-0E0,-6.525523E-2,-0E0,3.2085907E-2,-5.0881032E-2,-7.6853842E-3],"categories":[],"categories_nodes":[],"categories_segments":[],"categories_sizes":[],"default_left":[0,0,0,0,0,0,0,0,0,0,0,0,0,0,0,0,0,0,0,0,0,0,0,0,0,0,0,0,0,0,1,0,0,0,0,0,0,0,0,0,0,0,0,0,0,0,0,0,0,0,0,0,0,0,0,0,0,0,0,0,0,0,0],"id":1,"left_children":[1,3,5,7,9,11,13,15,17,19,21,23,25,27,29,31,33,35,37,39,41,43,45,47,49,51,53,55,57,59,61,-1,-1,-1,-1,-1,-1,-1,-1,-1,-1,-1,-1,-1,-1,-1,-1,-1,-1,-1,-1,-1,-1,-1,-1,-1,-1,-1,-1,-1,-1,-1,-1],"loss_changes":[1.0161306E3,5.571216E2,6.901465E2,1.4866815E2,1.1504784E2,2.585537E2,7.339017E1,5.9315002E1,5.9568306E1,6.630821E1,8.442892E1,4.747486E1,1.5519336E2,1.3363342E1,1.4802357E1,6.939374E1,1.00647804E2,3.5211716E1,2.3963287E1,4.873307E1,2.9714104E1,6.612512E1,5.2072968E1,3.835115E1,2.9399399E1,8.6787964E1,6.9196045E1,8.009247E0,2.0533058E1,3.3686924E0,6.072197E0,0E0,0E0,0E0,0E0,0E0,0E0,0E0,0E0,0E0,0E0,0E0,0E0,0E0,0E0,0E0,0E0,0E0,0E0,0E0,0E0,0E0,0E0,0E0,0E0,0E0,0E0,0E0,0E0,0E0,0E0,0E0,0E0],"parents":[2147483647,0,0,1,1,2,2,3,3,4,4,5,5,6,6,7,7,8,8,9,9,10,10,11,11,12,12,13,13,14,14,15,15,16,16,17,17,18,18,19,19,20,20,21,21,22,22,23,23,24,24,25,25,26,26,27,27,28,28,29,29,30,30],"right_children":[2,4,6,8,10,12,14,16,18,20,22,24,26,28,30,32,34,36,38,40,42,44,46,48,50,52,54,56,58,60,62,-1,-1,-1,-1,-1,-1,-1,-1,-1,-1,-1,-1,-1,-1,-1,-1,-1,-1,-1,-1,-1,-1,-1,-1,-1,-1,-1,-1,-1,-1,-1,-1],"split_conditions":[3.0474208E7,6E0,1.25482856E8,3.2000008E1,7E0,1E1,1.7386237E8,2.3147272E7,3E0,3.2E1,1.3E1,6E0,7E0,1.6E1,1E0,1.4582106E7,2.4068538E7,1.8E1,2.3147272E7,9E0,1.23E2,5.535945E6,3.2000008E1,4.66E2,4E0,9E0,7.823035E7,6.94E2,1.45E2,4.7E1,7E0,-5.7478033E-2,-1.2281606E-1,3.8829583E-3,-7.166439E-2,-9.7641386E-2,-3.0590499E-2,-1.2927671E-2,1.9574847E-2,-1.8538488E-2,8.1555E-3,7.417084E-3,-7.0987925E-2,1.7355474E-2,-1.7376715E-2,4.399495E-3,2.885823E-2,-0E0,-4.6248194E-2,-1.0711693E-2,1.6428966E-2,8.804779E-3,3.0707894E-2,3.1757038E-2,4.5816496E-2,-1.05611056E-1,-0E0,-0E0,-6.525523E-2,-0E0,3.2085907E-2,-5.0881032E-2,-7.6853842E-3],"split_indices":[1,16,1,8,6,11,1,1,7,11,11,11,6,11,35,1,1,9,1,16,13,1,8,13,8,16,1,13,13,9,8,0,0,0,0,0,0,0,0,0,0,0,0,0,0,0,0,0,0,0,0,0,0,0,0,0,0,0,0,0,0,0,0],"split_type":[0,0,0,0,0,0,0,0,0,0,0,0,0,0,0,0,0,0,0,0,0,0,0,0,0,0,0,0,0,0,0,0,0,0,0,0,0,0,0,0,0,0,0,0,0,0,0,0,0,0,0,0,0,0,0,0,0,0,0,0,0,0,0],"sum_hessian":[2.7061154E4,8.57082E3,1.8490334E4,2.5124592E3,6.058361E3,1.7949332E4,5.410022E2,1.1257058E3,1.3867535E3,1.8592477E3,4.199113E3,3.0587932E3,1.4890539E4,3.582916E2,1.827106E2,7.1035474E2,4.1535107E2,5.440666E2,8.4268695E2,1.6952239E3,1.6402383E2,1.3926979E3,2.806415E3,6.6994696E2,2.3888462E3,4.926793E3,9.963746E3,1.831182E2,1.751734E2,4.125865E1,1.4145195E2,5.4815216E2,1.6220256E2,2.1217099E2,2.0318007E2,6.1288E1,4.8277856E2,6.772733E2,1.6541365E2,8.369365E2,8.582873E2,2.3400806E1,1.4062303E2,6.043073E2,7.883905E2,8.415582E2,1.9648568E3,5.308042E2,1.3914276E2,2.5945053E2,2.1293958E3,2.0456503E3,2.8811428E3,4.616018E3,5.347728E3,1.7692451E2,6.193681E0,2.5550848E1,1.4962256E2,1.4542283E1,2.6716368E1,5.2799156E1,8.8652794E1],"tree_param":{"num_deleted":"0","num_feature":"47","num_nodes":"63","size_leaf_vector":"1"}},{"base_weights":[1.8799213E-1,-1.920109E-1,2.7158257E-1,-9.347918E-2,-4.533205E-1,3.2940513E-1,-8.005907E-2,-4.72463E-1,-2.7396966E-2,-5.696718E-1,-7.922715E-2,1.3474645E-1,3.822147E-1,-4.5791316E-1,3.8655344E-2,-8.613487E-1,-2.5349542E-1,-4.4260445E-1,3.4826107E-2,-6.188849E-1,-0E0,-2.3924954E-1,2.4297558E-1,-2.148051E-2,2.4564397E-1,4.6513653E-1,3.0897674E-1,-6.4918387E-1,-2.2615007E-1,-3.098266E-1,1.3002549E-1,-8.963926E-2,-0E0,-1.1446404E-3,-5.667496E-2,-1.0063692E-1,-2.3522602E-2,5.9649185E-3,-5.424904E-2,-2.2054458E-2,-5.7011146E-2,-1.8867342E-2,1.3336598E-2,1.7737722E-2,-3.0639881E-2,3.4978647E-2,-0E0,-3.5908688E-2,6.926882E-4,3.9719276E-2,1.4698987E-2,2.3602791E-2,4.4694707E-2,1.3550901E-2,2.9733896E-2,-5.2741463E-3,-6.1510023E-2,2.6503828E-4,-3.1132417E-2,-3.9463036E-2,-1.1181507E-2,1.5475768E-2,-8.68679E-3],"categories":[],"categories_nodes":[],"categories_segments":[],"categories_sizes":[],"default_left":[0,0,0,0,0,0,1,0,0,0,0,0,0,0,0,1,0,0,1,0,0,0,0,0,0,0,0,0,0,0,0,0,0,0,0,0,0,0,0,0,0,0,0,0,0,0,0,0,0,0,0,0,0,0,0,0,0,0,0,0,0,0,0],"id":2,"left_children":[1,3,5,7,9,11,13,15,17,19,21,23,25,27,29,31,33,35,37,39,41,43,45,47,49,51,53,55,57,59,61,-1,-1,-1,-1,-1,-1,-1,-1,-1,-1,-1,-1,-1,-1,-1,-1,-1,-1,-1,-1,-1,-1,-1,-1,-1,-1,-1,-1,-1,-1,-1,-1],"loss_changes":[8.552134E2,1.20998474E2,4.5029883E2,8.562265E1,5.2584473E1,1.9137646E2,1.4207489E2,3.501082E1,8.1123116E1,2.4134491E1,1.7615349E1,7.2153404E1,8.4509766E1,2.696762E1,7.4432335E1,3.608766E1,3.3828842E1,3.6916954E1,7.237652E1,2.1898224E1,4.5219045E0,1.7734207E1,6.208487E0,2.4454628E1,3.2407608E1,1.0539624E2,6.7184875E1,2.2775894E1,1.6276293E1,1.0637047E1,2.968209E1,0E0,0E0,0E0,0E0,0E0,0E0,0E0,0E0,0E0,0E0,0E0,0E0,0E0,0E0,0E0,0E0,0E0,0E0,0E0,0E0,0E0,0E0,0E0,0E0,0E0,0E0,0E0,0E0,0E0,0E0,0E0,0E0],"parents":[2147483647,0,0,1,1,2,2,3,3,4,4,5,5,6,6,7,7,8,8,9,9,10,10,11,11,12,12,13,13,14,14,15,15,16,16,17,17,18,18,19,19,20,20,21,21,22,22,23,23,24,24,25,25,26,26,27,27,28,28,29,29,30,30],"right_children":[2,4,6,8,10,12,14,16,18,20,22,24,26,28,30,32,34,36,38,40,42,44,46,48,50,52,54,56,58,60,62,-1,-1,-1,-1,-1,-1,-1,-1,-1,-1,-1,-1,-1,-1,-1,-1,-1,-1,-1,-1,-1,-1,-1,-1,-1,-1,-1,-1,-1,-1,-1,-1],"split_conditions":[6E0,2E0,2.7909126E8,7E0,6E0,1E0,4E0,1.1396702E8,6E0,8E0,3.98E2,9E0,1E0,4E0,1.2E1,3.97E2,3.87E2,1E2,1.5E1,6.225428E7,3.87E2,4.022922E7,3E0,5E0,7E0,1.3E1,4E0,2.36E2,1E0,7E0,3E0,-8.963926E-2,-0E0,-1.1446404E-3,-5.667496E-2,-1.0063692E-1,-2.3522602E-2,5.9649185E-3,-5.424904E-2,-2.2054458E-2,-5.7011146E-2,-1.8867342E-2,1.3336598E-2,1.7737722E-2,-3.0639881E-2,3.4978647E-2,-0E0,-3.5908688E-2,6.926882E-4,3.9719276E-2,1.4698987E-2,2.3602791E-2,4.4694707E-2,1.3550901E-2,2.9733896E-2,-5.2741463E-3,-6.1510023E-2,2.6503828E-4,-3.1132417E-2,-3.9463036E-2,-1.1181507E-2,1.5475768E-2,-8.68679E-3],"split_indices":[16,10,0,8,7,42,8,0,11,4,13,16,10,7,11,14,13,13,8,0,13,0,10,8,8,11,7,13,10,4,10,0,0,0,0,0,0,0,0,0,0,0,0,0,0,0,0,0,0,0,0,0,0,0,0,0,0,0,0,0,0,0,0],"split_type":[0,0,0,0,0,0,0,0,0,0,0,0,0,0,0,0,0,0,0,0,0,0,0,0,0,0,0,0,0,0,0,0,0,0,0,0,0,0,0,0,0,0,0,0,0,0,0,0,0,0,0,0,0,0,0,0,0,0,0,0,0,0,0],"sum_hessian":[2.6885514E4,4.832728E3,2.2052785E4,3.5346775E3,1.2980508E3,1.895375E4,3.0990366E3,5.0340335E2,3.0312742E3,9.743944E2,3.2365643E2,4.075574E3,1.4878176E4,7.470747E2,2.3519622E3,1.6229778E2,3.4110556E2,4.007534E2,2.6305208E3,8.872785E2,8.7115875E1,2.3021005E2,9.344639E1,1.6723815E3,2.4031924E3,6.917536E3,7.960639E3,3.8653445E2,3.6054022E2,4.706021E2,1.88136E3,1.2011911E2,4.217866E1,2.385361E2,1.0256945E2,4.486928E1,3.5588412E2,2.5064863E3,1.2403436E2,2.1624924E2,6.710293E2,4.8288124E1,3.882775E1,4.4064487E1,1.8614555E2,5.485866E1,3.858773E1,1.15029366E2,1.557352E3,4.3727234E2,1.96592E3,2.536601E3,4.380935E3,2.553339E3,5.4073003E3,7.801543E1,3.08519E2,1.3882233E2,2.2171791E2,1.9991623E2,2.7068588E2,1.5043224E3,3.770375E2],"tree_param":{"num_deleted":"0","num_feature":"47","num_nodes":"63","size_leaf_vector":"1"}},{"base_weights":[1.6429913E-1,-9.283837E-2,2.992473E-1,-3.6689964E-1,8.394852E-2,4.0947738E-1,-1.3167149E-1,-9.162729E-2,-5.02117E-1,2.9823682E-1,-6.6238865E-2,3.3659953E-1,6.5151304E-1,-0E0,-7.1856266E-1,-2.8791625E-2,-6.628278E-1,-2.3482749E-1,-6.89528E-1,4.148779E-1,1.666415E-1,-1.604981E-1,3.263804E-1,4.2182782E-1,1.5056291E-1,6.650459E-1,-1.3591039E-2,-3.817572E-1,1.10235184E-1,-9.2438483E-1,-1.5450102E-1,-1.3486808E-2,1.8014653E-2,-6.656402E-2,-0E0,-2.4045506E-2,4.3220356E-2,-6.936792E-2,-2.98991E-2,3.6753573E-2,1.2590668E-2,1.6732866E-2,-4.095324E-2,-3.4494158E-2,-7.037866E-3,3.1566285E-2,-0E0,1.4822061E-2,3.894407E-2,-1.4634458E-2,1.8316427E-2,4.4999705E-3,5.43295E-2,9.622095E-3,-1.618395E-2,-6.291214E-2,-1.21638905E-2,1.4970796E-2,-1.8647598E-2,-4.9718402E-2,-9.81272E-2,1.6276192E-2,-2.352773E-2],"categories":[],"categories_nodes":[],"categories_segments":[],"categories_sizes":[],"default_left":[0,0,0,0,0,0,0,0,0,0,0,0,0,1,0,0,0,0,0,0,0,0,1,0,1,0,0,0,0,0,0,0,0,0,0,0,0,0,0,0,0,0,0,0,0,0,0,0,0,0,0,0,0,0,0,0,0,0,0,0,0,0,0],"id":3,"left_children":[1,3,5,7,9,11,13,15,17,19,21,23,25,27,29,31,33,35,37,39,41,43,45,47,49,51,53,55,57,59,61,-1,-1,-1,-1,-1,-1,-1,-1,-1,-1,-1,-1,-1,-1,-1,-1,-1,-1,-1,-1,-1,-1,-1,-1,-1,-1,-1,-1,-1,-1,-1,-1],"loss_changes":[9.205584E2,4.432206E2,8.280491E2,1.2951297E2,1.7953537E2,2.3661938E2,2.7676633E2,3.898121E1,1.1267505E2,3.1158707E1,1.19428825E2,1.6548486E2,3.260742E1,1.2073801E2,6.829666E1,3.955447E1,1.6170864E1,5.251383E1,6.851056E1,9.771866E0,3.206342E1,4.8285095E1,1.6153824E1,1.1028479E2,9.0553276E1,2.6938843E1,2.311452E0,5.3076096E1,6.0477543E1,2.5561249E1,1.082556E1,0E0,0E0,0E0,0E0,0E0,0E0,0E0,0E0,0E0,0E0,0E0,0E0,0E0,0E0,0E0,0E0,0E0,0E0,0E0,0E0,0E0,0E0,0E0,0E0,0E0,0E0,0E0,0E0,0E0,0E0,0E0,0E0],"parents":[2147483647,0,0,1,1,2,2,3,3,4,4,5,5,6,6,7,7,8,8,9,9,10,10,11,11,12,12,13,13,14,14,15,15,16,16,17,17,18,18,19,19,20,20,21,21,22,22,23,23,24,24,25,25,26,26,27,27,28,28,29,29,30,30],"right_children":[2,4,6,8,10,12,14,16,18,20,22,24,26,28,30,32,34,36,38,40,42,44,46,48,50,52,54,56,58,60,62,-1,-1,-1,-1,-1,-1,-1,-1,-1,-1,-1,-1,-1,-1,-1,-1,-1,-1,-1,-1,-1,-1,-1,-1,-1,-1,-1,-1,-1,-1,-1,-1],"split_conditions":[3.471022E7,7E0,2.7016717E8,1E0,6.622676E7,1E0,1.1452225E8,1.5291882E8,6.719537E7,4.567203E6,1E0,1.8486864E8,9E0,4E0,1.7386237E8,2.1322062E7,1E0,1E0,2.3147272E7,3E0,6E0,1E0,2E0,1E0,4E0,9.7E1,5.540752E7,9E0,3E0,1E0,1E0,-1.3486808E-2,1.8014653E-2,-6.656402E-2,-0E0,-2.4045506E-2,4.3220356E-2,-6.936792E-2,-2.98991E-2,3.6753573E-2,1.2590668E-2,1.6732866E-2,-4.095324E-2,-3.4494158E-2,-7.037866E-3,3.1566285E-2,-0E0,1.4822061E-2,3.894407E-2,-1.4634458E-2,1.8316427E-2,4.4999705E-3,5.43295E-2,9.622095E-3,-1.618395E-2,-6.291214E-2,-1.21638905E-2,1.4970796E-2,-1.8647598E-2,-4.9718402E-2,-9.81272E-2,1.6276192E-2,-2.352773E-2],"split_indices":[1,16,0,2,0,12,1,0,0,1,12,0,4,8,1,1,12,12,1,5,10,42,17,42,8,13,1,16,5,41,35,0,0,0,0,0,0,0,0,0,0,0,0,0,0,0,0,0,0,0,0,0,0,0,0,0,0,0,0,0,0,0,0],"split_type":[0,0,0,0,0,0,0,0,0,0,0,0,0,0,0,0,0,0,0,0,0,0,0,0,0,0,0,0,0,0,0,0,0,0,0,0,0,0,0,0,0,0,0,0,0,0,0,0,0,0,0,0,0,0,0,0,0,0,0,0,0,0,0],"sum_hessian":[2.647753E4,9.098642E3,1.7378887E4,3.577447E3,5.521195E3,1.3850322E4,3.5285645E3,1.1978605E3,2.3795864E3,2.2880623E3,3.2331328E3,1.0680062E4,3.1702607E3,2.88243E3,6.461346E2,1.0968257E3,1.01034836E2,1.0020433E3,1.3775432E3,1.1788479E3,1.1092142E3,2.623678E3,6.094548E2,7.2948203E3,3.3852415E3,3.1159006E3,5.436002E1,6.3137744E2,2.2510525E3,4.615334E2,1.8460118E2,7.242147E2,3.7261096E2,8.360131E1,1.7433525E1,9.3462946E2,6.7413826E1,8.525207E2,5.2502246E2,9.731549E2,2.0569298E2,1.056765E3,5.2449165E1,5.232267E2,2.1004512E3,5.139925E2,9.54623E1,1.6379598E3,5.6568604E3,6.322969E2,2.7529446E3,9.372997E1,3.0221707E3,1.5083646E1,3.927637E1,2.1011842E2,4.21259E2,1.8543293E3,3.967232E2,2.5636127E2,2.051721E2,3.887417E1,1.4572702E2],"tree_param":{"num_deleted":"0","num_feature":"47","num_nodes":"63","size_leaf_vector":"1"}},{"base_weights":[1.6613689E-1,-7.1799584E-2,2.8289053E-1,1.6408049E-1,-2.3416011E-1,4.096212E-1,-3.908455E-2,-1.261419E-1,3.0258775E-1,-5.1268065E-1,-9.304166E-2,-1.6763383E-1,4.2944336E-1,4.0865574E-2,-5.394115E-1,1.8631914E-1,-4.1804698E-1,9.969682E-2,4.135622E-1,-6.9092345E-1,-1.8828022E-1,-4.471115E-2,-3.1353134E-1,-3.248256E-2,-6.234969E-1,2.5134772E-1,4.764053E-1,-2.0821075E-1,1.5318471E-1,-6.358326E-1,-0E0,3.461678E-3,3.213423E-2,-5.855292E-2,-8.834273E-3,2.1731086E-2,-3.407641E-3,3.7494417E-2,7.3682466E-3,-3.9861057E-2,-9.475597E-2,1.1242241E-2,-6.1569575E-2,-1.5890973E-2,5.808483E-3,-5.0142914E-2,7.0128366E-3,6.191004E-3,-1.8154016E-2,-7.511446E-2,-0E0,-6.015578E-4,2.4142792E-2,4.1146863E-2,2.23938E-2,-4.7747552E-2,-6.043287E-3,2.3057476E-4,2.5690837E-2,-8.7825246E-2,-3.9532077E-2,-2.0091085E-2,9.068108E-3],"categories":[],"categories_nodes":[],"categories_segments":[],"categories_sizes":[],"default_left":[0,0,0,0,0,1,0,0,0,0,0,0,0,0,0,0,0,0,0,0,0,0,0,0,0,0,0,1,0,0,0,0,0,0,0,0,0,0,0,0,0,0,0,0,0,0,0,0,0,0,0,0,0,0,0,0,0,0,0,0,0,0,0],"id":4,"left_children":[1,3,5,7,9,11,13,15,17,19,21,23,25,27,29,31,33,35,37,39,41,43,45,47,49,51,53,55,57,59,61,-1,-1,-1,-1,-1,-1,-1,-1,-1,-1,-1,-1,-1,-1,-1,-1,-1,-1,-1,-1,-1,-1,-1,-1,-1,-1,-1,-1,-1,-1,-1,-1],"loss_changes":[7.358584E2,3.3364417E2,7.2677344E2,1.434409E2,1.99035E2,1.4812573E2,2.0354109E2,1.0547336E2,5.079091E1,9.312103E1,3.4536217E1,2.1729979E1,9.781616E1,1.20697815E2,3.9334824E1,1.4010666E1,5.2458275E1,2.3223106E1,2.4294647E1,8.879755E1,1.2679797E2,5.301675E1,7.943179E1,8.434276E0,1.6215374E1,3.6798584E1,6.982153E1,6.429933E1,7.422561E1,2.487947E1,2.7179928E0,0E0,0E0,0E0,0E0,0E0,0E0,0E0,0E0,0E0,0E0,0E0,0E0,0E0,0E0,0E0,0E0,0E0,0E0,0E0,0E0,0E0,0E0,0E0,0E0,0E0,0E0,0E0,0E0,0E0,0E0,0E0,0E0],"parents":[2147483647,0,0,1,1,2,2,3,3,4,4,5,5,6,6,7,7,8,8,9,9,10,10,11,11,12,12,13,13,14,14,15,15,16,16,17,17,18,18,19,19,20,20,21,21,22,22,23,23,24,24,25,25,26,26,27,27,28,28,29,29,30,30],"right_children":[2,4,6,8,10,12,14,16,18,20,22,24,26,28,30,32,34,36,38,40,42,44,46,48,50,52,54,56,58,60,62,-1,-1,-1,-1,-1,-1,-1,-1,-1,-1,-1,-1,-1,-1,-1,-1,-1,-1,-1,-1,-1,-1,-1,-1,-1,-1,-1,-1,-1,-1,-1,-1],"split_conditions":[3.151197E7,6.41778E7,2.4702744E8,7E0,6E0,9.7E1,1.1452225E8,4.030317E6,7E0,2.3147272E7,1.6461238E8,7.2E1,1E0,9E0,1.8166555E8,6E0,2.76E2,4.23558E6,8E0,1.02769944E8,2.4508052E7,8.969814E7,2.5522028E7,4.7E1,9E0,2E0,2.0924034E8,4E0,8.34482E7,7E0,7E0,3.461678E-3,3.213423E-2,-5.855292E-2,-8.834273E-3,2.1731086E-2,-3.407641E-3,3.7494417E-2,7.3682466E-3,-3.9861057E-2,-9.475597E-2,1.1242241E-2,-6.1569575E-2,-1.5890973E-2,5.808483E-3,-5.0142914E-2,7.0128366E-3,6.191004E-3,-1.8154016E-2,-7.511446E-2,-0E0,-6.015578E-4,2.4142792E-2,4.1146863E-2,2.23938E-2,-4.7747552E-2,-6.043287E-3,2.3057476E-4,2.5690837E-2,-8.7825246E-2,-3.9532077E-2,-2.0091085E-2,9.068108E-3],"split_indices":[1,0,0,6,16,13,1,1,16,1,0,13,42,16,1,7,13,1,4,0,1,0,1,9,16,7,0,8,1,8,16,0,0,0,0,0,0,0,0,0,0,0,0,0,0,0,0,0,0,0,0,0,0,0,0,0,0,0,0,0,0,0,0],"split_type":[0,0,0,0,0,0,0,0,0,0,0,0,0,0,0,0,0,0,0,0,0,0,0,0,0,0,0,0,0,0,0,0,0,0,0,0,0,0,0,0,0,0,0,0,0,0,0,0,0,0,0,0,0,0,0,0,0,0,0,0,0,0,0],"sum_hessian":[2.6428152E4,8.683526E3,1.7744625E4,3.525094E3,5.1584326E3,1.274461E4,5.0000156E3,1.1250603E3,2.4000337E3,1.7127103E3,3.4457224E3,4.1089117E2,1.2333719E4,4.3076157E3,6.923996E2,5.349635E2,5.9009674E2,8.735554E2,1.5264784E3,1.0870885E3,6.256218E2,2.8571326E3,5.8858984E2,3.3425867E2,7.663252E1,2.6118245E3,9.721895E3,1.3198436E3,2.9877722E3,5.9319116E2,9.920841E1,3.4548615E2,1.8947737E2,2.749958E2,3.1510095E2,4.0998935E2,4.6356607E2,1.2773281E3,2.4915028E2,8.0732684E2,2.7976166E2,3.977204E2,2.2790144E2,1.253435E3,1.6036975E3,3.3516412E2,2.5342572E2,1.9736928E2,1.3688939E2,4.6916183E1,2.9716337E1,4.1587216E2,2.1959521E3,8.0359927E3,1.685902E3,3.146687E2,1.005175E3,1.6057007E3,1.3820715E3,1.1316326E2,4.8002792E2,1.5232185E1,8.397623E1],"tree_param":{"num_deleted":"0","num_feature":"47","num_nodes":"63","size_leaf_vector":"1"}},{"base_weights":[1.521863E-1,-2.0194246E-1,2.3288013E-1,-3.8172662E-1,4.0983018E-2,1.6381909E-1,5.0447744E-1,-5.431846E-1,-1.8270537E-1,1.768524E-1,-5.299972E-1,2.2893365E-1,-9.510292E-2,5.585009E-1,2.7806833E-1,-9.737396E-1,-4.4261593E-1,-5.9885484E-1,-7.997711E-2,-5.2923404E-2,3.508783E-1,-3.1030294E-1,-1.1436919E0,3.7780493E-2,3.511149E-1,-4.4235486E-1,4.763849E-3,3.0418164E-1,6.012334E-1,-0E0,3.8632083E-1,-1.01137444E-1,-2.7045902E-2,-2.1165334E-2,-6.0227178E-2,-1.3021265E-2,-6.6444226E-2,4.522758E-4,-3.714815E-2,-0E0,-4.6245564E-2,5.1537383E-2,2.116532E-2,-4.2256657E-2,4.1224817E-3,-1.0362899E-1,-0E0,1.919521E-2,-8.641893E-3,3.6949992E-2,2.1288678E-2,-2.4264634E-2,-7.826102E-2,-2.191951E-2,8.979892E-3,5.1532174E-3,3.9455764E-2,4.893148E-2,-0E0,-2.2252588E-2,1.2443845E-2,1.5093269E-3,4.1621577E-2],"categories":[],"categories_nodes":[],"categories_segments":[],"categories_sizes":[],"default_left":[0,0,0,0,0,0,0,0,0,0,0,0,0,0,0,0,0,0,0,0,0,0,0,0,0,0,0,0,0,0,0,0,0,0,0,0,0,0,0,0,0,0,0,0,0,0,0,0,0,0,0,0,0,0,0,0,0,0,0,0,0,0,0],"id":5,"left_children":[1,3,5,7,9,11,13,15,17,19,21,23,25,27,29,31,33,35,37,39,41,43,45,47,49,51,53,55,57,59,61,-1,-1,-1,-1,-1,-1,-1,-1,-1,-1,-1,-1,-1,-1,-1,-1,-1,-1,-1,-1,-1,-1,-1,-1,-1,-1,-1,-1,-1,-1,-1,-1],"loss_changes":[7.475396E2,2.1363861E2,3.9489783E2,8.466989E1,1.5794392E2,2.8789462E2,4.6190186E1,5.3717407E1,5.0340904E1,6.885928E1,4.053129E1,3.156153E2,1.2080427E2,3.0353394E1,2.6175606E1,3.716948E1,6.208554E1,1.7479355E1,3.7531174E1,1.7764694E1,1.7456139E1,2.7398903E1,1.1609077E1,1.5956776E2,7.286395E1,4.7310165E1,7.904607E1,2.0710018E1,2.3864502E1,1.13446865E1,2.7842888E1,0E0,0E0,0E0,0E0,0E0,0E0,0E0,0E0,0E0,0E0,0E0,0E0,0E0,0E0,0E0,0E0,0E0,0E0,0E0,0E0,0E0,0E0,0E0,0E0,0E0,0E0,0E0,0E0,0E0,0E0,0E0,0E0],"parents":[2147483647,0,0,1,1,2,2,3,3,4,4,5,5,6,6,7,7,8,8,9,9,10,10,11,11,12,12,13,13,14,14,15,15,16,16,17,17,18,18,19,19,20,20,21,21,22,22,23,23,24,24,25,25,26,26,27,27,28,28,29,29,30,30],"right_children":[2,4,6,8,10,12,14,16,18,20,22,24,26,28,30,32,34,36,38,40,42,44,46,48,50,52,54,56,58,60,62,-1,-1,-1,-1,-1,-1,-1,-1,-1,-1,-1,-1,-1,-1,-1,-1,-1,-1,-1,-1,-1,-1,-1,-1,-1,-1,-1,-1,-1,-1,-1,-1],"split_conditions":[6E0,3.991125E7,1E0,7E0,2.4536494E8,2.5226413E8,2.7016717E8,2.7E1,7E0,6E0,1.0405458E8,3.471022E7,1.2E1,2.1E1,7E0,7E0,1.02769944E8,5.016328E7,2E0,3E0,4.275988E7,7E0,4E0,6.034791E7,1.5072752E8,1.1452225E8,5E0,3.471022E7,9E0,3.2E1,1.4E1,-1.01137444E-1,-2.7045902E-2,-2.1165334E-2,-6.0227178E-2,-1.3021265E-2,-6.6444226E-2,4.522758E-4,-3.714815E-2,-0E0,-4.6245564E-2,5.1537383E-2,2.116532E-2,-4.2256657E-2,4.1224817E-3,-1.0362899E-1,-0E0,1.919521E-2,-8.641893E-3,3.6949992E-2,2.1288678E-2,-2.4264634E-2,-7.826102E-2,-2.191951E-2,8.979892E-3,5.1532174E-3,3.9455764E-2,4.893148E-2,-0E0,-2.2252588E-2,1.2443845E-2,1.5093269E-3,4.1621577E-2],"split_indices":[16,1,12,6,0,0,0,9,11,4,1,1,11,9,6,4,0,0,10,2,1,4,10,0,0,1,6,1,4,9,11,0,0,0,0,0,0,0,0,0,0,0,0,0,0,0,0,0,0,0,0,0,0,0,0,0,0,0,0,0,0,0,0],"split_type":[0,0,0,0,0,0,0,0,0,0,0,0,0,0,0,0,0,0,0,0,0,0,0,0,0,0,0,0,0,0,0,0,0,0,0,0,0,0,0,0,0,0,0,0,0,0,0,0,0,0,0,0,0,0,0,0,0,0,0,0,0,0,0],"sum_hessian":[2.6130268E4,4.8329814E3,2.1297285E4,2.7888262E3,2.0441555E3,1.7008445E4,4.288841E3,1.5147697E3,1.2740564E3,1.664566E3,3.795895E2,1.3609982E4,3.3984624E3,3.4309304E3,8.579105E2,2.61264E2,1.2535057E3,2.3237196E2,1.0416844E3,7.0508624E2,9.594798E2,2.9634082E2,8.324868E1,5.3306685E3,8.279314E3,7.6587805E2,2.6325842E3,5.2391174E2,2.9070188E3,2.4221996E2,6.1569055E2,1.6589206E2,9.537195E1,8.232437E2,4.3026202E2,9.553441E1,1.3683755E2,8.4681976E2,1.9486465E2,6.550549E2,5.0031334E1,1.8621396E2,7.732658E2,1.9217656E2,1.0416426E2,6.930535E1,1.3943334E1,2.246316E3,3.0843525E3,3.4910542E3,4.78826E3,6.296808E2,1.3619727E2,7.134895E2,1.9190948E3,2.5147922E2,2.724325E2,2.8504465E3,5.6572147E1,8.4960754E1,1.572592E2,1.8090088E2,4.3478967E2],"tree_param":{"num_deleted":"0","num_feature":"47","num_nodes":"63","size_leaf_vector":"1"}},{"base_weights":[1.401835E-1,-8.066434E-2,2.4956201E-1,-3.0094877E-1,8.0835305E-2,3.8092822E-1,1.2702132E-2,-5.0741255E-1,-9.525667E-2,2.6341173E-1,-3.9521653E-2,-7.3942676E-2,3.9701033E-1,6.8344764E-2,-3.919137E-1,-8.9127105E-1,-4.167094E-1,-3.981433E-2,-7.9685706E-1,4.0410897E-3,3.7217912E-1,1.2209067E-1,-1.1666052E-1,-4.185436E-1,-0E0,2.5196013E-1,4.378701E-1,-5.4723077E-2,2.268096E-1,-5.096263E-1,1.7146417E-1,-9.065411E-2,-3.821932E-2,-6.032005E-2,-2.5352446E-2,-1.36774555E-2,1.41280005E-2,-7.827632E-2,-0E0,1.3960819E-2,-3.5320055E-2,3.0446889E-2,-3.6688717E-3,1.7717052E-2,-1.6835567E-2,-2.2237089E-2,-2.8181935E-3,-4.4055026E-2,-0E0,-1.4094487E-2,1.1113812E-2,7.0051933E-3,2.6177004E-2,4.0713508E-2,2.894274E-2,-4.1177217E-2,2.267629E-3,5.095814E-2,1.28539875E-2,-4.540334E-2,5.430849E-3,-0E0,2.412672E-2],"categories":[],"categories_nodes":[],"categories_segments":[],"categories_sizes":[],"default_left":[0,0,0,0,0,1,0,0,0,0,0,0,0,0,0,1,0,1,0,0,0,0,0,1,0,0,0,0,0,1,0,0,0,0,0,0,0,0,0,0,0,0,0,0,0,0,0,0,0,0,0,0,0,0,0,0,0,0,0,0,0,0,0],"id":6,"left_children":[1,3,5,7,9,11,13,15,17,19,21,23,25,27,29,31,33,35,37,39,41,43,45,47,49,51,53,55,57,59,61,-1,-1,-1,-1,-1,-1,-1,-1,-1,-1,-1,-1,-1,-1,-1,-1,-1,-1,-1,-1,-1,-1,-1,-1,-1,-1,-1,-1,-1,-1,-1,-1],"loss_changes":[6.255818E2,3.057038E2,5.361084E2,1.5029962E2,1.09643486E2,8.351367E1,1.3786534E2,5.1491943E1,6.649412E1,5.35101E1,3.6935917E1,9.946854E0,5.8613403E1,1.07829124E2,5.17135E1,1.8321411E1,4.117569E1,4.966646E1,1.7491783E1,4.5697674E1,7.852722E0,3.1674976E1,2.4823904E1,5.3227797E0,7.929238E0,2.7565796E1,3.863684E1,1.2082816E2,5.9563988E1,2.4919952E1,4.4466724E0,0E0,0E0,0E0,0E0,0E0,0E0,0E0,0E0,0E0,0E0,0E0,0E0,0E0,0E0,0E0,0E0,0E0,0E0,0E0,0E0,0E0,0E0,0E0,0E0,0E0,0E0,0E0,0E0,0E0,0E0,0E0,0E0],"parents":[2147483647,0,0,1,1,2,2,3,3,4,4,5,5,6,6,7,7,8,8,9,9,10,10,11,11,12,12,13,13,14,14,15,15,16,16,17,17,18,18,19,19,20,20,21,21,22,22,23,23,24,24,25,25,26,26,27,27,28,28,29,29,30,30],"right_children":[2,4,6,8,10,12,14,16,18,20,22,24,26,28,30,32,34,36,38,40,42,44,46,48,50,52,54,56,58,60,62,-1,-1,-1,-1,-1,-1,-1,-1,-1,-1,-1,-1,-1,-1,-1,-1,-1,-1,-1,-1,-1,-1,-1,-1,-1,-1,-1,-1,-1,-1,-1,-1],"split_conditions":[3.0474208E7,7E0,2.2595565E8,7E0,6.135988E7,9.7E1,1.1452225E8,2.7E1,1.5377638E8,7E0,1E0,1E0,1E0,8.426512E7,1.8166555E8,2.57E2,1E0,2.47E2,2E0,9.766287E6,4E0,1.5636022E8,9E0,4.72E2,7.396984E7,6.515653E7,1.54453E8,1E0,8.52997E7,4E0,2.46E2,-9.065411E-2,-3.821932E-2,-6.032005E-2,-2.5352446E-2,-1.36774555E-2,1.41280005E-2,-7.827632E-2,-0E0,1.3960819E-2,-3.5320055E-2,3.0446889E-2,-3.6688717E-3,1.7717052E-2,-1.6835567E-2,-2.2237089E-2,-2.8181935E-3,-4.4055026E-2,-0E0,-1.4094487E-2,1.1113812E-2,7.0051933E-3,2.6177004E-2,4.0713508E-2,2.894274E-2,-4.1177217E-2,2.267629E-3,5.095814E-2,1.28539875E-2,-4.540334E-2,5.430849E-3,-0E0,2.412672E-2],"split_indices":[1,16,0,6,0,13,1,9,0,6,2,10,42,1,1,14,42,15,5,1,2,0,16,15,1,1,0,42,1,2,14,0,0,0,0,0,0,0,0,0,0,0,0,0,0,0,0,0,0,0,0,0,0,0,0,0,0,0,0,0,0,0,0],"split_type":[0,0,0,0,0,0,0,0,0,0,0,0,0,0,0,0,0,0,0,0,0,0,0,0,0,0,0,0,0,0,0,0,0,0,0,0,0,0,0,0,0,0,0,0,0,0,0,0,0,0,0,0,0,0,0,0,0,0,0,0,0,0,0],"sum_hessian":[2.5839654E4,8.541233E3,1.7298422E4,3.6256353E3,4.9155986E3,1.1107423E4,6.190999E3,1.788497E3,1.8371384E3,1.968746E3,2.9468523E3,3.6546814E2,1.0741954E4,5.461932E3,7.2906683E2,3.1455624E2,1.4739407E3,1.7190187E3,1.1811969E2,6.006552E2,1.3680908E3,9.252977E2,2.0215547E3,5.9796276E1,3.0567188E2,2.4068718E3,8.335082E3,3.0561682E3,2.405764E3,6.1257245E2,1.16494385E2,1.781356E2,1.3642064E2,3.044894E2,1.1694513E3,1.0879589E3,6.310599E2,9.291698E1,2.5202715E1,4.4795282E2,1.527024E2,1.3513362E3,1.6754576E1,7.27492E2,1.9780574E2,6.427811E2,1.3787736E3,4.800033E1,1.1795944E1,1.3061487E2,1.7505699E2,7.963594E2,1.6105125E3,4.1492236E3,4.185859E3,4.7044565E2,2.5857227E3,3.0669742E2,2.0990664E3,5.643982E2,4.8174244E1,3.6491432E1,8.000295E1],"tree_param":{"num_deleted":"0","num_feature":"47","num_nodes":"63","size_leaf_vector":"1"}},{"base_weights":[1.2971076E-1,5.8187656E-2,4.482435E-1,-1.957988E-1,1.2484505E-1,1.5669431E-1,5.146786E-1,-7.5109965E-1,-1.5227321E-1,1.6995223E-1,-1.2894337E-1,2.6334506E-1,-1.8349904E-1,5.79829E-1,3.2954592E-1,-8.654814E-1,-0E0,3.0525658E-1,-2.0224015E-1,3.0531373E-2,2.3415439E-1,-3.7054694E-1,2.5903855E-2,4.5654327E-1,3.51765E-2,4.3292712E-2,-5.0986737E-1,3.9128038E-1,6.2547374E-1,-6.432395E-2,3.5785663E-1,-9.165492E-2,-2.7445434E-2,1.345908E-2,-2.3045832E-2,2.823329E-2,-9.8683555E-3,-1.1176934E-2,-4.4853967E-2,8.86322E-3,-2.582609E-2,-7.396366E-3,2.227074E-2,-4.9552497E-2,-2.1442495E-2,-1.5644135E-2,9.528451E-3,-0E0,4.241654E-2,2.0474568E-2,-3.7599213E-2,-3.1412266E-2,2.3286626E-2,-0E0,-4.740578E-2,-1.0756329E-2,3.273711E-2,7.832324E-3,5.1132664E-2,1.6681306E-3,-2.9932495E-2,6.2472355E-3,3.2391485E-2],"categories":[],"categories_nodes":[],"categories_segments":[],"categories_sizes":[],"default_left":[0,0,0,1,0,0,0,0,0,0,0,0,0,0,0,0,0,0,0,0,0,0,0,0,0,0,1,0,0,0,0,0,0,0,0,0,0,0,0,0,0,0,0,0,0,0,0,0,0,0,0,0,0,0,0,0,0,0,0,0,0,0,0],"id":7,"left_children":[1,3,5,7,9,11,13,15,17,19,21,23,25,27,29,31,33,35,37,39,41,43,45,47,49,51,53,55,57,59,61,-1,-1,-1,-1,-1,-1,-1,-1,-1,-1,-1,-1,-1,-1,-1,-1,-1,-1,-1,-1,-1,-1,-1,-1,-1,-1,-1,-1,-1,-1,-1,-1],"loss_changes":[5.8418286E2,3.5671423E2,8.6522156E1,9.91376E1,1.9188516E2,3.3683E1,3.8910828E1,2.7587753E1,9.298066E1,1.25666046E2,9.60077E1,2.7980145E1,1.834134E1,1.575885E1,1.353344E1,2.7136383E1,2.536729E0,1.0017876E1,7.750989E1,1.2847102E2,1.4512964E2,1.857985E1,3.1411535E1,1.5528412E1,3.875119E1,1.3389387E1,7.120451E0,8.215149E0,1.3754578E1,3.8634787E0,1.0164757E1,0E0,0E0,0E0,0E0,0E0,0E0,0E0,0E0,0E0,0E0,0E0,0E0,0E0,0E0,0E0,0E0,0E0,0E0,0E0,0E0,0E0,0E0,0E0,0E0,0E0,0E0,0E0,0E0,0E0,0E0,0E0,0E0],"parents":[2147483647,0,0,1,1,2,2,3,3,4,4,5,5,6,6,7,7,8,8,9,9,10,10,11,11,12,12,13,13,14,14,15,15,16,16,17,17,18,18,19,19,20,20,21,21,22,22,23,23,24,24,25,25,26,26,27,27,28,28,29,29,30,30],"right_children":[2,4,6,8,10,12,14,16,18,20,22,24,26,28,30,32,34,36,38,40,42,44,46,48,50,52,54,56,58,60,62,-1,-1,-1,-1,-1,-1,-1,-1,-1,-1,-1,-1,-1,-1,-1,-1,-1,-1,-1,-1,-1,-1,-1,-1,-1,-1,-1,-1,-1,-1,-1,-1],"split_conditions":[1E0,6E0,2.4E1,1E2,2.7699085E8,2.4012146E8,2.4702744E8,3E0,1E0,7E0,1.5E1,8E0,3.22E2,1.2E1,8E0,4E0,2.84E2,3E0,1.7990016E8,2E0,9E0,1E0,7E0,8E1,9.48753E7,8E0,8.6E1,8.6E1,9.7E1,4.4E1,8E0,-9.165492E-2,-2.7445434E-2,1.345908E-2,-2.3045832E-2,2.823329E-2,-9.8683555E-3,-1.1176934E-2,-4.4853967E-2,8.86322E-3,-2.582609E-2,-7.396366E-3,2.227074E-2,-4.9552497E-2,-2.1442495E-2,-1.5644135E-2,9.528451E-3,-0E0,4.241654E-2,2.0474568E-2,-3.7599213E-2,-3.1412266E-2,2.3286626E-2,-0E0,-4.740578E-2,-1.0756329E-2,3.273711E-2,7.832324E-3,5.1132664E-2,1.6681306E-3,-2.9932495E-2,6.2472355E-3,3.2391485E-2],"split_indices":[12,16,9,13,0,0,0,35,35,6,11,6,13,11,11,7,14,2,0,6,11,42,6,14,0,16,15,15,13,9,16,0,0,0,0,0,0,0,0,0,0,0,0,0,0,0,0,0,0,0,0,0,0,0,0,0,0,0,0,0,0,0,0],"split_type":[0,0,0,0,0,0,0,0,0,0,0,0,0,0,0,0,0,0,0,0,0,0,0,0,0,0,0,0,0,0,0,0,0,0,0,0,0,0,0,0,0,0,0,0,0,0,0,0,0,0,0,0,0,0,0,0,0,0,0,0,0,0,0],"sum_hessian":[2.5776676E4,2.1073879E4,4.702797E3,4.358729E3,1.671515E4,8.9494147E2,3.8078555E3,2.9653964E2,4.0621895E3,1.4215161E4,2.4999883E3,6.962839E2,1.9865764E2,2.7789658E3,1.0288898E3,2.5802963E2,3.8510033E1,3.8375095E2,3.6784385E3,4.515581E3,9.69958E3,9.8690533E2,1.5130829E3,3.5807376E2,3.3821008E2,1.1077442E2,8.7883224E1,5.834553E2,2.1955105E3,5.4017494E1,9.748723E2,1.5266222E2,1.0536741E2,3.0035269E1,8.474765E0,3.5833994E2,2.5410997E1,3.1632944E3,5.1514417E2,3.6972236E3,8.183575E2,1.1629961E3,8.536584E3,2.5414143E2,7.327639E2,4.2680524E2,1.0862777E3,4.2080418E1,3.1599335E2,2.4651855E2,9.169153E1,2.9580359E1,8.119406E1,5.490146E0,8.2393074E1,8.001421E0,5.754539E2,7.808472E1,2.1174258E3,3.3584854E1,2.043264E1,1.6606712E2,8.088052E2],"tree_param":{"num_deleted":"0","num_feature":"47","num_nodes":"63","size_leaf_vector":"1"}},{"base_weights":[1.1113693E-1,4.1337494E-2,4.2174694E-1,-1.0611402E-1,1.5177575E-1,1.7836879E-1,4.7744223E-1,-3.0467778E-1,2.2767104E-2,2.6810792E-1,-1.420727E-1,2.3812251E-1,-7.7299885E-2,5.3899187E-1,2.561953E-1,-5.4387003E-1,-2.1835631E-1,2.5791618E-1,-7.894317E-2,5.770628E-1,2.3453142E-1,-6.3888766E-2,-4.9871767E-1,3.603448E-1,5.9119467E-2,2.4062468E-2,-2.835509E-1,5.523221E-1,-2.905369E-2,3.2528377E-1,-8.554097E-2,-4.7307294E-2,-0E0,-9.655632E-3,-3.3937734E-2,3.4441356E-2,1.1715845E-2,-3.65346E-2,-3.5243433E-3,4.7999874E-2,2.5243515E-3,4.9834996E-3,2.5901489E-2,8.6265616E-5,-2.2665132E-2,-5.4585848E-2,-5.911916E-3,3.4984253E-2,-0E0,2.1636693E-2,-1.5694214E-2,-6.661494E-3,1.7045157E-2,-3.6180142E-2,-0E0,1.6586803E-2,4.5543864E-2,1.2095089E-2,-2.5347421E-2,3.0572137E-2,-0E0,-4.8659876E-2,-0E0],"categories":[],"categories_nodes":[],"categories_segments":[],"categories_sizes":[],"default_left":[0,0,0,0,0,0,0,0,0,0,0,0,0,0,0,0,0,0,1,0,0,0,0,0,0,0,0,0,0,0,0,0,0,0,0,0,0,0,0,0,0,0,0,0,0,0,0,0,0,0,0,0,0,0,0,0,0,0,0,0,0,0,0],"id":8,"left_children":[1,3,5,7,9,11,13,15,17,19,21,23,25,27,29,31,33,35,37,39,41,43,45,47,49,51,53,55,57,59,61,-1,-1,-1,-1,-1,-1,-1,-1,-1,-1,-1,-1,-1,-1,-1,-1,-1,-1,-1,-1,-1,-1,-1,-1,-1,-1,-1,-1,-1,-1,-1,-1],"loss_changes":[5.4870337E2,3.3914166E2,5.8375977E1,2.2924763E2,4.0856216E2,1.4879141E1,4.5230103E1,6.702362E1,1.2993427E2,8.2716064E1,9.035719E1,1.3721493E1,4.9226027E0,2.534076E1,2.1896732E1,2.7948395E1,4.9062126E1,2.774694E1,4.614114E1,7.244812E0,1.1810651E2,4.166625E1,4.1730453E1,1.3097496E1,1.912737E1,2.8669324E0,4.1451583E0,1.312085E1,4.797581E0,1.3259453E1,6.710214E0,0E0,0E0,0E0,0E0,0E0,0E0,0E0,0E0,0E0,0E0,0E0,0E0,0E0,0E0,0E0,0E0,0E0,0E0,0E0,0E0,0E0,0E0,0E0,0E0,0E0,0E0,0E0,0E0,0E0,0E0,0E0,0E0],"parents":[2147483647,0,0,1,1,2,2,3,3,4,4,5,5,6,6,7,7,8,8,9,9,10,10,11,11,12,12,13,13,14,14,15,15,16,16,17,17,18,18,19,19,20,20,21,21,22,22,23,23,24,24,25,25,26,26,27,27,28,28,29,29,30,30],"right_children":[2,4,6,8,10,12,14,16,18,20,22,24,26,28,30,32,34,36,38,40,42,44,46,48,50,52,54,56,58,60,62,-1,-1,-1,-1,-1,-1,-1,-1,-1,-1,-1,-1,-1,-1,-1,-1,-1,-1,-1,-1,-1,-1,-1,-1,-1,-1,-1,-1,-1,-1,-1,-1],"split_conditions":[1E0,4.0440212E7,2.4E1,7E0,2.4346018E8,2.7389386E8,2.610019E8,3.2E1,5.249418E7,4.275988E7,1.25482856E8,4E0,2.62E2,9E0,3E0,8E0,4E0,2.532438E6,7.9E1,6.8E1,7.183159E7,3E0,1.7386237E8,2E0,9.3639096E7,2E0,7E0,7.9E1,4E0,2E0,5E0,-4.7307294E-2,-0E0,-9.655632E-3,-3.3937734E-2,3.4441356E-2,1.1715845E-2,-3.65346E-2,-3.5243433E-3,4.7999874E-2,2.5243515E-3,4.9834996E-3,2.5901489E-2,8.6265616E-5,-2.2665132E-2,-5.4585848E-2,-5.911916E-3,3.4984253E-2,-0E0,2.1636693E-2,-1.5694214E-2,-6.661494E-3,1.7045157E-2,-3.6180142E-2,-0E0,1.6586803E-2,4.5543864E-2,1.2095089E-2,-2.5347421E-2,3.0572137E-2,-0E0,-4.8659876E-2,-0E0],"split_indices":[12,1,9,6,0,0,0,9,0,1,1,5,14,4,5,7,6,1,14,9,1,5,1,18,0,6,4,14,7,18,4,0,0,0,0,0,0,0,0,0,0,0,0,0,0,0,0,0,0,0,0,0,0,0,0,0,0,0,0,0,0,0,0],"split_type":[0,0,0,0,0,0,0,0,0,0,0,0,0,0,0,0,0,0,0,0,0,0,0,0,0,0,0,0,0,0,0,0,0,0,0,0,0,0,0,0,0,0,0,0,0,0,0,0,0,0,0,0,0,0,0,0,0,0,0,0,0,0,0],"sum_hessian":[2.543543E4,2.0792227E4,4.643204E3,8.88086E3,1.1911365E4,8.915658E2,3.7516382E3,3.5091833E3,5.3716772E3,8.548358E3,3.3630073E3,7.422079E2,1.4935793E2,2.904118E3,8.4752026E2,8.999408E2,2.6092424E3,1.6357369E3,3.7359404E3,8.066554E2,7.7417026E3,2.7805276E3,5.824796E2,4.1588522E2,3.2632266E2,8.5730255E1,6.362767E1,2.8481045E3,5.6013382E1,7.199724E2,1.2754782E2,8.333738E2,6.656704E1,1.8059473E3,8.0329517E2,6.053497E2,1.0303872E3,2.897814E2,3.446159E3,7.5958276E2,4.7072617E1,2.696585E3,5.0451177E3,2.1333245E3,6.4720306E2,3.9134464E2,1.91135E2,3.453768E2,7.050842E1,1.9092146E2,1.3540121E2,3.7589844E1,4.814041E1,3.9650562E1,2.3977108E1,1.7213394E2,2.6759705E3,2.4190336E1,3.1823044E1,6.0532935E2,1.1464311E2,1.2010688E1,1.1553713E2],"tree_param":{"num_deleted":"0","num_feature":"47","num_nodes":"63","size_leaf_vector":"1"}},{"base_weights":[1.0943377E-1,-7.528061E-2,2.0382965E-1,1.0644573E-1,-1.7937851E-1,3.266924E-1,2.3137879E-2,2.7880695E-1,-2.5022415E-2,2.4903856E-2,-2.813086E-1,-1.2054077E-1,3.4362867E-1,-1.4162374E-1,1.7178658E-1,5.53577E-3,3.8861808E-1,-1.41427E-1,3.1539485E-1,-2.851058E-1,1.2361934E-1,-6.150794E-1,-2.1315649E-1,-2.786551E-1,1.4781874E-1,2.1132395E-1,3.984827E-1,-7.946321E-2,-7.172854E-1,-1.0702921E-1,2.9437473E-1,-2.5112592E-2,8.258726E-3,-5.9741256E-3,3.442724E-2,-4.2646546E-2,-9.977487E-4,3.505022E-2,1.0025549E-3,-4.383562E-2,-0E0,1.7790746E-2,-1.7708959E-2,-6.598291E-2,-2.4286274E-2,-5.5473953E-2,-1.4524199E-2,-2.7840119E-2,-0E0,1.9538924E-2,-8.293091E-3,-3.8245212E-2,1.787538E-2,4.1471973E-2,2.4261497E-2,-3.6818776E-3,-7.4692905E-2,-0E0,-5.970412E-2,-2.785442E-2,2.0955135E-3,2.4966733E-3,2.5932774E-2],"categories":[],"categories_nodes":[],"categories_segments":[],"categories_sizes":[],"default_left":[0,0,0,0,0,1,0,0,0,0,1,0,0,0,0,1,0,0,0,0,0,0,0,0,1,0,0,1,0,0,0,0,0,0,0,0,0,0,0,0,0,0,0,0,0,0,0,0,0,0,0,0,0,0,0,0,0,0,0,0,0,0,0],"id":9,"left_children":[1,3,5,7,9,11,13,15,17,19,21,23,25,27,29,31,33,35,37,39,41,43,45,47,49,51,53,55,57,59,61,-1,-1,-1,-1,-1,-1,-1,-1,-1,-1,-1,-1,-1,-1,-1,-1,-1,-1,-1,-1,-1,-1,-1,-1,-1,-1,-1,-1,-1,-1,-1,-1],"loss_changes":[4.4412354E2,1.6294601E2,3.718239E2,7.2055695E1,1.1571907E2,7.75E1,1.6810101E2,3.860765E1,6.878052E1,5.480586E1,7.751523E1,1.6359316E1,6.569287E1,1.1041691E2,1.2522892E2,1.209897E1,2.1703217E1,6.3893642E1,1.3660313E1,2.9603222E1,4.851483E1,3.0896515E1,3.9613586E1,5.1292496E0,4.1225705E0,2.5234116E1,7.1461426E1,7.7524414E1,1.0717285E1,3.751384E1,1.8446976E1,0E0,0E0,0E0,0E0,0E0,0E0,0E0,0E0,0E0,0E0,0E0,0E0,0E0,0E0,0E0,0E0,0E0,0E0,0E0,0E0,0E0,0E0,0E0,0E0,0E0,0E0,0E0,0E0,0E0,0E0,0E0,0E0],"parents":[2147483647,0,0,1,1,2,2,3,3,4,4,5,5,6,6,7,7,8,8,9,9,10,10,11,11,12,12,13,13,14,14,15,15,16,16,17,17,18,18,19,19,20,20,21,21,22,22,23,23,24,24,25,25,26,26,27,27,28,28,29,29,30,30],"right_children":[2,4,6,8,10,12,14,16,18,20,22,24,26,28,30,32,34,36,38,40,42,44,46,48,50,52,54,56,58,60,62,-1,-1,-1,-1,-1,-1,-1,-1,-1,-1,-1,-1,-1,-1,-1,-1,-1,-1,-1,-1,-1,-1,-1,-1,-1,-1,-1,-1,-1,-1,-1,-1],"split_conditions":[3.0474208E7,6.034791E7,2.1310597E8,3.611988E6,1E0,9.7E1,1.6E1,1.1E1,8E0,1.1E1,8.7E1,3E0,1.2E1,1.25482856E8,7E0,8.7E1,3E1,3E0,2.4271192E7,2.1322062E7,1.5008163E8,2E0,1.2E1,1.7758984E8,4.07E2,8.3E1,1E0,3E0,4.1E1,3.5E1,2E0,-2.5112592E-2,8.258726E-3,-5.9741256E-3,3.442724E-2,-4.2646546E-2,-9.977487E-4,3.505022E-2,1.0025549E-3,-4.383562E-2,-0E0,1.7790746E-2,-1.7708959E-2,-6.598291E-2,-2.4286274E-2,-5.5473953E-2,-1.4524199E-2,-2.7840119E-2,-0E0,1.9538924E-2,-8.293091E-3,-3.8245212E-2,1.787538E-2,4.1471973E-2,2.4261497E-2,-3.6818776E-3,-7.4692905E-2,-0E0,-5.970412E-2,-2.785442E-2,2.0955135E-3,2.4966733E-3,2.5932774E-2],"split_indices":[1,0,0,1,2,13,11,11,6,11,15,10,11,1,6,15,9,7,1,1,0,35,9,0,15,15,10,2,13,9,2,0,0,0,0,0,0,0,0,0,0,0,0,0,0,0,0,0,0,0,0,0,0,0,0,0,0,0,0,0,0,0,0],"split_type":[0,0,0,0,0,0,0,0,0,0,0,0,0,0,0,0,0,0,0,0,0,0,0,0,0,0,0,0,0,0,0,0,0,0,0,0,0,0,0,0,0,0,0,0,0,0,0,0,0,0,0,0,0,0,0,0,0,0,0,0,0,0,0],"sum_hessian":[2.5410635E4,8.573004E3,1.683763E4,3.1012058E3,5.471798E3,9.998682E3,6.838949E3,1.3574893E3,1.7437166E3,1.8039646E3,3.667833E3,3.499398E2,9.648742E3,3.2246873E3,3.6142622E3,4.074271E2,9.5006213E2,1.3163258E3,4.2739072E2,4.1703622E2,1.3869283E3,5.9519257E2,3.0726404E3,2.3408714E2,1.1585265E2,2.8723723E3,6.7763696E3,2.9287395E3,2.9594778E2,1.0891495E3,2.5251125E3,7.659837E1,3.3082874E2,6.888358E1,8.811785E2,3.0645285E2,1.009873E3,2.8608234E2,1.4130836E2,2.0355505E2,2.1348117E2,1.0926427E3,2.9428564E2,3.3297708E2,2.6221548E2,1.619131E2,2.9107273E3,1.8782559E2,4.6261543E1,1.0093695E2,1.4915701E1,3.8642982E1,2.8337292E3,2.9062666E3,3.8701033E3,2.8349414E3,9.3798225E1,6.2749443E0,2.8967282E2,3.974044E2,6.917451E2,2.8870047E2,2.236412E3],"tree_param":{"num_deleted":"0","num_feature":"47","num_nodes":"63","size_leaf_vector":"1"}},{"base_weights":[1.0448276E-1,-1.37249E-1,1.6335642E-1,-2.6951233E-1,4.757692E-2,-1.18355714E-1,1.971292E-1,-1.4664277E-1,-5.4247606E-1,2.2616665E-1,-2.26338E-1,-3.3082735E-2,-4.9262762E-1,6.4323224E-2,2.603441E-1,-9.296752E-1,-1.129785E-1,-9.622953E-1,-2.885375E-1,-1.1982618E-1,2.8290316E-1,1.7199035E-1,-3.694405E-1,-2.7110422E-1,4.3867685E-2,-8.2577616E-1,-3.112831E-1,9.302506E-2,-4.7365117E-1,1.4467397E-1,3.269028E-1,-0E0,-9.1131836E-2,1.0144943E-2,-1.6315363E-2,-8.201223E-2,-0E0,1.3461976E-3,-5.359392E-2,-0E0,-6.66491E-2,4.442861E-2,1.3571427E-2,2.8745428E-2,-9.811787E-3,-1.0051771E-2,-4.7408063E-2,-4.560201E-2,-7.0108054E-3,-1.9010492E-2,7.1718707E-3,-0E0,-7.36761E-2,-2.9924707E-2,-0E0,1.2690984E-2,-8.702564E-3,4.454299E-3,-4.988988E-2,1.5267845E-2,-1.0427362E-2,2.0870624E-2,3.487164E-2],"categories":[],"categories_nodes":[],"categories_segments":[],"categories_sizes":[],"default_left":[0,0,0,0,0,0,0,1,0,0,0,0,0,0,0,0,0,0,0,0,0,0,0,0,0,0,0,0,0,0,0,0,0,0,0,0,0,0,0,0,0,0,0,0,0,0,0,0,0,0,0,0,0,0,0,0,0,0,0,0,0,0,0],"id":10,"left_children":[1,3,5,7,9,11,13,15,17,19,21,23,25,27,29,31,33,35,37,39,41,43,45,47,49,51,53,55,57,59,61,-1,-1,-1,-1,-1,-1,-1,-1,-1,-1,-1,-1,-1,-1,-1,-1,-1,-1,-1,-1,-1,-1,-1,-1,-1,-1,-1,-1,-1,-1,-1,-1],"loss_changes":[3.596402E2,1.2194068E2,1.940553E2,9.2208115E1,1.0045203E2,6.570557E1,1.5046149E2,4.613028E1,8.3861084E1,2.591343E1,4.721986E1,3.4132565E1,1.4349319E1,8.923184E1,9.128241E1,1.8007309E1,4.3813026E1,2.0088959E1,7.08194E1,1.3334658E1,2.8686974E1,1.3267894E1,2.7973923E1,2.0739109E1,1.6695965E1,1.4593941E1,6.0838814E0,7.572832E1,2.7109589E1,5.9164093E1,5.0592896E1,0E0,0E0,0E0,0E0,0E0,0E0,0E0,0E0,0E0,0E0,0E0,0E0,0E0,0E0,0E0,0E0,0E0,0E0,0E0,0E0,0E0,0E0,0E0,0E0,0E0,0E0,0E0,0E0,0E0,0E0,0E0,0E0],"parents":[2147483647,0,0,1,1,2,2,3,3,4,4,5,5,6,6,7,7,8,8,9,9,10,10,11,11,12,12,13,13,14,14,15,15,16,16,17,17,18,18,19,19,20,20,21,21,22,22,23,23,24,24,25,25,26,26,27,27,28,28,29,29,30,30],"right_children":[2,4,6,8,10,12,14,16,18,20,22,24,26,28,30,32,34,36,38,40,42,44,46,48,50,52,54,56,58,60,62,-1,-1,-1,-1,-1,-1,-1,-1,-1,-1,-1,-1,-1,-1,-1,-1,-1,-1,-1,-1,-1,-1,-1,-1,-1,-1,-1,-1,-1,-1,-1,-1],"split_conditions":[6E0,3.9030292E7,9E0,1.02769944E8,1.7869914E8,2.5750363E8,7E0,9.7E1,2.3147272E7,7E0,4.3183396E7,6E0,2E0,3.6E1,1.5E1,1.186587E6,3.90747E7,2.5E1,2.475692E7,4E0,9E0,9E0,1E0,1.19839624E8,8.7E1,5.5E1,5E0,2.311667E8,2.52E2,2.8269555E8,8.426512E7,-0E0,-9.1131836E-2,1.0144943E-2,-1.6315363E-2,-8.201223E-2,-0E0,1.3461976E-3,-5.359392E-2,-0E0,-6.66491E-2,4.442861E-2,1.3571427E-2,2.8745428E-2,-9.811787E-3,-1.0051771E-2,-4.7408063E-2,-4.560201E-2,-7.0108054E-3,-1.9010492E-2,7.1718707E-3,-0E0,-7.36761E-2,-2.9924707E-2,-0E0,1.2690984E-2,-8.702564E-3,4.454299E-3,-4.988988E-2,1.5267845E-2,-1.0427362E-2,2.0870624E-2,3.487164E-2],"split_indices":[16,1,11,0,0,0,6,13,1,8,1,11,7,11,11,1,0,11,1,5,8,8,10,0,15,14,7,0,13,0,1,0,0,0,0,0,0,0,0,0,0,0,0,0,0,0,0,0,0,0,0,0,0,0,0,0,0,0,0,0,0,0,0],"split_type":[0,0,0,0,0,0,0,0,0,0,0,0,0,0,0,0,0,0,0,0,0,0,0,0,0,0,0,0,0,0,0,0,0,0,0,0,0,0,0,0,0,0,0,0,0,0,0,0,0,0,0,0,0,0,0,0,0,0,0,0,0,0,0],"sum_hessian":[2.5237145E4,4.9204453E3,2.03167E4,2.884689E3,2.0357563E3,2.1535334E3,1.8163166E4,2.0136296E3,8.710594E2,1.2465048E3,7.8925165E2,1.7746842E3,3.7884915E2,5.893755E3,1.2269412E4,6.613797E1,1.9474917E3,3.1027216E2,5.6078723E2,1.5932362E2,1.087181E3,1.9703738E2,5.922143E2,4.473177E2,1.3273666E3,1.1099986E2,2.678493E2,5.6126494E3,2.8110565E2,4.5244067E3,7.745005E3,1.1588635E1,5.4549335E1,5.1910333E2,1.4283883E3,2.8918777E2,2.1084368E1,3.0822388E2,2.5256335E2,1.454713E2,1.3852313E1,2.9071426E2,7.964668E2,1.3143668E2,6.560071E1,3.0413345E2,2.880808E2,1.4979602E2,2.9752167E2,1.6298349E2,1.164383E3,7.1123705E0,1.038875E2,2.2451741E2,4.333189E1,4.251893E3,1.3607563E3,5.5218834E1,2.2588681E2,3.8870996E3,6.3730725E2,4.931181E3,2.8138235E3],"tree_param":{"num_deleted":"0","num_feature":"47","num_nodes":"63","size_leaf_vector":"1"}},{"base_weights":[9.1753684E-2,2.9464329E-2,3.789059E-1,-1.7345008E-1,8.7259874E-2,3.2723542E-2,4.0883186E-1,-4.9777806E-1,-1.1488093E-1,-5.4070447E-2,1.6617775E-1,3.5453263E-1,-2.0517239E-1,-0E0,4.2287692E-1,-7.31196E-1,-2.72412E-1,-1.4851768E-1,2.5737628E-1,-2.0393836E-1,5.1349692E-2,1.9378951E-1,-3.9956596E-1,5.782355E-1,3.8279645E-2,-6.378619E-1,2.3265634E-2,1.4034554E-1,-5.6269336E-1,2.573495E-1,4.544716E-1,-7.770034E-2,-2.8676085E-2,-2.7056554E-2,4.1326964E-3,-6.221291E-3,-3.254004E-2,-4.394597E-3,2.5513431E-2,-4.044802E-2,-9.945476E-3,-1.2051189E-2,9.939757E-3,-5.99202E-3,1.8077137E-2,-4.30685E-2,1.0876147E-2,5.0896227E-2,-0E0,-1.107242E-2,1.7268509E-2,1.1539246E-2,-6.999072E-2,2.8681217E-2,-5.390699E-3,-1.3265354E-2,2.2451682E-2,-7.78963E-2,-0E0,-1.8502688E-2,2.3673126E-2,3.695969E-2,-0E0],"categories":[],"categories_nodes":[],"categories_segments":[],"categories_sizes":[],"default_left":[0,0,0,1,0,0,0,0,0,0,0,1,0,0,0,1,0,0,0,1,0,0,0,1,0,0,0,0,0,0,0,0,0,0,0,0,0,0,0,0,0,0,0,0,0,0,0,0,0,0,0,0,0,0,0,0,0,0,0,0,0,0,0],"id":11,"left_children":[1,3,5,7,9,11,13,15,17,19,21,23,25,27,29,31,33,35,37,39,41,43,45,47,49,51,53,55,57,59,61,-1,-1,-1,-1,-1,-1,-1,-1,-1,-1,-1,-1,-1,-1,-1,-1,-1,-1,-1,-1,-1,-1,-1,-1,-1,-1,-1,-1,-1,-1,-1,-1],"loss_changes":[4.441685E2,2.4061281E2,4.3165222E1,8.1975266E1,1.794653E2,3.0481922E1,2.3520264E1,2.7773514E1,4.8118107E1,9.138728E1,1.605073E2,8.459078E0,2.479739E1,1.2130045E1,1.5263367E1,1.7324127E1,9.943539E0,6.211254E1,7.8061314E0,5.301821E1,4.967095E1,8.857489E1,3.874465E1,2.1218243E0,3.6612608E0,2.1072392E1,6.1950793E0,6.325026E0,5.606001E0,1.4210682E1,1.4088928E1,0E0,0E0,0E0,0E0,0E0,0E0,0E0,0E0,0E0,0E0,0E0,0E0,0E0,0E0,0E0,0E0,0E0,0E0,0E0,0E0,0E0,0E0,0E0,0E0,0E0,0E0,0E0,0E0,0E0,0E0,0E0,0E0],"parents":[2147483647,0,0,1,1,2,2,3,3,4,4,5,5,6,6,7,7,8,8,9,9,10,10,11,11,12,12,13,13,14,14,15,15,16,16,17,17,18,18,19,19,20,20,21,21,22,22,23,23,24,24,25,25,26,26,27,27,28,28,29,29,30,30],"right_children":[2,4,6,8,10,12,14,16,18,20,22,24,26,28,30,32,34,36,38,40,42,44,46,48,50,52,54,56,58,60,62,-1,-1,-1,-1,-1,-1,-1,-1,-1,-1,-1,-1,-1,-1,-1,-1,-1,-1,-1,-1,-1,-1,-1,-1,-1,-1,-1,-1,-1,-1,-1,-1],"split_conditions":[1E0,1E0,1E1,8.7E1,2.9200698E7,1E0,9.7E1,3.219264E7,6E0,7E0,1.25482856E8,2.79E2,6E0,3E0,1.1E1,2.6E2,4E0,3E0,3.6E1,8.8E1,3.2000008E1,4E0,1.8166555E8,4.79E2,1E1,2E0,1.1E1,1E0,4.7E1,3E0,9E0,-7.770034E-2,-2.8676085E-2,-2.7056554E-2,4.1326964E-3,-6.221291E-3,-3.254004E-2,-4.394597E-3,2.5513431E-2,-4.044802E-2,-9.945476E-3,-1.2051189E-2,9.939757E-3,-5.99202E-3,1.8077137E-2,-4.30685E-2,1.0876147E-2,5.0896227E-2,-0E0,-1.107242E-2,1.7268509E-2,1.1539246E-2,-6.999072E-2,2.8681217E-2,-5.390699E-3,-1.3265354E-2,2.2451682E-2,-7.78963E-2,-0E0,-1.8502688E-2,2.3673126E-2,3.695969E-2,-0E0],"split_indices":[12,42,9,15,1,10,13,1,5,6,1,13,4,12,11,14,5,5,9,15,8,8,1,15,11,5,11,42,13,8,4,0,0,0,0,0,0,0,0,0,0,0,0,0,0,0,0,0,0,0,0,0,0,0,0,0,0,0,0,0,0,0,0],"split_type":[0,0,0,0,0,0,0,0,0,0,0,0,0,0,0,0,0,0,0,0,0,0,0,0,0,0,0,0,0,0,0,0,0,0,0,0,0,0,0,0,0,0,0,0,0,0,0,0,0,0,0,0,0,0,0,0,0,0,0,0,0,0,0],"sum_hessian":[2.4966568E4,2.0541229E4,4.425339E3,4.526786E3,1.6014443E4,3.695392E2,4.0557998E3,6.6679553E2,3.8599905E3,5.7118726E3,1.030257E4,1.6600375E2,2.0353548E2,1.3397629E2,3.9218235E3,3.048931E2,3.619024E2,3.5596953E3,3.0029514E2,2.3788994E3,3.3329731E3,9.838702E3,4.6386816E2,8.189256E1,8.411119E1,7.4055916E1,1.2947955E2,1.1182284E2,2.2153452E1,6.717819E2,3.2500415E3,1.6579408E2,1.3909903E2,3.148846E2,4.701779E1,2.827346E3,7.323493E2,3.437982E1,2.659153E2,4.6650592E2,1.9123934E3,8.6201953E2,2.4709536E3,1.0552424E3,8.78346E3,3.7616748E2,8.7700676E1,7.077482E1,1.1117741E1,2.625306E1,5.785813E1,1.2333542E1,6.1722374E1,3.6143173E1,9.333639E1,2.1376345E1,9.0446495E1,7.418474E0,1.4734978E1,3.5883507E1,6.3589844E2,3.186228E3,6.3813442E1],"tree_param":{"num_deleted":"0","num_feature":"47","num_nodes":"63","size_leaf_vector":"1"}},{"base_weights":[8.9474246E-2,-7.929465E-2,1.7498952E-1,9.7541824E-2,-1.6976914E-1,1.9461723E-1,-3.0945075E-1,-2.9322162E-1,1.3737403E-1,-3.490152E-1,-5.06469E-2,-0E0,2.4642234E-1,-4.666422E-1,-0E0,-9.8421484E-2,-5.4926705E-1,-1.2786366E-1,1.86127E-1,-2.215931E-1,-6.3040715E-1,-1.8328796E-1,7.853366E-2,-7.319913E-1,2.8259022E-2,2.9364175E-1,9.483074E-2,-2.1092431E-1,-6.3116527E-1,-2.1885054E-1,2.1446873E-1,-0E0,-2.6016248E-2,-6.0581442E-2,-0E0,-2.07898E-2,9.816154E-3,3.491525E-2,1.1477662E-2,-2.1506943E-2,1.7871771E-2,-5.5621207E-2,-0E0,-3.252108E-2,-7.123551E-3,1.4707346E-2,-1.1584362E-2,-0E0,-6.672321E-2,-1.0057186E-2,1.08832065E-2,1.442055E-2,2.7489329E-2,-8.927664E-4,1.9776305E-2,-2.6925497E-2,3.1514736E-3,-6.323683E-2,-5.8612307E-3,-4.12379E-2,-0E0,2.5240527E-2,-5.363586E-4],"categories":[],"categories_nodes":[],"categories_segments":[],"categories_sizes":[],"default_left":[0,0,0,1,0,0,0,0,1,0,0,1,0,0,0,0,0,0,1,0,0,0,0,0,0,0,0,0,0,0,0,0,0,0,0,0,0,0,0,0,0,0,0,0,0,0,0,0,0,0,0,0,0,0,0,0,0,0,0,0,0,0,0],"id":12,"left_children":[1,3,5,7,9,11,13,15,17,19,21,23,25,27,29,31,33,35,37,39,41,43,45,47,49,51,53,55,57,59,61,-1,-1,-1,-1,-1,-1,-1,-1,-1,-1,-1,-1,-1,-1,-1,-1,-1,-1,-1,-1,-1,-1,-1,-1,-1,-1,-1,-1,-1,-1,-1,-1],"loss_changes":[3.6060696E2,1.3447296E2,1.5745926E2,4.3236084E1,1.16204926E2,1.6146918E2,3.344345E1,8.070404E0,3.3853592E1,7.2513794E1,5.8526764E1,7.1388504E1,8.766736E1,1.2030098E1,1.0329912E1,3.6947184E0,1.0419638E1,1.3987591E1,1.9273338E1,3.397905E1,3.023233E1,3.2346813E1,4.0609947E1,1.1261078E1,5.4259293E1,5.166504E1,5.08274E1,8.175425E0,1.6480492E1,4.36571E0,4.6768417E0,0E0,0E0,0E0,0E0,0E0,0E0,0E0,0E0,0E0,0E0,0E0,0E0,0E0,0E0,0E0,0E0,0E0,0E0,0E0,0E0,0E0,0E0,0E0,0E0,0E0,0E0,0E0,0E0,0E0,0E0,0E0,0E0],"parents":[2147483647,0,0,1,1,2,2,3,3,4,4,5,5,6,6,7,7,8,8,9,9,10,10,11,11,12,12,13,13,14,14,15,15,16,16,17,17,18,18,19,19,20,20,21,21,22,22,23,23,24,24,25,25,26,26,27,27,28,28,29,29,30,30],"right_children":[2,4,6,8,10,12,14,16,18,20,22,24,26,28,30,32,34,36,38,40,42,44,46,48,50,52,54,56,58,60,62,-1,-1,-1,-1,-1,-1,-1,-1,-1,-1,-1,-1,-1,-1,-1,-1,-1,-1,-1,-1,-1,-1,-1,-1,-1,-1,-1,-1,-1,-1,-1,-1],"split_conditions":[2.9200698E7,4.567203E6,1.25482856E8,7.9E1,7E0,1E0,1.7386237E8,3.8E2,8.7E1,3E0,1.5E1,9.7E1,2E0,2.75E2,1.5E1,3.34E2,2E0,5.3E1,1.21E2,3E0,6.66E2,1E0,2.3970654E7,3.7096864E7,7.183159E7,7E0,7E0,6.1E1,8E0,1.45E2,2E0,-0E0,-2.6016248E-2,-6.0581442E-2,-0E0,-2.07898E-2,9.816154E-3,3.491525E-2,1.1477662E-2,-2.1506943E-2,1.7871771E-2,-5.5621207E-2,-0E0,-3.252108E-2,-7.123551E-3,1.4707346E-2,-1.1584362E-2,-0E0,-6.672321E-2,-1.0057186E-2,1.08832065E-2,1.442055E-2,2.7489329E-2,-8.927664E-4,1.9776305E-2,-2.6925497E-2,3.1514736E-3,-6.323683E-2,-5.8612307E-3,-4.12379E-2,-0E0,2.5240527E-2,-5.363586E-4],"split_indices":[1,1,1,14,6,42,1,13,15,10,11,13,18,13,11,15,35,9,13,35,13,42,1,1,1,6,4,9,4,15,18,0,0,0,0,0,0,0,0,0,0,0,0,0,0,0,0,0,0,0,0,0,0,0,0,0,0,0,0,0,0,0,0],"split_type":[0,0,0,0,0,0,0,0,0,0,0,0,0,0,0,0,0,0,0,0,0,0,0,0,0,0,0,0,0,0,0,0,0,0,0,0,0,0,0,0,0,0,0,0,0,0,0,0,0,0,0,0,0,0,0,0,0,0,0,0,0,0,0],"sum_hessian":[2.4929227E4,8.360221E3,1.6569006E4,2.8068953E3,5.5533257E3,1.5940737E4,6.282676E2,2.4059335E2,2.566302E3,2.1903186E3,3.3630068E3,3.3420806E3,1.2598657E4,4.2501672E2,2.0325087E2,1.567826E2,8.381075E1,3.7713885E2,2.189163E3,1.5329865E3,6.573323E2,1.6804493E3,1.6825574E3,1.19757065E2,3.2223235E3,9.569936E3,3.0287212E3,1.8843639E2,2.3658034E2,8.833798E1,1.1491289E2,1.1573652E2,4.1046074E1,5.764857E1,2.6162184E1,2.6195593E2,1.1518291E2,2.813259E2,1.9078373E3,1.3984694E3,1.3451709E2,5.9676495E2,6.0567314E1,4.6774948E2,1.2126998E3,1.1611354E3,5.2142206E2,1.4191655E1,1.05565414E2,1.3046942E3,1.9176294E3,3.0422334E3,6.5277026E3,1.7720386E3,1.2566825E3,1.3898137E2,4.9455006E1,1.72051E2,6.452934E1,2.4994282E1,6.3343697E1,9.4614845E1,2.029804E1],"tree_param":{"num_deleted":"0","num_feature":"47","num_nodes":"63","size_leaf_vector":"1"}},{"base_weights":[7.682201E-2,2.4932325E-2,3.2400593E-1,-1.3300043E-1,9.809727E-2,-1.5289123E-1,3.3643612E-1,-2.651021E-1,3.8554847E-2,-6.062948E-2,1.4330128E-1,-4.242726E-1,1.2591217E-1,4.0360385E-1,2.4171385E-1,-8.9431983E-1,-2.2343656E-1,5.2071476E-1,-1.6753344E-2,4.4985905E-1,-8.07705E-2,1.5534572E-1,-6.231358E-1,-0E0,-5.858467E-1,-0E0,2.4071181E-2,4.834505E-3,4.2008573E-1,-0E0,3.0563605E-1,-0E0,-8.201499E-2,1.1278073E-2,-2.1929871E-2,-0E0,4.328921E-2,2.4529321E-2,-6.4495243E-3,-0E0,4.024328E-2,-2.4026516E-3,-1.9141624E-2,1.3716998E-2,-1.5696287E-2,-5.977939E-2,-0E0,-0E0,-6.468901E-2,-1.6599419E-2,1.74253E-2,2.7231047E-2,3.972389E-2,-1.3611494E-2,1.6658925E-2,1.702191E-2,3.0832643E-2],"categories":[],"categories_nodes":[],"categories_segments":[],"categories_sizes":[],"default_left":[0,0,0,0,0,0,1,1,0,0,0,0,0,0,0,0,0,0,0,0,0,0,0,0,0,0,0,0,0,0,0,0,0,0,0,0,0,0,0,0,0,0,0,0,0,0,0,0,0,0,0,0,0,0,0,0,0],"id":13,"left_children":[1,3,5,7,9,11,13,15,17,19,21,23,25,27,29,31,33,35,37,39,41,43,45,-1,47,-1,-1,49,51,53,55,-1,-1,-1,-1,-1,-1,-1,-1,-1,-1,-1,-1,-1,-1,-1,-1,-1,-1,-1,-1,-1,-1,-1,-1,-1,-1],"loss_changes":[3.143058E2,2.3588626E2,2.6802643E1,1.4747386E2,1.0093503E2,9.965402E0,2.1786469E1,8.7532776E1,7.7529655E1,2.9734629E1,9.882466E1,5.9759817E0,2.5438204E0,1.3122986E1,2.8875755E1,2.270314E1,6.636351E1,5.3777924E0,5.0938786E1,1.4804459E0,2.235311E1,6.3759186E1,1.0640476E1,0E0,7.365177E0,0E0,0E0,5.83495E0,7.472595E0,1.3328732E1,6.347687E0,0E0,0E0,0E0,0E0,0E0,0E0,0E0,0E0,0E0,0E0,0E0,0E0,0E0,0E0,0E0,0E0,0E0,0E0,0E0,0E0,0E0,0E0,0E0,0E0,0E0,0E0],"parents":[2147483647,0,0,1,1,2,2,3,3,4,4,5,5,6,6,7,7,8,8,9,9,10,10,11,11,12,12,13,13,14,14,15,15,16,16,17,17,18,18,19,19,20,20,21,21,22,22,24,24,27,27,28,28,29,29,30,30],"right_children":[2,4,6,8,10,12,14,16,18,20,22,24,26,28,30,32,34,36,38,40,42,44,46,-1,48,-1,-1,50,52,54,56,-1,-1,-1,-1,-1,-1,-1,-1,-1,-1,-1,-1,-1,-1,-1,-1,-1,-1,-1,-1,-1,-1,-1,-1,-1,-1],"split_conditions":[1E0,7E0,5.8E1,3.952555E7,1E0,9E0,3.39E2,1E2,4.00001E0,4.66524E5,4.2E1,6E0,1E0,1E0,7E0,3E1,1.27E2,4.6993104E7,4.275988E7,1E1,3E0,1.1989211E8,2.74E2,-0E0,7E0,-0E0,2.4071181E-2,5E0,1.7E1,5.14E2,1.7E1,-0E0,-8.201499E-2,1.1278073E-2,-2.1929871E-2,-0E0,4.328921E-2,2.4529321E-2,-6.4495243E-3,-0E0,4.024328E-2,-2.4026516E-3,-1.9141624E-2,1.3716998E-2,-1.5696287E-2,-5.977939E-2,-0E0,-0E0,-6.468901E-2,-1.6599419E-2,1.74253E-2,2.7231047E-2,3.972389E-2,-1.3611494E-2,1.6658925E-2,1.702191E-2,3.0832643E-2],"split_indices":[12,16,13,1,42,8,13,13,17,1,11,16,42,8,16,13,13,1,1,11,5,1,13,0,8,0,0,6,11,13,11,0,0,0,0,0,0,0,0,0,0,0,0,0,0,0,0,0,0,0,0,0,0,0,0,0,0],"split_type":[0,0,0,0,0,0,0,0,0,0,0,0,0,0,0,0,0,0,0,0,0,0,0,0,0,0,0,0,0,0,0,0,0,0,0,0,0,0,0,0,0,0,0,0,0,0,0,0,0,0,0,0,0,0,0,0,0],"sum_hessian":[2.4665135E4,2.0413682E4,4.2514536E3,6.434664E3,1.3979018E4,9.322626E1,4.1582275E3,3.652483E3,2.782181E3,3.0685046E3,1.0910513E4,5.587815E1,3.7348106E1,2.3793298E3,1.7788975E3,2.068698E2,3.4456133E3,2.8998492E2,2.492196E3,9.812703E1,2.9703777E3,1.07562295E4,1.5428288E2,1.3278922E1,4.2599228E1,1.013082E1,2.7217285E1,1.0936028E2,2.2699697E3,3.604093E2,1.4184882E3,3.1327627E1,1.7554216E2,4.1152414E2,3.034089E3,5.9751854E0,2.8400974E2,3.9054922E2,2.1016467E3,1.6231178E1,8.189585E1,2.2909153E3,6.794623E2,1.0287893E4,4.6833768E2,1.22699295E2,3.158358E1,1.338021E1,2.921902E1,4.0800625E1,6.855966E1,1.1963497E3,1.07362E3,2.100409E2,1.503684E2,7.1447986E2,7.040083E2],"tree_param":{"num_deleted":"0","num_feature":"47","num_nodes":"57","size_leaf_vector":"1"}},{"base_weights":[8.1006765E-2,-9.691467E-2,1.380149E-1,-2.3199567E-1,-1.5138748E-2,-7.259629E-3,2.2234195E-1,-3.657328E-1,-1.0742168E-1,-1.9105014E-1,8.5605636E-2,2.06198E-1,-9.212063E-2,1.5119065E-1,3.3850437E-1,1.4845845E-2,-4.1861385E-1,-1.2978738E-2,-4.7304085E-1,2.6281115E-2,-2.7631274E-1,1.1553667E-1,-5.0543696E-1,2.9940903E-1,-1.621779E-1,-1.911718E-1,7.4886106E-2,2.0783211E-1,1.9708855E-2,3.7234196E-1,-7.650369E-2,8.756826E-3,-9.355679E-3,-6.08603E-2,-2.8004888E-2,1.7685438E-2,-8.074977E-3,-4.0871847E-2,-0E0,-1.5265669E-2,1.6598744E-2,-2.7593488E-2,2.8078263E-3,2.2150143E-3,1.5611217E-2,-0E0,-5.482191E-2,2.5028024E-2,-1.051902E-2,-1.8945796E-2,2.6777254E-3,-7.661863E-2,-1.2202162E-2,1.186582E-2,-1.5126622E-2,-3.9767846E-3,1.8055357E-2,-1.4399127E-2,7.327874E-3,4.0348474E-2,2.342626E-2,-2.92065E-2,2.3775833E-2],"categories":[],"categories_nodes":[],"categories_segments":[],"categories_sizes":[],"default_left":[0,0,0,0,0,0,0,0,0,0,0,0,0,0,0,0,0,0,0,0,0,0,0,0,0,0,0,0,0,0,0,0,0,0,0,0,0,0,0,0,0,0,0,0,0,0,0,0,0,0,0,0,0,0,0,0,0,0,0,0,0,0,0],"id":14,"left_children":[1,3,5,7,9,11,13,15,17,19,21,23,25,27,29,31,33,35,37,39,41,43,45,47,49,51,53,55,57,59,61,-1,-1,-1,-1,-1,-1,-1,-1,-1,-1,-1,-1,-1,-1,-1,-1,-1,-1,-1,-1,-1,-1,-1,-1,-1,-1,-1,-1,-1,-1,-1,-1],"loss_changes":[2.508125E2,6.444468E1,2.3075214E2,3.3857735E1,6.734869E1,1.2376113E2,9.477728E1,2.3520126E1,3.8001297E1,2.7366428E1,4.013842E1,6.766107E1,8.2466385E1,5.3805405E1,6.4830444E1,1.6001762E0,1.2587311E1,1.9496283E1,4.524273E0,1.552591E1,2.421064E1,1.4648834E1,1.0840895E1,1.1304474E1,6.964237E0,8.35779E1,3.567095E1,2.600586E1,3.2522793E1,3.7477478E1,3.7330112E1,0E0,0E0,0E0,0E0,0E0,0E0,0E0,0E0,0E0,0E0,0E0,0E0,0E0,0E0,0E0,0E0,0E0,0E0,0E0,0E0,0E0,0E0,0E0,0E0,0E0,0E0,0E0,0E0,0E0,0E0,0E0,0E0],"parents":[2147483647,0,0,1,1,2,2,3,3,4,4,5,5,6,6,7,7,8,8,9,9,10,10,11,11,12,12,13,13,14,14,15,15,16,16,17,17,18,18,19,19,20,20,21,21,22,22,23,23,24,24,25,25,26,26,27,27,28,28,29,29,30,30],"right_children":[2,4,6,8,10,12,14,16,18,20,22,24,26,28,30,32,34,36,38,40,42,44,46,48,50,52,54,56,58,60,62,-1,-1,-1,-1,-1,-1,-1,-1,-1,-1,-1,-1,-1,-1,-1,-1,-1,-1,-1,-1,-1,-1,-1,-1,-1,-1,-1,-1,-1,-1,-1,-1],"split_conditions":[1.1E1,6E0,7E0,8E0,3.471022E7,1E0,7.823035E7,1E0,2E0,1E0,1.1989211E8,4E0,6E0,2E0,1.25482856E8,1E0,4E0,8.041437E6,3E0,3E0,4E0,3E0,1.44E2,9E0,3E0,4E0,5E0,7.9E1,1.6E1,8.917468E7,1.7386237E8,8.756826E-3,-9.355679E-3,-6.08603E-2,-2.8004888E-2,1.7685438E-2,-8.074977E-3,-4.0871847E-2,-0E0,-1.5265669E-2,1.6598744E-2,-2.7593488E-2,2.8078263E-3,2.2150143E-3,1.5611217E-2,-0E0,-5.482191E-2,2.5028024E-2,-1.051902E-2,-1.8945796E-2,2.6777254E-3,-7.661863E-2,-1.2202162E-2,1.186582E-2,-1.5126622E-2,-3.9767846E-3,1.8055357E-2,-1.4399127E-2,7.327874E-3,4.0348474E-2,2.342626E-2,-2.92065E-2,2.3775833E-2],"split_indices":[11,4,6,11,1,10,1,35,18,2,1,6,7,10,1,10,8,1,35,7,5,7,14,4,5,4,10,14,11,1,1,0,0,0,0,0,0,0,0,0,0,0,0,0,0,0,0,0,0,0,0,0,0,0,0,0,0,0,0,0,0,0,0],"split_type":[0,0,0,0,0,0,0,0,0,0,0,0,0,0,0,0,0,0,0,0,0,0,0,0,0,0,0,0,0,0,0,0,0,0,0,0,0,0,0,0,0,0,0,0,0,0,0,0,0,0,0,0,0,0,0,0,0,0,0,0,0,0,0],"sum_hessian":[2.4683275E4,5.9625967E3,1.872068E4,2.2147512E3,3.7478455E3,6.8523735E3,1.1868306E4,1.0367341E3,1.1780171E3,1.3836823E3,2.364163E3,1.9255812E3,4.9267925E3,7.4045747E3,4.4637314E3,1.133704E2,9.233637E2,9.5638513E2,2.2163197E2,3.7170508E2,1.0119772E3,2.2665237E3,9.763943E1,1.5510548E3,3.745263E2,3.1143965E3,1.812396E3,5.1396826E3,2.2648918E3,4.141436E3,3.2229517E2,9.326774E1,2.0102661E1,1.21319565E2,8.020441E2,2.3921487E2,7.171702E2,2.044636E2,1.7168386E1,1.5395335E2,2.1775174E2,8.4144244E2,1.7053476E2,1.1247661E3,1.1417576E3,2.600384E1,7.163559E1,1.5159012E3,3.515366E1,2.9105548E2,8.347082E1,1.2931587E2,2.9850806E3,1.4371008E3,3.752952E2,3.2539694E2,4.8142856E3,5.746518E2,1.6902401E3,1.483174E3,2.6582622E3,1.9086937E2,1.3142578E2],"tree_param":{"num_deleted":"0","num_feature":"47","num_nodes":"63","size_leaf_vector":"1"}},{"base_weights":[7.306111E-2,2.208683E-2,3.1771854E-1,-2.3737267E-1,5.490601E-2,-6.185848E-2,3.3769453E-1,-1.5786731E-1,-5.508392E-1,-5.6938063E-2,1.1692237E-1,2.758233E-1,-1.844934E-1,3.4501258E-1,-6.390481E-1,-6.4510804E-1,-1.051052E-1,-7.11159E-1,-1.6681743E-1,-1.6623782E-2,-4.9982432E-1,-1.1224119E-1,1.4420637E-1,-0E0,3.4210753E-2,-6.270875E-1,-1.6374748E-2,2.3127839E-1,4.1234797E-1,-6.4695574E-2,-0E0,2.749877E-3,-5.9187736E-2,-5.1895827E-3,-4.795387E-2,-6.4710505E-2,-1.1515545E-2,-2.660639E-2,2.2016661E-3,1.3836637E-2,-8.011912E-3,-5.4950316E-2,-8.844002E-3,2.695448E-3,-2.9907567E-2,-2.2602009E-2,1.2735287E-2,-6.829393E-2,-0E0,-2.5451597E-2,-0E0,2.0658962E-2,-7.1467482E-3,2.0611566E-3,3.41994E-2],"categories":[],"categories_nodes":[],"categories_segments":[],"categories_sizes":[],"default_left":[0,0,0,0,0,0,0,0,0,0,0,0,0,0,0,0,0,0,0,0,0,1,0,0,0,0,0,1,0,0,0,0,0,0,0,0,0,0,0,0,0,0,0,0,0,0,0,0,0,0,0,0,0,0,0],"id":15,"left_children":[1,3,5,7,9,11,13,15,17,19,21,23,25,27,29,31,33,35,37,39,41,43,45,-1,-1,47,49,51,53,-1,-1,-1,-1,-1,-1,-1,-1,-1,-1,-1,-1,-1,-1,-1,-1,-1,-1,-1,-1,-1,-1,-1,-1,-1,-1],"loss_changes":[3.0654297E2,1.7367245E2,3.40365E1,5.1913452E1,1.2690267E2,8.363431E0,2.909378E1,4.244925E1,2.0990158E1,1.1244803E2,7.391348E1,3.7886748E0,8.567373E0,2.6183197E1,2.8421106E0,1.5612495E1,2.921726E1,1.0320953E1,6.8880987E0,9.4804695E1,3.343756E1,4.9552925E1,6.9991104E1,0E0,0E0,7.088314E0,1.8309833E0,1.5145332E1,1.3309021E1,0E0,0E0,0E0,0E0,0E0,0E0,0E0,0E0,0E0,0E0,0E0,0E0,0E0,0E0,0E0,0E0,0E0,0E0,0E0,0E0,0E0,0E0,0E0,0E0,0E0,0E0],"parents":[2147483647,0,0,1,1,2,2,3,3,4,4,5,5,6,6,7,7,8,8,9,9,10,10,11,11,12,12,13,13,14,14,15,15,16,16,17,17,18,18,19,19,20,20,21,21,22,22,25,25,26,26,27,27,28,28],"right_children":[2,4,6,8,10,12,14,16,18,20,22,24,26,28,30,32,34,36,38,40,42,44,46,-1,-1,48,50,52,54,-1,-1,-1,-1,-1,-1,-1,-1,-1,-1,-1,-1,-1,-1,-1,-1,-1,-1,-1,-1,-1,-1,-1,-1,-1,-1],"split_conditions":[1E0,8E0,1E0,5.24E2,2.6029484E7,1.27E2,1.1989211E8,1E2,7E0,2.4508052E7,4E0,9.7E1,2.2E1,3.8E1,4.54E2,2.6E1,3E0,8E0,6.7016584E7,1E0,1.5E1,3.65E2,9.7E1,-0E0,3.4210753E-2,5.4E2,9E0,6.63E2,8E0,-6.4695574E-2,-0E0,2.749877E-3,-5.9187736E-2,-5.1895827E-3,-4.795387E-2,-6.4710505E-2,-1.1515545E-2,-2.660639E-2,2.2016661E-3,1.3836637E-2,-8.011912E-3,-5.4950316E-2,-8.844002E-3,2.695448E-3,-2.9907567E-2,-2.2602009E-2,1.2735287E-2,-6.829393E-2,-0E0,-2.5451597E-2,-0E0,2.0658962E-2,-7.1467482E-3,2.0611566E-3,3.41994E-2],"split_indices":[12,11,8,13,1,13,1,13,11,1,8,13,9,9,13,13,2,4,1,2,8,13,13,0,0,13,11,15,11,0,0,0,0,0,0,0,0,0,0,0,0,0,0,0,0,0,0,0,0,0,0,0,0,0,0],"split_type":[0,0,0,0,0,0,0,0,0,0,0,0,0,0,0,0,0,0,0,0,0,0,0,0,0,0,0,0,0,0,0,0,0,0,0,0,0,0,0,0,0,0,0,0,0,0,0,0,0,0,0,0,0,0,0],"sum_hessian":[2.474001E4,2.0502365E4,4.2376445E3,2.275525E3,1.822684E4,1.959109E2,4.0417336E3,1.8408318E3,4.3469327E2,6.467226E3,1.1759614E4,3.6251274E1,1.5965964E2,4.0233464E3,1.8387165E1,1.5922841E2,1.6816034E3,2.9041782E2,1.4427544E2,5.948332E3,5.1889386E2,1.2248191E3,1.0534795E4,5.8108783E0,3.0440395E1,2.7598364E1,1.3206126E2,1.5436705E3,2.479676E3,1.2412859E1,5.9743066E0,1.2958728E1,1.4626968E2,1.5765635E3,1.05039925E2,2.3436095E2,5.6056873E1,9.089676E1,5.337868E1,1.7958171E3,4.1525146E3,3.338698E2,1.8502403E2,7.7767285E2,4.4714627E2,3.517192E2,1.0183075E4,2.0407429E1,7.1909347E0,9.660001E0,1.2240127E2,1.4387793E3,1.0489121E2,1.1902139E2,2.3606545E3],"tree_param":{"num_deleted":"0","num_feature":"47","num_nodes":"55","size_leaf_vector":"1"}},{"base_weights":[7.166945E-2,2.1319628E-2,3.159365E-1,6.601042E-2,-1.8276963E-1,3.7306437E-1,1.4511788E-1,-7.627693E-2,1.4519303E-1,-3.9945817E-1,-7.856603E-2,-6.8028644E-2,3.9135453E-1,-3.8308987E-1,2.0897906E-1,-2.1329753E-1,4.10388E-2,8.134114E-3,1.7752272E-1,-8.125188E-1,-3.1094563E-1,2.6038522E-2,-2.5333476E-1,2.391799E-2,-3.783938E-1,2.0725095E-1,4.4175076E-1,-6.610466E-1,-0E0,2.5216535E-1,-0E0,-5.2305706E-2,-1.4184876E-2,1.01941535E-2,-7.894621E-3,4.6471725E-3,-2.837391E-2,1.5388518E-2,-1.8310325E-2,-7.813083E-2,-7.5716903E-3,-7.794462E-3,-3.816185E-2,-1.2572477E-2,8.813873E-3,5.0330395E-3,-2.6825786E-2,-1.8172923E-2,1.8169988E-2,-0E0,-5.5129927E-2,2.9095868E-2,2.8101578E-3,3.60861E-2,-0E0,-5.773846E-2,-0E0,-2.4063857E-2,8.835483E-3,2.1904767E-2,-1.5654886E-3,-2.1697313E-2,1.4389132E-2],"categories":[],"categories_nodes":[],"categories_segments":[],"categories_sizes":[],"default_left":[0,0,0,0,0,0,1,0,0,0,0,0,0,0,0,1,0,1,0,1,0,0,0,0,0,0,0,0,0,1,0,0,0,0,0,0,0,0,0,0,0,0,0,0,0,0,0,0,0,0,0,0,0,0,0,0,0,0,0,0,0,0,0],"id":16,"left_children":[1,3,5,7,9,11,13,15,17,19,21,23,25,27,29,31,33,35,37,39,41,43,45,47,49,51,53,55,57,59,61,-1,-1,-1,-1,-1,-1,-1,-1,-1,-1,-1,-1,-1,-1,-1,-1,-1,-1,-1,-1,-1,-1,-1,-1,-1,-1,-1,-1,-1,-1,-1,-1],"loss_changes":[3.0000854E2,1.8542186E2,3.7174835E1,1.8935806E2,7.9086555E1,2.716861E1,3.632439E1,9.709886E1,4.6722275E1,3.353328E1,4.6921844E1,5.5665007E0,2.3038818E1,9.322382E0,1.0325405E1,3.7447937E1,3.9239197E1,3.6867393E1,5.5349304E1,1.533065E1,3.1298737E1,2.3851519E1,2.6975258E1,4.7671123E0,8.510548E0,1.6059566E1,1.25065E1,1.0009899E0,3.0122669E0,6.758953E0,8.565913E0,0E0,0E0,0E0,0E0,0E0,0E0,0E0,0E0,0E0,0E0,0E0,0E0,0E0,0E0,0E0,0E0,0E0,0E0,0E0,0E0,0E0,0E0,0E0,0E0,0E0,0E0,0E0,0E0,0E0,0E0,0E0,0E0],"parents":[2147483647,0,0,1,1,2,2,3,3,4,4,5,5,6,6,7,7,8,8,9,9,10,10,11,11,12,12,13,13,14,14,15,15,16,16,17,17,18,18,19,19,20,20,21,21,22,22,23,23,24,24,25,25,26,26,27,27,28,28,29,29,30,30],"right_children":[2,4,6,8,10,12,14,16,18,20,22,24,26,28,30,32,34,36,38,40,42,44,46,48,50,52,54,56,58,60,62,-1,-1,-1,-1,-1,-1,-1,-1,-1,-1,-1,-1,-1,-1,-1,-1,-1,-1,-1,-1,-1,-1,-1,-1,-1,-1,-1,-1,-1,-1,-1,-1],"split_conditions":[1E0,2.5226413E8,2.5041667E8,7E0,1.3E1,9.7E1,1E0,7E0,1.1E1,6E0,3.39E2,2.8E2,7E0,2E0,3E0,9.8E1,3.39E2,4.7E2,3.6E1,3.76E2,2.82E2,7E0,1E0,7.9E1,3E0,1E0,9E0,4.0314227E8,5E0,6.93E2,5E0,-5.2305706E-2,-1.4184876E-2,1.01941535E-2,-7.894621E-3,4.6471725E-3,-2.837391E-2,1.5388518E-2,-1.8310325E-2,-7.813083E-2,-7.5716903E-3,-7.794462E-3,-3.816185E-2,-1.2572477E-2,8.813873E-3,5.0330395E-3,-2.6825786E-2,-1.8172923E-2,1.8169988E-2,-0E0,-5.5129927E-2,2.9095868E-2,2.8101578E-3,3.60861E-2,-0E0,-5.773846E-2,-0E0,-2.4063857E-2,8.835483E-3,2.1904767E-2,-1.5654886E-3,-2.1697313E-2,1.4389132E-2],"split_indices":[12,0,0,16,11,13,8,6,11,16,13,14,16,12,10,13,13,14,11,14,13,6,35,14,7,10,4,0,6,15,7,0,0,0,0,0,0,0,0,0,0,0,0,0,0,0,0,0,0,0,0,0,0,0,0,0,0,0,0,0,0,0,0],"split_type":[0,0,0,0,0,0,0,0,0,0,0,0,0,0,0,0,0,0,0,0,0,0,0,0,0,0,0,0,0,0,0,0,0,0,0,0,0,0,0,0,0,0,0,0,0,0,0,0,0,0,0,0,0,0,0,0,0,0,0,0,0,0,0],"sum_hessian":[2.455424E4,2.038615E4,4.1680903E3,1.6752959E4,3.6331921E3,3.089427E3,1.0786632E3,5.9626895E3,1.079027E4,1.153106E3,2.4800862E3,1.0898027E2,2.9804468E3,1.01522E2,9.7714124E2,2.7707305E3,3.191959E3,2.0970012E3,8.693269E3,1.789999E2,9.741061E2,1.5345714E3,9.455148E2,7.529808E1,3.368219E1,6.756789E2,2.3047678E3,4.9676193E1,5.1845814E1,8.3077594E2,1.4636526E2,1.8069974E2,2.5900308E3,1.9971682E3,1.1947908E3,1.863952E3,2.3304916E2,8.391752E3,3.0151633E2,1.3570117E2,4.3298717E1,4.510496E2,5.230565E2,4.5877234E2,1.0757991E3,1.8235458E2,7.631602E2,2.0059298E1,5.523878E1,1.1890052E1,2.1792137E1,3.2903357E2,3.4664532E2,2.2541882E3,5.0579468E1,4.1812347E1,7.8638473E0,1.8746685E1,3.309913E1,7.870811E2,4.3694847E1,6.9118225E1,7.724704E1],"tree_param":{"num_deleted":"0","num_feature":"47","num_nodes":"63","size_leaf_vector":"1"}},{"base_weights":[5.7666846E-2,1.4072192E-2,2.7276272E-1,-8.27745E-2,8.559555E-2,3.202234E-1,1.0202315E-2,-1.2470883E-1,2.813277E-1,1.3935179E-1,-7.9056226E-2,1.5501334E-1,3.8276112E-1,1.0818468E-1,-3.0236378E-1,-2.0748259E-1,6.9500497E-3,4.049877E-1,-0E0,7.422942E-2,2.7774268E-1,-1.8972788E-2,-3.1606668E-1,3.483237E-1,-0E0,8.957098E-2,4.0589684E-1,-2.1959739E-2,2.3732558E-1,-8.197661E-1,-0E0,-1.0011273E-2,-3.3475664E-2,-1.2503748E-2,1.4915289E-2,4.0839817E-3,3.8842387E-2,2.6007967E-2,-3.5952657E-2,8.963925E-3,-8.396923E-3,3.2811634E-2,1.0555912E-2,-1.4652447E-2,2.0281104E-3,-4.534482E-2,-7.2238096E-3,3.2708544E-2,-0E0,1.896346E-2,-1.1452198E-2,2.9128704E-2,-1.9947009E-3,3.326748E-2,-2.0815479E-3,7.3315593E-4,-3.2922383E-2,2.277437E-2,-1.6871888E-2,-8.306885E-2,-0E0,5.823591E-3,-2.2817444E-2],"categories":[],"categories_nodes":[],"categories_segments":[],"categories_sizes":[],"default_left":[0,0,0,0,0,0,1,0,0,0,0,0,0,0,0,1,0,0,0,0,0,0,0,0,0,0,0,0,0,0,0,0,0,0,0,0,0,0,0,0,0,0,0,0,0,0,0,0,0,0,0,0,0,0,0,0,0,0,0,0,0,0,0],"id":17,"left_children":[1,3,5,7,9,11,13,15,17,19,21,23,25,27,29,31,33,35,37,39,41,43,45,47,49,51,53,55,57,59,61,-1,-1,-1,-1,-1,-1,-1,-1,-1,-1,-1,-1,-1,-1,-1,-1,-1,-1,-1,-1,-1,-1,-1,-1,-1,-1,-1,-1,-1,-1,-1,-1],"loss_changes":[2.2585703E2,1.4010638E2,4.8664062E1,1.3000128E2,1.0373112E2,3.1635986E1,1.9051464E1,8.505908E1,2.867035E1,7.7255295E1,3.8516144E1,2.8886492E1,1.3338593E1,1.0022335E1,1.799274E1,7.895151E1,8.753988E1,1.3899765E1,4.2700333E1,4.1660885E1,5.059819E1,1.7860237E1,2.7261303E1,8.397453E0,1.9501831E1,8.74934E0,1.3670441E1,5.411038E0,7.1302776E0,1.2783911E1,3.5256512E0,0E0,0E0,0E0,0E0,0E0,0E0,0E0,0E0,0E0,0E0,0E0,0E0,0E0,0E0,0E0,0E0,0E0,0E0,0E0,0E0,0E0,0E0,0E0,0E0,0E0,0E0,0E0,0E0,0E0,0E0,0E0,0E0],"parents":[2147483647,0,0,1,1,2,2,3,3,4,4,5,5,6,6,7,7,8,8,9,9,10,10,11,11,12,12,13,13,14,14,15,15,16,16,17,17,18,18,19,19,20,20,21,21,22,22,23,23,24,24,25,25,26,26,27,27,28,28,29,29,30,30],"right_children":[2,4,6,8,10,12,14,16,18,20,22,24,26,28,30,32,34,36,38,40,42,44,46,48,50,52,54,56,58,60,62,-1,-1,-1,-1,-1,-1,-1,-1,-1,-1,-1,-1,-1,-1,-1,-1,-1,-1,-1,-1,-1,-1,-1,-1,-1,-1,-1,-1,-1,-1,-1,-1],"split_conditions":[1E0,8E0,2.8490867E8,6E0,2.5041667E8,3.1E1,4.25E2,7E0,1.04705496E8,7.823035E7,3E0,3E0,9E0,3.5548125E8,9E0,4.17E2,3.5532136E7,5E0,4.00001E0,5.8633696E7,9.294045E7,1.2E1,4E0,8E0,8.560221E7,1.3111706E8,9E0,1.0147919E8,1.5E1,5.7E1,1E0,-1.0011273E-2,-3.3475664E-2,-1.2503748E-2,1.4915289E-2,4.0839817E-3,3.8842387E-2,2.6007967E-2,-3.5952657E-2,8.963925E-3,-8.396923E-3,3.2811634E-2,1.0555912E-2,-1.4652447E-2,2.0281104E-3,-4.534482E-2,-7.2238096E-3,3.2708544E-2,-0E0,1.896346E-2,-1.1452198E-2,2.9128704E-2,-1.9947009E-3,3.326748E-2,-2.0815479E-3,7.3315593E-4,-3.2922383E-2,2.277437E-2,-1.6871888E-2,-8.306885E-2,-0E0,5.823591E-3,-2.2817444E-2],"split_indices":[12,16,0,5,0,9,13,4,0,1,5,5,11,0,16,13,1,16,17,1,1,11,7,6,0,0,4,1,8,9,3,0,0,0,0,0,0,0,0,0,0,0,0,0,0,0,0,0,0,0,0,0,0,0,0,0,0,0,0,0,0,0,0],"split_type":[0,0,0,0,0,0,0,0,0,0,0,0,0,0,0,0,0,0,0,0,0,0,0,0,0,0,0,0,0,0,0,0,0,0,0,0,0,0,0,0,0,0,0,0,0,0,0,0,0,0,0,0,0,0,0,0,0,0,0,0,0,0,0],"sum_hessian":[2.4264975E4,2.020674E4,4.0582334E3,8.547512E3,1.16592295E4,3.4159626E3,6.422708E2,7.68466E3,8.62851E2,8.8181E3,2.8411301E3,9.72666E2,2.4432966E3,5.0793994E2,1.3433089E2,4.743254E3,2.9414062E3,5.8668884E2,2.7616217E2,6.0349775E3,2.7831218E3,2.2942458E3,5.4688446E2,4.2377206E2,5.488939E2,2.0079053E2,2.242506E3,2.3338252E2,2.745574E2,3.7565678E1,9.6765205E1,3.454823E3,1.288431E3,1.5237493E3,1.417657E3,1.2728366E2,4.594052E2,1.668695E2,1.0929266E2,5.0056113E3,1.0293665E3,1.4181445E3,1.3649773E3,5.0986194E2,1.7843839E3,2.3893698E2,3.0794745E2,3.5266327E2,7.11088E1,2.0844127E2,3.404527E2,6.874925E1,1.3204128E2,2.1979983E3,4.4507774E1,2.097618E2,2.362074E1,2.6274728E2,1.1810123E1,3.1697674E1,5.8680034E0,6.737054E1,2.9394669E1],"tree_param":{"num_deleted":"0","num_feature":"47","num_nodes":"63","size_leaf_vector":"1"}},{"base_weights":[6.107109E-2,-2.6993912E-3,1.7523593E-1,-3.054089E-1,3.570687E-2,2.7619898E-1,-6.648857E-2,-4.4823396E-1,-1.07565604E-1,-3.7632257E-1,5.046264E-2,1.3329725E-1,3.6277243E-1,1.283992E-1,-1.8860695E-1,-2.0836832E-1,-6.6307944E-1,-4.265312E-2,-4.8310938E-1,-7.054079E-2,-5.154594E-1,-7.8086504E-3,1.4026837E-1,3.1831503E-1,-9.754834E-2,4.4692534E-1,2.4105336E-1,-2.5871706E-1,2.1179068E-1,-4.4220945E-1,-5.9377126E-2,-2.9296333E-2,3.3211056E-3,-9.608819E-2,-3.6192697E-2,8.6644115E-3,-1.3345935E-2,-0E0,-5.76745E-2,5.3086514E-3,-1.91659E-2,-0E0,-5.0627183E-2,1.5841741E-2,-4.9513727E-3,2.3904998E-2,9.2924526E-4,4.756606E-3,3.1798728E-2,4.7359597E-3,-2.4050193E-2,3.704549E-2,-6.7325393E-3,-6.7444295E-3,2.2758909E-2,-0E0,-6.0889326E-2,4.7901258E-2,1.1419517E-2,-5.6575753E-2,-2.0638784E-2,-2.3291461E-2,1.3561518E-3],"categories":[],"categories_nodes":[],"categories_segments":[],"categories_sizes":[],"default_left":[0,0,0,0,1,1,0,0,0,0,0,0,0,0,0,0,0,0,0,0,0,0,0,0,0,0,0,0,0,0,1,0,0,0,0,0,0,0,0,0,0,0,0,0,0,0,0,0,0,0,0,0,0,0,0,0,0,0,0,0,0,0,0],"id":18,"left_children":[1,3,5,7,9,11,13,15,17,19,21,23,25,27,29,31,33,35,37,39,41,43,45,47,49,51,53,55,57,59,61,-1,-1,-1,-1,-1,-1,-1,-1,-1,-1,-1,-1,-1,-1,-1,-1,-1,-1,-1,-1,-1,-1,-1,-1,-1,-1,-1,-1,-1,-1,-1,-1],"loss_changes":[1.781615E2,1.8289615E2,2.1504019E2,4.634503E1,8.22265E1,7.322113E1,6.1695053E1,4.5581726E1,1.5490904E1,1.593499E1,7.073866E1,1.0309651E2,3.4117035E1,3.1685461E1,4.9239468E1,2.211057E1,4.369722E1,1.3391074E1,9.255438E0,5.120604E0,1.9708206E1,8.987408E1,1.0694226E2,2.4910904E1,3.5257313E1,2.378894E1,2.4788925E1,2.1348179E1,1.6649433E1,1.8262772E1,2.1027868E1,0E0,0E0,0E0,0E0,0E0,0E0,0E0,0E0,0E0,0E0,0E0,0E0,0E0,0E0,0E0,0E0,0E0,0E0,0E0,0E0,0E0,0E0,0E0,0E0,0E0,0E0,0E0,0E0,0E0,0E0,0E0,0E0],"parents":[2147483647,0,0,1,1,2,2,3,3,4,4,5,5,6,6,7,7,8,8,9,9,10,10,11,11,12,12,13,13,14,14,15,15,16,16,17,17,18,18,19,19,20,20,21,21,22,22,23,23,24,24,25,25,26,26,27,27,28,28,29,29,30,30],"right_children":[2,4,6,8,10,12,14,16,18,20,22,24,26,28,30,32,34,36,38,40,42,44,46,48,50,52,54,56,58,60,62,-1,-1,-1,-1,-1,-1,-1,-1,-1,-1,-1,-1,-1,-1,-1,-1,-1,-1,-1,-1,-1,-1,-1,-1,-1,-1,-1,-1,-1,-1,-1,-1],"split_conditions":[7.183159E7,7E0,2.5041667E8,9E0,8.3E1,1E0,9.2618056E7,1E0,5.05E2,1.2E1,3.5532136E7,1.2476534E8,9.37215E7,8.426512E7,1.3E1,1.3E1,2.7E1,3.9030292E7,1.4E1,4E1,2.532438E6,3.90747E7,1.680576E8,1.1E1,9.294045E7,9E0,2E0,2E0,8.467898E7,8E0,4E0,-2.9296333E-2,3.3211056E-3,-9.608819E-2,-3.6192697E-2,8.6644115E-3,-1.3345935E-2,-0E0,-5.76745E-2,5.3086514E-3,-1.91659E-2,-0E0,-5.0627183E-2,1.5841741E-2,-4.9513727E-3,2.3904998E-2,9.2924526E-4,4.756606E-3,3.1798728E-2,4.7359597E-3,-2.4050193E-2,3.704549E-2,-6.7325393E-3,-6.7444295E-3,2.2758909E-2,-0E0,-6.0889326E-2,4.7901258E-2,1.1419517E-2,-5.6575753E-2,-2.0638784E-2,-2.3291461E-2,1.3561518E-3],"split_indices":[1,8,0,16,15,8,1,10,15,8,1,0,1,1,11,11,9,1,11,9,1,0,0,11,1,4,7,10,1,16,8,0,0,0,0,0,0,0,0,0,0,0,0,0,0,0,0,0,0,0,0,0,0,0,0,0,0,0,0,0,0,0,0],"split_type":[0,0,0,0,0,0,0,0,0,0,0,0,0,0,0,0,0,0,0,0,0,0,0,0,0,0,0,0,0,0,0,0,0,0,0,0,0,0,0,0,0,0,0,0,0,0,0,0,0,0,0,0,0,0,0,0,0,0,0,0,0,0,0],"sum_hessian":[2.4319877E4,1.5575484E4,8.744392E3,1.7644886E3,1.3810995E4,6.184779E3,2.5596133E3,1.00071466E3,7.63774E2,4.5608072E2,1.3354915E4,2.36781E3,3.8169688E3,9.6688934E2,1.5927239E3,4.9410794E2,5.0660672E2,6.7308496E2,9.0689E1,1.6022119E2,2.9585953E2,8.063686E3,5.291229E3,1.327004E3,1.0408059E3,2.2138489E3,1.6031199E3,1.5536438E2,8.1152496E2,5.1485956E2,1.0778644E3,3.1406458E2,1.8004337E2,1.2135143E2,3.8525528E2,2.8291257E2,3.9017242E2,3.740451E1,5.3284492E1,7.2005936E1,8.821526E1,5.5194042E1,2.406655E2,1.6509995E3,6.4126865E3,2.3343933E3,2.9568357E3,3.3686807E2,9.90136E2,5.753168E2,4.6548914E2,2.1536294E3,6.021948E1,1.7562526E2,1.4274946E3,1.0864756E2,4.671682E1,9.822542E1,7.1329956E2,1.8576382E2,3.2909573E2,2.7963406E2,7.982302E2],"tree_param":{"num_deleted":"0","num_feature":"47","num_nodes":"63","size_leaf_vector":"1"}},{"base_weights":[4.8749935E-2,9.65585E-3,2.4615996E-1,-1.6207378E-1,6.020311E-2,2.9806817E-1,5.582792E-3,-5.3654325E-1,-1.2309474E-1,-4.612413E-2,1.2081714E-1,1.4222187E-1,3.544811E-1,1.3557476E-1,-2.8528744E-1,-0E0,-6.097733E-1,2.60552E-1,-1.5292218E-1,1.4369706E-2,-2.715508E-1,1.6368507E-1,-1.9909434E-2,-2.3469932E-1,2.0361412E-1,5.7057697E-1,3.076343E-1,-2.131222E-1,1.7830177E-1,-5.448498E-1,-0E0,-1.8394519E-2,1.4886631E-2,-6.3584246E-2,-2.162255E-2,1.1599647E-3,3.646731E-2,-1.7880376E-2,-1.0122731E-3,7.625196E-3,-1.05861E-2,-1.734152E-2,-6.565529E-2,1.3706293E-2,-3.3210456E-2,3.0722085E-3,-2.1840693E-2,1.1282277E-2,-3.636796E-2,2.1745356E-2,-6.736379E-3,4.7186926E-2,-0E0,1.0120405E-2,2.8558671E-2,-0E0,-2.1024438E-2,1.8117933E-2,-8.789039E-3,-6.719886E-2,-8.130782E-3,1.1121112E-2,-6.2619755E-3],"categories":[],"categories_nodes":[],"categories_segments":[],"categories_sizes":[],"default_left":[0,0,0,1,0,0,0,0,0,0,0,0,0,0,0,0,0,0,0,0,0,0,0,0,0,0,1,0,0,0,0,0,0,0,0,0,0,0,0,0,0,0,0,0,0,0,0,0,0,0,0,0,0,0,0,0,0,0,0,0,0,0,0],"id":19,"left_children":[1,3,5,7,9,11,13,15,17,19,21,23,25,27,29,31,33,35,37,39,41,43,45,47,49,51,53,55,57,59,61,-1,-1,-1,-1,-1,-1,-1,-1,-1,-1,-1,-1,-1,-1,-1,-1,-1,-1,-1,-1,-1,-1,-1,-1,-1,-1,-1,-1,-1,-1,-1,-1],"loss_changes":[1.8434851E2,1.7430852E2,4.756372E1,6.1957863E1,1.0100231E2,2.5003632E1,2.709292E1,1.6356781E1,4.720884E1,7.838825E1,6.104251E1,2.1101927E1,1.6887238E1,7.952174E0,1.7147799E1,2.853085E0,1.4821289E1,1.1071934E1,3.7340508E1,5.2885155E1,2.833361E1,3.6130432E1,3.572431E1,1.2181168E1,1.7176224E1,4.776596E0,1.4687653E1,6.7234564E-1,7.832799E0,8.971779E0,1.4051975E0,0E0,0E0,0E0,0E0,0E0,0E0,0E0,0E0,0E0,0E0,0E0,0E0,0E0,0E0,0E0,0E0,0E0,0E0,0E0,0E0,0E0,0E0,0E0,0E0,0E0,0E0,0E0,0E0,0E0,0E0,0E0,0E0],"parents":[2147483647,0,0,1,1,2,2,3,3,4,4,5,5,6,6,7,7,8,8,9,9,10,10,11,11,12,12,13,13,14,14,15,15,16,16,17,17,18,18,19,19,20,20,21,21,22,22,23,23,24,24,25,25,26,26,27,27,28,28,29,29,30,30],"right_children":[2,4,6,8,10,12,14,16,18,20,22,24,26,28,30,32,34,36,38,40,42,44,46,48,50,52,54,56,58,60,62,-1,-1,-1,-1,-1,-1,-1,-1,-1,-1,-1,-1,-1,-1,-1,-1,-1,-1,-1,-1,-1,-1,-1,-1,-1,-1,-1,-1,-1,-1,-1,-1],"split_conditions":[1E0,1E0,2.7699085E8,7.9E1,7E0,3E1,9.010349E7,3.546771E7,1.1E2,2E0,2E0,8E1,1.0643153E8,3.2788916E7,4.8E1,1E0,5.8633696E7,8.1E1,7.183159E7,1.7352546E8,1.0147919E8,8.6E1,2.5750363E8,7.8E1,2E0,2E0,2E0,1E0,4.83E2,3.5020563E8,5.7E1,-1.8394519E-2,1.4886631E-2,-6.3584246E-2,-2.162255E-2,1.1599647E-3,3.646731E-2,-1.7880376E-2,-1.0122731E-3,7.625196E-3,-1.05861E-2,-1.734152E-2,-6.565529E-2,1.3706293E-2,-3.3210456E-2,3.0722085E-3,-2.1840693E-2,1.1282277E-2,-3.636796E-2,2.1745356E-2,-6.736379E-3,4.7186926E-2,-0E0,1.0120405E-2,2.8558671E-2,-0E0,-2.1024438E-2,1.8117933E-2,-8.789039E-3,-6.719886E-2,-8.130782E-3,1.1121112E-2,-6.2619755E-3],"split_indices":[12,42,0,14,6,9,1,0,14,6,18,14,0,1,9,3,1,14,1,0,1,9,0,14,18,22,8,2,14,0,9,0,0,0,0,0,0,0,0,0,0,0,0,0,0,0,0,0,0,0,0,0,0,0,0,0,0,0,0,0,0,0,0],"split_type":[0,0,0,0,0,0,0,0,0,0,0,0,0,0,0,0,0,0,0,0,0,0,0,0,0,0,0,0,0,0,0,0,0,0,0,0,0,0,0,0,0,0,0,0,0,0,0,0,0,0,0,0,0,0,0,0,0,0,0,0,0,0,0],"sum_hessian":[2.4080152E4,2.013271E4,3.9474429E3,4.5469224E3,1.5585788E4,3.224623E3,7.2281976E2,4.0370984E2,4.1432124E3,5.623723E3,9.962065E3,8.934481E2,2.3311748E3,5.1704205E2,2.0577771E2,4.9108433E1,3.546014E2,2.795129E2,3.8636997E3,4.4192485E3,1.2044745E3,7.6676587E3,2.2944065E3,1.08000496E2,7.8544763E2,3.7521518E2,1.9559597E3,3.731035E1,4.797317E2,1.07893555E2,9.7884155E1,2.0447395E1,2.8661037E1,2.0896373E2,1.4563766E2,1.4201772E2,1.374952E2,2.5277805E3,1.3359191E3,2.8750356E3,1.5442128E3,1.1182008E3,8.6273766E1,7.575772E3,9.188659E1,1.8520802E3,4.423262E2,3.1141008E1,7.685949E1,6.504561E2,1.3499152E2,3.6144238E2,1.3772769E1,4.6140704E2,1.4945527E3,6.308932E0,3.1001417E1,4.2942694E2,5.0304745E1,5.1672165E1,5.6221394E1,4.351419E1,5.436996E1],"tree_param":{"num_deleted":"0","num_feature":"47","num_nodes":"63","size_leaf_vector":"1"}},{"base_weights":[5.0353285E-2,1.1513636E-2,2.4701113E-1,-4.4184346E-2,1.3565229E-1,3.2408467E-1,8.26893E-2,-2.003095E-1,3.343326E-4,1.8108335E-1,-2.7332667E-1,1.0143142E-1,3.6638165E-1,-1.2238624E-1,1.7705755E-1,-4.907716E-2,-2.8386027E-1,4.655416E-2,-1.4680941E-1,5.446199E-2,2.6722568E-1,-7.6620114E-1,-1.7604625E-1,-2.968674E-1,2.1303812E-1,4.0827006E-1,1.5361078E-1,2.5816314E-2,-3.4416512E-1,-0E0,3.1649947E-1,1.8407468E-2,-1.20128235E-2,-4.1927975E-2,-1.6571203E-2,8.091613E-3,-5.4428433E-3,-1.9469324E-2,5.889507E-3,1.6184546E-2,-1.1053719E-2,2.9377619E-2,7.7945422E-3,-1.5724258E-2,-8.693221E-2,-2.0209178E-2,8.946351E-3,-5.078417E-2,1.0953821E-2,2.3005455E-4,2.9829424E-2,2.091941E-3,3.445483E-2,-2.209471E-2,1.5072731E-2,-2.6993655E-2,1.0862066E-2,-5.0545756E-2,8.033797E-4,2.1527281E-2,-3.7669032E-3,-0E0,3.1696834E-2],"categories":[],"categories_nodes":[],"categories_segments":[],"categories_sizes":[],"default_left":[0,0,0,0,0,0,0,0,0,1,0,0,0,0,0,0,0,0,0,0,0,0,0,0,0,0,0,0,0,0,0,0,0,0,0,0,0,0,0,0,0,0,0,0,0,0,0,0,0,0,0,0,0,0,0,0,0,0,0,0,0,0,0],"id":20,"left_children":[1,3,5,7,9,11,13,15,17,19,21,23,25,27,29,31,33,35,37,39,41,43,45,47,49,51,53,55,57,59,61,-1,-1,-1,-1,-1,-1,-1,-1,-1,-1,-1,-1,-1,-1,-1,-1,-1,-1,-1,-1,-1,-1,-1,-1,-1,-1,-1,-1,-1,-1,-1,-1],"loss_changes":[1.8253769E2,1.4002133E2,4.7343445E1,9.7759186E1,1.1657075E2,2.1922852E1,2.562769E1,3.720397E1,7.28278E1,5.979799E1,2.280569E1,2.04664E1,1.57752075E1,1.4939751E1,2.125239E1,3.2378426E1,3.1009079E1,5.233593E1,5.6043804E1,6.767074E1,5.4342316E1,6.8510094E0,1.3115692E1,1.74203E1,1.0455069E1,1.3855164E1,6.0614204E0,8.363995E0,2.1755833E1,6.4094877E0,1.2350361E1,0E0,0E0,0E0,0E0,0E0,0E0,0E0,0E0,0E0,0E0,0E0,0E0,0E0,0E0,0E0,0E0,0E0,0E0,0E0,0E0,0E0,0E0,0E0,0E0,0E0,0E0,0E0,0E0,0E0,0E0,0E0,0E0],"parents":[2147483647,0,0,1,1,2,2,3,3,4,4,5,5,6,6,7,7,8,8,9,9,10,10,11,11,12,12,13,13,14,14,15,15,16,16,17,17,18,18,19,19,20,20,21,21,22,22,23,23,24,24,25,25,26,26,27,27,28,28,29,29,30,30],"right_children":[2,4,6,8,10,12,14,16,18,20,22,24,26,28,30,32,34,36,38,40,42,44,46,48,50,52,54,56,58,60,62,-1,-1,-1,-1,-1,-1,-1,-1,-1,-1,-1,-1,-1,-1,-1,-1,-1,-1,-1,-1,-1,-1,-1,-1,-1,-1,-1,-1,-1,-1,-1,-1],"split_conditions":[1E0,7.726913E7,2.2595565E8,1E0,1.25482856E8,1.9E1,7E0,7.2525816E7,2E0,4E0,5E0,7E0,8E0,3.39E2,1.6E1,1E0,2.3147272E7,1.6612101E8,6E0,1.5072752E8,2.24336E8,2.84E2,1.8166555E8,6E0,2.6029484E7,5E0,1.2E2,1E1,2.1E1,5E0,2.4E2,1.8407468E-2,-1.20128235E-2,-4.1927975E-2,-1.6571203E-2,8.091613E-3,-5.4428433E-3,-1.9469324E-2,5.889507E-3,1.6184546E-2,-1.1053719E-2,2.9377619E-2,7.7945422E-3,-1.5724258E-2,-8.693221E-2,-2.0209178E-2,8.946351E-3,-5.078417E-2,1.0953821E-2,2.3005455E-4,2.9829424E-2,2.091941E-3,3.445483E-2,-2.209471E-2,1.5072731E-2,-2.6993655E-2,1.0862066E-2,-5.0545756E-2,8.033797E-4,2.1527281E-2,-3.7669032E-3,-0E0,3.1696834E-2],"split_indices":[12,1,0,42,1,9,6,0,18,8,8,8,4,13,11,2,1,0,7,0,0,13,1,4,1,16,13,9,11,4,14,0,0,0,0,0,0,0,0,0,0,0,0,0,0,0,0,0,0,0,0,0,0,0,0,0,0,0,0,0,0,0,0],"split_type":[0,0,0,0,0,0,0,0,0,0,0,0,0,0,0,0,0,0,0,0,0,0,0,0,0,0,0,0,0,0,0,0,0,0,0,0,0,0,0,0,0,0,0,0,0,0,0,0,0,0,0,0,0,0,0,0,0,0,0,0,0,0,0],"sum_hessian":[2.4096281E4,2.0155363E4,3.940918E3,1.3883381E4,6.2719814E3,2.6520122E3,1.2889059E3,3.1036682E3,1.0779713E4,5.662494E3,6.0948755E2,4.5075854E2,2.2012537E3,3.853062E2,9.035997E2,1.1349805E3,1.9686879E3,8.238626E3,2.541087E3,2.326571E3,3.3359229E3,8.046282E1,5.290248E2,8.372417E1,3.6703436E2,1.8089177E3,3.9233594E2,2.1930463E2,1.660016E2,4.146049E2,4.8899475E2,2.8358862E2,8.513918E2,4.3864044E2,1.5300475E3,5.607618E3,2.6310076E3,1.7808011E3,7.602857E2,1.3322279E3,9.943433E2,2.0583093E3,1.2776134E3,4.102014E1,3.9442684E1,4.3415692E2,9.486783E1,5.242989E1,3.1294277E1,1.7937279E2,1.8766158E2,1.23079285E2,1.6858385E3,1.2502088E1,3.7983386E2,3.418931E1,1.8511531E2,9.683261E1,6.916898E1,6.831174E1,3.4629315E2,1.0444462E2,3.8455014E2],"tree_param":{"num_deleted":"0","num_feature":"47","num_nodes":"63","size_leaf_vector":"1"}},{"base_weights":[4.9409293E-2,1.211774E-2,2.3961438E-1,-1.21917516E-1,5.984453E-2,3.08335E-1,1.1917896E-1,-3.0791798E-1,-7.516062E-2,1.1409006E-1,-3.2469783E-2,3.6343804E-1,1.3789271E-1,7.988917E-3,2.7084324E-1,-2.3447551E-1,-6.785447E-1,-1.3796343E-1,5.428638E-2,1.329919E-2,2.4177285E-1,-5.2497387E-1,-9.683846E-3,5.0637037E-1,3.153661E-1,-3.5094953E-1,2.1732189E-1,8.3052106E-2,-2.7481052E-1,-4.299339E-2,3.113799E-1,-2.806091E-2,-1.2394702E-3,-6.396756E-2,-0E0,-1.757872E-2,-1.3903505E-3,1.4183262E-2,-9.360481E-3,1.0086432E-2,-7.0188446E-3,1.29844565E-2,2.5556589E-2,-1.4267171E-2,-7.6877154E-2,-1.4691363E-2,3.3522518E-3,4.2231455E-2,-0E0,3.0466596E-2,7.289532E-3,-4.3307673E-2,-0E0,-4.553649E-3,2.2759434E-2,-5.048987E-3,1.077717E-2,-0E0,-3.0065872E-2,8.069097E-3,-3.541442E-2,2.7271016E-2,-0E0],"categories":[],"categories_nodes":[],"categories_segments":[],"categories_sizes":[],"default_left":[0,0,0,0,0,0,0,0,0,0,0,0,0,1,1,1,0,1,0,0,1,0,1,0,0,0,0,0,0,0,0,0,0,0,0,0,0,0,0,0,0,0,0,0,0,0,0,0,0,0,0,0,0,0,0,0,0,0,0,0,0,0,0],"id":21,"left_children":[1,3,5,7,9,11,13,15,17,19,21,23,25,27,29,31,33,35,37,39,41,43,45,47,49,51,53,55,57,59,61,-1,-1,-1,-1,-1,-1,-1,-1,-1,-1,-1,-1,-1,-1,-1,-1,-1,-1,-1,-1,-1,-1,-1,-1,-1,-1,-1,-1,-1,-1,-1,-1],"loss_changes":[1.6905429E2,1.2855162E2,2.9518219E1,4.323413E1,7.5103424E1,1.9616562E1,2.306783E1,2.111074E1,3.503705E1,1.1971738E2,5.82185E1,6.2086487E0,2.4730112E1,1.7705442E1,9.337364E0,2.0523132E1,1.457637E1,2.729528E1,2.9433815E1,6.1204502E1,2.2338577E1,2.6675888E1,4.8431595E1,6.4074554E0,1.8116196E1,8.340682E0,1.2136963E1,5.992266E0,4.9523926E0,5.8715496E0,6.222622E0,0E0,0E0,0E0,0E0,0E0,0E0,0E0,0E0,0E0,0E0,0E0,0E0,0E0,0E0,0E0,0E0,0E0,0E0,0E0,0E0,0E0,0E0,0E0,0E0,0E0,0E0,0E0,0E0,0E0,0E0,0E0,0E0],"parents":[2147483647,0,0,1,1,2,2,3,3,4,4,5,5,6,6,7,7,8,8,9,9,10,10,11,11,12,12,13,13,14,14,15,15,16,16,17,17,18,18,19,19,20,20,21,21,22,22,23,23,24,24,25,25,26,26,27,27,28,28,29,29,30,30],"right_children":[2,4,6,8,10,12,14,16,18,20,22,24,26,28,30,32,34,36,38,40,42,44,46,48,50,52,54,56,58,60,62,-1,-1,-1,-1,-1,-1,-1,-1,-1,-1,-1,-1,-1,-1,-1,-1,-1,-1,-1,-1,-1,-1,-1,-1,-1,-1,-1,-1,-1,-1,-1,-1],"split_conditions":[1E0,1.1E1,2.1310597E8,6E0,1.7445582E8,4E0,1.9E1,2.4536494E8,7.286471E7,3.0474208E7,2.5522028E7,1.0643153E8,7E0,3.97E2,1E0,7E0,6.93E2,2.56E2,1.9077589E8,7.034452E7,3E0,2.3147272E7,4E0,2E0,1.6E1,8.571636E7,1E0,1E1,1.62E2,2E0,1.03534696E8,-2.806091E-2,-1.2394702E-3,-6.396756E-2,-0E0,-1.757872E-2,-1.3903505E-3,1.4183262E-2,-9.360481E-3,1.0086432E-2,-7.0188446E-3,1.29844565E-2,2.5556589E-2,-1.4267171E-2,-7.6877154E-2,-1.4691363E-2,3.3522518E-3,4.2231455E-2,-0E0,3.0466596E-2,7.289532E-3,-4.3307673E-2,-0E0,-4.553649E-3,2.2759434E-2,-5.048987E-3,1.077717E-2,-0E0,-3.0065872E-2,8.069097E-3,-3.541442E-2,2.7271016E-2,-0E0],"split_indices":[12,11,0,11,0,5,11,0,1,1,1,0,8,15,8,8,15,15,0,0,8,1,8,22,8,1,42,11,13,5,1,0,0,0,0,0,0,0,0,0,0,0,0,0,0,0,0,0,0,0,0,0,0,0,0,0,0,0,0,0,0,0,0],"split_type":[0,0,0,0,0,0,0,0,0,0,0,0,0,0,0,0,0,0,0,0,0,0,0,0,0,0,0,0,0,0,0,0,0,0,0,0,0,0,0,0,0,0,0,0,0,0,0,0,0,0,0,0,0,0,0,0,0,0,0,0,0,0,0],"sum_hessian":[2.4042049E4,2.0135172E4,3.9068767E3,5.2504526E3,1.488472E4,2.4471184E3,1.4597582E3,1.019178E3,4.231275E3,9.415237E3,5.469483E3,1.8151969E3,6.3192145E2,8.703971E2,5.8936115E2,8.759614E2,1.4321655E2,2.8799175E3,1.3513572E3,5.2933735E3,4.1218633E3,2.2175056E2,5.2477324E3,4.0459195E2,1.410605E3,7.3608444E1,5.5831305E2,7.094609E2,1.6093619E2,5.0392925E1,5.389682E2,5.485101E2,3.2745135E2,1.2250324E2,2.0713314E1,1.6747981E3,1.2051195E3,8.057578E2,5.4559937E2,2.5270195E3,2.7663542E3,2.1131516E3,2.0087117E3,1.385758E2,8.317476E1,1.2208868E3,4.0268457E3,3.9150064E2,1.3091304E1,1.0606001E3,3.500048E2,5.3895397E1,1.9713045E1,9.394211E1,4.6437094E2,1.5565361E2,5.538073E2,4.481182E1,1.1612436E2,3.0817863E1,1.9575062E1,4.979223E2,4.1045933E1],"tree_param":{"num_deleted":"0","num_feature":"47","num_nodes":"63","size_leaf_vector":"1"}},{"base_weights":[4.6872012E-2,-2.6875366E-2,1.1413791E-1,3.65793E-2,-2.0960647E-1,1.2668961E-1,-3.045513E-1,-1.8328296E-1,9.33481E-2,-1.4961323E-1,-5.1598793E-1,1.3847275E-1,-2.2680897E-1,-1.8760087E-1,-6.98646E-1,3.1086408E-2,-2.3624872E-1,1.38925E-1,-7.129874E-2,-2.8421786E-1,-5.8046453E-2,-1.552914E0,-3.8409904E-1,2.830876E-1,1.1399056E-1,-3.9548513E-1,8.759363E-2,-2.3273815E-1,4.513369E-3,-0E0,-9.13392E-1,8.048691E-3,-2.578303E-2,-3.1919926E-2,-8.31038E-3,1.4986159E-2,7.2961237E-4,-1.5001708E-2,8.346773E-3,-3.0067276E-2,-3.930984E-3,-7.512958E-3,1.971427E-2,-1.4019991E-1,-0E0,-0E0,-3.8483426E-2,2.4283998E-2,-7.7001117E-3,1.2142479E-2,1.582226E-4,-5.1637225E-2,-3.8831244E-4,1.7508643E-2,-9.67773E-3,-0E0,-2.2895226E-2,-9.5662E-2,-0E0],"categories":[],"categories_nodes":[],"categories_segments":[],"categories_sizes":[],"default_left":[0,0,0,0,1,0,0,0,0,0,0,0,0,0,0,0,1,0,0,0,1,0,0,0,0,1,0,0,0,0,0,0,0,0,0,0,0,0,0,0,0,0,0,0,0,0,0,0,0,0,0,0,0,0,0,0,0,0,0],"id":22,"left_children":[1,3,5,7,9,11,13,15,17,19,21,23,25,27,29,31,33,35,37,39,41,43,45,47,49,51,53,55,-1,-1,57,-1,-1,-1,-1,-1,-1,-1,-1,-1,-1,-1,-1,-1,-1,-1,-1,-1,-1,-1,-1,-1,-1,-1,-1,-1,-1,-1,-1],"loss_changes":[1.19248634E2,1.3303958E2,6.5260605E1,1.0480617E2,4.9709213E1,5.0610245E1,9.858139E0,2.0722267E1,5.096716E1,2.8645351E1,4.671354E1,3.925432E1,2.2344309E1,4.4435034E0,8.010986E0,6.980411E0,2.6855469E1,3.2580605E1,3.022138E1,1.8793259E1,1.6175133E1,6.050911E0,1.9153378E1,1.5242935E1,4.2805664E1,2.1868252E1,4.345316E0,4.929124E0,0E0,0E0,8.263313E0,0E0,0E0,0E0,0E0,0E0,0E0,0E0,0E0,0E0,0E0,0E0,0E0,0E0,0E0,0E0,0E0,0E0,0E0,0E0,0E0,0E0,0E0,0E0,0E0,0E0,0E0,0E0,0E0],"parents":[2147483647,0,0,1,1,2,2,3,3,4,4,5,5,6,6,7,7,8,8,9,9,10,10,11,11,12,12,13,13,14,14,15,15,16,16,17,17,18,18,19,19,20,20,21,21,22,22,23,23,24,24,25,25,26,26,27,27,30,30],"right_children":[2,4,6,8,10,12,14,16,18,20,22,24,26,28,30,32,34,36,38,40,42,44,46,48,50,52,54,56,-1,-1,58,-1,-1,-1,-1,-1,-1,-1,-1,-1,-1,-1,-1,-1,-1,-1,-1,-1,-1,-1,-1,-1,-1,-1,-1,-1,-1,-1,-1],"split_conditions":[4E0,2E0,9E0,8E0,3.97E2,3.9E1,9E0,5.249418E7,2E0,2.41E2,4E0,1E0,1.1E1,2E0,1.5E1,8E0,4E0,1E0,7E0,4E0,3.85E2,5.8E2,7.785677E7,8.1E1,2.0712994E8,6E0,7.7E1,6.3189816E7,4.513369E-3,-0E0,2E0,8.048691E-3,-2.578303E-2,-3.1919926E-2,-8.31038E-3,1.4986159E-2,7.2961237E-4,-1.5001708E-2,8.346773E-3,-3.0067276E-2,-3.930984E-3,-7.512958E-3,1.971427E-2,-1.4019991E-1,-0E0,-0E0,-3.8483426E-2,2.4283998E-2,-7.7001117E-3,1.2142479E-2,1.582226E-4,-5.1637225E-2,-3.8831244E-4,1.7508643E-2,-9.67773E-3,-0E0,-2.2895226E-2,-9.5662E-2,-0E0],"split_indices":[7,10,4,11,14,11,7,0,18,14,4,35,7,18,11,4,8,10,4,10,14,14,0,9,0,8,9,0,0,0,5,0,0,0,0,0,0,0,0,0,0,0,0,0,0,0,0,0,0,0,0,0,0,0,0,0,0,0,0],"split_type":[0,0,0,0,0,0,0,0,0,0,0,0,0,0,0,0,0,0,0,0,0,0,0,0,0,0,0,0,0,0,0,0,0,0,0,0,0,0,0,0,0,0,0,0,0,0,0,0,0,0,0,0,0,0,0,0,0,0,0],"sum_hessian":[2.3918982E4,1.136964E4,1.2549343E4,8.419825E3,2.9498145E3,1.2203887E4,3.4545612E2,1.7021804E3,6.717645E3,2.4939763E3,4.5583813E2,1.1831774E4,3.7211304E2,2.880226E2,5.7433483E1,3.154664E2,1.3867141E3,5.290903E3,1.4267422E3,9.757428E2,1.5182335E3,3.5762424E1,4.200757E2,1.6642292E3,1.0167545E4,2.5317307E2,1.1893997E2,2.6421436E2,2.3808268E1,1.7823433E1,3.961005E1,2.8285236E2,3.2614063E1,5.895957E2,7.9711835E2,3.8016885E3,1.4892144E3,8.7741364E2,5.4932855E2,6.7676636E2,2.9897647E2,1.3802006E3,1.3803293E2,2.7909298E1,7.853127E0,7.533632E1,3.4473938E2,1.5911499E3,7.307929E1,7.5307656E3,2.6367793E3,1.4096841E2,1.1220465E2,9.0232E1,2.870797E1,3.406517E1,2.3014919E2,2.5023457E1,1.4586593E1],"tree_param":{"num_deleted":"0","num_feature":"47","num_nodes":"59","size_leaf_vector":"1"}},{"base_weights":[3.7865866E-2,-1.4302751E-1,7.035345E-2,-2.5472796E-1,-5.056148E-2,3.2525352E-1,4.8913848E-2,-4.833198E-1,-1.7710651E-1,-3.0473636E-2,-6.5815127E-1,3.4639528E-1,-2.3473503E-1,-6.749176E-2,9.9633515E-2,-5.8697957E-1,-1.3074076E-1,-3.0398428E-1,-6.802761E-2,-1.2841438E-1,7.7984765E-2,-6.9331326E-2,-0E0,3.6140862E-1,-5.99874E-2,-0E0,-3.780822E-1,-4.0297195E-1,-4.7774147E-2,1.3788219E-1,-3.048497E-2,-7.143235E-2,-3.188221E-2,-0E0,-2.989485E-2,-8.376754E-3,-4.5520965E-2,1.275615E-2,-9.547695E-3,-6.051095E-3,-3.8377833E-2,-6.8244236E-3,9.982757E-3,3.1006819E-2,1.5819714E-3,6.7128416E-4,-2.0922849E-2,-0E0,-4.1178703E-2,-1.8624846E-2,-7.690798E-2,-1.4696402E-2,-4.9907895E-4,4.7708492E-4,1.4060645E-2,-7.847591E-4,-4.2287495E-2],"categories":[],"categories_nodes":[],"categories_segments":[],"categories_sizes":[],"default_left":[1,1,0,0,1,0,0,0,0,0,0,0,0,0,0,1,0,0,0,0,0,0,0,0,0,0,0,0,0,0,0,0,0,0,0,0,0,0,0,0,0,0,0,0,0,0,0,0,0,0,0,0,0,0,0,0,0],"id":23,"left_children":[1,3,5,7,9,11,13,15,17,19,21,23,25,27,29,31,33,35,37,39,41,-1,-1,43,45,-1,47,49,51,53,55,-1,-1,-1,-1,-1,-1,-1,-1,-1,-1,-1,-1,-1,-1,-1,-1,-1,-1,-1,-1,-1,-1,-1,-1,-1,-1],"loss_changes":[1.4015805E2,3.538922E1,1.0856648E2,2.3776855E1,2.031607E1,1.9748566E1,1.1100868E2,8.994865E0,1.4633266E1,2.1337835E1,9.497105E0,1.1208099E1,3.52171E0,3.4579514E1,6.590776E1,5.281166E0,5.4701138E0,2.4190071E1,8.179426E0,1.6139765E1,7.386187E0,0E0,0E0,1.1373184E1,2.1971347E0,0E0,6.048155E-1,1.9024307E1,2.9329464E1,5.0582275E1,2.7141233E1,0E0,0E0,0E0,0E0,0E0,0E0,0E0,0E0,0E0,0E0,0E0,0E0,0E0,0E0,0E0,0E0,0E0,0E0,0E0,0E0,0E0,0E0,0E0,0E0,0E0,0E0],"parents":[2147483647,0,0,1,1,2,2,3,3,4,4,5,5,6,6,7,7,8,8,9,9,10,10,11,11,12,12,13,13,14,14,15,15,16,16,17,17,18,18,19,19,20,20,23,23,24,24,26,26,27,27,28,28,29,29,30,30],"right_children":[2,4,6,8,10,12,14,16,18,20,22,24,26,28,30,32,34,36,38,40,42,-1,-1,44,46,-1,48,50,52,54,56,-1,-1,-1,-1,-1,-1,-1,-1,-1,-1,-1,-1,-1,-1,-1,-1,-1,-1,-1,-1,-1,-1,-1,-1,-1,-1],"split_conditions":[8.7E1,2.41E2,1.35E2,1E0,1.5E1,4E0,2.48E2,1.8379899E8,2E0,4.4E1,2E0,8.1E1,1.9E1,2E0,3E0,8.3E1,1E0,1E0,5.5E1,2.8686448E8,1E0,-6.9331326E-2,-0E0,2.7909126E8,1E0,-0E0,1.4E1,2.8490867E8,1E0,1E0,8.1E1,-7.143235E-2,-3.188221E-2,-0E0,-2.989485E-2,-8.376754E-3,-4.5520965E-2,1.275615E-2,-9.547695E-3,-6.051095E-3,-3.8377833E-2,-6.8244236E-3,9.982757E-3,3.1006819E-2,1.5819714E-3,6.7128416E-4,-2.0922849E-2,-0E0,-4.1178703E-2,-1.8624846E-2,-7.690798E-2,-1.4696402E-2,-4.9907895E-4,4.7708492E-4,1.4060645E-2,-7.847591E-4,-4.2287495E-2],"split_indices":[15,14,15,42,8,2,15,0,5,9,24,9,9,8,10,15,3,3,14,0,42,0,0,0,10,0,11,0,42,42,9,0,0,0,0,0,0,0,0,0,0,0,0,0,0,0,0,0,0,0,0,0,0,0,0,0,0],"split_type":[0,0,0,0,0,0,0,0,0,0,0,0,0,0,0,0,0,0,0,0,0,0,0,0,0,0,0,0,0,0,0,0,0,0,0,0,0,0,0,0,0,0,0,0,0,0,0,0,0,0,0,0,0,0,0,0,0],"sum_hessian":[2.390028E4,3.6061946E3,2.0294086E4,1.5969E3,2.0092944E3,1.5432235E3,1.8750861E4,3.7368744E2,1.2232126E3,1.9633728E3,4.5921665E1,1.5006086E3,4.2614883E1,5.6537266E3,1.3097136E4,2.7115723E2,1.025302E2,5.3283887E2,6.903737E2,1.0599994E3,9.033734E2,3.5126575E1,1.0795089E1,1.4623358E3,3.827282E1,6.874831E0,3.574005E1,2.8757703E2,5.3661494E3,1.0157109E4,2.940026E3,7.7638115E1,1.9351912E2,5.88109E1,4.3719296E1,3.2529825E2,2.0754063E2,1.0288925E2,5.8748444E2,9.468263E2,1.13173096E2,1.7243605E2,7.309374E2,1.3353806E3,1.2695524E2,1.2629651E1,2.564317E1,1.8363468E1,1.7376585E1,2.3866145E2,4.8915585E1,1.2097272E3,4.1564224E3,2.334761E3,7.8223486E3,2.8435405E3,9.6485405E1],"tree_param":{"num_deleted":"0","num_feature":"47","num_nodes":"57","size_leaf_vector":"1"}},{"base_weights":[3.0950902E-2,-3.669277E-1,4.576383E-2,-4.284568E-2,-4.6803236E-1,2.5201124E-1,1.806274E-2,1.1053081E-1,-2.491815E-1,-7.612556E-1,-3.0071706E-1,-6.6782646E-2,2.9961956E-1,-1.2125464E-2,1.803309E-1,1.7035964E-1,-0E0,-3.6701253E-1,3.4638785E-3,-3.628908E-1,-1.2351198E0,-0E0,-4.2268348E-1,-6.447105E-1,4.7758628E-2,3.387395E-1,5.035756E-2,3.5138898E-2,-1.02612436E-1,-1.2376745E0,1.978822E-1,-0E0,2.2948094E-2,-4.9912147E-2,-0E0,-6.435583E-2,-3.943249E-3,-1.2188477E-1,-0E0,-7.3707695E-3,2.9612327E-2,-0E0,-3.7556615E-2,-8.888363E-2,-0E0,1.7608881E-2,-3.5307494E-3,2.3049992E-2,4.3213192E-2,-7.879863E-3,1.8358713E-2,-1.0428718E-2,6.996702E-3,-1.0282253E-2,1.4659879E-2,-1.13139994E-1,-0E0,2.141979E-2,4.262844E-3],"categories":[],"categories_nodes":[],"categories_segments":[],"categories_sizes":[],"default_left":[1,0,0,0,0,0,0,0,0,0,0,0,0,0,0,0,0,0,0,1,0,0,0,1,0,0,0,0,0,0,0,0,0,0,0,0,0,0,0,0,0,0,0,0,0,0,0,0,0,0,0,0,0,0,0,0,0,0,0],"id":24,"left_children":[1,3,5,7,9,11,13,15,17,19,21,23,25,27,29,31,-1,33,-1,35,37,39,41,43,45,47,49,51,53,55,57,-1,-1,-1,-1,-1,-1,-1,-1,-1,-1,-1,-1,-1,-1,-1,-1,-1,-1,-1,-1,-1,-1,-1,-1,-1,-1,-1,-1],"loss_changes":[1.3863397E2,2.4329842E1,1.2969792E2,8.154269E0,2.2366333E1,4.2491943E1,1.0049493E2,1.8018243E0,6.041593E0,2.5940948E1,1.5217915E1,2.6427607E1,2.0562286E1,7.355628E1,7.592839E1,2.4190953E0,0E0,8.860396E0,0E0,1.298551E1,2.7125656E1,4.627853E0,6.8764E0,1.404681E1,5.674569E0,1.4002365E1,1.0434604E1,9.767798E1,4.4615158E1,5.004551E0,3.0582039E1,0E0,0E0,0E0,0E0,0E0,0E0,0E0,0E0,0E0,