{"learner":{"attributes":{"scikit_learn":"{\"_estimator_type\": \"classifier\"}"},"feature_names":["Location","MinTemp","MaxTemp","Rainfall","WindGustDir","WindGustSpeed","WindSpeed9am","Humidity9am","Pressure9am","Cloud9am","Temp9am","RainToday","Evaporation","Sunshine","WindDir9am","has_extended"],"feature_types":["int","float","float","float","float","float","float","float","float","float","float","float","float","float","float","float"],"gradient_booster":{"model":{"gbtree_model_param":{"num_parallel_tree":"1","num_trees":"398"},"iteration_indptr":[0,1,2,3,4,5,6,7,8,9,10,11,12,13,14,15,16,17,18,19,20,21,22,23,24,25,26,27,28,29,30,31,32,33,34,35,36,37,38,39,40,41,42,43,44,45,46,47,48,49,50,51,52,53,54,55,56,57,58,59,60,61,62,63,64,65,66,67,68,69,70,71,72,73,74,75,76,77,78,79,80,81,82,83,84,85,86,87,88,89,90,91,92,93,94,95,96,97,98,99,100,101,102,103,104,105,106,107,108,109,110,111,112,113,114,115,116,117,118,119,120,121,122,123,124,125,126,127,128,129,130,131,132,133,134,135,136,137,138,139,140,141,142,143,144,145,146,147,148,149,150,151,152,153,154,155,156,157,158,159,160,161,162,163,164,165,166,167,168,169,170,171,172,173,174,175,176,177,178,179,180,181,182,183,184,185,186,187,188,189,190,191,192,193,194,195,196,197,198,199,200,201,202,203,204,205,206,207,208,209,210,211,212,213,214,215,216,217,218,219,220,221,222,223,224,225,226,227,228,229,230,231,232,233,234,235,236,237,238,239,240,241,242,243,244,245,246,247,248,249,250,251,252,253,254,255,256,257,258,259,260,261,262,263,264,265,266,267,268,269,270,271,272,273,274,275,276,277,278,279,280,281,282,283,284,285,286,287,288,289,290,291,292,293,294,295,296,297,298,299,300,301,302,303,304,305,306,307,308,309,310,311,312,313,314,315,316,317,318,319,320,321,322,323,324,325,326,327,328,329,330,331,332,333,334,335,336,337,338,339,340,341,342,343,344,345,346,347,348,349,350,351,352,353,354,355,356,357,358,359,360,361,362,363,364,365,366,367,368,369,370,371,372,373,374,375,376,377,378,379,380,381,382,383,384,385,386,387,388,389,390,391,392,393,394,395,396,397,398],"tree_info":[0,0,0,0,0,0,0,0,0,0,0,0,0,0,0,0,0,0,0,0,0,0,0,0,0,0,0,0,0,0,0,0,0,0,0,0,0,0,0,0,0,0,0,0,0,0,0,0,0,0,0,0,0,0,0,0,0,0,0,0,0,0,0,0,0,0,0,0,0,0,0,0,0,0,0,0,0,0,0,0,0,0,0,0,0,0,0,0,0,0,0,0,0,0,0,0,0,0,0,0,0,0,0,0,0,0,0,0,0,0,0,0,0,0,0,0,0,0,0,0,0,0,0,0,0,0,0,0,0,0,0,0,0,0,0,0,0,0,0,0,0,0,0,0,0,0,0,0,0,0,0,0,0,0,0,0,0,0,0,0,0,0,0,0,0,0,0,0,0,0,0,0,0,0,0,0,0,0,0,0,0,0,0,0,0,0,0,0,0,0,0,0,0,0,0,0,0,0,0,0,0,0,0,0,0,0,0,0,0,0,0,0,0,0,0,0,0,0,0,0,0,0,0,0,0,0,0,0,0,0,0,0,0,0,0,0,0,0,0,0,0,0,0,0,0,0,0,0,0,0,0,0,0,0,0,0,0,0,0,0,0,0,0,0,0,0,0,0,0,0,0,0,0,0,0,0,0,0,0,0,0,0,0,0,0,0,0,0,0,0,0,0,0,0,0,0,0,0,0,0,0,0,0,0,0,0,0,0,0,0,0,0,0,0,0,0,0,0,0,0,0,0,0,0,0,0,0,0,0,0,0,0,0,0,0,0,0,0,0,0,0,0,0,0,0,0,0,0,0,0,0,0,0,0,0,0,0,0,0,0,0,0,0,0,0,0,0,0,0,0,0,0,0,0,0,0,0,0,0,0,0,0,0,0,0,0,0,0,0,0,0,0,0,0,0,0,0,0],"trees":[{"base_weights":[1.5582783E-2,-5.090143E-1,8.139075E-1,-8.143959E-1,1.8192099E-1,2.5600577E-2,1.1075305E0,-1.0263822E0,4.7997084E-2,-0E0,6.6795874E-1,-4.029319E-1,3.530199E-1,-0E0,1.1574029E0,-1.6586E0,-7.710103E-1,-8.078534E-1,4.1092247E-1,-4.4074398E-1,2.314785E-1,1.10854186E-1,9.606961E-1,-6.7242676E-1,3.759184E-1,-6.4706135E-1,4.5658818E-1,-2.078789E-1,1.0213282E-2,9.084893E-1,1.3883605E0,-0E0,-2.9531019E-2,-8.9875335E-1,-1.9107984E-1,-1.076287E0,3.003638E-4,-1.6012998E-1,5.371835E-1,-6.474354E-1,-0E0,6.526008E-1,1.9394731E-2,3.3818978E-1,-3.6022263E-3,-0E0,1.7363489E-2,-7.0751734E-2,-9.6944314E-1,5.1163834E-1,-0E0,-1.620343E-2,-0E0,-0E0,5.4143757E-1,-4.6852326E-1,2.8935666E-3,6.092739E-1,1.1222901E0,1.4030741E0,-0E0,-1.065659E0,-4.1188046E-1,2.5940478E-2,-7.2599524E-1,-1.20633E0,-0E0,-5.2303696E-1,-0E0,6.762596E-1,-0E0,-9.9129003E-1,-2.7063802E-1,7.9687357E-1,-0E0,-4.8025596E-1,1.8829402E-1,-0E0,4.4594973E-1,-5.604024E-3,7.6303806E-4,-1.8029427E-2,-0E0,-0E0,1.06468825E-2,-5.7166787E-3,4.1831015E-3,8.029638E-2,7.55977E-1,-1.1395829E-2,-0E0,-0E0,7.503131E-1,1.1421133E0,-0E0,-0E0,1.4185872E0,-1.1954452E0,-4.2047986E-1,-5.132029E-1,1.9581187E-1,2.980647E-1,-4.5016074E-1,1.5885144E-4,-1.6648507E-2,-0E0,-2.2896364E-2,-0E0,-1.18232565E-2,7.070886E-1,-0E0,-0E0,-1.0467168E0,-3.6977246E-1,-0E0,-0E0,1.6068216E-2,-8.1743634E-1,-0E0,4.804485E-1,-7.980229E-2,5.1527345E-1,-0E0,-1.0982954E-1,3.8198727E-1,1.366187E-2,-0E0,-6.515383E-3,1.4052367E-1,-0E0,8.1187457E-1,-0E0,1.165681E0,2.612644E-2,7.8626E-1,-1.2236038E0,-0E0,1.986979E-1,-7.0195794E-1,-9.7874814E-1,-3.16037E-1,7.4989046E-3,-0E0,-0E0,6.580096E-3,-8.334179E-1,-0E0,1.3463526E-2,-0E0,-0E0,-1.9449642E-2,-9.413433E-3,-0E0,-1.7059663E-2,-0E0,5.6745124E-1,-1.0549376E-4,-3.3354005E-1,4.1598472E-1,-0E0,1.04044005E-2,-4.5522776E-1,-0E0,-0E0,5.461296E-1,-4.3669785E-3,3.6744118E-1,-0E0,8.7364316E-1,2.0703215E-2,-0E0,-0E0,1.6281718E-2,-1.7934298E-2,-2.6617162E-2,-0E0,9.492214E-3,-1.6634934E-2,-2.5212711E-3,-2.0746402E-2,-0E0,1.268903E-3,-1.1944067E-2,-1.6891776E-2,-0E0,-0E0,1.2880492E-2,-8.888972E-3,-0E0,9.802383E-3,-0E0,-0E0,-1.284285E-2,1.1821623E-2,-0E0,1.010227E-2,-0E0,1.6030282E-2,-0E0],"categories":[],"categories_nodes":[],"categories_segments":[],"categories_sizes":[],"default_left":[0,1,0,1,1,0,0,0,0,1,0,1,0,1,1,0,1,0,1,0,0,0,0,0,0,0,1,0,0,0,1,0,0,1,1,0,0,1,0,1,0,0,0,0,0,0,0,0,1,0,0,0,0,0,0,0,0,1,1,0,0,0,1,1,0,0,0,0,0,0,0,1,0,0,0,0,0,0,0,0,0,0,0,0,0,0,0,0,1,0,0,1,0,0,0,0,0,0,0,0,0,0,0,0,0,0,0,0,0,0,0,0,0,0,0,0,0,0,0,0,1,0,0,1,0,0,0,0,0,0,1,0,1,0,0,0,0,1,1,0,1,0,0,0,0,0,0,0,0,0,0,0,0,0,0,0,0,1,0,0,0,0,0,0,0,0,0,0,0,0,0,0,0,0,0,0,0,0,0,0,0,0,0,0,0,0,0,0,0,0,0,0,0,0,0,0,0,0,0],"id":0,"left_children":[1,3,5,7,9,11,13,15,17,19,21,23,25,27,29,31,33,35,37,39,41,43,45,47,49,51,53,55,-1,57,59,-1,-1,61,63,65,-1,67,69,71,-1,73,75,77,-1,-1,-1,79,81,83,-1,-1,-1,85,87,89,-1,91,93,95,-1,97,99,101,103,105,-1,107,-1,109,-1,111,113,115,-1,117,119,-1,121,-1,-1,-1,-1,-1,-1,-1,-1,123,125,-1,-1,127,129,131,-1,-1,133,135,137,139,141,143,145,-1,-1,-1,-1,-1,-1,147,-1,-1,149,151,-1,-1,-1,153,-1,155,157,159,-1,161,163,-1,-1,-1,165,-1,167,-1,169,-1,171,173,-1,175,177,179,181,-1,-1,-1,-1,183,-1,-1,-1,-1,-1,-1,-1,-1,-1,185,-1,187,189,-1,-1,191,-1,-1,193,-1,195,-1,197,-1,-1,-1,-1,-1,-1,-1,-1,-1,-1,-1,-1,-1,-1,-1,-1,-1,-1,-1,-1,-1,-1,-1,-1,-1,-1,-1,-1,-1,-1],"loss_changes":[2.5020452E3,7.6504645E2,5.390753E2,4.665813E2,1.02539185E2,9.289765E1,8.831201E1,2.9604492E2,1.51322E2,8.328337E1,4.057872E1,6.2294167E1,4.044202E1,1.322079E1,6.5953125E1,9.2508545E0,9.732672E1,4.079953E1,2.9618824E1,2.993375E1,3.9698875E1,1.0571877E1,6.159622E0,2.8974854E1,5.981266E0,8.28517E0,1.4232643E1,9.030735E0,0E0,3.3184204E1,1.833606E1,0E0,0E0,8.009784E1,3.9301537E1,2.1016495E1,0E0,7.701386E0,2.3268394E1,1.3605827E1,0E0,1.9546295E1,2.846766E1,4.5562725E0,0E0,0E0,0E0,5.0043516E0,9.727081E0,5.298993E0,0E0,0E0,0E0,5.346388E0,2.2598335E1,5.0189457E0,0E0,3.0643509E1,1.3813293E1,1.7443481E1,0E0,5.465747E1,2.350336E1,2.495133E1,2.3377274E1,4.403656E0,0E0,5.01528E0,0E0,7.7128677E0,0E0,7.783493E0,6.0481873E0,1.27365265E1,0E0,1.5049164E1,2.6340805E1,0E0,4.495369E0,0E0,0E0,0E0,0E0,0E0,0E0,0E0,0E0,9.441725E0,4.746689E0,0E0,0E0,3.9755669E0,1.014209E1,7.433838E0,0E0,0E0,4.0750732E0,1.6393982E1,3.4230766E1,1.34642105E1,3.7697911E0,4.7546883E0,1.0058312E1,0E0,0E0,0E0,0E0,0E0,0E0,7.5999374E0,0E0,0E0,7.511078E0,6.650691E0,0E0,0E0,0E0,3.7513542E0,0E0,1.1540092E1,1.7728474E1,4.836914E0,0E0,5.4563565E0,6.9798956E0,0E0,0E0,0E0,7.5337276E0,0E0,1.1384506E1,0E0,4.8934937E0,0E0,1.3783253E1,8.072998E0,0E0,6.621936E0,6.3615723E0,1.6634857E1,3.772276E1,0E0,0E0,0E0,0E0,4.3414536E0,0E0,0E0,0E0,0E0,0E0,0E0,0E0,0E0,0E0,7.702217E0,0E0,1.0376872E1,4.1285386E0,0E0,0E0,5.355337E0,0E0,0E0,5.351305E0,0E0,8.989641E0,0E0,7.9716034E0,0E0,0E0,0E0,0E0,0E0,0E0,0E0,0E0,0E0,0E0,0E0,0E0,0E0,0E0,0E0,0E0,0E0,0E0,0E0,0E0,0E0,0E0,0E0,0E0,0E0,0E0,0E0,0E0,0E0,0E0],"parents":[2147483647,0,0,1,1,2,2,3,3,4,4,5,5,6,6,7,7,8,8,9,9,10,10,11,11,12,12,13,13,14,14,15,15,16,16,17,17,18,18,19,19,20,20,21,21,22,22,23,23,24,24,25,25,26,26,27,27,29,29,30,30,33,33,34,34,35,35,37,37,38,38,39,39,41,41,42,42,43,43,47,47,48,48,49,49,53,53,54,54,55,55,57,57,58,58,59,59,61,61,62,62,63,63,64,64,65,65,67,67,69,69,71,71,72,72,73,73,75,75,76,76,78,78,87,87,88,88,91,91,92,92,93,93,96,96,97,97,98,98,99,99,100,100,101,101,102,102,109,109,112,112,113,113,117,117,119,119,120,120,121,121,123,123,124,124,128,128,130,130,132,132,134,134,135,135,137,137,138,138,139,139,140,140,145,145,155,155,157,157,158,158,161,161,164,164,166,166,168,168],"right_children":[2,4,6,8,10,12,14,16,18,20,22,24,26,28,30,32,34,36,38,40,42,44,46,48,50,52,54,56,-1,58,60,-1,-1,62,64,66,-1,68,70,72,-1,74,76,78,-1,-1,-1,80,82,84,-1,-1,-1,86,88,90,-1,92,94,96,-1,98,100,102,104,106,-1,108,-1,110,-1,112,114,116,-1,118,120,-1,122,-1,-1,-1,-1,-1,-1,-1,-1,124,126,-1,-1,128,130,132,-1,-1,134,136,138,140,142,144,146,-1,-1,-1,-1,-1,-1,148,-1,-1,150,152,-1,-1,-1,154,-1,156,158,160,-1,162,164,-1,-1,-1,166,-1,168,-1,170,-1,172,174,-1,176,178,180,182,-1,-1,-1,-1,184,-1,-1,-1,-1,-1,-1,-1,-1,-1,186,-1,188,190,-1,-1,192,-1,-1,194,-1,196,-1,198,-1,-1,-1,-1,-1,-1,-1,-1,-1,-1,-1,-1,-1,-1,-1,-1,-1,-1,-1,-1,-1,-1,-1,-1,-1,-1,-1,-1,-1,-1],"split_conditions":[4E-1,4E0,7.7E1,4.8E1,4.4E1,4.4E1,5E0,5.9E1,5.3E1,6.8E1,6.3E1,7E0,5.1E1,4.3E1,5.6E0,1.0057E3,1.8E1,6.7E1,9.9E0,4.3E1,1.018E3,1.0173E3,2.2E0,1.0156E3,2.77E1,9.8E0,9E0,1.62E1,1.0213282E-2,3.9E1,3.14E1,-0E0,-2.9531019E-2,3.5E1,1.0159E3,3.15E1,3.003638E-4,1.0179E3,2.42E1,5.7E1,-0E0,2.7E1,5.8E0,2E1,-3.6022263E-3,-0E0,1.7363489E-2,7.1E1,3E1,5.8E1,-0E0,-1.620343E-2,-0E0,7E0,5.4E1,1.84E1,2.8935666E-3,6E0,3.26E1,5.3E0,-0E0,9.3E1,8.6E1,3.07E1,2.4E1,7E0,-0E0,1.0022E3,-0E0,3.62E1,-0E0,1.0077E3,2.41E1,6E0,-0E0,2.8E1,2.26E1,-0E0,3.15E1,-5.604024E-3,7.6303806E-4,-1.8029427E-2,-0E0,-0E0,1.06468825E-2,-5.7166787E-3,4.1831015E-3,1.66E1,1.03E3,-1.1395829E-2,-0E0,8.4E1,6E-1,5.7E0,-0E0,-0E0,2.62E1,5.7E1,1.69E1,1.37E1,9.6E1,1.85E1,4.3E1,1.5885144E-4,-1.6648507E-2,-0E0,-2.2896364E-2,-0E0,-1.18232565E-2,3.1E1,-0E0,-0E0,1.68E1,1.9E1,-0E0,-0E0,1.6068216E-2,1E-1,-0E0,9.6E1,2.05E1,4.6E1,-0E0,1.0182E3,3E0,1.366187E-2,-0E0,-6.515383E-3,5.8E0,-0E0,6.9E0,-0E0,2.53E1,2.612644E-2,3.1E1,2.34E1,-0E0,7E0,7.2E0,1.03E3,2.3E1,7.4989046E-3,-0E0,-0E0,6.580096E-3,2.25E1,-0E0,1.3463526E-2,-0E0,-0E0,-1.9449642E-2,-9.413433E-3,-0E0,-1.7059663E-2,-0E0,9E0,-1.0549376E-4,2.88E1,3.11E1,-0E0,1.04044005E-2,1.85E1,-0E0,-0E0,3E1,-4.3669785E-3,2.64E1,-0E0,2.86E1,2.0703215E-2,-0E0,-0E0,1.6281718E-2,-1.7934298E-2,-2.6617162E-2,-0E0,9.492214E-3,-1.6634934E-2,-2.5212711E-3,-2.0746402E-2,-0E0,1.268903E-3,-1.1944067E-2,-1.6891776E-2,-0E0,-0E0,1.2880492E-2,-8.888972E-3,-0E0,9.802383E-3,-0E0,-0E0,-1.284285E-2,1.1821623E-2,-0E0,1.010227E-2,-0E0,1.6030282E-2,-0E0],"split_indices":[3,9,7,5,5,5,9,7,7,7,7,9,7,5,3,8,1,5,1,5,8,8,1,8,2,3,6,3,0,5,2,0,0,5,8,10,0,8,10,7,0,2,1,10,0,0,0,7,3,7,0,0,0,9,5,1,0,6,2,1,0,7,7,2,2,6,0,8,0,2,0,8,10,9,0,5,2,0,10,0,0,0,0,0,0,0,0,1,8,0,0,7,3,1,0,0,2,6,2,10,7,1,5,0,0,0,0,0,0,6,0,0,2,6,0,0,0,3,0,7,1,5,0,8,9,0,0,0,1,0,1,0,10,0,5,2,0,10,1,8,2,0,0,0,0,1,0,0,0,0,0,0,0,0,0,1,0,2,2,0,0,2,0,0,6,0,2,0,2,0,0,0,0,0,0,0,0,0,0,0,0,0,0,0,0,0,0,0,0,0,0,0,0,0,0,0,0,0,0],"split_type":[0,0,0,0,0,0,0,0,0,0,0,0,0,0,0,0,0,0,0,0,0,0,0,0,0,0,0,0,0,0,0,0,0,0,0,0,0,0,0,0,0,0,0,0,0,0,0,0,0,0,0,0,0,0,0,0,0,0,0,0,0,0,0,0,0,0,0,0,0,0,0,0,0,0,0,0,0,0,0,0,0,0,0,0,0,0,0,0,0,0,0,0,0,0,0,0,0,0,0,0,0,0,0,0,0,0,0,0,0,0,0,0,0,0,0,0,0,0,0,0,0,0,0,0,0,0,0,0,0,0,0,0,0,0,0,0,0,0,0,0,0,0,0,0,0,0,0,0,0,0,0,0,0,0,0,0,0,0,0,0,0,0,0,0,0,0,0,0,0,0,0,0,0,0,0,0,0,0,0,0,0,0,0,0,0,0,0,0,0,0,0,0,0,0,0,0,0,0,0],"sum_hessian":[5.955194E3,3.5883833E3,2.3668103E3,2.4966213E3,1.0917621E3,6.524059E2,1.7144045E3,2.0112965E3,4.8532477E2,7.8686053E2,3.0490158E2,2.701979E2,3.8220798E2,7.917647E1,1.635228E3,5.586022E2,1.4526943E3,1.349121E2,3.5041266E2,2.810873E2,5.0577322E2,1.1849451E2,1.8640709E2,2.098493E2,6.0348595E1,2.4688183E1,3.5751978E2,5.386501E1,2.531146E1,8.206486E2,8.145794E2,6.8578143E0,5.517443E2,1.1750569E3,2.7763742E2,1.0843684E2,2.647526E1,5.0415314E1,2.9999734E2,1.9825334E2,8.283397E1,1.5095454E2,3.548187E2,8.4911995E1,3.3582516E1,2.7015653E0,1.8370552E2,8.1836525E1,1.2801277E2,5.249328E1,7.8553195E0,1.8869448E1,5.8187356E0,5.656651E1,3.0095328E2,4.4721302E1,9.143709E0,3.6953116E2,4.5111746E2,8.067657E2,7.8137455E0,8.558568E2,3.192001E2,1.9002353E2,8.7613884E1,9.945936E1,8.97748E0,2.7098799E1,2.3316517E1,2.378199E2,6.217744E1,8.590989E1,1.12343445E2,1.2992392E2,2.1030622E1,7.339944E1,2.8141925E2,1.5876867E1,6.9035126E1,4.6840965E1,3.499556E1,1.23898094E2,4.1146755E0,1.99501E0,5.049827E1,2.3358156E1,3.3208355E1,1.1147047E2,1.8948282E2,3.2543503E1,1.2177797E1,7.360711E1,2.9592404E2,4.459637E2,5.153754E0,9.019053E0,7.977466E2,6.9654767E2,1.5930913E2,2.869477E2,3.2252422E1,1.3428816E2,5.5735363E1,1.209465E1,7.551923E1,1.1762192E1,8.769717E1,1.9118629E0,2.5186935E1,2.3241678E2,5.4031305E0,2.4106154E0,8.3499275E1,1.014541E2,1.0889342E1,1.6583424E1,1.1334049E2,4.368229E1,2.9717152E1,1.480868E2,1.3333243E2,6.7040115E1,1.99501E0,5.282593E1,5.8644535E1,1.8823593E2,1.2468812E0,1.309222E1,6.051489E1,2.8719646E1,2.672044E2,1.2634976E1,4.3332874E2,7.057691E2,9.197748E1,6.755171E2,2.1030622E1,4.0523346E1,1.1878579E2,6.44636E1,2.2248409E2,2.2693043E1,9.55938E0,1.6624996E1,1.1766317E2,2.6226015E1,2.950935E1,2.1171867E2,2.06981E1,2.6599915E0,8.083929E1,6.878601E1,3.2668095E1,3.341635E1,1.0265935E1,1.4018991E2,7.896893E0,1.0141253E2,3.1919899E1,3.449694E0,6.3590424E1,2.3399729E1,2.9426203E1,9.808756E0,4.883578E1,7.6890903E0,5.28258E1,2.2402159E1,2.4480225E2,4.3112592E2,2.2028127E0,1.0764688E1,8.121279E1,4.2605804E2,2.4945901E2,1.7622501E1,2.2900846E1,6.8869225E1,4.9916565E1,5.473799E1,9.725609E0,9.783798E1,1.24646095E2,2.306727E1,3.158744E0,4.3557434E1,9.6632484E1,8.175351E1,1.965902E1,2.8470205E1,3.449694E0,8.021548E0,1.53781805E1,4.222734E1,6.608438E0,4.5427658E1,7.3981404E0,2.3553381E2,9.26843E0],"tree_param":{"num_deleted":"0","num_feature":"16","num_nodes":"199","size_leaf_vector":"1"}},{"base_weights":[4.2764274E-3,-4.1555595E-1,8.964784E-1,-1.1223141E0,-1.7917627E-1,2.827707E-2,1.1380037E0,-1.3320402E0,-7.6206785E-1,-7.1421754E-1,4.0642437E-2,-3.8608658E-1,3.235349E-1,8.270204E-1,1.3134946E0,-1.5147945E0,-8.011719E-1,-3.09824E-1,-1.0298373E0,3.1904063E-1,-8.645173E-1,-2.9118925E-1,3.5226378E-1,-5.3882295E-1,2.9409083E-3,-4.2201878E-4,4.163241E-1,3.6528373E-1,1.0330595E0,-0E0,2.3667423E-2,-0E0,-2.6965272E-2,-1.0250611E0,-1.2014467E-1,-6.298841E-1,-0E0,-1.0832875E0,-0E0,-0E0,5.460832E-1,-1.0254643E0,-3.2941705E-1,-4.1982833E-1,1.130115E-1,6.392985E-3,6.074901E-1,-1.1012047E-2,-0E0,1.3266484E-1,1.1851828E-2,-0E0,4.474374E-1,-0E0,1.0687833E0,-0E0,-1.9411469E-2,-3.915499E-1,-0E0,-0E0,-7.960798E-1,-1.9510822E-2,-0E0,6.428541E-1,-0E0,-1.0926559E0,-0E0,4.0754953E-1,-6.432744E-1,-4.0623777E-2,-5.614649E-1,3.2617512E-1,-5.2057773E-2,1.789587E-1,-5.0221E-1,6.6543937E-1,7.665747E-2,-0E0,4.2512447E-1,9.187875E-3,-0E0,1.9374317E-2,-0E0,-0E0,-9.659716E-3,-0E0,-9.681074E-1,1.2154275E-2,-0E0,-1.2377436E0,-5.6755257E-1,-0E0,9.006042E-3,-2.1585357E-1,-1.7493937E-2,-1.7901182E-1,4.837747E-3,-7.032219E-1,-1.6798195E-1,-0E0,6.638584E-3,4.984887E-3,-3.600744E-1,-2.8588134E-3,4.7671008E-1,-1.4768289E-2,-0E0,7.099509E-1,-0E0,-7.3235705E-2,9.331197E-3,3.1224056E-3,-3.9863756E-1,-0E0,9.631854E-3,-0E0,-1.8358903E-2,-2.2314206E-2,-0E0,-6.4996564E-1,-0E0,-3.6689085E-1,-0E0,4.687777E-2,-4.8192266E-1,-7.4706334E-1,-0E0,-0E0,-5.061203E-1,-8.995597E-3,-0E0,4.6605346E-1,-3.1927338E-1,5.668047E-1,-0E0,1.2646988E-2,-0E0,2.6496984E-3,-1.0344548E-2,-0E0,-1.026666E-2,-0E0,-1.2572433E-2,-7.95382E-3,-0E0,-1.5424241E-3,5.4014823E-3,-0E0,-1.0769108E-2,-1.3778147E-2,-0E0,-1.8767095E-3,5.9217783E-3,-1.0357993E-2,-0E0,-0E0,1.0081712E-2,3.3596181E-3,-1.1146873E-2,1.0720753E-2,-0E0],"categories":[],"categories_nodes":[],"categories_segments":[],"categories_sizes":[],"default_left":[0,0,0,1,0,0,1,0,1,0,1,1,0,0,0,0,0,0,1,0,1,0,1,0,0,0,0,0,0,0,0,0,0,0,0,0,0,0,0,0,1,1,0,0,0,1,0,0,0,0,0,0,1,0,1,0,0,0,0,0,1,0,0,0,0,0,0,0,0,1,0,0,0,0,0,1,0,0,0,0,0,0,0,0,0,0,0,0,0,1,1,0,0,0,0,0,0,1,0,0,0,0,1,0,1,0,0,0,0,1,0,0,0,0,0,0,0,0,0,0,0,0,0,1,0,1,0,0,0,0,0,0,0,1,0,0,0,0,0,0,0,0,0,0,0,0,0,0,0,0,0,0,0,0,0,0,0,0,0,0,0],"id":1,"left_children":[1,3,5,7,9,11,13,15,17,19,21,23,25,27,29,31,33,35,37,39,41,43,45,47,-1,-1,49,51,53,-1,-1,-1,-1,55,57,59,-1,61,-1,-1,63,65,67,69,71,73,75,-1,-1,77,-1,-1,79,-1,81,-1,-1,83,-1,-1,85,-1,-1,87,-1,89,-1,91,93,95,97,99,101,103,105,107,109,111,113,-1,-1,-1,-1,-1,-1,-1,115,-1,-1,117,119,-1,-1,121,-1,123,-1,125,127,-1,-1,-1,129,131,133,-1,-1,135,-1,137,-1,-1,139,-1,-1,-1,-1,-1,-1,141,-1,143,-1,145,147,149,-1,151,153,-1,-1,155,157,159,-1,-1,-1,-1,-1,-1,-1,-1,-1,-1,-1,-1,-1,-1,-1,-1,-1,-1,-1,-1,-1,-1,-1,-1,-1,-1,-1],"loss_changes":[2.2274238E3,6.603125E2,3.8910315E2,5.0443848E1,3.6327826E2,5.2769157E1,5.5014038E1,3.0650269E1,3.4294113E1,1.4579367E2,2.2315279E2,1.814642E1,1.2142599E1,3.945404E1,2.8637573E1,1.0390137E1,1.6733887E1,2.1006699E1,1.4545197E1,1.2462788E1,5.4009033E1,5.654023E1,9.371622E1,8.756973E0,0E0,0E0,9.027756E0,7.5342865E0,1.6633667E1,0E0,0E0,0E0,0E0,8.281952E0,5.2877316E0,1.1145096E1,0E0,7.825989E0,0E0,0E0,7.4323254E0,4.0701294E1,5.1227474E1,3.7412994E1,1.0874279E1,4.1438866E1,1.2522644E1,0E0,0E0,7.5468426E0,0E0,0E0,7.2578506E0,0E0,9.244751E0,0E0,0E0,4.89465E0,0E0,0E0,1.1769669E1,0E0,0E0,4.032589E0,0E0,2.188556E1,0E0,4.0173388E0,1.0968208E1,9.973111E0,2.2977112E1,3.69205E0,1.324233E1,2.5314186E1,2.4055452E1,1.43685E1,1.0013439E1,7.703289E0,5.248782E0,0E0,0E0,0E0,0E0,0E0,0E0,0E0,6.1878433E0,0E0,0E0,5.389282E0,6.863144E0,0E0,0E0,5.3248963E0,0E0,1.7067816E1,0E0,1.8154724E1,1.4083466E1,0E0,0E0,0E0,5.636713E0,3.3748325E1,1.0133488E1,0E0,0E0,4.382202E0,0E0,1.0653549E1,0E0,0E0,4.083628E0,0E0,0E0,0E0,0E0,0E0,0E0,8.142204E0,0E0,4.146018E0,0E0,5.537223E0,8.439909E0,1.166304E1,0E0,5.9244003E0,5.3174458E0,0E0,0E0,6.685871E0,2.8943039E1,6.321842E0,0E0,0E0,0E0,0E0,0E0,0E0,0E0,0E0,0E0,0E0,0E0,0E0,0E0,0E0,0E0,0E0,0E0,0E0,0E0,0E0,0E0,0E0,0E0,0E0,0E0,0E0,0E0],"parents":[2147483647,0,0,1,1,2,2,3,3,4,4,5,5,6,6,7,7,8,8,9,9,10,10,11,11,12,12,13,13,14,14,15,15,16,16,17,17,18,18,19,19,20,20,21,21,22,22,23,23,26,26,27,27,28,28,33,33,34,34,35,35,37,37,40,40,41,41,42,42,43,43,44,44,45,45,46,46,49,49,52,52,54,54,57,57,60,60,63,63,65,65,67,67,68,68,69,69,70,70,71,71,72,72,73,73,74,74,75,75,76,76,77,77,78,78,86,86,89,89,90,90,93,93,95,95,97,97,98,98,102,102,103,103,104,104,107,107,109,109,112,112,119,119,121,121,123,123,124,124,125,125,127,127,128,128,131,131,132,132,133,133],"right_children":[2,4,6,8,10,12,14,16,18,20,22,24,26,28,30,32,34,36,38,40,42,44,46,48,-1,-1,50,52,54,-1,-1,-1,-1,56,58,60,-1,62,-1,-1,64,66,68,70,72,74,76,-1,-1,78,-1,-1,80,-1,82,-1,-1,84,-1,-1,86,-1,-1,88,-1,90,-1,92,94,96,98,100,102,104,106,108,110,112,114,-1,-1,-1,-1,-1,-1,-1,116,-1,-1,118,120,-1,-1,122,-1,124,-1,126,128,-1,-1,-1,130,132,134,-1,-1,136,-1,138,-1,-1,140,-1,-1,-1,-1,-1,-1,142,-1,144,-1,146,148,150,-1,152,154,-1,-1,156,158,160,-1,-1,-1,-1,-1,-1,-1,-1,-1,-1,-1,-1,-1,-1,-1,-1,-1,-1,-1,-1,-1,-1,-1,-1,-1,-1,-1],"split_conditions":[1E0,5.8E1,7.6E1,1.59E1,9.6E0,6.6E1,8.8E1,5E0,1.0126E3,1.0156E3,7.3E1,3.3E1,9E0,1.3E1,5.3E0,1.0033E3,5.5E1,4.8E1,3.3E1,7.2E1,9.1E1,2.4E1,9E0,2.53E1,2.9409083E-3,-4.2201878E-4,1.71E1,1.36E1,6.1E0,-0E0,2.3667423E-2,-0E0,-2.6965272E-2,1.18E1,1.7E1,2E0,-0E0,1.0275E3,-0E0,-0E0,1E2,2E1,1.0218E3,1.0155E3,2.2E1,1.0185E3,2.37E1,-1.1012047E-2,-0E0,1.0234E3,1.1851828E-2,-0E0,2.34E1,-0E0,2.16E1,-0E0,-1.9411469E-2,1.0106E3,-0E0,-0E0,1.0022E3,-1.9510822E-2,-0E0,1.67E1,-0E0,5E0,-0E0,1.0166E3,9.9E1,2.04E1,7E0,3E0,1.0157E3,1.8E1,8.7E1,1.0247E3,2.21E1,1.0156E3,1.28E1,9.187875E-3,-0E0,1.9374317E-2,-0E0,-0E0,-9.659716E-3,-0E0,1.62E1,1.2154275E-2,-0E0,1.74E1,1.3E1,-0E0,9.006042E-3,7E0,-1.7493937E-2,2.16E1,4.837747E-3,2.2E1,2.01E1,-0E0,6.638584E-3,4.984887E-3,6.7E1,2E0,1.016E3,-1.4768289E-2,-0E0,4.4E1,-0E0,1.012E3,9.331197E-3,3.1224056E-3,1.62E1,-0E0,9.631854E-3,-0E0,-1.8358903E-2,-2.2314206E-2,-0E0,8.1E0,-0E0,9.3E0,-0E0,1.41E1,1E0,1.0297E3,-0E0,6.7E1,2.25E1,-8.995597E-3,-0E0,1.0101E3,1.6E1,2.34E1,-0E0,1.2646988E-2,-0E0,2.6496984E-3,-1.0344548E-2,-0E0,-1.026666E-2,-0E0,-1.2572433E-2,-7.95382E-3,-0E0,-1.5424241E-3,5.4014823E-3,-0E0,-1.0769108E-2,-1.3778147E-2,-0E0,-1.8767095E-3,5.9217783E-3,-1.0357993E-2,-0E0,-0E0,1.0081712E-2,3.3596181E-3,-1.1146873E-2,1.0720753E-2,-0E0],"split_indices":[11,7,7,1,1,7,7,0,8,8,7,6,6,6,1,8,7,7,6,7,7,6,6,10,0,0,1,10,1,0,0,0,0,10,6,0,0,8,0,0,7,6,8,8,10,8,10,0,0,8,0,0,10,0,1,0,0,8,0,0,8,0,0,10,0,0,0,8,7,1,0,0,8,1,7,8,1,8,10,0,0,0,0,0,0,0,1,0,0,10,6,0,0,6,0,10,0,1,10,0,0,0,7,0,8,0,0,6,0,8,0,0,10,0,0,0,0,0,0,10,0,1,0,1,0,8,0,7,1,0,0,8,10,1,0,0,0,0,0,0,0,0,0,0,0,0,0,0,0,0,0,0,0,0,0,0,0,0,0,0,0],"split_type":[0,0,0,0,0,0,0,0,0,0,0,0,0,0,0,0,0,0,0,0,0,0,0,0,0,0,0,0,0,0,0,0,0,0,0,0,0,0,0,0,0,0,0,0,0,0,0,0,0,0,0,0,0,0,0,0,0,0,0,0,0,0,0,0,0,0,0,0,0,0,0,0,0,0,0,0,0,0,0,0,0,0,0,0,0,0,0,0,0,0,0,0,0,0,0,0,0,0,0,0,0,0,0,0,0,0,0,0,0,0,0,0,0,0,0,0,0,0,0,0,0,0,0,0,0,0,0,0,0,0,0,0,0,0,0,0,0,0,0,0,0,0,0,0,0,0,0,0,0,0,0,0,0,0,0,0,0,0,0,0,0],"sum_hessian":[5.9224233E3,4.022886E3,1.8995374E3,9.9286414E2,3.030022E3,4.2296802E2,1.4765693E3,6.010945E2,3.9176962E2,8.8993384E2,2.1400881E3,1.6266878E2,2.6029922E2,5.6403516E2,9.1253424E2,4.2593427E2,1.7516023E2,1.631343E2,2.2863535E2,1.04607216E2,7.853266E2,1.02284875E3,1.1172393E3,1.4015395E2,2.2514832E1,3.5707207E1,2.2459203E2,1.9277165E2,3.7126352E2,2.1904732E1,8.906295E2,3.158326E0,4.2277594E2,1.1959459E2,5.5565647E1,8.758188E1,7.555241E1,2.1841077E2,1.0224567E1,3.1308872E1,7.329834E1,5.8649713E2,1.9882948E2,7.9237476E2,2.3047397E2,4.9191583E2,6.253234E2,1.2531792E2,1.483603E1,1.2745727E2,9.713476E1,2.8783203E1,1.6398845E2,1.0261521E1,3.6100198E2,9.771734E0,1.0982285E2,3.3946217E1,2.1619432E1,1.754951E1,7.003237E1,2.1574857E2,2.6622097E0,6.9101105E1,4.1972384E0,5.499142E2,3.6582916E1,5.037427E1,1.4845522E2,2.3474252E2,5.5763226E2,1.2132528E2,1.0914869E2,3.834056E2,1.0851024E2,5.472512E2,7.807223E1,7.904287E1,4.841439E1,1.4616756E2,1.7820879E1,3.4933362E2,1.1668382E1,3.3677657E0,3.057845E1,1.2184184E1,5.7848186E1,6.7853676E1,1.2474239E0,4.108467E2,1.390675E2,5.152271E0,4.5222E1,8.272382E1,6.57314E1,1.8454938E2,5.019314E1,3.8967877E2,1.6795349E2,5.650527E0,1.1567475E2,3.8764183E1,7.038451E1,2.2346638E2,1.5993922E2,6.93188E1,3.9191433E1,5.0851355E2,3.8737675E1,4.7913486E1,3.0158743E1,4.7576153E1,3.1466722E1,3.9490447E0,4.4465347E1,2.9127336E0,5.493545E1,3.9662427E2,1.4222435E1,1.2076838E2,1.8299124E1,6.402283E1,1.8700996E1,9.202379E1,9.25256E1,3.7708716E2,1.2591619E1,1.0014592E2,6.780756E1,5.3596283E1,1.6788225E1,7.752402E1,1.4594237E2,1.4281133E2,1.7127895E1,5.072668E2,1.2467433E0,2.4473343E1,2.3440144E1,8.020548E0,2.3446175E1,5.3214803E0,1.154469E2,6.0657578E1,3.3652463E0,4.0861877E1,5.1161907E1,1.4588013E1,7.7937584E1,3.6370328E2,1.3383873E1,6.0661243E1,3.948468E1,6.419196E1,3.6155984E0,7.6064167E0,6.9917595E1,4.562534E1,1.00317024E2,1.4056694E2,2.2443862E0],"tree_param":{"num_deleted":"0","num_feature":"16","num_nodes":"161","size_leaf_vector":"1"}},{"base_weights":[1.6623877E-2,-5.048993E-1,7.9358023E-1,-8.015178E-1,1.6619493E-1,-0E0,1.0133625E0,-1.3708489E0,-5.6467044E-1,-1.6045296E-1,4.0871635E-1,-2.9355782E-1,2.918545E-1,-0E0,1.1003869E0,-5.0872433E-1,-1.444178E0,-1.5112631E-1,-7.7134E-1,-5.8767235E-1,-1.4467314E-2,6.9694674E-1,-0E0,-2.2525283E-2,-7.908002E-1,5.697701E-1,-0E0,-4.936096E-1,3.9036337E-1,7.7791053E-1,1.2808285E0,-7.5700605E-1,-0E0,-2.9408835E-2,-1.1498988E0,-5.5994266E-1,1.5735224E-1,-1.0385803E0,-4.7636196E-1,5.036482E-3,-1.5677972E-2,4.4347043E-3,-2.1232505E-1,1.7719556E-1,8.58668E-1,-3.80308E-1,1.4253202E-1,-4.5591176E-1,8.214592E-2,-9.869382E-1,-0E0,-0E0,6.9439554E-1,-1.6899234E-1,1.6327608E-1,-1.5234333E-2,-0E0,-0E0,5.2139306E-1,8.24629E-1,-0E0,2.3967331E-2,6.0651255E-1,-0E0,-9.4031966E-1,-1.1870488E0,-0E0,-6.8117803E-1,2.5086277E-4,-0E0,4.6070975E-1,-1.1176436E0,-0E0,-6.876184E-1,-5.391775E-3,-3.6097583E-1,-0E0,7.3462985E-3,-5.984353E-4,8.75235E-1,-0E0,-0E0,-7.140115E-1,3.9957798E-1,-0E0,-6.072114E-1,-0E0,-1.2578673E-2,8.424283E-3,-0E0,-1.0278293E0,-0E0,1.3641414E-2,2.0483069E-4,-4.4131294E-1,4.1074103E-1,-0E0,-0E0,1.0053577E-2,5.878916E-1,1.0154808E0,6.547253E-1,-0E0,-0E0,-1.0745633E0,-1.2374309E0,-0E0,-0E0,-7.8635097E-1,3.925964E-1,-9.390819E-2,5.889225E-1,-0E0,-1.281117E0,-4.8857966E-1,-2.9137537E-1,-9.349148E-1,1.2757522E-1,-5.2146107E-1,-4.6047205E-1,-0E0,8.707133E-3,-3.1750947E-3,-0E0,1.6021289E-2,-1.6037248E-2,-0E0,-0E0,5.366788E-1,-4.017099E-1,2.0455795E-3,-0E0,-7.094541E-1,-9.215744E-3,1.8511743E-3,-1.8884E-2,-0E0,-0E0,-6.502292E-1,-0E0,1.2466861E-2,6.2157845E-1,-0E0,1.0489628E0,-0E0,1.2604286E-2,-0E0,-2.0380454E-2,-0E0,-0E0,-1.2473044E0,-9.0089023E-1,-0E0,9.842171E-3,-0E0,-4.6346024E-1,1.4065914E-1,7.13261E-1,-0E0,-2.360925E-2,-3.329291E-3,-0E0,-6.3842446E-1,1.751654E-3,-4.2286798E-1,-1.0929552E0,-3.3364946E-1,6.9873696E-3,-0E0,-6.331921E-1,-0E0,-1.0081438E-3,-1.2595671E-2,1.1310336E-2,-0E0,-0E0,-1.0164534E-2,-0E0,-8.1334114E-1,-0E0,-7.711184E-1,6.608209E-1,-0E0,1.8745467E-2,-0E0,-2.2729611E-2,-0E0,-1.7641231E-2,-0E0,-0E0,-9.699494E-3,-0E0,8.228914E-3,-0E0,1.3295382E-2,-1.3545986E-2,-0E0,-1.082634E-2,-0E0,-1.956972E-2,-0E0,-9.935459E-3,-0E0,-1.4343702E-2,-0E0,-1.6259037E-2,-0E0,-1.6257672E-2,-0E0,-0E0,1.2466868E-2],"categories":[],"categories_nodes":[],"categories_segments":[],"categories_sizes":[],"default_left":[0,1,0,0,0,1,0,0,0,0,0,1,1,0,1,0,0,0,0,1,0,0,0,0,0,1,0,0,0,1,0,0,0,0,0,0,0,1,1,0,0,0,0,0,0,0,0,1,0,0,0,0,0,1,0,0,0,0,0,1,0,0,1,0,0,1,0,0,0,1,0,1,0,0,0,1,0,0,0,0,0,0,0,0,1,1,0,0,0,0,0,0,0,0,0,0,0,0,0,1,0,1,0,0,0,0,0,0,0,0,1,0,0,0,0,0,1,0,0,0,0,0,0,0,0,0,0,0,1,0,0,0,0,0,0,0,0,0,0,0,0,1,0,0,0,0,0,0,0,0,0,1,0,0,0,0,1,0,0,0,0,0,1,0,0,1,1,0,0,1,0,0,0,0,0,0,0,0,1,0,1,0,0,0,0,0,0,0,0,0,0,0,0,0,0,0,0,0,0,0,0,0,0,0,0,0,0,0,0,0,0],"id":2,"left_children":[1,3,5,7,9,11,13,15,17,19,21,23,25,27,29,31,33,35,37,39,41,43,45,47,49,51,53,55,57,59,61,63,-1,-1,65,67,69,71,73,-1,-1,-1,75,77,79,81,83,85,87,89,-1,-1,91,93,95,-1,-1,-1,97,99,-1,-1,101,-1,103,105,-1,107,-1,109,111,113,-1,115,117,119,121,-1,-1,123,-1,-1,125,127,129,131,-1,133,-1,-1,135,-1,-1,-1,137,139,-1,-1,-1,141,143,145,-1,-1,147,149,-1,-1,151,153,155,157,-1,159,161,163,165,167,169,171,-1,-1,-1,-1,-1,-1,-1,-1,173,175,-1,-1,177,-1,-1,-1,-1,-1,179,-1,-1,181,-1,183,-1,-1,-1,-1,-1,-1,185,187,-1,-1,-1,189,191,193,-1,-1,-1,-1,195,-1,197,199,201,-1,-1,203,-1,-1,-1,-1,-1,-1,-1,-1,205,-1,207,209,-1,-1,-1,-1,-1,-1,-1,-1,-1,-1,-1,-1,-1,-1,-1,-1,-1,-1,-1,-1,-1,-1,-1,-1,-1,-1,-1,-1,-1],"loss_changes":[2.4190273E3,7.154698E2,4.111974E2,3.1233826E2,8.879694E1,4.6359985E1,1.6095581E2,2.307666E1,1.4264062E2,2.2825413E1,7.257277E1,2.7276018E1,2.2220715E1,3.1285488E1,7.557129E1,6.83617E0,5.000366E0,8.1462036E1,7.536865E1,3.313739E1,1.8889452E1,2.0947418E1,1.4382765E1,1.1915457E1,1.0853401E1,1.416333E1,4.2446136E0,1.062533E1,7.8366594E0,2.1494354E1,3.3615845E1,8.91271E0,0E0,0E0,9.426117E0,2.5293434E1,1.652868E1,4.277057E1,5.1742783E1,0E0,0E0,0E0,9.346207E0,8.980689E0,6.5395813E0,8.231912E0,1.1043827E1,6.799222E0,9.306486E0,3.8159332E0,0E0,0E0,1.0848354E1,7.348566E0,5.2715797E0,0E0,0E0,0E0,3.8857899E0,9.597351E0,0E0,0E0,6.587654E0,0E0,3.7126808E0,8.397766E0,0E0,1.8662071E1,0E0,8.610408E0,1.1928852E1,3.630127E1,0E0,2.5479935E1,1.7620789E1,5.287697E0,9.889699E0,0E0,0E0,3.7418518E0,0E0,0E0,5.4804344E0,8.023112E0,8.378193E0,5.5674725E0,0E0,9.977082E0,0E0,0E0,4.01437E0,0E0,0E0,0E0,6.040085E0,7.586345E0,0E0,0E0,0E0,1.0577377E1,7.2117004E0,5.8170853E0,0E0,0E0,4.444439E0,5.088257E0,0E0,0E0,2.0947876E1,5.2872853E0,1.9939629E1,7.9369926E0,0E0,1.0802368E1,7.8737926E0,1.199703E1,6.1806335E0,7.4881268E0,5.7520666E0,4.920086E0,0E0,0E0,0E0,0E0,0E0,0E0,0E0,0E0,7.574278E0,4.3112216E0,0E0,0E0,5.941641E0,0E0,0E0,0E0,0E0,0E0,4.83424E0,0E0,0E0,1.1000656E1,0E0,7.0168457E0,0E0,0E0,0E0,0E0,0E0,0E0,4.882477E0,1.3455063E1,0E0,0E0,0E0,5.7389774E0,6.980654E0,4.5015144E0,0E0,0E0,0E0,0E0,9.72382E0,0E0,1.5715931E1,4.288864E0,7.503079E0,0E0,0E0,6.479517E0,0E0,0E0,0E0,0E0,0E0,0E0,0E0,0E0,6.2905483E0,0E0,4.1149445E0,1.058931E1,0E0,0E0,0E0,0E0,0E0,0E0,0E0,0E0,0E0,0E0,0E0,0E0,0E0,0E0,0E0,0E0,0E0,0E0,0E0,0E0,0E0,0E0,0E0,0E0,0E0,0E0,0E0,0E0,0E0],"parents":[2147483647,0,0,1,1,2,2,3,3,4,4,5,5,6,6,7,7,8,8,9,9,10,10,11,11,12,12,13,13,14,14,15,15,16,16,17,17,18,18,19,19,20,20,21,21,22,22,23,23,24,24,25,25,26,26,27,27,28,28,29,29,30,30,31,31,34,34,35,35,36,36,37,37,38,38,42,42,43,43,44,44,45,45,46,46,47,47,48,48,49,49,52,52,53,53,54,54,58,58,59,59,62,62,64,64,65,65,67,67,69,69,70,70,71,71,73,73,74,74,75,75,76,76,79,79,82,82,83,83,84,84,85,85,87,87,90,90,94,94,95,95,99,99,100,100,101,101,104,104,105,105,108,108,109,109,110,110,111,111,113,113,114,114,115,115,116,116,117,117,118,118,119,119,128,128,129,129,132,132,138,138,141,141,143,143,150,150,151,151,155,155,156,156,157,157,162,162,164,164,165,165,166,166,169,169,178,178,180,180,181,181],"right_children":[2,4,6,8,10,12,14,16,18,20,22,24,26,28,30,32,34,36,38,40,42,44,46,48,50,52,54,56,58,60,62,64,-1,-1,66,68,70,72,74,-1,-1,-1,76,78,80,82,84,86,88,90,-1,-1,92,94,96,-1,-1,-1,98,100,-1,-1,102,-1,104,106,-1,108,-1,110,112,114,-1,116,118,120,122,-1,-1,124,-1,-1,126,128,130,132,-1,134,-1,-1,136,-1,-1,-1,138,140,-1,-1,-1,142,144,146,-1,-1,148,150,-1,-1,152,154,156,158,-1,160,162,164,166,168,170,172,-1,-1,-1,-1,-1,-1,-1,-1,174,176,-1,-1,178,-1,-1,-1,-1,-1,180,-1,-1,182,-1,184,-1,-1,-1,-1,-1,-1,186,188,-1,-1,-1,190,192,194,-1,-1,-1,-1,196,-1,198,200,202,-1,-1,204,-1,-1,-1,-1,-1,-1,-1,-1,206,-1,208,210,-1,-1,-1,-1,-1,-1,-1,-1,-1,-1,-1,-1,-1,-1,-1,-1,-1,-1,-1,-1,-1,-1,-1,-1,-1,-1,-1,-1,-1],"split_conditions":[4E-1,4E0,7.4E1,5.8E1,6.8E1,2E0,6E0,1.0091E3,1.0183E3,5E1,1.0224E3,1.2E1,1.0141E3,1.3E1,3.2E0,3.45E1,5E1,7.2E1,5E0,1.006E3,1.017E3,7E0,3E0,2E0,2.65E1,9E0,6E0,3E0,3E0,9.9E1,2.62E1,7E0,-0E0,-2.9408835E-2,3.3E1,2.4E1,1.5E1,2E1,8E0,5.036482E-3,-1.5677972E-2,4.4347043E-3,2E1,1.0172E3,2E2,6E0,2.19E1,3.3E1,8.8E0,1.39E1,-0E0,-0E0,5.3E1,8E-1,5E0,-1.5234333E-2,-0E0,-0E0,1.65E1,7E0,-0E0,2.3967331E-2,1.0213E3,-0E0,1E0,3E0,-0E0,1.0082E3,2.5086277E-4,1.96E1,3.06E1,8.6E1,-0E0,2.29E1,1.3E1,2.67E1,4E0,7.3462985E-3,-5.984353E-4,4E0,-0E0,-0E0,1E-1,7.4E1,2.48E1,1.45E1,-0E0,8E0,8.424283E-3,-0E0,4.1E1,-0E0,1.3641414E-2,2.0483069E-4,1.7E1,1.0194E3,-0E0,-0E0,1.0053577E-2,3.22E1,9.7E1,3.2E1,-0E0,-0E0,3.000001E1,1.0093E3,-0E0,-0E0,7E0,9.6E1,7E0,1.016E3,-0E0,3.000001E1,1.0221E3,1.022E3,3E1,1.91E1,1.7E1,2.09E1,-0E0,8.707133E-3,-3.1750947E-3,-0E0,1.6021289E-2,-1.6037248E-2,-0E0,-0E0,9.6E1,6E0,2.0455795E-3,-0E0,1.0069E3,-9.215744E-3,1.8511743E-3,-1.8884E-2,-0E0,-0E0,1.0143E3,-0E0,1.2466861E-2,1.03E3,-0E0,3.5E1,-0E0,1.2604286E-2,-0E0,-2.0380454E-2,-0E0,-0E0,1E-1,2E0,-0E0,9.842171E-3,-0E0,1.009E3,8.4E1,1.8E1,-0E0,-2.360925E-2,-3.329291E-3,-0E0,9E0,1.751654E-3,8.8E1,3.1E1,1E0,6.9873696E-3,-0E0,1.0254E3,-0E0,-1.0081438E-3,-1.2595671E-2,1.1310336E-2,-0E0,-0E0,-1.0164534E-2,-0E0,2.08E1,-0E0,1.3E1,1E0,-0E0,1.8745467E-2,-0E0,-2.2729611E-2,-0E0,-1.7641231E-2,-0E0,-0E0,-9.699494E-3,-0E0,8.228914E-3,-0E0,1.3295382E-2,-1.3545986E-2,-0E0,-1.082634E-2,-0E0,-1.956972E-2,-0E0,-9.935459E-3,-0E0,-1.4343702E-2,-0E0,-1.6259037E-2,-0E0,-1.6257672E-2,-0E0,-0E0,1.2466868E-2],"split_indices":[3,9,7,7,7,9,9,8,8,7,8,4,8,6,3,2,7,7,0,8,8,9,0,9,2,6,9,9,0,7,2,6,0,0,6,6,6,6,4,0,0,0,6,8,7,4,2,6,3,2,0,0,7,3,0,0,0,0,2,9,0,0,8,0,0,9,0,8,0,2,2,7,0,2,4,2,0,0,0,6,0,0,3,7,2,2,0,4,0,0,6,0,0,0,6,8,0,0,0,2,7,2,0,0,4,8,0,0,0,7,4,8,0,4,8,8,2,2,6,2,0,0,0,0,0,0,0,0,7,9,0,0,8,0,0,0,0,0,8,0,0,8,0,2,0,0,0,0,0,0,3,9,0,0,0,8,7,2,0,0,0,0,6,0,7,6,9,0,0,8,0,0,0,0,0,0,0,0,3,0,4,0,0,0,0,0,0,0,0,0,0,0,0,0,0,0,0,0,0,0,0,0,0,0,0,0,0,0,0,0,0],"split_type":[0,0,0,0,0,0,0,0,0,0,0,0,0,0,0,0,0,0,0,0,0,0,0,0,0,0,0,0,0,0,0,0,0,0,0,0,0,0,0,0,0,0,0,0,0,0,0,0,0,0,0,0,0,0,0,0,0,0,0,0,0,0,0,0,0,0,0,0,0,0,0,0,0,0,0,0,0,0,0,0,0,0,0,0,0,0,0,0,0,0,0,0,0,0,0,0,0,0,0,0,0,0,0,0,0,0,0,0,0,0,0,0,0,0,0,0,0,0,0,0,0,0,0,0,0,0,0,0,0,0,0,0,0,0,0,0,0,0,0,0,0,0,0,0,0,0,0,0,0,0,0,0,0,0,0,0,0,0,0,0,0,0,0,0,0,0,0,0,0,0,0,0,0,0,0,0,0,0,0,0,0,0,0,0,0,0,0,0,0,0,0,0,0,0,0,0,0,0,0,0,0,0,0,0,0,0,0,0,0,0,0],"sum_hessian":[5.9509453E3,3.555302E3,2.3956433E3,2.4738577E3,1.0814445E3,5.285073E2,1.8671359E3,7.0682117E2,1.7670365E3,4.4613168E2,6.3531274E2,2.5040154E2,2.7810577E2,1.5168867E2,1.7154473E3,6.885848E1,6.379627E2,6.0680084E2,1.1602356E3,9.3230896E1,3.5290082E2,3.637154E2,2.7159732E2,1.7792653E2,7.247499E1,1.3671452E2,1.4139125E2,6.1857506E1,8.983118E1,6.452756E2,1.0701716E3,3.953017E1,2.9328312E1,3.2911182E2,3.0885092E2,2.7109344E2,3.3570737E2,5.8452496E2,5.757107E2,1.6421806E1,7.680909E1,1.3072017E2,2.2218063E2,1.0250401E2,2.612114E2,6.2850147E1,2.0874718E2,4.6940205E1,1.3098633E2,5.539112E1,1.7083874E1,1.7379564E1,1.1933495E2,6.485949E1,7.653177E1,3.0176731E1,3.1680775E1,1.345199E1,7.637919E1,6.0513855E2,4.0137024E1,9.4217896E2,1.2799274E2,6.0740085E0,3.345616E1,2.9611844E2,1.273247E1,2.3560834E2,3.5485115E1,2.2430635E2,1.11401024E2,5.381205E2,4.6404472E1,3.8240814E2,1.9330257E2,1.4442561E2,7.775503E1,6.4856224E1,3.7647785E1,2.5971402E2,1.4973502E0,3.3439648E1,2.9410498E1,9.016601E1,1.1858117E2,4.212149E1,4.818716E0,9.254123E1,3.84451E1,1.2048156E0,5.4186302E1,6.157269E0,1.1317768E2,2.3078176E1,4.178131E1,3.797177E1,3.8559994E1,1.4958886E0,7.488329E1,3.024613E2,3.0267722E2,1.2429986E2,3.6928742E0,6.1153502E0,2.734081E1,2.7747202E2,1.8646414E1,3.0220573E1,2.0538777E2,3.849165E1,1.858147E2,1.0009539E2,1.130563E1,4.1068414E2,1.2743635E2,1.6607365E2,2.1633447E2,1.4384756E2,4.9454998E1,1.1123545E2,3.319016E1,2.6580715E1,5.1174313E1,1.43363905E1,2.4537764E2,2.2340828E1,7.0696697E0,1.5169442E1,7.499657E1,3.8327152E1,8.025402E1,1.9097462E0,4.0211742E1,2.736524E1,6.517599E1,5.2981773E1,1.2045318E0,1.1688176E1,3.0093136E1,1.4166356E1,2.3805418E1,2.972701E2,5.191207E0,2.8981674E2,1.2860489E1,1.1478934E2,9.510523E0,2.6134388E1,1.2064224E0,1.2054502E0,2.7626657E2,1.8077405E2,2.4613728E1,3.284072E1,5.6509295E0,8.4418564E1,1.0139613E2,8.181116E1,1.8284239E1,3.8124496E2,2.943917E1,3.6124542E1,9.1311806E1,2.522403E1,1.4084962E2,1.5549362E2,6.0840847E1,5.695982E1,8.688775E1,4.5836636E1,3.6183605E0,5.9445267E1,5.1790184E1,6.909237E1,5.9041986E0,9.976804E0,2.835035E1,2.1593602E0,3.8052383E1,2.4083786E0,2.7684757E1,2.8746857E2,9.801543E0,2.885723E2,1.2444474E0,2.6153253E2,1.47340355E1,1.5902193E2,2.1752108E1,7.271785E0,7.714678E1,6.587678E1,3.551935E1,1.2473922E0,8.056376E1,7.767197E1,1.363984E1,1.05289E2,3.5560623E1,1.5428893E2,1.2046957E0,4.0884315E1,1.9956528E1,3.5103233E1,1.0733402E1,3.5642426E1,2.4099567E0,2.2325253E1,5.3595047E0,1.5616644E1,2.718519E2],"tree_param":{"num_deleted":"0","num_feature":"16","num_nodes":"211","size_leaf_vector":"1"}},{"base_weights":[4.479809E-4,-5.168876E-1,7.822316E-1,-1.0476538E0,-2.5825387E-1,3.397132E-1,1.1625594E0,-1.3163428E0,-8.2646203E-1,-4.6717292E-1,9.8674975E-2,-2.8885376E-1,5.352213E-1,1.236341E0,5.601563E-1,-1.4452758E0,-4.7277915E-1,-9.149794E-1,-0E0,-7.319456E-1,-2.908084E-1,-1.8709639E-1,4.1186452E-1,-4.0937695E-1,2.99663E-1,1.3225073E-1,7.6854867E-1,8.723924E-1,2.3915974E-2,-1.8458664E-3,1.28606185E-2,-0E0,-1.4633578E0,-8.690031E-1,-0E0,-1.0560246E0,-3.7889674E-1,4.8986794E-3,-7.080999E-3,-2.7839145E-1,-1.0225232E0,1.8072316E-2,-3.8425884E-1,-4.2516017E-1,6.616998E-2,-4.2113817E-1,5.333578E-1,-5.3804636E-1,8.0570206E-4,-0E0,8.46647E-3,2.3175077E-1,-1.3033432E-1,-0E0,8.012323E-1,9.878195E-1,-0E0,-2.61482E-2,-0E0,-0E0,-1.7487144E-2,-1.1787106E0,-3.6271665E-1,-5.6621253E-1,-0E0,-6.6575897E-1,3.0000055E-1,-2.2297231E-2,-6.41174E-1,-4.6578622E-1,1.317088E-2,-0E0,-5.3067005E-1,4.3120477E-1,-0E0,-9.960324E-3,-0E0,6.2890697E-1,-0E0,-6.146883E-1,-0E0,-3.741236E-1,3.05607E-1,-0E0,-3.564719E-1,1.4413461E-2,-0E0,9.7815126E-2,1.0927491E0,-2.1002488E-2,-0E0,-0E0,-8.5555613E-1,-1.0985391E-2,-0E0,-1.1821089E0,-0E0,6.030149E-1,-0E0,-8.4878033E-1,-4.307988E-2,-1.7932601E-2,-5.944558E-1,2.6452225E-1,-7.566076E-3,-2.03637E-2,-3.0400723E-1,-0E0,1.1331001E-2,-1.731634E-1,1.6863154E-1,-0E0,1.1776052E-2,-0E0,-7.1601117E-1,-0E0,-1.1512466E-2,7.946594E-1,1.4632201E-1,-9.183478E-3,-0E0,6.8556806E-3,-3.3951283E-3,-0E0,1.9636722E-2,-1.741899E-2,-0E0,-1.3123335E0,-0E0,4.3372572E-3,-2.4114785E-1,-0E0,1.3789079E-2,-1.696273E-2,-0E0,1.9904773E-3,-6.071889E-3,-3.1728747E-1,3.7564272E-3,-8.921975E-1,-3.9461276E-1,-0E0,3.719114E-1,1.1021221E-3,-5.250946E-1,-8.649068E-3,-0E0,7.5297244E-3,-0E0,6.0668285E-3,-6.9329278E-3,-7.819047E-1,-0E0,1.5574673E-2,-0E0,-3.0485737E-1,3.306406E-1,-0E0,-2.4490004E-2,-8.626935E-3,4.749159E-4,-0E0,-1.0249448E-2,-1.7251989E-2,-4.1642698E-4,-1.1952363E-2,-2.0875908E-3,8.726458E-3,-0E0,-1.2316095E-2,-0E0,-5.763103E-3,4.680577E-3,-2.0072205E-2,-6.064837E-3,-9.964495E-3,-0E0,-0E0,7.819047E-3],"categories":[],"categories_nodes":[],"categories_segments":[],"categories_sizes":[],"default_left":[0,0,1,0,1,0,0,0,0,1,1,1,0,0,0,0,0,0,0,0,0,0,0,0,0,1,0,0,0,0,0,0,1,0,0,0,0,0,0,1,0,0,0,0,0,0,0,1,0,0,0,0,0,0,1,0,0,0,0,0,0,0,0,0,0,1,0,0,1,0,1,0,1,0,1,0,0,0,0,0,0,0,0,0,0,0,0,0,0,0,0,0,0,0,0,0,0,0,0,1,1,0,0,1,0,0,0,0,0,0,0,0,0,0,1,0,0,0,0,0,0,0,0,0,0,0,0,0,0,0,0,0,0,0,0,0,0,0,0,0,1,0,1,0,0,0,1,0,0,0,0,0,0,0,0,1,0,0,0,0,0,0,0,0,0,0,0,0,0,0,0,0,0,0,0,0,0,0,0],"id":3,"left_children":[1,3,5,7,9,11,13,15,17,19,21,23,25,27,29,31,33,35,37,39,41,43,45,47,49,51,53,55,-1,-1,-1,-1,57,59,-1,61,63,-1,-1,65,67,-1,69,71,73,75,77,79,-1,-1,-1,81,83,-1,85,87,-1,-1,-1,-1,-1,89,91,93,-1,95,97,-1,99,101,103,-1,105,107,109,-1,-1,111,-1,113,-1,115,117,-1,119,-1,-1,121,123,-1,-1,-1,125,-1,-1,127,129,131,-1,133,135,137,139,141,-1,-1,143,-1,-1,145,147,149,-1,-1,151,-1,-1,153,155,-1,-1,-1,-1,-1,-1,-1,-1,157,-1,-1,159,-1,-1,-1,-1,-1,-1,161,-1,163,165,-1,167,-1,169,-1,171,-1,-1,-1,-1,173,-1,-1,-1,175,177,-1,-1,-1,-1,-1,-1,-1,-1,-1,-1,-1,-1,-1,-1,-1,-1,-1,-1,-1,-1,-1,-1],"loss_changes":[2.4098625E3,4.7749066E2,3.8425537E2,4.2878906E1,1.8429263E2,1.4063571E2,3.587268E1,3.2358093E1,4.693344E1,6.1742462E1,8.164239E1,2.0109163E1,7.280492E1,2.0763306E1,2.4288628E1,7.7261353E0,1.9656618E1,3.0315002E1,9.214358E0,6.487579E1,1.1460944E2,3.0618832E1,4.6833733E1,1.7990528E1,4.0279E0,9.956862E0,1.6871948E1,3.5146896E1,0E0,0E0,0E0,0E0,7.95105E0,6.7845955E0,0E0,2.2789917E1,1.1312288E1,0E0,0E0,6.1087284E1,9.897461E0,0E0,3.3401276E1,1.1382675E1,6.438255E0,4.60641E0,2.1893082E1,9.309227E0,0E0,0E0,0E0,1.2330303E1,4.7746267E0,0E0,6.933777E0,1.4674225E1,0E0,0E0,0E0,0E0,0E0,5.2302856E0,1.3232756E1,4.281784E0,0E0,4.849749E1,9.972917E0,0E0,1.1948334E1,3.8884247E1,1.5023924E1,0E0,1.3389912E1,7.108437E0,5.263933E0,0E0,0E0,6.2145233E0,0E0,8.561523E0,0E0,3.8120117E0,1.1145134E1,0E0,4.2408257E0,0E0,0E0,6.0302258E0,8.780029E0,0E0,0E0,0E0,5.4463196E0,0E0,0E0,1.0311478E1,5.242144E0,7.445036E0,0E0,6.786827E0,5.088959E0,1.475339E1,2.1013046E1,4.9543247E0,0E0,0E0,1.7870934E1,0E0,0E0,6.679885E0,5.4584775E0,4.8316126E0,0E0,0E0,8.055611E0,0E0,0E0,5.0909176E0,1.8954124E1,0E0,0E0,0E0,0E0,0E0,0E0,0E0,0E0,1.0395737E1,0E0,0E0,8.009729E0,0E0,0E0,0E0,0E0,0E0,0E0,5.7632484E0,0E0,6.666092E0,2.1962624E1,0E0,4.9126234E0,0E0,5.8831253E0,0E0,6.008893E0,0E0,0E0,0E0,0E0,5.364197E0,0E0,0E0,0E0,7.5994377E0,7.603569E0,0E0,0E0,0E0,0E0,0E0,0E0,0E0,0E0,0E0,0E0,0E0,0E0,0E0,0E0,0E0,0E0,0E0,0E0,0E0,0E0,0E0,0E0],"parents":[2147483647,0,0,1,1,2,2,3,3,4,4,5,5,6,6,7,7,8,8,9,9,10,10,11,11,12,12,13,13,14,14,15,15,16,16,17,17,18,18,19,19,20,20,21,21,22,22,23,23,24,24,25,25,26,26,27,27,32,32,33,33,35,35,36,36,39,39,40,40,42,42,43,43,44,44,45,45,46,46,47,47,51,51,52,52,54,54,55,55,61,61,62,62,63,63,65,65,66,66,68,68,69,69,70,70,72,72,73,73,74,74,77,77,79,79,81,81,82,82,84,84,87,87,88,88,92,92,95,95,96,96,97,97,99,99,100,100,101,101,102,102,103,103,106,106,109,109,110,110,111,111,114,114,117,117,118,118,127,127,130,130,137,137,139,139,140,140,142,142,144,144,146,146,151,151,155,155,156,156],"right_children":[2,4,6,8,10,12,14,16,18,20,22,24,26,28,30,32,34,36,38,40,42,44,46,48,50,52,54,56,-1,-1,-1,-1,58,60,-1,62,64,-1,-1,66,68,-1,70,72,74,76,78,80,-1,-1,-1,82,84,-1,86,88,-1,-1,-1,-1,-1,90,92,94,-1,96,98,-1,100,102,104,-1,106,108,110,-1,-1,112,-1,114,-1,116,118,-1,120,-1,-1,122,124,-1,-1,-1,126,-1,-1,128,130,132,-1,134,136,138,140,142,-1,-1,144,-1,-1,146,148,150,-1,-1,152,-1,-1,154,156,-1,-1,-1,-1,-1,-1,-1,-1,158,-1,-1,160,-1,-1,-1,-1,-1,-1,162,-1,164,166,-1,168,-1,170,-1,172,-1,-1,-1,-1,174,-1,-1,-1,176,178,-1,-1,-1,-1,-1,-1,-1,-1,-1,-1,-1,-1,-1,-1,-1,-1,-1,-1,-1,-1,-1,-1],"split_conditions":[4E-1,6.1E1,8.5E1,5E1,1.3E1,6.6E1,2.62E1,2.76E1,2.54E1,1.43E1,7.2E1,3.3E1,1.5E1,1.36E1,1.96E1,1.59E1,3.6E1,2.2E1,3.56E1,1.73E1,1.92E1,2E1,1.16E1,2.43E1,5.4E1,2.74E1,1.05E1,1.88E1,2.3915974E-2,-1.8458664E-3,1.28606185E-2,-0E0,3.5E1,1E0,-0E0,7E0,5.8E1,4.8986794E-3,-7.080999E-3,9.5E0,8.6E1,1.8072316E-2,2.4E1,1.9E1,1.89E1,8.8E1,2.72E1,1.12E1,8.0570206E-4,-0E0,8.46647E-3,1.06E1,6E0,-0E0,3.36E1,1.2E0,-0E0,-2.61482E-2,-0E0,-0E0,-1.7487144E-2,2.52E1,2.17E1,2E-1,-0E0,9.3E1,1.62E1,-2.2297231E-2,1.13E1,2.32E1,3.34E1,-0E0,1.66E1,1.1E1,2.26E1,-9.960324E-3,-0E0,1.33E1,-0E0,6E-1,-0E0,1.36E1,1.8E1,-0E0,1.04E1,1.4413461E-2,-0E0,1.69E1,4.7E0,-2.1002488E-2,-0E0,-0E0,3.26E1,-1.0985391E-2,-0E0,5E0,1.29E1,7.2E1,-0E0,2.25E1,1.91E1,1.74E1,1.94E1,6.6E1,-7.566076E-3,-2.03637E-2,2.28E1,-0E0,1.1331001E-2,2.4E1,2.37E1,1.85E1,1.1776052E-2,-0E0,3E1,-0E0,-1.1512466E-2,7E0,1.65E1,-9.183478E-3,-0E0,6.8556806E-3,-3.3951283E-3,-0E0,1.9636722E-2,-1.741899E-2,-0E0,1.11E1,-0E0,4.3372572E-3,8.1E0,-0E0,1.3789079E-2,-1.696273E-2,-0E0,1.9904773E-3,-6.071889E-3,2.13E1,3.7564272E-3,9.2E1,7.4E1,-0E0,3.06E1,1.1021221E-3,2.36E1,-8.649068E-3,6.5E1,7.5297244E-3,-0E0,6.0668285E-3,-6.9329278E-3,5.8E1,-0E0,1.5574673E-2,-0E0,6.6E0,6E0,-0E0,-2.4490004E-2,-8.626935E-3,4.749159E-4,-0E0,-1.0249448E-2,-1.7251989E-2,-4.1642698E-4,-1.1952363E-2,-2.0875908E-3,8.726458E-3,-0E0,-1.2316095E-2,-0E0,-5.763103E-3,4.680577E-3,-2.0072205E-2,-6.064837E-3,-9.964495E-3,-0E0,-0E0,7.819047E-3],"split_indices":[3,7,7,7,6,7,2,10,10,10,7,6,6,10,10,2,7,6,2,2,2,6,10,10,7,2,10,2,0,0,0,0,6,0,0,0,7,0,0,10,7,0,10,2,2,7,2,3,0,0,0,10,6,0,2,3,0,0,0,0,0,10,2,3,0,7,2,0,10,2,2,0,10,10,10,0,0,10,0,3,0,2,2,0,3,0,0,2,10,0,0,0,2,0,0,0,2,7,0,2,2,10,10,7,0,0,2,0,0,6,10,2,0,0,6,0,0,0,10,0,0,0,0,0,0,0,0,2,0,0,10,0,0,0,0,0,0,2,0,7,7,0,2,0,10,0,7,0,0,0,0,7,0,0,0,3,6,0,0,0,0,0,0,0,0,0,0,0,0,0,0,0,0,0,0,0,0,0,0],"split_type":[0,0,0,0,0,0,0,0,0,0,0,0,0,0,0,0,0,0,0,0,0,0,0,0,0,0,0,0,0,0,0,0,0,0,0,0,0,0,0,0,0,0,0,0,0,0,0,0,0,0,0,0,0,0,0,0,0,0,0,0,0,0,0,0,0,0,0,0,0,0,0,0,0,0,0,0,0,0,0,0,0,0,0,0,0,0,0,0,0,0,0,0,0,0,0,0,0,0,0,0,0,0,0,0,0,0,0,0,0,0,0,0,0,0,0,0,0,0,0,0,0,0,0,0,0,0,0,0,0,0,0,0,0,0,0,0,0,0,0,0,0,0,0,0,0,0,0,0,0,0,0,0,0,0,0,0,0,0,0,0,0,0,0,0,0,0,0,0,0,0,0,0,0,0,0,0,0,0,0],"sum_hessian":[5.93988E3,3.5689702E3,2.3709097E3,1.1517014E3,2.4172688E3,1.11222E3,1.2586898E3,4.8765347E2,6.64048E2,1.5392163E3,8.780524E2,2.5238063E2,8.598393E2,1.1022499E3,1.5643997E2,4.0993256E2,7.772091E1,5.9666644E2,6.7381485E1,5.8722906E2,9.5198724E2,4.456527E2,4.323997E2,2.2360469E2,2.8775942E1,3.3290567E2,5.269336E2,3.0328238E2,7.989675E2,2.1516449E1,1.3492352E2,6.6167455E0,4.033158E2,4.454523E1,3.317568E1,4.543827E2,1.4228377E2,3.7589596E1,2.9791887E1,2.4610641E2,3.4112265E2,5.2647907E1,8.993393E2,2.4554793E2,2.0010478E2,4.374131E1,3.886584E2,1.8860777E2,3.499692E1,3.9498954E0,2.4826048E1,2.664702E2,6.643547E1,1.6340393E1,5.105932E2,2.711621E2,3.2120262E1,3.966986E2,6.6171927E0,4.8675833E0,3.9677647E1,3.713998E2,8.298289E1,9.547879E1,4.680498E1,1.5600279E2,9.010362E1,1.8566747E2,1.5545518E2,7.638692E2,1.3547014E2,4.9798283E1,1.9574965E2,3.3112183E1,1.6699261E2,3.597089E1,7.770419E0,3.3309454E2,5.5563835E1,1.6765416E2,2.0953606E1,1.3084233E1,2.5338599E2,2.5503843E1,4.0931625E1,5.01336E2,9.257195E0,3.88145E1,2.3234761E2,3.677397E2,3.6601224E0,5.52196E1,2.776329E1,8.8906334E1,6.5724545E0,7.98349E1,7.6167885E1,4.4929695E1,4.517393E1,1.0240311E2,5.3052074E1,1.8749234E2,5.7637683E2,1.0078761E2,3.4682526E1,3.47983E1,1.6095134E2,4.449528E0,2.8662653E1,9.214872E1,7.484389E1,2.4102581E1,3.0899197E2,2.9069292E1,1.3858487E2,4.108486E0,8.975748E0,4.2319374E1,2.110666E2,3.1468279E1,9.463346E0,3.358264E1,5.2318563E0,1.4958444E0,2.3085176E2,2.4850752E1,2.912539E0,6.95615E1,1.0273404E1,2.4936783E1,5.12311E1,8.570844E0,3.635885E1,8.575546E1,1.664765E1,1.816295E1,3.4889126E1,9.7325005E1,9.016733E1,2.0478569E2,3.7159116E2,1.7133566E1,8.3654045E1,4.718409E1,1.1376726E2,3.371716E1,5.843156E1,3.6276985E1,3.8566906E1,1.736491E1,6.737672E0,1.28358E2,1.0226869E1,3.962188E1,2.6974943E0,4.60469E1,1.650197E2,2.6587574E0,6.690274E1,4.109075E1,1.0140347E1,5.5684948E1,4.1640057E1,1.7638933E2,2.8396353E1,1.6318869E2,2.0840247E2,6.461472E1,1.9039326E1,7.3684364E1,4.008289E1,2.1146255E1,3.7285305E1,5.4051277E1,7.4306725E1,3.272625E1,1.3320654E1,3.726789E1,1.27751816E2],"tree_param":{"num_deleted":"0","num_feature":"16","num_nodes":"179","size_leaf_vector":"1"}},{"base_weights":[2.0018613E-3,-4.901173E-1,7.539579E-1,-1.1351604E0,-2.5526515E-1,-1.6182747E-2,9.720425E-1,-1.4829351E0,-4.5411655E-1,-4.9446556E-1,5.3027254E-1,-4.665501E-1,4.0730566E-1,7.744422E-1,1.3117341E0,-0E0,-2.6252849E-2,-8.186834E-1,-0E0,-9.472825E-1,-3.4463206E-1,3.5023928E-1,9.992085E-1,-6.602658E-1,1.351874E-1,-4.2624983E-1,5.203619E-1,2.0028488E-1,9.795177E-1,1.3219634E0,-0E0,-0E0,-9.451486E-1,-4.5426244E-1,4.4277185E-3,-1.2663212E-1,-1.2650663E0,-0E0,-6.1107117E-1,4.9217203E-1,-0E0,-0E0,1.0933278E0,-0E0,-7.3777074E-1,-0E0,4.3712392E-1,-1.4141017E-2,-0E0,-0E0,6.34614E-1,-1.2124701E-1,4.120062E-1,-0E0,1.064961E0,-0E0,2.3568798E-2,-1.0447189E0,-0E0,-8.312721E-1,-0E0,5.588412E-1,-7.171502E-1,-0E0,-1.3207492E0,-3.9847916E-1,1.8323803E-1,-9.9516207E-1,-1.0053595E-1,6.0556084E-1,-0E0,-1.0728018E-1,2.8148994E-1,-0E0,1.979432E-2,-8.2214737E-1,-0E0,-0E0,1.1433946E-2,6.885723E-1,-0E0,6.7935675E-2,-6.3719094E-1,6.187274E-1,-6.737655E-2,6.1107326E-1,-3.267153E-1,1.0984848E0,-0E0,-1.1012079E0,-0E0,-1.8005185E-2,-0E0,7.805756E-1,-0E0,-1.1337969E0,-0E0,-8.552531E-1,-1.6938773E0,-7.47767E-1,-9.268383E-2,-4.163003E-2,4.3260857E-1,-1.0960345E0,-1.569624E-1,3.8855713E-2,-7.584194E-1,8.161207E-1,2.671963E-1,-3.7093037E-1,3.6619914E-1,-6.593606E-3,1.510442E-3,4.5091757E-1,-0E0,-1.5773913E-2,-0E0,7.097792E-1,-0E0,-1.9768763E-1,4.302918E-1,-1.6113056E-2,-0E0,7.170632E-1,-0E0,-6.564866E-3,-0E0,1.4617123E-2,-0E0,-0E0,-9.461298E-3,-0E0,1.1284527E0,-1.2349695E0,-0E0,1.4978354E-2,-0E0,-2.513832E-2,-0E0,2.9363497E-3,-5.989611E-3,-0E0,-1.1306006E0,-3.09648E-2,-0E0,-0E0,-1.7158959E-2,-0E0,-4.5778534E-1,5.0847167E-3,-3.5462105E-1,5.159619E-1,-0E0,-3.1022632E-1,-1.1910746E0,-5.6892425E-1,3.568552E-3,2.8863463E-1,-2.8615317E-1,-1.0856254E0,-0E0,8.5297143E-1,-0E0,1.2492689E-2,-2.8187374E-3,-0E0,-1.0304681E-2,-0E0,1.054681E-2,1.0452406E-2,-0E0,-0E0,1.2898649E-2,-0E0,-7.762299E-3,-0E0,5.7166356E-1,7.541051E-1,-0E0,1.1333293E0,-0E0,-0E0,-2.249993E-2,5.8631296E-3,-4.9960893E-3,-0E0,-2.3463624E-2,-0E0,-9.929774E-3,-9.480563E-3,-0E0,9.925417E-3,-0E0,-0E0,-7.7894176E-3,-3.0823678E-3,-2.19587E-2,-0E0,-1.2630279E-2,-0E0,7.471557E-3,-8.355546E-3,-0E0,-0E0,-2.070217E-2,-0E0,1.5704116E-2,-0E0,1.2403148E-2,1.4453718E-2,-0E0,-0E0,2.008247E-2],"categories":[],"categories_nodes":[],"categories_segments":[],"categories_sizes":[],"default_left":[0,0,0,0,1,0,1,0,1,0,0,0,0,0,0,0,0,0,0,1,0,0,1,0,1,0,1,1,0,0,0,0,0,0,0,1,0,0,1,0,0,0,0,0,1,0,0,0,0,0,1,1,0,0,1,0,0,1,0,0,0,0,0,0,1,0,0,1,0,0,0,0,0,0,0,1,0,0,0,1,0,0,0,1,0,1,0,0,0,0,0,0,0,0,0,0,0,0,0,0,0,0,1,0,1,1,0,0,1,0,1,0,0,1,0,0,0,0,0,0,0,0,0,1,0,0,0,0,0,0,0,0,1,0,0,0,0,0,0,0,0,1,0,0,0,0,0,0,0,0,1,0,0,0,1,0,0,0,0,1,0,0,0,0,0,0,0,0,0,0,0,0,0,0,0,0,0,1,0,0,0,0,0,0,0,0,0,0,0,0,0,0,0,0,0,0,0,0,0,0,0,0,0,0,0,0,0,0,0,0,0,0,0],"id":4,"left_children":[1,3,5,7,9,11,13,15,17,19,21,23,25,27,29,-1,-1,31,33,35,37,39,41,43,45,47,49,51,53,55,-1,-1,57,59,-1,61,63,65,67,69,71,-1,73,-1,75,-1,77,-1,-1,-1,79,81,83,85,87,-1,-1,89,-1,91,-1,93,95,-1,97,99,101,103,105,107,109,111,113,-1,-1,115,-1,-1,-1,117,-1,119,121,123,125,127,129,131,-1,133,-1,-1,-1,135,-1,137,139,141,143,145,147,149,151,153,155,157,159,161,163,165,167,-1,-1,169,-1,-1,-1,171,-1,173,175,-1,-1,177,-1,-1,-1,-1,-1,-1,-1,-1,179,181,-1,-1,-1,-1,-1,-1,-1,183,185,-1,-1,-1,-1,-1,187,-1,189,191,-1,193,195,197,-1,199,201,203,-1,205,-1,-1,-1,-1,-1,-1,-1,-1,-1,-1,-1,-1,-1,-1,207,209,-1,211,-1,-1,-1,-1,-1,-1,-1,-1,-1,-1,-1,-1,-1,-1,-1,-1,-1,-1,-1,-1,-1,-1,-1,-1,-1,-1,-1,-1,-1,-1,-1,-1,-1],"loss_changes":[2.198574E3,5.2816986E2,4.0408435E2,2.0202063E2,4.9795206E2,1.0033454E2,9.880408E1,5.8568115E0,5.0802658E1,1.2472299E2,3.7407272E1,3.596083E1,2.6721226E1,1.2934686E2,1.0327759E1,0E0,0E0,1.7966988E1,2.0624104E1,1.1397635E2,1.4310881E2,2.1910103E1,1.88983E1,1.4205666E1,4.1602163E0,8.64563E0,1.869825E1,2.568288E1,6.491809E1,7.4050293E0,0E0,0E0,1.4119995E1,1.802788E1,0E0,6.515719E1,2.304657E1,5.0340767E1,1.618424E2,1.6473785E1,5.0188823E0,0E0,5.967987E0,0E0,1.4412308E1,0E0,4.199698E0,0E0,0E0,0E0,1.1040001E1,1.7154297E1,2.6949154E1,1.9964842E1,2.0658203E1,0E0,0E0,1.2223389E1,0E0,5.9225464E0,0E0,1.1719131E1,1.7309189E1,0E0,2.5178833E1,1.5265419E1,3.01465E1,2.925943E1,4.2706367E1,7.5433807E0,1.0649155E1,8.08667E0,5.0368795E0,0E0,0E0,5.0459976E0,0E0,0E0,0E0,5.1873093E0,0E0,1.0483609E1,7.392145E0,6.0061035E0,4.2173533E0,5.8818617E0,4.861332E0,1.9685669E1,0E0,1.1733826E1,0E0,0E0,0E0,5.044342E0,0E0,2.2331161E1,4.549223E0,4.659352E1,1.9802094E1,1.4157143E1,8.675856E0,2.5623095E1,1.17343445E1,1.6236816E1,1.4283319E1,2.6532883E1,1.2163368E1,7.415558E0,2.9205427E1,5.4244123E0,5.31242E0,0E0,0E0,4.624917E0,0E0,0E0,0E0,5.2935867E0,0E0,3.7726607E0,4.4781933E0,0E0,0E0,6.4298096E0,0E0,0E0,0E0,0E0,0E0,0E0,0E0,0E0,3.7841797E0,5.3144684E0,0E0,0E0,0E0,0E0,0E0,0E0,0E0,4.8844285E0,2.7369385E1,0E0,0E0,0E0,0E0,0E0,3.6515074E0,0E0,1.1418163E1,5.956608E0,0E0,5.120046E0,6.0689697E0,3.8477402E0,0E0,1.1071564E1,9.158664E0,4.7728233E0,0E0,7.6287003E0,0E0,0E0,0E0,0E0,0E0,0E0,0E0,0E0,0E0,0E0,0E0,0E0,0E0,0E0,4.811165E0,5.7925262E0,0E0,3.7406616E0,0E0,0E0,0E0,0E0,0E0,0E0,0E0,0E0,0E0,0E0,0E0,0E0,0E0,0E0,0E0,0E0,0E0,0E0,0E0,0E0,0E0,0E0,0E0,0E0,0E0,0E0,0E0,0E0,0E0,0E0,0E0,0E0,0E0],"parents":[2147483647,0,0,1,1,2,2,3,3,4,4,5,5,6,6,7,7,8,8,9,9,10,10,11,11,12,12,13,13,14,14,17,17,18,18,19,19,20,20,21,21,22,22,23,23,24,24,25,25,26,26,27,27,28,28,29,29,32,32,33,33,35,35,36,36,37,37,38,38,39,39,40,40,42,42,44,44,46,46,50,50,51,51,52,52,53,53,54,54,57,57,59,59,61,61,62,62,64,64,65,65,66,66,67,67,68,68,69,69,70,70,71,71,72,72,75,75,79,79,81,81,82,82,83,83,84,84,85,85,86,86,87,87,89,89,93,93,95,95,96,96,97,97,98,98,99,99,100,100,101,101,102,102,103,103,104,104,105,105,106,106,107,107,108,108,109,109,110,110,113,113,117,117,119,119,120,120,123,123,132,132,133,133,141,141,142,142,148,148,150,150,151,151,153,153,154,154,155,155,157,157,158,158,159,159,161,161,176,176,177,177,179,179],"right_children":[2,4,6,8,10,12,14,16,18,20,22,24,26,28,30,-1,-1,32,34,36,38,40,42,44,46,48,50,52,54,56,-1,-1,58,60,-1,62,64,66,68,70,72,-1,74,-1,76,-1,78,-1,-1,-1,80,82,84,86,88,-1,-1,90,-1,92,-1,94,96,-1,98,100,102,104,106,108,110,112,114,-1,-1,116,-1,-1,-1,118,-1,120,122,124,126,128,130,132,-1,134,-1,-1,-1,136,-1,138,140,142,144,146,148,150,152,154,156,158,160,162,164,166,168,-1,-1,170,-1,-1,-1,172,-1,174,176,-1,-1,178,-1,-1,-1,-1,-1,-1,-1,-1,180,182,-1,-1,-1,-1,-1,-1,-1,184,186,-1,-1,-1,-1,-1,188,-1,190,192,-1,194,196,198,-1,200,202,204,-1,206,-1,-1,-1,-1,-1,-1,-1,-1,-1,-1,-1,-1,-1,-1,208,210,-1,212,-1,-1,-1,-1,-1,-1,-1,-1,-1,-1,-1,-1,-1,-1,-1,-1,-1,-1,-1,-1,-1,-1,-1,-1,-1,-1,-1,-1,-1,-1,-1,-1,-1],"split_conditions":[4E-1,5.8E1,7.4E1,4.8E1,4.4E1,5E1,4.4E1,1.36E1,1.59E1,6.9E0,5.9E1,1.28E1,5.1E1,8.5E1,3.3E1,-0E0,-2.6252849E-2,7E0,4.6E1,1.57E1,2.36E1,2.73E1,7.9E0,1.0086E3,1.0194E3,2.25E1,9E0,1.44E1,7.5E0,5.2E0,-0E0,-0E0,1E-1,3.01E1,4.4277185E-3,1.0209E3,1.0146E3,6.8E1,1.8E1,1.2E1,7.8E1,-0E0,5.9E1,-0E0,2.03E1,-0E0,3.5E1,-1.4141017E-2,-0E0,-0E0,1.5E1,1.99E1,2.72E1,1.0167E3,2.94E1,-0E0,2.3568798E-2,1.0252E3,-0E0,2.23E1,-0E0,1.5E1,9.1E1,-0E0,7E0,1.62E1,1.17E1,3.9E1,3.13E1,2.35E1,1.64E1,8E0,3.62E1,-0E0,1.979432E-2,1.0252E3,-0E0,-0E0,1.1433946E-2,4.2E1,-0E0,9.1E0,1.37E1,1.1E1,1.94E1,3.1E1,1.33E1,6E-1,-0E0,5.6E1,-0E0,-1.8005185E-2,-0E0,4.1E1,-0E0,9.5E0,1.024E3,1.73E1,1.58E1,1.74E1,2.21E1,1.88E1,1.0246E3,1.0149E3,7.3E1,1.0151E3,4.3E1,3.7E1,1.0157E3,1.0105E3,6.6E1,-6.593606E-3,1.510442E-3,1.0174E3,-0E0,-1.5773913E-2,-0E0,1.04E1,-0E0,1.0152E3,3.1E1,-1.6113056E-2,-0E0,1.0264E3,-0E0,-6.564866E-3,-0E0,1.4617123E-2,-0E0,-0E0,-9.461298E-3,-0E0,1.0327E3,1.5E1,-0E0,1.4978354E-2,-0E0,-2.513832E-2,-0E0,2.9363497E-3,-5.989611E-3,1.0246E3,1.0218E3,-3.09648E-2,-0E0,-0E0,-1.7158959E-2,-0E0,2.4E1,5.0847167E-3,3.1E1,2.8E1,-0E0,1.67E1,1.33E1,3E0,3.568552E-3,1.0124E3,9E0,3.16E1,-0E0,1.5E0,-0E0,1.2492689E-2,-2.8187374E-3,-0E0,-1.0304681E-2,-0E0,1.054681E-2,1.0452406E-2,-0E0,-0E0,1.2898649E-2,-0E0,-7.762299E-3,-0E0,1.0176E3,2.2E1,-0E0,1.5E1,-0E0,-0E0,-2.249993E-2,5.8631296E-3,-4.9960893E-3,-0E0,-2.3463624E-2,-0E0,-9.929774E-3,-9.480563E-3,-0E0,9.925417E-3,-0E0,-0E0,-7.7894176E-3,-3.0823678E-3,-2.19587E-2,-0E0,-1.2630279E-2,-0E0,7.471557E-3,-8.355546E-3,-0E0,-0E0,-2.070217E-2,-0E0,1.5704116E-2,-0E0,1.2403148E-2,1.4453718E-2,-0E0,-0E0,2.008247E-2],"split_indices":[3,7,7,5,5,5,5,2,1,1,5,3,7,7,2,0,0,4,7,2,2,2,1,8,8,1,6,1,1,1,0,0,3,10,0,8,8,7,1,4,7,0,7,0,1,0,5,0,0,0,4,2,2,8,2,0,0,8,0,1,0,4,7,0,4,10,1,5,2,2,10,4,2,0,0,8,0,0,0,3,0,1,1,4,1,5,2,3,0,7,0,0,0,5,0,10,8,2,10,2,2,2,8,8,7,8,5,6,8,8,7,0,0,8,0,0,0,10,0,8,5,0,0,8,0,0,0,0,0,0,0,0,8,2,0,0,0,0,0,0,0,8,8,0,0,0,0,0,5,0,5,6,0,10,10,4,0,8,4,2,0,1,0,0,0,0,0,0,0,0,0,0,0,0,0,0,8,6,0,5,0,0,0,0,0,0,0,0,0,0,0,0,0,0,0,0,0,0,0,0,0,0,0,0,0,0,0,0,0,0,0,0,0],"split_type":[0,0,0,0,0,0,0,0,0,0,0,0,0,0,0,0,0,0,0,0,0,0,0,0,0,0,0,0,0,0,0,0,0,0,0,0,0,0,0,0,0,0,0,0,0,0,0,0,0,0,0,0,0,0,0,0,0,0,0,0,0,0,0,0,0,0,0,0,0,0,0,0,0,0,0,0,0,0,0,0,0,0,0,0,0,0,0,0,0,0,0,0,0,0,0,0,0,0,0,0,0,0,0,0,0,0,0,0,0,0,0,0,0,0,0,0,0,0,0,0,0,0,0,0,0,0,0,0,0,0,0,0,0,0,0,0,0,0,0,0,0,0,0,0,0,0,0,0,0,0,0,0,0,0,0,0,0,0,0,0,0,0,0,0,0,0,0,0,0,0,0,0,0,0,0,0,0,0,0,0,0,0,0,0,0,0,0,0,0,0,0,0,0,0,0,0,0,0,0,0,0,0,0,0,0,0,0,0,0,0,0,0,0],"sum_hessian":[5.922188E3,3.5737568E3,2.3484312E3,9.372615E2,2.6364954E3,5.1058365E2,1.8378475E3,6.068429E2,3.304186E2,2.0315383E3,6.0495715E2,2.5727808E2,2.5330557E2,1.1916747E3,6.461728E2,1.4581567E0,6.053847E2,1.7304729E2,1.5737132E2,4.8193073E2,1.5496075E3,4.5885287E2,1.4610426E2,2.0530804E2,5.1970036E1,1.8770773E1,2.3453479E2,3.283231E2,8.633516E2,6.420227E2,4.1500673E0,2.4690052E1,1.4835722E2,6.2745625E1,9.4625694E1,1.4480907E2,3.3712167E2,6.7781555E2,8.7179193E2,3.1966748E2,1.391854E2,9.31292E0,1.3679135E2,1.604117E1,1.8926688E2,3.099304E1,2.0976995E1,1.4196335E1,4.5744386E0,3.250761E1,2.0202718E2,1.1480027E2,2.1352281E2,7.672047E1,7.8663116E2,9.212321E0,6.328104E2,1.3320515E2,1.5152076E1,4.0354584E1,2.2391039E1,6.022148E1,8.458758E1,1.5141295E1,3.2198038E2,2.104939E2,4.673217E2,4.8413333E2,3.8765863E2,2.5392224E2,6.574524E1,9.727624E1,4.1909153E1,2.4515612E0,1.3433978E2,1.7249239E2,1.6774494E1,4.9069815E0,1.6070015E1,1.9392957E2,8.097621E0,7.546834E1,3.9331932E1,1.608254E2,5.2697414E1,3.267757E1,4.4042896E1,7.560874E2,3.05438E1,1.29332E2,3.873156E0,3.0320124E1,1.0034462E1,4.6993233E1,1.3228249E1,4.3481976E1,4.1105606E1,1.631771E2,1.5880328E2,8.0413956E1,1.3007994E2,2.2981801E2,2.3750368E2,4.2093063E2,6.32027E1,3.1370456E2,7.395407E1,1.3480891E2,1.1911333E2,2.8763756E1,3.698148E1,5.7657543E1,3.961869E1,3.7213165E1,4.6959896E0,1.5120522E2,2.1287169E1,1.924355E2,1.4940577E0,3.1090334E1,4.4378002E1,2.4739485E1,1.4592447E1,1.2979185E2,3.103354E1,2.6024721E1,2.6672693E1,2.3441984E1,9.235587E0,1.4796197E1,2.92467E1,2.450012E1,7.315873E2,1.09220116E2,2.0111885E1,4.574522E1,1.2480124E0,3.619868E1,7.283293E0,1.2555506E1,2.85501E1,3.6078823E1,1.27098274E2,1.5393095E2,4.8723297E0,2.0509903E1,5.9904053E1,8.9463585E1,4.0616352E1,9.83453E1,1.314727E2,2.091495E2,2.835418E1,5.8422638E1,3.62508E2,3.9210888E1,2.3991816E1,1.9322075E2,1.2048382E2,4.314896E1,3.0805113E1,1.3306563E2,1.7432983E0,6.676172E1,5.235161E1,5.062358E0,2.3701399E1,1.2217478E1,2.4764004E1,3.205662E1,5.156544E0,1.4967988E0,1.909387E2,1.0409093E1,2.0681242E1,8.295649E0,3.6082355E1,1.2804987E2,1.7419955E0,7.281964E2,3.3908365E0,3.913939E0,1.05306175E2,2.566856E1,1.0410263E1,2.1522186E1,1.0557609E2,4.3703375E0,3.6246014E1,9.3213776E1,3.8258926E1,1.9376024E2,1.5389271E1,6.532094E0,5.189054E1,2.7770521E1,3.3473746E2,9.283141E0,2.9927748E1,4.5124832E1,1.4809592E2,8.078256E1,3.9701256E1,3.6601353E0,3.9488823E1,1.7478895E0,1.3131773E2,4.643936E0,3.1438417E1,1.1617055E2,1.18793125E1,3.393866E0,7.2480255E2],"tree_param":{"num_deleted":"0","num_feature":"16","num_nodes":"213","size_leaf_vector":"1"}},{"base_weights":[-1.0383234E-2,-4.212686E-1,8.408865E-1,-7.5412256E-1,3.585854E-2,4.0747984E-3,1.0917406E0,-1.0052403E0,2.8252924E-2,-2.08117E-1,7.9171485E-1,-2.5349087E-1,3.917759E-1,1.1797668E0,5.133075E-1,-1.3601481E0,-7.778799E-1,-6.322024E-1,3.715392E-1,-7.4031454E-1,-0E0,-0E0,8.7954235E-1,-6.8144184E-1,-0E0,-0E0,5.90037E-1,-0E0,1.2188888E0,-2.5052256E-3,6.2890285E-1,-1.60038E0,-1.8187407E-2,-1.0769215E0,-4.6362793E-1,-1.1271653E0,-1.5003596E-1,1.07694276E-1,8.1125134E-1,1.5864593E-1,-9.1371155E-1,3.0377504E-1,-3.4358275E-1,9.0929306E-1,-0E0,-0E0,-8.316486E-1,-1.0596687E-2,1.6229531E-1,1.488174E-2,-0E0,3.6250484E-1,-6.965156E-3,9.4768614E-1,2.3715587E-2,7.121393E-1,-0E0,-0E0,-2.8401302E-2,-3.3359167E-1,-1.1826847E0,-5.125095E-1,2.9926763E-3,-1.2012436E0,-0E0,-3.4630352E-1,2.895814E-3,3.3602154E-1,-2.735292E-1,-0E0,1.526279E-2,1.2235149E-2,-2.1901375E-3,-3.2018438E-1,-1.1072308E0,1.4709308E-2,5.838112E-1,-9.067509E-1,-0E0,1.627415E-2,-0E0,-9.7120315E-1,-0E0,4.2588606E-1,-0E0,1.0234568E-2,-0E0,-0E0,1.8672789E-2,1.1800278E-4,8.4134597E-1,-0E0,-7.12101E-1,-0E0,-1.218983E0,-9.651953E-1,-4.0320763E-1,-0E0,-2.177208E-2,-6.0443586E-1,-0E0,-6.770522E-4,4.684779E-1,-4.503898E-1,-0E0,-0E0,-1.3687658E-2,-2.2546705E-2,-1.3209676E-3,4.1422746E-1,-3.5676092E-1,1.5554558E-2,1.9992216E-1,-1.0783577E0,-0E0,-2.952492E-1,1.5621293E-1,-0E0,-1.773087E-2,5.256498E-1,-0E0,-1.0691152E-2,1.598476E-1,1.529691E-2,-0E0,-0E0,-8.9853853E-1,-1.2296445E0,-0E0,-1.17874E0,-0E0,-0E0,-6.3771814E-1,-0E0,-1.2729239E-2,1.0164532E-2,-0E0,-0E0,-1.0965841E-2,5.225574E-1,-0E0,-5.475422E-1,-0E0,1.0619904E-2,-1.2842534E-4,-3.2827307E-3,-1.2678494E0,-0E0,-5.366155E-1,2.768266E-1,-5.0469115E-3,-0E0,1.0421926E-2,-0E0,5.628627E-3,-1.8694598E-2,-0E0,-0E0,-2.1798676E-2,-2.1563804E-2,-0E0,-1.7105531E-3,3.769715E-3,-0E0,-1.1998044E-2,1.0683161E-2,-0E0,-0E0,-1.2296504E-2,-0E0,-2.2844622E-2,-1.3115997E-2,-0E0,7.0492337E-3,-4.8619666E-4],"categories":[],"categories_nodes":[],"categories_segments":[],"categories_sizes":[],"default_left":[0,1,0,1,1,0,0,0,0,0,0,0,0,0,0,0,0,0,0,1,0,0,0,0,0,0,0,0,1,0,1,0,0,0,1,0,0,0,1,1,0,0,1,1,0,0,0,0,0,0,0,0,0,0,0,0,0,0,0,0,0,0,0,0,0,0,0,1,0,0,0,0,0,0,0,0,0,1,0,0,0,0,0,0,0,0,0,0,0,0,1,0,0,0,0,1,0,0,0,0,0,0,1,0,0,0,0,0,0,0,0,0,1,1,0,0,0,0,0,0,0,0,0,0,0,0,0,0,0,1,0,0,0,0,0,0,0,0,0,0,0,0,0,0,0,0,0,0,0,1,0,0,0,0,0,0,0,0,0,0,0,0,0,0,0,0,0,0,0,0,0,0,0,0,0],"id":5,"left_children":[1,3,5,7,9,11,13,15,17,19,21,23,25,27,29,31,33,35,37,39,41,-1,43,45,47,-1,49,51,53,-1,55,57,-1,59,61,63,65,67,69,71,73,75,77,79,-1,-1,81,-1,83,-1,-1,85,-1,87,-1,89,-1,-1,-1,91,93,95,-1,97,-1,99,-1,101,103,-1,-1,-1,-1,105,107,109,111,113,115,-1,-1,117,-1,119,121,-1,-1,-1,-1,-1,123,-1,125,-1,127,129,131,-1,-1,133,-1,-1,135,137,-1,-1,-1,-1,-1,139,141,-1,143,145,-1,147,149,-1,-1,151,-1,-1,153,-1,-1,-1,155,157,-1,159,-1,161,163,-1,-1,-1,-1,-1,-1,165,-1,167,-1,-1,-1,-1,169,-1,171,173,-1,-1,-1,-1,-1,-1,-1,-1,-1,-1,-1,-1,-1,-1,-1,-1,-1,-1,-1,-1,-1,-1,-1,-1,-1],"loss_changes":[2.063616E3,6.141517E2,3.9268555E2,4.6510095E2,3.155601E2,4.7466606E1,5.5802002E1,1.1684839E2,1.2657737E2,1.3451239E2,3.007022E1,2.7724995E1,1.4818438E1,6.201892E1,2.1427807E1,1.8840576E1,8.717975E1,3.1905289E1,3.5673832E1,6.1454575E1,9.753743E1,0E0,1.7065826E1,1.5011906E1,1.8264765E1,0E0,2.1116558E1,7.3017225E0,1.2888184E1,0E0,1.1025291E1,7.569214E0,0E0,2.7109924E1,2.1099205E1,1.1305656E1,8.79177E0,2.3690166E1,6.0487823E0,1.3615081E1,1.9385864E1,3.3731014E1,8.97288E1,4.4277344E0,0E0,0E0,1.255394E1,0E0,8.279083E0,0E0,0E0,3.8753827E0,0E0,3.8934692E1,0E0,8.516571E0,0E0,0E0,0E0,1.1532705E1,1.6324036E1,1.2072784E1,0E0,4.130234E0,0E0,1.076961E1,0E0,1.2829123E1,6.77079E0,0E0,0E0,0E0,0E0,1.3603093E1,2.4629517E1,4.0006535E1,1.5522202E1,2.2159744E1,1.2832723E1,0E0,0E0,3.8873749E0,0E0,5.180931E0,1.0826401E1,0E0,0E0,0E0,0E0,0E0,4.2210693E0,0E0,7.2882156E0,0E0,6.597412E0,1.287458E1,4.3948593E1,0E0,0E0,4.195013E0,0E0,0E0,4.967308E0,4.7760267E0,0E0,0E0,0E0,0E0,0E0,5.8560486E0,8.591274E0,0E0,1.5426755E1,9.567642E0,0E0,9.484608E0,1.0845198E1,0E0,0E0,3.9874725E0,0E0,0E0,3.6879473E0,0E0,0E0,0E0,4.8541164E0,4.201477E0,0E0,5.073662E0,0E0,3.821313E0,1.2839722E1,0E0,0E0,0E0,0E0,0E0,0E0,5.3879185E0,0E0,8.807016E0,0E0,0E0,0E0,0E0,5.3984375E0,0E0,8.87956E0,9.81356E0,0E0,0E0,0E0,0E0,0E0,0E0,0E0,0E0,0E0,0E0,0E0,0E0,0E0,0E0,0E0,0E0,0E0,0E0,0E0,0E0,0E0,0E0,0E0,0E0,0E0],"parents":[2147483647,0,0,1,1,2,2,3,3,4,4,5,5,6,6,7,7,8,8,9,9,10,10,11,11,12,12,13,13,14,14,15,15,16,16,17,17,18,18,19,19,20,20,22,22,23,23,24,24,26,26,27,27,28,28,30,30,31,31,33,33,34,34,35,35,36,36,37,37,38,38,39,39,40,40,41,41,42,42,43,43,46,46,48,48,51,51,53,53,55,55,59,59,60,60,61,61,63,63,65,65,67,67,68,68,73,73,74,74,75,75,76,76,77,77,78,78,81,81,83,83,84,84,90,90,92,92,94,94,95,95,96,96,99,99,102,102,103,103,109,109,110,110,112,112,113,113,115,115,116,116,119,119,122,122,126,126,127,127,129,129,131,131,132,132,139,139,141,141,146,146,148,148,149,149],"right_children":[2,4,6,8,10,12,14,16,18,20,22,24,26,28,30,32,34,36,38,40,42,-1,44,46,48,-1,50,52,54,-1,56,58,-1,60,62,64,66,68,70,72,74,76,78,80,-1,-1,82,-1,84,-1,-1,86,-1,88,-1,90,-1,-1,-1,92,94,96,-1,98,-1,100,-1,102,104,-1,-1,-1,-1,106,108,110,112,114,116,-1,-1,118,-1,120,122,-1,-1,-1,-1,-1,124,-1,126,-1,128,130,132,-1,-1,134,-1,-1,136,138,-1,-1,-1,-1,-1,140,142,-1,144,146,-1,148,150,-1,-1,152,-1,-1,154,-1,-1,-1,156,158,-1,160,-1,162,164,-1,-1,-1,-1,-1,-1,166,-1,168,-1,-1,-1,-1,170,-1,172,174,-1,-1,-1,-1,-1,-1,-1,-1,-1,-1,-1,-1,-1,-1,-1,-1,-1,-1,-1,-1,-1,-1,-1,-1,-1],"split_conditions":[1E0,7.3E1,7.7E1,4.8E1,4.3E1,5.4E1,2.62E1,5.7E1,5.2E1,6.8E0,8.1E0,6.6E1,6.5E1,5.3E0,3E1,3.9E1,3.7E1,1.51E1,5.9E1,1.29E1,2.41E1,-0E0,3.79E1,1.72E1,1.26E1,-0E0,1.0284E3,1.0159E3,8.8E1,-2.5052256E-3,3.16E1,1.36E1,-1.8187407E-2,1.0148E3,2.2E1,8.5E1,6.5E1,2.73E1,7.9E0,1.0216E3,1.0223E3,1.23E1,1.7E1,1.0264E3,-0E0,-0E0,2.00001E0,-1.0596687E-2,1.0153E3,1.488174E-2,-0E0,1E0,-6.965156E-3,3.1E1,2.3715587E-2,2.03E1,-0E0,-0E0,-2.8401302E-2,2.67E1,1.56E1,8E0,2.9926763E-3,1.0022E3,-0E0,4.8E1,2.895814E-3,1.03E1,2.16E1,-0E0,1.526279E-2,1.2235149E-2,-2.1901375E-3,1.8E1,3.7E1,1.91E1,6E0,3.5E1,3.3E1,1.627415E-2,-0E0,2.4E1,-0E0,3.34E1,3.5E1,1.0234568E-2,-0E0,-0E0,1.8672789E-2,1.1800278E-4,2.53E1,-0E0,1.32E1,-0E0,2.14E1,1.46E1,2.31E1,-0E0,-2.177208E-2,2E0,-0E0,-6.770522E-4,1.0216E3,3E0,-0E0,-0E0,-1.3687658E-2,-2.2546705E-2,-1.3209676E-3,6E0,1.51E1,1.5554558E-2,1.0172E3,2.51E1,-0E0,1.0141E3,3.22E1,-0E0,-1.773087E-2,6.7E1,-0E0,-1.0691152E-2,1.0182E3,1.529691E-2,-0E0,-0E0,2.13E1,1.5E1,-0E0,1.0327E3,-0E0,6.9E1,1.006E3,-0E0,-1.2729239E-2,1.0164532E-2,-0E0,-0E0,-1.0965841E-2,9.7E1,-0E0,1E0,-0E0,1.0619904E-2,-1.2842534E-4,-3.2827307E-3,1.0046E3,-0E0,8.8E1,1.0174E3,-5.0469115E-3,-0E0,1.0421926E-2,-0E0,5.628627E-3,-1.8694598E-2,-0E0,-0E0,-2.1798676E-2,-2.1563804E-2,-0E0,-1.7105531E-3,3.769715E-3,-0E0,-1.1998044E-2,1.0683161E-2,-0E0,-0E0,-1.2296504E-2,-0E0,-2.2844622E-2,-1.3115997E-2,-0E0,7.0492337E-3,-4.8619666E-4],"split_indices":[11,7,7,5,5,5,2,7,7,1,1,7,7,1,5,5,5,1,5,2,2,0,2,2,1,0,8,8,7,0,2,2,0,8,1,5,5,2,1,8,8,1,1,8,0,0,11,0,8,0,0,0,0,5,0,10,0,0,0,2,2,1,0,8,0,7,0,1,1,0,0,0,0,2,5,2,0,5,5,0,0,5,0,2,5,0,0,0,0,0,10,0,1,0,1,10,2,0,0,0,0,0,8,0,0,0,0,0,0,0,10,0,8,2,0,8,2,0,0,7,0,0,8,0,0,0,1,5,0,8,0,7,8,0,0,0,0,0,0,7,0,0,0,0,0,0,8,0,7,8,0,0,0,0,0,0,0,0,0,0,0,0,0,0,0,0,0,0,0,0,0,0,0,0,0],"split_type":[0,0,0,0,0,0,0,0,0,0,0,0,0,0,0,0,0,0,0,0,0,0,0,0,0,0,0,0,0,0,0,0,0,0,0,0,0,0,0,0,0,0,0,0,0,0,0,0,0,0,0,0,0,0,0,0,0,0,0,0,0,0,0,0,0,0,0,0,0,0,0,0,0,0,0,0,0,0,0,0,0,0,0,0,0,0,0,0,0,0,0,0,0,0,0,0,0,0,0,0,0,0,0,0,0,0,0,0,0,0,0,0,0,0,0,0,0,0,0,0,0,0,0,0,0,0,0,0,0,0,0,0,0,0,0,0,0,0,0,0,0,0,0,0,0,0,0,0,0,0,0,0,0,0,0,0,0,0,0,0,0,0,0,0,0,0,0,0,0,0,0,0,0,0,0],"sum_hessian":[5.8976616E3,3.9869224E3,1.9107389E3,2.3158896E3,1.6710328E3,4.503354E2,1.4604036E3,1.7603855E3,5.5550415E2,1.2578923E3,4.131405E2,2.5815524E2,1.9218015E2,1.2484476E3,2.1195598E2,6.5974286E2,1.1006426E3,1.7931169E2,3.7619247E2,3.3896817E2,9.1892413E2,4.0728546E1,3.7241196E2,8.993481E1,1.6822044E2,6.845322E1,1.2372692E2,3.7513657E1,1.210934E3,2.0055513E1,1.9190047E2,3.516779E2,3.08065E2,5.4157446E2,5.590681E2,7.519308E1,1.04118614E2,2.5268578E2,1.2350669E2,4.662426E1,2.923439E2,4.7659555E2,4.423286E2,3.686712E2,3.740758E0,9.94341E0,7.9991394E1,3.3993523E1,1.3422691E2,8.6976425E1,3.6750496E1,1.53822565E1,2.21314E1,4.2216083E2,7.887731E2,1.699992E2,2.1901258E1,1.2081567E0,3.5046973E2,8.120688E1,4.6036758E2,5.3314014E2,2.5927988E1,7.327778E1,1.9152966E0,8.106385E1,2.3054764E1,1.730622E2,7.962358E1,7.5675783E0,1.1593911E2,2.3775185E1,2.2849075E1,8.7316E1,2.0502791E2,2.5340895E2,2.2318661E2,1.6718091E2,2.751477E2,3.6332178E2,5.3494143E0,7.026344E1,9.727952E0,5.968758E1,7.453934E1,1.3639573E1,1.7426838E0,5.014413E1,3.7201672E2,3.798409E1,1.3201512E2,4.5619236E1,3.5587643E1,1.6397352E1,4.4397025E2,7.819365E1,4.549465E2,1.4561682E0,7.182161E1,5.180486E1,2.9258995E1,2.8905571E1,1.4415663E2,5.8721706E1,2.090187E1,5.5128498E1,3.2187504E1,1.6726949E2,3.775843E1,1.332491E2,1.2015985E2,1.0802119E2,1.1516542E2,1.3539383E2,3.178707E1,8.614112E1,1.8900658E2,1.2078803E0,6.9055565E1,5.574127E1,3.946309E0,1.8787289E1,5.575205E1,1.2956921E2,2.445898E0,6.5803227E0,2.9007318E1,4.4055804E2,3.4122E0,5.959349E1,1.8600159E1,1.6883833E2,2.8610815E2,9.282759E0,4.25221E1,1.0813781E2,3.6018818E1,1.8546959E1,4.0174747E1,1.0280463E2,3.044447E1,7.600012E1,4.4159733E1,4.9604557E1,6.556087E1,3.413096E1,1.0126287E2,3.1571978E1,5.4569145E1,1.6614195E2,2.286463E1,1.4957826E0,5.4245487E1,1.0290656E1,4.546139E1,2.3394613E1,5.612705E0,1.4555972E0,4.3910245E2,5.8385788E1,1.2077022E0,1.16880745E2,5.1957592E1,7.481445E0,2.786267E2,8.964222E1,1.3162403E1,1.33965435E1,6.2603577E1,1.2068601E0,1.00056015E2,4.1450916E1,1.3118228E1,1.3776334E2,2.8378605E1],"tree_param":{"num_deleted":"0","num_feature":"16","num_nodes":"175","size_leaf_vector":"1"}},{"base_weights":[2.1457484E-3,-4.889825E-1,7.506235E-1,-7.0974475E-1,1.4152598E-1,3.814045E-1,9.6560246E-1,-8.1289494E-1,-2.3157895E-1,-1.2438629E-3,7.045023E-1,1.608012E-1,8.596973E-1,1.8871805E-1,1.0071893E0,-8.686436E-1,-2.9437944E-1,-7.366183E-1,-3.5748314E-2,-3.930662E-1,9.6939944E-2,1.0922092E-2,8.7992483E-1,-1.2971342E-1,2.7962184E-1,8.901704E-1,-0E0,6.96405E-1,-2.932695E-1,5.2961487E-1,1.0739281E0,-7.300774E-1,-1.0911686E0,-4.013854E-1,-0E0,-1.9930247E-2,-1.1183448E0,-2.506408E-1,2.71671E-3,-0E0,-7.644013E-1,-1.1501518E-1,3.010379E-1,-1.1453696E-3,5.7682497E-3,-0E0,1.6231801E-2,3.214482E-1,-3.1700155E-1,-0E0,3.1677234E-1,1.0917988E0,4.7962993E-1,7.938089E-1,-0E0,-0E0,-4.9823815E-1,5.8644366E-1,-0E0,1.6011784E-2,2.2499135E-2,-6.0203123E-1,-2.1352926E-2,-1.3734391E0,-7.2198206E-1,-2.5880975E-3,-7.848218E-1,-2.8261885E-1,3.3098496E-3,-2.083766E-2,-0E0,2.7009577E-3,-4.012376E-1,-0E0,-9.2867506E-1,-3.0259624E-1,2.8478166E-1,-0E0,3.7649283E-1,6.351544E-1,-0E0,-6.408113E-1,-0E0,3.3962074E-1,-0E0,-0E0,1.963833E-2,-0E0,6.066331E-1,1.5230147E-2,-0E0,-0E0,-1.2765381E-2,6.625612E-1,-0E0,-4.8298154E-2,-6.584754E-1,-9.1806904E-4,-1.4511837E0,-8.25154E-1,-0E0,-1.6517578E-2,-0E0,-1.1567254E-2,-0E0,-5.9807146E-1,-0E0,-1.1600343E0,-0E0,-0E0,-5.832761E-1,6.61772E-1,-0E0,9.1907044E-5,5.02034E-1,1.3143165E-2,-0E0,-0E0,-9.063633E-1,-0E0,6.370978E-3,-0E0,1.24885915E-2,1.2236751E-2,-0E0,5.3790957E-3,-4.089624E-1,-9.9038494E-1,-5.508855E-1,-0E0,-2.5745306E-2,-1.1991072E-1,-9.768519E-1,-0E0,-1.4198145E-2,-4.469935E-3,3.991183E-3,-0E0,-2.1848531E-2,-0E0,-7.095125E-1,1.5945518E-2,-0E0,-2.1498123E-1,3.8882598E-1,9.444715E-3,-0E0,-0E0,-1.0049939E0,-0E0,-9.409015E-3,-0E0,-1.7712673E-2,-1.1750937E-2,-3.6965965E-3,-7.878928E-3,-0E0,-1.831087E-2,-0E0,-1.3347714E-2,-0E0,-6.5759174E-3,-0E0,1.0428966E-2,-0E0,-2.0589756E-2,-0E0],"categories":[],"categories_nodes":[],"categories_segments":[],"categories_sizes":[],"default_left":[0,1,0,1,0,1,0,0,0,1,1,1,0,0,0,1,0,0,0,0,0,0,1,0,0,0,0,0,0,1,1,1,1,0,0,0,0,1,0,0,0,0,1,0,0,0,0,1,0,0,1,0,0,0,0,0,0,0,0,0,0,0,0,0,0,0,0,1,0,0,0,0,0,0,1,0,0,0,0,0,0,0,0,0,0,0,0,0,0,0,0,0,0,1,0,0,0,0,0,0,0,0,0,0,0,0,0,0,0,0,0,0,0,0,0,0,0,0,0,0,0,0,0,0,0,0,0,0,1,0,0,0,0,0,0,0,0,0,0,0,0,0,0,0,0,0,0,0,0,0,0,0,0,0,0,0,0,0,0,0,0,0,0,0,0,0,0],"id":6,"left_children":[1,3,5,7,9,11,13,15,17,19,21,23,25,27,29,31,33,35,37,39,41,43,45,47,49,51,-1,53,55,57,59,61,63,65,-1,67,69,71,-1,-1,73,75,77,-1,-1,-1,-1,79,81,-1,83,85,87,89,-1,-1,91,93,-1,-1,-1,95,-1,97,99,-1,101,103,-1,-1,-1,-1,105,-1,107,109,111,-1,113,115,-1,117,-1,119,-1,-1,-1,-1,121,-1,-1,-1,-1,123,-1,125,127,-1,129,131,-1,-1,-1,-1,-1,133,135,137,-1,-1,139,141,-1,143,145,-1,-1,-1,147,-1,-1,-1,-1,-1,-1,-1,149,151,153,-1,-1,155,157,-1,-1,-1,-1,-1,-1,-1,159,-1,-1,161,163,-1,-1,-1,165,-1,-1,-1,-1,-1,-1,-1,-1,-1,-1,-1,-1,-1,-1,-1,-1,-1,-1],"loss_changes":[2.1600652E3,4.9801727E2,1.7086243E2,1.19315674E2,7.956207E1,8.3354675E1,3.5185547E1,5.0101196E1,4.15484E1,3.0624434E1,1.6017494E1,2.3156992E1,1.0063187E1,2.7541466E1,2.5772095E1,3.7948242E1,7.904253E0,2.3745285E1,1.6320145E1,2.8854187E1,2.6264868E1,3.8128886E0,8.904198E0,1.4491678E1,7.6225014E0,4.223709E0,0E0,6.109001E0,4.2759585E0,7.8078156E0,1.2726807E1,5.4694397E1,4.7942566E1,8.057814E0,0E0,4.3288393E0,5.7487183E0,1.4714184E1,0E0,0E0,1.4245388E1,2.0199203E1,9.464788E0,0E0,0E0,0E0,0E0,8.947617E0,1.5260597E1,0E0,4.1919174E0,4.51828E0,1.1942877E1,4.2527275E0,0E0,0E0,5.943407E0,9.9563675E0,0E0,0E0,0E0,2.4648071E1,0E0,2.4759094E1,1.8361954E1,0E0,8.609978E0,8.996295E0,0E0,0E0,0E0,0E0,1.2543175E1,0E0,7.991638E0,1.951212E1,1.3436513E1,0E0,8.076183E0,4.1205473E0,0E0,1.0262104E1,0E0,3.83247E0,0E0,0E0,0E0,0E0,9.787876E0,0E0,0E0,0E0,0E0,4.8803864E0,0E0,1.617941E1,1.4577942E1,0E0,4.4483643E0,1.9434418E1,0E0,0E0,0E0,0E0,0E0,1.5819962E1,3.8716521E0,4.663872E0,0E0,0E0,1.3179813E1,6.474123E0,0E0,9.631778E0,3.8645668E0,0E0,0E0,0E0,6.246357E0,0E0,0E0,0E0,0E0,0E0,0E0,0E0,5.727763E0,3.8843994E0,1.9071655E1,0E0,0E0,4.1982894E0,8.691101E0,0E0,0E0,0E0,0E0,0E0,0E0,0E0,5.6825676E0,0E0,0E0,3.7767015E0,5.985797E0,0E0,0E0,0E0,4.4416313E0,0E0,0E0,0E0,0E0,0E0,0E0,0E0,0E0,0E0,0E0,0E0,0E0,0E0,0E0,0E0,0E0,0E0,0E0],"parents":[2147483647,0,0,1,1,2,2,3,3,4,4,5,5,6,6,7,7,8,8,9,9,10,10,11,11,12,12,13,13,14,14,15,15,16,16,17,17,18,18,19,19,20,20,21,21,22,22,23,23,24,24,25,25,27,27,28,28,29,29,30,30,31,31,32,32,33,33,35,35,36,36,37,37,40,40,41,41,42,42,47,47,48,48,50,50,51,51,52,52,53,53,56,56,57,57,61,61,63,63,64,64,66,66,67,67,72,72,74,74,75,75,76,76,78,78,79,79,81,81,83,83,88,88,93,93,95,95,96,96,98,98,99,99,105,105,106,106,107,107,110,110,111,111,113,113,114,114,118,118,126,126,127,127,128,128,131,131,132,132,140,140,143,143,144,144,148,148],"right_children":[2,4,6,8,10,12,14,16,18,20,22,24,26,28,30,32,34,36,38,40,42,44,46,48,50,52,-1,54,56,58,60,62,64,66,-1,68,70,72,-1,-1,74,76,78,-1,-1,-1,-1,80,82,-1,84,86,88,90,-1,-1,92,94,-1,-1,-1,96,-1,98,100,-1,102,104,-1,-1,-1,-1,106,-1,108,110,112,-1,114,116,-1,118,-1,120,-1,-1,-1,-1,122,-1,-1,-1,-1,124,-1,126,128,-1,130,132,-1,-1,-1,-1,-1,134,136,138,-1,-1,140,142,-1,144,146,-1,-1,-1,148,-1,-1,-1,-1,-1,-1,-1,150,152,154,-1,-1,156,158,-1,-1,-1,-1,-1,-1,-1,160,-1,-1,162,164,-1,-1,-1,166,-1,-1,-1,-1,-1,-1,-1,-1,-1,-1,-1,-1,-1,-1,-1,-1,-1,-1],"split_conditions":[4E-1,4.4E1,3E0,1.83E1,6.1E1,4.8E1,7.9E0,1E-1,3E0,1.19E1,1.0086E3,1.1E1,1.03E3,1.0167E3,3.1E1,9E0,4.1E1,2E0,1E1,1.1E1,6E0,1.67E1,4.4E0,1.0148E3,1E0,2.4E1,-0E0,4E0,4.2E0,1.025E3,1.28E1,1.0243E3,1.01E1,1.0266E3,-0E0,1.5E1,1E-1,1.0091E3,2.71671E-3,-0E0,1E0,7E0,1.0075E3,-1.1453696E-3,5.7682497E-3,-0E0,1.6231801E-2,1.4E1,1.0266E3,-0E0,1.0259E3,5.4E0,5E1,6.1E1,-0E0,-0E0,2.2E1,1.7E1,-0E0,1.6011784E-2,2.2499135E-2,1E0,-2.1352926E-2,1.0143E3,1.025E3,-2.5880975E-3,1.3E1,9E0,3.3098496E-3,-2.083766E-2,-0E0,2.7009577E-3,7E0,-0E0,1.0194E3,1.0149E3,1.86E1,-0E0,1.59E1,1.02E1,-0E0,8E0,-0E0,1E0,-0E0,-0E0,1.963833E-2,-0E0,2.6E1,1.5230147E-2,-0E0,-0E0,-1.2765381E-2,3.88E1,-0E0,7.2E0,3E0,-9.1806904E-4,1.1E1,7E0,-0E0,-1.6517578E-2,-0E0,-1.1567254E-2,-0E0,4E0,2E1,2E0,-0E0,-0E0,2E0,1.0223E3,-0E0,5E0,2.46E1,1.3143165E-2,-0E0,-0E0,4E-1,-0E0,6.370978E-3,-0E0,1.24885915E-2,1.2236751E-2,-0E0,5.3790957E-3,1.0124E3,1.004E3,3.3E1,-0E0,-2.5745306E-2,1E0,2.2E1,-0E0,-1.4198145E-2,-4.469935E-3,3.991183E-3,-0E0,-2.1848531E-2,-0E0,1.0294E3,1.5945518E-2,-0E0,1.0233E3,1.52E1,9.444715E-3,-0E0,-0E0,2.2E0,-0E0,-9.409015E-3,-0E0,-1.7712673E-2,-1.1750937E-2,-3.6965965E-3,-7.878928E-3,-0E0,-1.831087E-2,-0E0,-1.3347714E-2,-0E0,-6.5759174E-3,-0E0,1.0428966E-2,-0E0,-2.0589756E-2,-0E0],"split_indices":[3,5,3,1,5,5,1,3,0,1,8,1,8,8,5,4,5,0,4,4,4,1,1,8,4,6,0,0,3,8,3,8,1,8,0,6,3,8,0,0,0,0,8,0,0,0,0,4,8,0,8,1,5,5,0,0,5,6,0,0,0,0,0,8,8,0,6,4,0,0,0,0,0,0,8,8,1,0,1,1,0,4,0,0,0,0,0,0,6,0,0,0,0,3,0,1,4,0,5,6,0,0,0,0,0,0,1,6,0,0,0,8,0,0,1,0,0,0,1,0,0,0,0,0,0,0,8,8,5,0,0,0,6,0,0,0,0,0,0,0,8,0,0,8,1,0,0,0,3,0,0,0,0,0,0,0,0,0,0,0,0,0,0,0,0,0,0],"split_type":[0,0,0,0,0,0,0,0,0,0,0,0,0,0,0,0,0,0,0,0,0,0,0,0,0,0,0,0,0,0,0,0,0,0,0,0,0,0,0,0,0,0,0,0,0,0,0,0,0,0,0,0,0,0,0,0,0,0,0,0,0,0,0,0,0,0,0,0,0,0,0,0,0,0,0,0,0,0,0,0,0,0,0,0,0,0,0,0,0,0,0,0,0,0,0,0,0,0,0,0,0,0,0,0,0,0,0,0,0,0,0,0,0,0,0,0,0,0,0,0,0,0,0,0,0,0,0,0,0,0,0,0,0,0,0,0,0,0,0,0,0,0,0,0,0,0,0,0,0,0,0,0,0,0,0,0,0,0,0,0,0,0,0,0,0,0,0],"sum_hessian":[5.8570957E3,3.5307092E3,2.3263867E3,2.6249102E3,9.057991E2,8.777827E2,1.4486039E3,2.1402056E3,4.8470456E2,7.150627E2,1.9073637E2,6.1923975E2,2.58543E2,8.623818E1,1.3623657E3,1.9131007E3,2.2710484E2,1.1785315E2,3.668514E2,1.5754837E2,5.575143E2,5.0080196E1,1.4065617E2,1.5790668E2,4.6133307E2,2.5341512E2,5.1278815E0,4.9582825E1,3.665536E1,1.9032652E2,1.1720392E3,1.2203531E3,6.927475E2,1.6827173E2,5.8833107E1,5.1365715E1,6.6487434E1,1.9298282E2,1.7386859E2,7.1198326E1,8.635004E1,2.5353322E2,3.0398108E2,2.1830698E1,2.8249496E1,1.9987361E0,1.3865744E2,3.1085314E1,1.26821365E2,2.7308115E1,4.3402493E2,1.4835982E2,1.05055305E2,4.638737E1,3.195452E0,1.089743E1,2.5757929E1,1.7675372E2,1.3572789E1,6.848599E2,4.8717926E2,9.8935333E2,2.3099988E2,3.6913846E2,3.2360907E2,1.2030918E2,4.796255E1,4.0519993E1,1.0845722E1,6.3082073E1,3.4053597E0,3.6395157E1,1.5658766E2,1.3385665E1,7.296437E1,1.8872649E2,6.480673E1,4.5162254E1,2.5881885E2,2.5398418E1,5.6868954E0,6.3382614E1,6.3438747E1,4.1310458E2,2.092036E1,2.2007139E0,1.461591E2,9.32071E0,9.57346E1,4.3953564E1,2.4338093E0,5.5403743E0,2.0217556E1,1.597738E2,1.6979929E1,1.0715458E2,8.821987E2,2.744397E1,3.416945E2,2.7321747E2,5.039158E1,4.1638344E1,6.3242064E0,2.3270378E1,1.7249613E1,1.0203918E2,5.454849E1,5.0411503E1,2.2552872E1,8.523951E1,1.0348698E2,3.7487095E1,2.731964E1,8.400508E1,1.7481375E2,2.4150793E1,1.2476265E0,2.2396463E1,4.098615E1,1.8995363E1,3.9410922E2,7.5690217E0,8.816557E1,1.5540987E2,4.36394E0,4.2209328E1,6.494525E1,1.8296901E2,6.9922974E2,1.7039078E0,3.3999057E2,6.07399E1,2.1247758E2,2.409848E1,7.79407E1,2.6511175E1,2.8037313E1,3.9100304E0,4.6501472E1,9.434658E0,9.4052315E1,2.507047E1,1.2416625E1,4.1223816E1,4.278127E1,1.6648396E2,8.329783E0,2.6556735E0,3.833048E1,9.233916E0,5.5711338E1,1.207259E0,1.8176175E2,4.989292E2,2.0030054E2,1.9517353E1,4.1222546E1,1.955971E2,1.6880472E1,9.189292E1,2.1593952E0,3.6650482E1,4.573334E0,3.202898E1,1.0752291E1,3.0043564E1,8.286914E0],"tree_param":{"num_deleted":"0","num_feature":"16","num_nodes":"167","size_leaf_vector":"1"}},{"base_weights":[-6.9891023E-3,-4.7207606E-1,7.021145E-1,-7.852828E-1,-0E0,3.2570893E-1,9.213533E-1,-8.4143615E-1,-2.4535063E-1,-1.4568777E-1,6.801971E-1,1.323305E-1,8.3431655E-1,7.60011E-1,1.1595701E0,1.7752463E-3,-8.6809283E-1,-6.0271043E-2,-6.538212E-1,5.9744123E-2,-3.4558263E-1,-0E0,7.863927E-1,2.5954628E-1,-7.747268E-2,8.5836226E-1,-0E0,5.748695E-1,1.6009437E-2,2.072616E-2,-0E0,-8.0244166E-1,-1.3300363E0,1.3411252E-3,-1.885665E-1,-1.4371712E-2,-0E0,1.912511E-1,-2.4145164E-1,-3.9956415E-1,-0E0,1.4705759E-2,-0E0,3.0592555E-1,-0E0,-3.8359955E-1,-0E0,1.5851721E-2,-0E0,6.339013E-1,-0E0,-8.9511156E-1,-5.5631405E-1,-0E0,-2.3724472E-2,-3.4281555E-1,-0E0,-6.370919E-4,2.4379666E-1,-0E0,-5.716094E-1,-4.3179602E-3,-6.1794406E-1,-1.4138703E-3,6.709649E-3,3.9251488E-1,-0E0,-0E0,-1.3061157E-2,3.6835086E-3,-1.9253494E-1,7.502718E-1,2.0562002E-1,-7.0998806E-1,-1.1219146E0,-2.3311442E-1,-6.984189E-1,-5.4445E-1,1.3204348E-4,1.2553434E-2,3.5373688E-1,-7.64232E-1,-0E0,-9.2311114E-1,-4.8048533E-2,7.574418E-3,-0E0,-0E0,-5.2444264E-3,1.3575599E-2,-0E0,3.4257856E-1,-1.5292239E-3,-1.7791502E-1,-1.0201061E0,-1.3100965E0,-7.097865E-1,-5.9391683E-1,-0E0,-0E0,-7.330138E-1,-0E0,-7.1386427E-1,-1.32984E-1,3.1477944E-3,5.420066E-1,-0E0,-0E0,-1.4767046E-2,-1.706221E-2,-0E0,-5.6198826E-3,2.2109693E-3,-0E0,4.4020954E-1,1.4627855E-3,-9.988693E-3,-1.8364606E-2,-0E0,-0E0,-2.3720864E-2,-1.3730404E-2,-0E0,-0E0,-1.3554657E-2,-1.3576169E-2,-0E0,-1.4294138E-2,-0E0,-9.778169E-3,-0E0,1.04004415E-2,-0E0,-4.9521355E-3,2.5846607E-3,1.0340275E-2,-0E0],"categories":[],"categories_nodes":[],"categories_segments":[],"categories_sizes":[],"default_left":[0,0,0,0,1,1,1,0,0,0,1,1,0,0,1,0,1,0,0,0,0,0,0,0,0,0,0,0,0,0,0,0,0,0,0,0,0,0,0,0,0,0,0,1,0,0,0,0,0,0,0,0,0,0,0,0,0,0,0,0,0,0,1,0,0,0,0,0,0,0,0,0,0,0,1,0,0,0,0,0,0,0,0,1,1,0,0,0,0,0,0,0,0,0,0,0,0,0,0,0,1,0,0,1,0,0,0,0,0,0,0,0,0,0,0,0,0,0,0,0,0,0,0,0,0,0,0,0,0,0,0,0,0,0,0,0,0],"id":7,"left_children":[1,3,5,7,9,11,13,15,17,19,21,23,25,27,29,-1,31,33,35,37,39,-1,41,43,45,47,-1,49,-1,-1,-1,51,53,-1,55,-1,-1,57,59,61,63,-1,-1,65,-1,67,69,-1,-1,71,-1,73,75,-1,-1,77,-1,-1,79,-1,81,-1,83,-1,-1,85,-1,-1,-1,-1,87,89,91,93,95,97,99,101,-1,103,105,107,-1,109,111,-1,-1,-1,-1,-1,-1,113,-1,115,117,119,121,123,-1,-1,125,-1,127,129,-1,131,133,-1,-1,-1,-1,-1,-1,-1,135,-1,-1,-1,-1,-1,-1,-1,-1,-1,-1,-1,-1,-1,-1,-1,-1,-1,-1,-1,-1,-1,-1],"loss_changes":[1.9506993E3,5.27205E2,1.7994055E2,5.422351E1,1.4153282E2,7.778399E1,3.342273E1,5.5828247E1,1.0529663E1,5.174347E1,1.2031792E1,1.9401333E1,6.1266327E0,8.362793E0,9.892639E0,0E0,3.1489136E1,4.198414E0,7.4871063E0,2.2542238E1,1.5011307E1,0E0,5.540039E0,7.382847E0,6.6654587E0,6.5086517E0,0E0,1.497673E1,0E0,0E0,0E0,2.2373047E1,5.939392E0,0E0,6.3813243E0,0E0,0E0,6.950629E0,1.5874278E1,1.0459396E1,4.8174033E0,0E0,0E0,7.1929703E0,0E0,7.1093464E0,7.5475388E0,0E0,0E0,1.0739532E1,0E0,2.851587E1,1.3837616E1,0E0,0E0,1.1338075E1,0E0,0E0,6.280922E0,0E0,7.5747128E0,0E0,2.6947342E1,0E0,0E0,5.1709213E0,0E0,0E0,0E0,0E0,4.093154E0,5.977417E0,6.9308214E0,1.0249341E2,1.500708E1,1.9504211E1,1.15334015E1,5.1716194E0,0E0,4.266043E0,1.6646341E1,4.4532776E0,0E0,5.0199814E0,6.1297483E0,0E0,0E0,0E0,0E0,0E0,0E0,6.4864235E0,0E0,3.22575E1,1.10668335E1,7.553589E0,1.1974159E1,9.0080185E0,0E0,0E0,1.054129E1,0E0,6.6358624E0,5.06112E0,0E0,4.8833427E0,3.9421294E0,0E0,0E0,0E0,0E0,0E0,0E0,0E0,7.4821224E0,0E0,0E0,0E0,0E0,0E0,0E0,0E0,0E0,0E0,0E0,0E0,0E0,0E0,0E0,0E0,0E0,0E0,0E0,0E0,0E0,0E0,0E0],"parents":[2147483647,0,0,1,1,2,2,3,3,4,4,5,5,6,6,7,7,8,8,9,9,10,10,11,11,12,12,13,13,14,14,16,16,17,17,18,18,19,19,20,20,22,22,23,23,24,24,25,25,27,27,31,31,32,32,34,34,37,37,38,38,39,39,40,40,43,43,45,45,46,46,49,49,51,51,52,52,55,55,58,58,60,60,62,62,65,65,70,70,71,71,72,72,73,73,74,74,75,75,76,76,77,77,79,79,80,80,81,81,83,83,84,84,91,91,93,93,94,94,95,95,96,96,97,97,100,100,102,102,103,103,105,105,106,106,114,114],"right_children":[2,4,6,8,10,12,14,16,18,20,22,24,26,28,30,-1,32,34,36,38,40,-1,42,44,46,48,-1,50,-1,-1,-1,52,54,-1,56,-1,-1,58,60,62,64,-1,-1,66,-1,68,70,-1,-1,72,-1,74,76,-1,-1,78,-1,-1,80,-1,82,-1,84,-1,-1,86,-1,-1,-1,-1,88,90,92,94,96,98,100,102,-1,104,106,108,-1,110,112,-1,-1,-1,-1,-1,-1,114,-1,116,118,120,122,124,-1,-1,126,-1,128,130,-1,132,134,-1,-1,-1,-1,-1,-1,-1,136,-1,-1,-1,-1,-1,-1,-1,-1,-1,-1,-1,-1,-1,-1,-1,-1,-1,-1,-1,-1,-1,-1],"split_conditions":[4E-1,4.4E1,3E0,2E-1,5.9E1,5E1,1.34E1,1.0075E3,1.0281E3,1.3E1,1.0075E3,1.0186E3,8E0,4.4E1,2.47E1,1.7752463E-3,1.0266E3,1.24E1,3.7E1,2.37E1,1E-1,-0E0,3.7E1,2.37E1,1.32E1,1.5E1,-0E0,1.32E1,1.6009437E-2,2.072616E-2,-0E0,5E0,1.1E1,1.3411252E-3,7E0,-1.4371712E-2,-0E0,2E0,1.0136E3,1.1E1,1.92E1,1.4705759E-2,-0E0,1.1E1,-0E0,1.1E1,5E0,1.5851721E-2,-0E0,1.2E1,-0E0,9E0,1.0183E3,-0E0,-2.3724472E-2,4.1E1,-0E0,-6.370919E-4,1.7E1,-0E0,6E0,-4.3179602E-3,2E1,-1.4138703E-3,6.709649E-3,2.8E1,-0E0,-0E0,-1.3061157E-2,3.6835086E-3,1.37E1,2.5E1,4.1E1,1.71E1,1.93E1,3.5E1,1.5E1,1.0156E3,1.3204348E-4,4.8E1,9E0,6E0,-0E0,1.0235E3,1.0112E3,7.574418E-3,-0E0,-0E0,-5.2444264E-3,1.3575599E-2,-0E0,3.3E0,-1.5292239E-3,1.0224E3,1.0266E3,6E0,1.0233E3,4E0,-0E0,-0E0,2.44E1,-0E0,1.0277E3,1.0154E3,3.1477944E-3,5.7E1,1.75E1,-0E0,-1.4767046E-2,-1.706221E-2,-0E0,-5.6198826E-3,2.2109693E-3,-0E0,4E0,1.4627855E-3,-9.988693E-3,-1.8364606E-2,-0E0,-0E0,-2.3720864E-2,-1.3730404E-2,-0E0,-0E0,-1.3554657E-2,-1.3576169E-2,-0E0,-1.4294138E-2,-0E0,-9.778169E-3,-0E0,1.04004415E-2,-0E0,-4.9521355E-3,2.5846607E-3,1.0340275E-2,-0E0],"split_indices":[3,5,3,3,5,5,3,8,8,4,8,8,0,5,10,0,8,10,5,10,3,0,6,10,10,4,0,3,0,0,0,0,5,0,0,0,0,4,8,6,10,0,0,4,0,4,0,0,0,4,0,4,8,0,0,5,0,0,6,0,4,0,10,0,0,6,0,0,0,0,10,10,5,10,10,5,5,8,0,5,4,6,0,8,8,0,0,0,0,0,0,3,0,8,8,10,8,4,0,0,10,0,8,8,0,5,10,0,0,0,0,0,0,0,0,0,0,0,0,0,0,0,0,0,0,0,0,0,0,0,0,0,0,0,0,0,0],"split_type":[0,0,0,0,0,0,0,0,0,0,0,0,0,0,0,0,0,0,0,0,0,0,0,0,0,0,0,0,0,0,0,0,0,0,0,0,0,0,0,0,0,0,0,0,0,0,0,0,0,0,0,0,0,0,0,0,0,0,0,0,0,0,0,0,0,0,0,0,0,0,0,0,0,0,0,0,0,0,0,0,0,0,0,0,0,0,0,0,0,0,0,0,0,0,0,0,0,0,0,0,0,0,0,0,0,0,0,0,0,0,0,0,0,0,0,0,0,0,0,0,0,0,0,0,0,0,0,0,0,0,0,0,0,0,0,0,0],"sum_hessian":[5.908292E3,3.5769106E3,2.3313813E3,2.1434988E3,1.4334119E3,8.788396E2,1.4525416E3,1.9234645E3,2.2003432E2,1.1887065E3,2.447053E2,6.5520294E2,2.2363663E2,9.0413855E2,5.4840314E2,4.32839E1,1.8801807E3,1.7140666E2,4.8627663E1,5.6654956E2,6.22157E2,4.3778038E1,2.0092726E2,4.3326566E2,2.219373E2,2.1924559E2,4.391047E0,4.4121902E2,4.629195E2,5.4138446E2,7.0186977E0,1.6783169E3,2.0186372E2,5.0842766E1,1.2056389E2,4.0348E1,8.279662E0,4.1648816E2,1.500614E2,5.578238E2,6.43332E1,1.8614418E2,1.4783078E1,3.8895273E2,4.4312946E1,4.8234142E1,1.7370316E2,2.0763754E2,1.1608042E1,3.9900772E2,4.2211323E1,1.1808529E3,4.9746396E2,1.2082595E0,2.0065546E2,8.632942E1,3.4234467E1,4.6862957E1,3.6962518E2,7.994038E1,7.012102E1,3.5808276E2,1.9974106E2,3.943073E1,2.4902472E1,2.804583E2,1.08494415E2,2.6972336E1,2.1261808E1,9.120472E1,8.2498436E1,2.9369647E2,1.0531125E2,6.862054E2,4.9464752E2,1.7613553E2,3.2132843E2,6.8623245E1,1.770618E1,1.4739848E2,2.2222672E2,4.938828E1,2.0732737E1,1.1737128E2,8.236978E1,2.6147577E2,1.8982525E1,5.255218E0,7.724322E1,2.8904465E2,4.651838E0,9.163235E1,1.3678896E1,2.6690924E2,4.1929614E2,3.152713E2,1.7937622E2,7.703548E1,9.910006E1,8.737266E0,3.1259116E2,2.1225256E1,4.7397987E1,5.0688118E1,9.6710365E1,1.4766008E2,7.4566635E1,2.9112055E0,4.6477074E1,1.11754875E2,5.616401E0,5.0078747E1,3.229104E1,5.179958E0,8.645239E1,1.4897786E2,1.1793139E2,4.1271872E2,6.577443E0,1.20337715E1,3.0323755E2,1.6792783E2,1.1448386E1,1.8295137E1,5.8740337E1,3.0090176E2,1.1689387E1,4.5486816E1,1.9111704E0,1.3388585E1,3.7299534E1,1.3791104E2,9.749032E0,2.9710356E1,4.485628E1,6.778429E1,1.8668106E1],"tree_param":{"num_deleted":"0","num_feature":"16","num_nodes":"137","size_leaf_vector":"1"}},{"base_weights":[1.8610298E-3,-5.6853086E-1,4.9313504E-1,-9.9514395E-1,-1.2927447E-1,4.7099084E-2,9.745886E-1,-1.1825379E0,-2.6743656E-1,-7.675688E-1,8.145312E-2,-2.9011852E-1,5.662371E-1,5.717909E-1,1.1554509E0,-1.5210851E0,-9.3912673E-1,-7.3523104E-1,-0E0,-1.0474494E0,-0E0,-2.206162E-1,3.9766702E-1,-6.084425E-1,3.9959788E-1,6.7024297E-1,-2.7549186E-1,-2.0924269E-1,7.4341553E-1,-0E0,1.1912799E0,-0E0,-1.5285276E0,-1.2122358E0,-6.635369E-1,-0E0,-9.898157E-1,2.904682E-3,-1.4753826E-1,-1.1841067E0,-0E0,3.0233E-1,-1.4868668E-1,-6.26273E-1,1.2727119E-1,2.91371E-1,1.7032582E-2,-7.566244E-1,-0E0,-4.847194E-1,5.895312E-1,9.7604334E-1,3.6604837E-1,-1.0787041E-2,-0E0,-5.773763E-1,2.5213305E-3,7.870335E-1,-0E0,5.425837E-3,-5.0448524E-3,-0E0,1.2054967E0,-0E0,-1.5411887E0,-2.1684548E-2,-0E0,-1.3083877E-1,-8.33265E-1,-0E0,-1.8734856E-2,-3.8242394E-1,1.4525151E-3,-4.593063E-1,-1.4797732E0,-0E0,8.5876295E-3,-7.0776157E-3,-0E0,-7.313188E-1,-0E0,-2.1940662E-2,5.1443744E-1,1.1301595E-2,5.1069623E-1,-2.9529786E-1,-9.620574E-1,9.405273E-3,-2.6358876E-1,-0E0,-8.1680495E-1,1.8198594E-1,9.7992015E-1,1.0393329E0,-0E0,-0E0,5.68371E-1,-0E0,-1.632427E-2,-0E0,8.1944287E-1,2.1422511E-2,-0E0,-2.731448E-2,-0E0,1.9925614E-3,-3.5484654E-1,-0E0,-8.864046E-1,-5.290732E-1,-0E0,-1.6950179E-2,-0E0,-1.5000511E0,-0E0,-0E0,-8.133089E-1,-1.9254954E-1,2.5677216E-1,6.32937E-1,-0E0,-4.117146E-2,3.543499E-1,-0E0,5.494334E-1,1.9252671E-1,-4.7703388E-1,-1.1447414E0,-3.929784E-1,-4.0905538E-1,-0E0,-1.9613089E-2,-0E0,-0E0,6.6267234E-1,1.8288566E-2,-0E0,-0E0,1.0697064E0,1.3203347E-1,-3.0108103E-1,6.492533E-1,-0E0,-0E0,8.600626E-1,-5.651696E-1,-0E0,-1.6094085E-2,-0E0,-7.157864E-1,-0E0,-4.505737E-3,6.3609155E-3,-2.6807692E-2,-0E0,-0E0,-8.4052765E-1,-3.3808878E-1,5.386878E-5,9.882915E-3,-0E0,-0E0,1.2958697E-2,-8.099466E-3,-0E0,9.108589E-3,-0E0,5.878698E-1,-0E0,-0E0,8.704569E-3,-9.538428E-3,-0E0,-1.2599123E0,-2.338994E-1,1.8662815E-3,-7.235281E-1,-9.008596E-3,-0E0,6.0866955E-3,-2.63211E-1,1.3351563E-2,-0E0,-0E0,1.9154036E-2,3.7469694E-1,-0E0,-0E0,-9.311063E-3,6.7934966E-1,-0E0,1.5380992E-2,-0E0,-0E0,-1.4356803E-2,-1.44697E-2,-0E0,-1.6596202E-2,-1.4532713E-3,-0E0,-7.976658E-3,1.0904965E-2,-0E0,-2.2753661E-2,-0E0,-0E0,-8.7887235E-3,-1.6845215E-2,-0E0,5.4263184E-4,-9.866257E-3,9.0791285E-3,-0E0,1.2385914E-2,-0E0],"categories":[],"categories_nodes":[],"categories_segments":[],"categories_sizes":[],"default_left":[0,0,0,1,0,1,1,0,0,1,1,1,1,0,1,0,0,0,0,1,0,1,0,0,1,0,0,1,0,1,0,0,0,0,0,0,0,0,0,0,0,0,1,1,1,0,0,0,0,0,1,0,0,0,0,0,0,0,0,0,0,0,1,0,0,0,0,0,0,0,0,0,0,0,1,0,0,0,0,0,0,0,0,1,0,1,1,0,1,0,1,0,0,0,0,0,1,0,0,0,0,0,0,0,0,0,0,0,0,0,0,0,0,0,0,0,0,1,0,0,0,0,0,0,0,0,0,0,1,1,0,0,0,0,0,0,0,0,0,0,0,0,0,0,1,0,0,0,0,0,0,0,0,0,0,0,0,0,0,0,0,0,0,0,0,0,0,0,0,0,0,0,0,0,0,0,0,0,0,0,0,0,0,0,0,0,0,0,0,1,0,0,0,0,0,0,0,0,0,0,0,0,0,0,0,0,0,0,0,0,0,0,0,0,0],"id":8,"left_children":[1,3,5,7,9,11,13,15,17,19,21,23,25,27,29,31,33,35,37,39,41,43,45,47,49,51,53,55,57,59,61,-1,63,65,67,-1,69,-1,71,73,-1,75,77,79,81,83,-1,85,87,89,91,93,95,-1,-1,97,-1,99,-1,-1,-1,-1,101,-1,103,-1,-1,105,107,-1,-1,109,-1,111,113,-1,-1,-1,-1,115,-1,117,119,121,123,125,127,-1,129,-1,131,133,135,137,-1,139,141,-1,-1,-1,143,-1,-1,-1,-1,-1,145,-1,147,149,-1,-1,151,153,-1,-1,155,157,159,161,-1,163,165,-1,167,169,171,173,175,177,-1,-1,-1,179,181,-1,-1,-1,183,185,187,189,-1,-1,191,193,-1,-1,-1,195,-1,-1,-1,-1,-1,-1,197,199,-1,-1,-1,-1,-1,-1,-1,-1,-1,201,-1,-1,-1,-1,-1,203,205,-1,207,-1,-1,-1,209,-1,-1,-1,-1,211,-1,-1,-1,213,-1,-1,-1,-1,-1,-1,-1,-1,-1,-1,-1,-1,-1,-1,-1,-1,-1,-1,-1,-1,-1,-1,-1,-1,-1],"loss_changes":[1.6529601E3,4.9935547E2,6.732833E2,1.7192456E2,1.8926442E2,2.952173E2,9.111145E1,5.7880493E1,3.6549618E1,8.187262E1,9.926517E1,2.2384396E2,6.322168E1,7.254881E1,3.8548096E1,6.245178E0,2.7821777E1,1.7534416E1,4.9391184E0,3.9081177E1,5.501466E0,7.68862E1,1.8039703E1,6.0398743E1,5.517405E1,4.2224457E1,1.09305725E1,1.5460033E1,1.7011047E1,4.153347E0,2.2833984E1,0E0,4.795471E0,8.174835E0,2.3138748E1,0E0,8.93338E0,0E0,8.860357E0,2.8316193E1,0E0,4.3235E0,4.404336E0,1.2272781E1,1.9923277E1,2.326683E1,0E0,3.9828033E1,2.072431E1,1.4354519E1,3.1203232E1,9.257843E0,2.331799E1,0E0,0E0,1.0431374E1,0E0,1.272377E1,0E0,0E0,0E0,0E0,5.352783E0,0E0,4.849304E0,0E0,0E0,8.231098E0,1.4970779E1,0E0,0E0,7.882806E0,0E0,2.496234E1,6.004242E0,0E0,0E0,0E0,0E0,1.0439468E1,0E0,8.447914E0,6.838064E0,6.904038E0,8.244564E0,2.0321758E1,2.1882385E1,0E0,7.1727204E0,0E0,8.164993E0,1.58281975E1,9.199501E0,6.8540955E0,0E0,4.979527E0,1.44472275E1,0E0,0E0,0E0,1.349472E1,0E0,0E0,0E0,0E0,0E0,6.787936E0,0E0,7.803787E0,1.0323929E1,0E0,0E0,5.326026E0,5.525238E0,0E0,0E0,6.6446915E0,6.876703E0,5.4606886E0,8.479208E0,0E0,6.5451427E0,6.580955E0,0E0,7.521385E0,5.259904E0,7.5718765E0,1.2606689E1,2.4310602E1,3.9695425E0,0E0,0E0,0E0,1.015334E1,3.9529572E0,0E0,0E0,0E0,5.6852417E0,5.012017E0,5.554169E0,5.4958344E0,0E0,0E0,4.5751038E0,5.73715E0,0E0,0E0,0E0,6.1940784E0,0E0,0E0,0E0,0E0,0E0,0E0,4.040474E0,7.5409317E0,0E0,0E0,0E0,0E0,0E0,0E0,0E0,0E0,0E0,6.218445E0,0E0,0E0,0E0,0E0,0E0,6.83432E0,4.6941395E0,0E0,1.4218349E1,0E0,0E0,0E0,1.1079863E1,0E0,0E0,0E0,0E0,3.736198E0,0E0,0E0,0E0,5.1830215E0,0E0,0E0,0E0,0E0,0E0,0E0,0E0,0E0,0E0,0E0,0E0,0E0,0E0,0E0,0E0,0E0,0E0,0E0,0E0,0E0,0E0,0E0,0E0,0E0,0E0],"parents":[2147483647,0,0,1,1,2,2,3,3,4,4,5,5,6,6,7,7,8,8,9,9,10,10,11,11,12,12,13,13,14,14,15,15,16,16,17,17,18,18,19,19,20,20,21,21,22,22,23,23,24,24,25,25,26,26,27,27,28,28,29,29,30,30,32,32,33,33,34,34,36,36,38,38,39,39,41,41,42,42,43,43,44,44,45,45,47,47,48,48,49,49,50,50,51,51,52,52,55,55,57,57,62,62,64,64,67,67,68,68,71,71,73,73,74,74,79,79,81,81,82,82,83,83,84,84,85,85,86,86,88,88,90,90,91,91,92,92,93,93,95,95,96,96,100,100,106,106,108,108,109,109,112,112,113,113,116,116,117,117,118,118,119,119,121,121,122,122,124,124,125,125,126,126,127,127,128,128,129,129,133,133,134,134,138,138,139,139,140,140,141,141,144,144,145,145,149,149,156,156,157,157,167,167,173,173,174,174,176,176,180,180,185,185,189,189],"right_children":[2,4,6,8,10,12,14,16,18,20,22,24,26,28,30,32,34,36,38,40,42,44,46,48,50,52,54,56,58,60,62,-1,64,66,68,-1,70,-1,72,74,-1,76,78,80,82,84,-1,86,88,90,92,94,96,-1,-1,98,-1,100,-1,-1,-1,-1,102,-1,104,-1,-1,106,108,-1,-1,110,-1,112,114,-1,-1,-1,-1,116,-1,118,120,122,124,126,128,-1,130,-1,132,134,136,138,-1,140,142,-1,-1,-1,144,-1,-1,-1,-1,-1,146,-1,148,150,-1,-1,152,154,-1,-1,156,158,160,162,-1,164,166,-1,168,170,172,174,176,178,-1,-1,-1,180,182,-1,-1,-1,184,186,188,190,-1,-1,192,194,-1,-1,-1,196,-1,-1,-1,-1,-1,-1,198,200,-1,-1,-1,-1,-1,-1,-1,-1,-1,202,-1,-1,-1,-1,-1,204,206,-1,208,-1,-1,-1,210,-1,-1,-1,-1,212,-1,-1,-1,214,-1,-1,-1,-1,-1,-1,-1,-1,-1,-1,-1,-1,-1,-1,-1,-1,-1,-1,-1,-1,-1,-1,-1,-1,-1],"split_conditions":[7.4E1,4.3E1,1E0,5E0,5.3E1,4E0,8.6E1,5.8E1,6E1,4E0,4.8E1,3.9E1,1.0246E3,3.3E1,5.3E0,1.36E1,1.21E1,2.04E1,5E0,6.7E1,2.9E1,2E0,7E1,1.85E1,9.8E0,9E0,6.9E0,6E0,3.16E1,1.0176E3,3E0,-0E0,1.0057E3,2.00001E0,2.3E1,-0E0,1.0069E3,2.904682E-3,7E1,1.0123E3,-0E0,2.01E1,5.7E1,1.9E1,3E0,6.5E1,1.7032582E-2,1.0219E3,2.49E1,7E0,8.3E1,2.73E1,4.6E1,-1.0787041E-2,-0E0,2.25E1,2.5213305E-3,6.1E0,-0E0,5.425837E-3,-5.0448524E-3,-0E0,3.16E1,-0E0,2.00001E0,-2.1684548E-2,-0E0,1.019E3,1.0067E3,-0E0,-1.8734856E-2,1.0264E3,1.4525151E-3,4.6E1,1.0303E3,-0E0,8.5876295E-3,-7.0776157E-3,-0E0,1.73E1,-0E0,1E0,2.93E1,7E0,6.2E0,1.8E1,9.3E1,9.405273E-3,8.8E1,-0E0,8.6E1,5.6E1,3.32E1,1.9E1,-0E0,1.0205E3,9.5E1,-0E0,-1.632427E-2,-0E0,2E0,2.1422511E-2,-0E0,-2.731448E-2,-0E0,1.9925614E-3,3.7E1,-0E0,2.25E1,1.92E1,-0E0,-1.6950179E-2,1.65E1,2.00001E0,-0E0,-0E0,1.0046E3,1.96E1,2.13E1,1.79E1,-0E0,5E1,1.4E1,-0E0,1.0311E3,3.8E0,1.0217E3,1.3E1,1.69E1,1.5E1,-0E0,-1.9613089E-2,-0E0,2.42E1,1.0194E3,1.8288566E-2,-0E0,-0E0,1.5E0,8.2E1,1.18E1,3.69E1,-0E0,-0E0,2.21E1,3E1,-0E0,-1.6094085E-2,-0E0,2.4E1,-0E0,-4.505737E-3,6.3609155E-3,-2.6807692E-2,-0E0,-0E0,3.9E1,1.73E1,5.386878E-5,9.882915E-3,-0E0,-0E0,1.2958697E-2,-8.099466E-3,-0E0,9.108589E-3,-0E0,3.9E1,-0E0,-0E0,8.704569E-3,-9.538428E-3,-0E0,1.8E1,1.78E1,1.8662815E-3,1.29E1,-9.008596E-3,-0E0,6.0866955E-3,6E0,1.3351563E-2,-0E0,-0E0,1.9154036E-2,4.1E1,-0E0,-0E0,-9.311063E-3,3.5E1,-0E0,1.5380992E-2,-0E0,-0E0,-1.4356803E-2,-1.44697E-2,-0E0,-1.6596202E-2,-1.4532713E-3,-0E0,-7.976658E-3,1.0904965E-2,-0E0,-2.2753661E-2,-0E0,-0E0,-8.7887235E-3,-1.6845215E-2,-0E0,5.4263184E-4,-9.866257E-3,9.0791285E-3,-0E0,1.2385914E-2,-0E0],"split_indices":[7,5,11,9,7,9,7,7,7,9,5,5,8,5,1,2,1,2,4,5,2,9,5,1,1,4,1,9,2,8,9,0,8,11,2,0,8,0,7,8,0,2,5,1,4,7,0,8,2,4,7,2,5,0,0,2,0,1,0,0,0,0,2,0,11,0,0,8,8,0,0,8,0,7,8,0,0,0,0,2,0,11,2,9,1,2,7,0,7,0,7,5,2,5,0,8,7,0,0,0,6,0,0,0,0,0,5,0,1,1,0,0,1,11,0,0,8,1,2,2,0,5,4,0,8,1,8,6,2,6,0,0,0,2,8,0,0,0,1,7,2,2,0,0,1,5,0,0,0,6,0,0,0,0,0,0,6,2,0,0,0,0,0,0,0,0,0,6,0,0,0,0,0,1,2,0,1,0,0,0,6,0,0,0,0,5,0,0,0,6,0,0,0,0,0,0,0,0,0,0,0,0,0,0,0,0,0,0,0,0,0,0,0,0,0],"split_type":[0,0,0,0,0,0,0,0,0,0,0,0,0,0,0,0,0,0,0,0,0,0,0,0,0,0,0,0,0,0,0,0,0,0,0,0,0,0,0,0,0,0,0,0,0,0,0,0,0,0,0,0,0,0,0,0,0,0,0,0,0,0,0,0,0,0,0,0,0,0,0,0,0,0,0,0,0,0,0,0,0,0,0,0,0,0,0,0,0,0,0,0,0,0,0,0,0,0,0,0,0,0,0,0,0,0,0,0,0,0,0,0,0,0,0,0,0,0,0,0,0,0,0,0,0,0,0,0,0,0,0,0,0,0,0,0,0,0,0,0,0,0,0,0,0,0,0,0,0,0,0,0,0,0,0,0,0,0,0,0,0,0,0,0,0,0,0,0,0,0,0,0,0,0,0,0,0,0,0,0,0,0,0,0,0,0,0,0,0,0,0,0,0,0,0,0,0,0,0,0,0,0,0,0,0,0,0,0,0,0,0,0,0,0,0],"sum_hessian":[5.888453E3,2.7159949E3,3.1724583E3,1.3634867E3,1.3525082E3,1.6600011E3,1.5124572E3,1.0714083E3,2.9207846E2,3.4196133E2,1.0105469E3,9.976669E2,6.623342E2,4.9209753E2,1.0203597E3,4.1888583E2,6.5252246E2,1.0072645E2,1.91352E2,2.5530171E2,8.6659615E1,5.034687E2,5.0707822E2,6.919342E2,3.0573264E2,6.0003235E2,6.2301846E1,7.908814E1,4.130094E2,3.366861E1,9.8669104E2,1.4581777E0,4.1742767E2,3.0068277E2,3.518397E2,3.0112001E1,7.061445E1,8.665323E1,1.0469878E2,2.2626001E2,2.9041702E1,4.129952E1,4.53601E1,2.4185403E2,2.6161465E2,4.4839542E2,5.8682774E1,5.5069934E2,1.412349E2,4.4046547E1,2.616861E2,2.7765918E2,3.223732E2,3.6812763E1,2.548908E1,4.8990215E1,3.0097929E1,3.9527502E2,1.773436E1,2.1587418E1,1.2081192E1,7.5722795E0,9.791188E2,4.9156113E0,4.1251205E2,2.9777206E2,2.910692E0,1.0037455E2,2.5146512E2,2.1653795E0,6.8449066E1,6.878094E1,3.5917843E1,7.896718E1,1.4729283E2,1.1029533E1,3.0269983E1,2.810373E1,1.725637E1,1.9861179E2,4.324225E1,1.7663806E2,8.4976616E1,2.1763777E2,2.3075766E2,1.8776889E2,3.6293045E2,4.0325207E1,1.0090968E2,1.1150018E1,3.289653E1,1.4372241E2,1.1796367E2,2.5269049E2,2.4968674E1,1.2021031E2,2.0216287E2,2.1618093E1,2.737212E1,1.2194106E1,3.8308093E2,9.687445E2,1.0374289E1,4.1080804E2,1.7040148E0,3.06142E1,6.976035E1,1.0934541E1,2.4053058E2,6.1052105E1,7.728828E0,4.0179893E1,3.878729E1,1.4583461E2,1.4582075E0,2.3464409E1,1.7514737E2,1.3053654E2,4.610151E1,7.104149E1,1.3935129E1,1.7119879E2,4.6438984E1,4.9479446E0,2.2580971E2,3.761172E1,1.5015717E2,2.580514E2,1.0487906E2,8.103903E1,1.9870651E1,2.143623E1,1.1460299E1,1.02734085E2,4.0988327E1,1.1331467E2,4.649004E0,8.513197E0,2.441773E2,9.023376E1,2.9976559E1,1.8771417E2,1.4448708E1,1.767509E1,3.6540582E2,4.4888508E1,2.4871843E1,2.3616458E2,4.366008E0,5.061298E1,1.0439125E1,1.481973E1,2.3967558E1,1.4438222E2,1.4524001E0,2.1608987E0,1.7298647E2,9.819096E1,3.234558E1,2.2056746E1,2.4044764E1,4.203478E0,6.6838005E1,2.611229E1,1.450865E2,4.3200874E1,3.2381096E0,2.1820436E2,7.605345E0,1.5677603E1,2.193412E1,1.414157E2,8.741474E0,2.1826837E2,3.9783016E1,3.2833195E1,7.204587E1,6.495966E1,1.607937E1,3.6910255E1,6.582383E1,3.684985E1,4.1384773E0,2.45208E0,2.4172522E2,4.1318523E1,4.891523E1,4.575458E0,2.54011E1,1.8280629E2,4.9078827E0,3.6153067E2,3.8751717E0,1.7867834E1,2.7020676E1,4.6247955E1,4.365027E0,1.4111984E2,3.1866636E1,9.191356E0,8.89996E1,2.1308156E2,5.1228104E0,2.1215387E2,6.114507E0,1.7062183E1,2.2720833E1,5.4261585E1,1.778428E1,2.0851238E1,4.497259E1,3.302333E1,8.295196E0,1.8131711E2,1.4891678E0],"tree_param":{"num_deleted":"0","num_feature":"16","num_nodes":"215","size_leaf_vector":"1"}},{"base_weights":[-0E0,-4.5824578E-1,6.888954E-1,-7.2614735E-1,1.6337954E-1,2.3751351E-1,1.0749553E0,-9.3495667E-1,-0E0,-2.7261322E-2,5.715656E-1,-1.6123809E-1,5.404745E-1,-0E0,1.1098274E0,-1.4505719E0,-7.2380215E-1,-8.706893E-1,3.1713676E-1,-3.6408594E-1,2.36406E-1,-0E0,1.3201003E-2,-4.2880917E-1,3.0458754E-1,-0E0,7.427322E-1,6.396966E-1,1.2026622E0,-1.4826517E0,-1.7317543E-3,-8.4933037E-1,-2.4507293E-1,-1.1244243E0,-0E0,2.74288E-2,5.461046E-1,3.2656468E-4,-5.4744655E-1,4.0833274E-1,-3.0068135E-1,-7.8452176E-1,-9.4259076E-2,4.5455444E-1,-4.4280672E-3,-3.7937018E-1,5.0313216E-2,-0E0,8.086618E-1,8.3732015E-1,-0E0,2.2332773E-2,6.7667735E-1,-0E0,-2.6264766E-2,-5.770472E-1,-1.1282686E0,-4.2740294E-1,2.506806E-1,-1.1477594E0,-0E0,4.25401E-1,-1.3510846E-1,1.0260762E-2,-0E0,-1.0087996E0,-9.755984E-2,-0E0,5.0776273E-1,-4.6738228E-1,-0E0,-8.324899E-1,-0E0,-3.9968348E-1,9.694274E-2,1.1810269E-2,-0E0,-5.920979E-1,-0E0,3.7156007E-1,-0E0,-5.355354E-3,5.475718E-3,8.294392E-1,-0E0,9.153321E-1,-0E0,-0E0,1.3961752E-2,-8.7177503E-1,-3.144679E-1,-1.2164923E0,-3.8022044E-1,1.706172E-3,-5.533251E-1,4.3348944E-1,-0E0,-1.314372E0,-3.5635908E-3,-0E0,1.3574856E-2,-3.0088833E-1,6.731497E-3,-0E0,-2.1786641E-2,-0E0,-3.0921552E-1,5.7718575E-1,-4.714628E-4,-6.5268534E-1,-0E0,-0E0,-8.758166E-1,-0E0,-9.169567E-3,2.5049338E-1,-3.493939E-3,5.957008E-3,-1.09722525E-1,-0E0,-1.2759964E-2,-0E0,9.447795E-3,-0E0,1.5132924E-2,-0E0,1.0104527E0,-9.270599E-1,-0E0,-4.2295867E-1,5.1925634E-3,-1.2331455E0,-0E0,-0E0,-1.157079E-2,-8.9315794E-2,-1.4600241E-2,-0E0,5.562752E-1,-2.5116043E-2,-0E0,-6.9175144E-3,-0E0,8.0204075E-3,-1.9498996E-1,-1.071891E-2,-0E0,-0E0,1.0756953E-2,-0E0,-8.3371955E-1,-1.6121658E-2,-0E0,-0E0,7.15016E-3,-0E0,-7.5057293E-3,-0E0,1.0611209E0,-0E0,-1.7085599E-2,2.195585E-3,-9.930799E-3,-2.187663E-2,-0E0,-7.899411E-3,-0E0,1.1061683E-2,-0E0,-0E0,-6.69711E-3,-0E0,-1.684316E-2,-0E0,1.934975E-2],"categories":[],"categories_nodes":[],"categories_segments":[],"categories_sizes":[],"default_left":[0,1,1,1,1,0,0,0,0,1,0,1,0,0,0,0,1,0,0,0,1,0,0,1,0,0,0,1,0,0,0,1,1,1,0,0,1,0,0,0,0,1,0,0,0,0,0,0,1,0,0,0,0,0,0,0,1,1,0,0,0,0,1,0,0,0,0,0,0,0,0,0,0,0,0,0,0,0,0,0,0,0,0,0,0,0,0,0,0,0,1,0,0,0,0,0,0,0,0,0,0,1,0,0,0,0,1,0,0,0,0,0,1,0,0,0,0,0,0,0,0,0,0,0,0,0,0,0,0,0,0,1,0,0,0,0,0,0,0,0,0,0,0,0,1,0,0,0,0,0,0,0,0,0,0,0,0,0,0,0,0,0,0,0,0,0,0,0,0,0,0,0,0,0,0],"id":9,"left_children":[1,3,5,7,9,11,13,15,17,19,21,23,25,-1,27,29,31,33,35,37,39,-1,-1,41,43,45,47,49,51,53,-1,55,57,59,-1,61,63,-1,65,67,69,71,73,75,-1,77,79,81,83,85,-1,-1,87,-1,-1,89,91,93,95,97,-1,99,101,-1,-1,103,105,-1,107,109,-1,111,-1,113,115,-1,117,119,-1,121,-1,-1,-1,123,-1,125,-1,-1,-1,127,129,131,133,-1,135,137,-1,139,-1,-1,-1,141,-1,-1,-1,143,145,147,-1,149,-1,-1,151,-1,-1,153,-1,-1,155,-1,-1,-1,-1,-1,-1,-1,157,159,-1,161,-1,163,-1,-1,-1,165,-1,-1,167,-1,-1,-1,-1,-1,169,-1,-1,-1,-1,-1,171,-1,-1,-1,-1,-1,-1,-1,173,-1,-1,-1,-1,-1,-1,-1,-1,-1,-1,-1,-1,-1,-1,-1,-1],"loss_changes":[1.8555171E3,5.9477527E2,3.9533545E2,3.804259E2,8.7450966E1,1.3677505E2,5.3192993E1,1.8445581E2,1.5304466E2,6.510327E1,3.5175743E1,6.015145E1,7.466684E1,0E0,3.1874268E1,8.605835E0,7.2868774E1,4.163247E1,2.2414597E1,2.7967468E1,3.7718727E1,0E0,0E0,2.8790924E1,1.6033659E1,5.5296683E0,2.558133E1,3.3131508E1,1.0270508E1,6.018921E0,0E0,6.342224E1,3.0606544E1,4.817566E0,0E0,1.636328E1,7.174362E0,0E0,3.9275635E1,1.6498226E1,7.1968317E0,8.151718E0,1.3478474E1,9.649256E0,0E0,5.6465063E0,5.585854E0,4.4759827E0,7.589966E0,1.585965E1,0E0,0E0,5.9845886E0,0E0,0E0,3.262709E1,1.68797E1,2.0547646E1,6.971794E0,3.7118835E0,0E0,1.4205227E1,1.1692618E1,0E0,0E0,1.3964745E1,3.9478035E0,0E0,1.4804749E1,7.6576204E0,0E0,6.3534164E0,0E0,5.189128E0,5.235055E0,0E0,3.9678469E0,3.9281693E0,0E0,3.945983E0,0E0,0E0,0E0,4.611603E0,0E0,1.3704315E1,0E0,0E0,0E0,9.681335E0,2.3909538E1,1.0456116E1,9.647059E0,0E0,1.8360222E1,5.740464E0,0E0,1.0293793E1,0E0,0E0,0E0,4.7636786E0,0E0,0E0,0E0,9.411379E0,4.587953E0,5.8900223E0,0E0,4.2364464E0,0E0,0E0,4.0711517E0,0E0,0E0,6.2474804E0,0E0,0E0,3.95541E0,0E0,0E0,0E0,0E0,0E0,0E0,0E0,8.242889E0,1.0455139E1,0E0,2.7107094E1,0E0,5.5217285E0,0E0,0E0,0E0,5.4938755E0,0E0,0E0,4.1239777E0,0E0,0E0,0E0,0E0,0E0,5.52266E0,0E0,0E0,0E0,0E0,0E0,5.9230614E0,0E0,0E0,0E0,0E0,0E0,0E0,0E0,6.5930023E0,0E0,0E0,0E0,0E0,0E0,0E0,0E0,0E0,0E0,0E0,0E0,0E0,0E0,0E0,0E0,0E0],"parents":[2147483647,0,0,1,1,2,2,3,3,4,4,5,5,6,6,7,7,8,8,9,9,10,10,11,11,12,12,14,14,15,15,16,16,17,17,18,18,19,19,20,20,23,23,24,24,25,25,26,26,27,27,28,28,29,29,31,31,32,32,33,33,35,35,36,36,38,38,39,39,40,40,41,41,42,42,43,43,45,45,46,46,47,47,48,48,49,49,52,52,55,55,56,56,57,57,58,58,59,59,61,61,62,62,65,65,66,66,68,68,69,69,71,71,73,73,74,74,76,76,77,77,79,79,83,83,85,85,89,89,90,90,91,91,92,92,94,94,95,95,97,97,101,101,105,105,106,106,107,107,109,109,112,112,115,115,118,118,126,126,127,127,129,129,131,131,135,135,138,138,144,144,150,150,158,158],"right_children":[2,4,6,8,10,12,14,16,18,20,22,24,26,-1,28,30,32,34,36,38,40,-1,-1,42,44,46,48,50,52,54,-1,56,58,60,-1,62,64,-1,66,68,70,72,74,76,-1,78,80,82,84,86,-1,-1,88,-1,-1,90,92,94,96,98,-1,100,102,-1,-1,104,106,-1,108,110,-1,112,-1,114,116,-1,118,120,-1,122,-1,-1,-1,124,